svm_type c_svc
kernel_type rbf
gamma 4
nr_class 10
total_sv 1675
rho -0.0533815 -0.140019 -0.107017 -0.335114 -0.238075 -0.237953 -0.102343 -0.137296 -0.240832 -0.102261 -0.0518306 -0.292997 -0.178417 -0.197492 -0.0488595 -0.0781809 -0.181754 0.0389444 -0.213441 -0.1133 -0.0987142 0.0765924 -0.00756123 -0.0598204 -0.245884 -0.139802 -0.15168 0.0117983 -0.0309625 -0.128321 0.121928 0.116574 0.254526 0.226352 0.132696 -0.00457492 0.160773 0.097731 0.0280303 0.142178 0.131424 0.00257761 -0.0599343 -0.129452 -0.0770091
label 2 3 4 5 1 9 7 10 6 8
nr_sv 174 183 174 161 126 166 154 189 170 178
SV
0.9378693149906996 0.8524138490356401 0.8852970053534477 0.6590463342524187 0.755165809463896 0.7551522707611166 0.8897108801699793 0.8551575507617134 0.752895966047504 1:-0.55006 2:-0.470221 3:-0.514987 4:-0.427346 5:-0.534667 6:-0.50736 7:-0.450178 8:-0.484169 9:-0.488172 10:-0.502796 11:-0.56895 12:-0.535674 13:-0.524395 14:-0.671078 15:0.729491 16:0.471937 17:-0.334292 18:-0.191769 19:-0.348951 20:-0.181294 21:-0.39428 22:0.367311 23:0.213512 24:-0.0364355 25:-0.0187278 26:-0.809645 27:-0.634665 28:-0.908401 29:0.648008 30:0.211644 31:0.785288 
0.9459621636973277 0.8598178388082288 0.8924870652900571 0.6644913168774687 0.761425137580827 0.7619965487507037 0.897145738991017 0.8617965877458784 0.7586252291687978 1:-0.731087 2:-0.666116 3:-0.730304 4:-0.616286 5:-0.727576 6:-0.785102 7:-0.614258 8:-0.639257 9:-0.730502 10:-0.812784 11:-0.660073 12:-0.245067 13:-0.857943 14:-0.375932 15:0.676782 16:0.466358 17:-0.110115 18:0.234466 19:-0.20877 20:-0.566499 21:-0.333442 22:0.656458 23:0.41681 24:0.256546 25:0.0629874 26:-0.815986 27:-0.422051 28:-0.490833 29:0.6572 30:-0.196786 31:0.58429 
0.938551966135907 0.8530036576079745 0.8861239523426343 0.6595645848183929 0.7556543956787718 0.7560812652775172 0.8905728737431804 0.8559879577047723 0.7531396318988317 1:-0.514118 2:-0.399992 3:-0.499406 4:-0.340144 5:-0.416422 6:-0.526555 7:-0.366071 8:-0.337859 9:-0.379978 10:-0.531542 11:-0.565166 12:-0.228646 13:-0.575345 14:-1 15:0.19855 16:0.469302 17:-0.0430041 18:-0.27166 19:-0.126466 20:-0.403984 21:-0.536842 22:-0.171923 23:0.182738 24:0.22638 25:-0.191341 26:-0.976493 27:-0.739751 28:-0.836097 29:0.651929 30:0.208034 31:0.804749 
0.9464769762423149 0.8602013500190466 0.8931892871992363 0.6649556278504947 0.7617670723622262 0.7620560763316443 0.8975686423409099 0.862791297773463 0.7592689216096298 1:-0.822164 2:-0.780221 3:-0.751097 4:-0.771321 5:-0.905267 6:-0.688675 7:-0.814526 8:-1 9:-0.846388 10:-0.646472 11:-0.897151 12:-0.859201 13:-0.664371 14:-0.363825 15:-0.13958 16:0.536763 17:-0.510754 18:0.152464 19:-1 20:0.549976 21:-0.403901 22:-0.685187 23:0.694681 24:-0.443186 25:0.603274 26:0.588932 27:-0.193078 28:-0.513199 29:1 30:1 31:0.860604 
0.9465554846179363 0.8596323327608747 0.8933215422249372 0.6649323802111275 0.7617513889088851 0.762055863473424 0.8978816215875477 0.862984862684291 0.7592305852101129 1:-0.91744 2:-0.849308 3:-0.860164 4:-0.801945 5:-0.892524 6:-0.846343 7:-0.812843 8:-0.83719 9:-0.854606 10:-0.841782 11:-0.868701 12:-0.366883 13:-0.894009 14:-0.515872 15:0.541697 16:0.316839 17:-0.398723 18:0.686312 19:-0.511959 20:0.0116467 21:-0.754596 22:1 23:0.532621 24:-0.320265 25:0.675818 26:-0.472658 27:0.442996 28:-0.797744 29:0.630955 30:0.363695 31:0.857251 
0.9465123184912086 0.8600349342632356 0.8931206197196443 0.6643892934557639 0.762308164070081 0.7621990847366716 0.8979650207587782 0.8629751950165483 0.7593361299332758 1:-1 2:-0.91453 3:-1 4:-0.856146 5:-0.947374 6:-1 7:-0.856763 8:-0.851406 9:-0.884681 10:-0.968931 11:-0.951225 12:0.0189542 13:-0.939124 14:-0.520041 15:0.243984 16:0.401003 17:0.0228839 18:1 19:0.0995379 20:0.223167 21:-1 22:0.378334 23:1 24:1 25:1 26:-0.820001 27:1 28:0.603453 29:-1 30:-1 31:-1 
0.5228500268946764 0.4785891104571941 0.4919368794107075 0.3776361282871576 0.4230862798505134 0.4131575159593213 1.260848509116938 0.4848953290990499 0.4205720914345138 1:-0.512564 2:-0.350573 3:-0.343262 4:-0.235214 5:-0.395657 6:-0.317366 7:-0.23997 8:-0.427465 9:-0.486621 10:-0.37414 11:-0.498919 12:-0.414086 13:-0.571151 14:-0.211281 15:0.146552 16:0.193113 17:0.0219397 18:-0.23284 19:-0.514295 20:-0.140768 21:-0.475831 22:0.0341577 23:0.0570366 24:-0.486945 25:-0.0500831 26:-0.299854 27:-0.730204 28:-0.971026 29:-0.860322 30:-0.751261 31:-0.816573 
0.1409636364080525 0.103711511079895 0.2064389303878978 0.01815767086998957 0.1939187294021822 0.3095184012466025 0 0.1126919158725684 0.1079872115611252 1:-0.350418 2:-0.153796 3:-0.265764 4:-0.05069 5:-0.246386 6:-0.328789 7:-0.0987582 8:-0.307553 9:-0.38966 10:-0.434249 11:-0.531087 12:-0.291668 13:-0.592819 14:-0.217032 15:-0.0436487 16:0.262132 17:0.119529 18:-0.566441 19:-0.228972 20:-0.464062 21:-0.373961 22:-0.154324 23:0.0533425 24:-0.221593 25:-0.497411 26:-0.75129 27:-0.877552 28:-0.994103 29:-0.858743 30:-0.702794 31:-0.817085 
0.03231684219645831 0.04481107286790547 0.03139607679017946 0.03119966028451564 0 0 0 0 0 1:-0.358318 2:-0.114293 3:-0.308903 4:0.0379759 5:-0.197248 6:-0.387232 7:0.00870058 8:-0.204347 9:-0.334875 10:-0.488291 11:-0.485948 12:-0.137742 13:-0.61566 14:-0.401287 15:-0.111029 16:0.344253 17:0.186476 18:-0.507605 19:-0.109691 20:-0.487563 21:-0.509216 22:-0.204109 23:0.143013 24:-0.116845 25:-0.474259 26:-0.870969 27:-0.733526 28:-0.99131 29:-0.858412 30:-0.699435 31:-0.817272 
0.4583364313395419 0.4176867676002993 0.5164137195626528 0.3231070661819362 0.3647658766276998 0.9169601395399088 0.4120407912544696 0.3433522376355063 0.3365052076354282 1:-0.537457 2:-0.461883 3:-0.40935 4:-0.4309 5:-0.504225 6:-0.436952 7:-0.45686 8:-0.597004 9:-0.592071 10:-0.520983 11:-0.639087 12:-0.278367 13:-0.710109 14:0.132195 15:-0.312509 16:0.300104 17:0.0906928 18:-0.381536 19:-0.395853 20:-0.378008 21:-0.121227 22:-0.472563 23:0.244463 24:-0.342435 25:-0.313948 26:-0.513226 27:-0.752138 28:-0.884741 29:-0.845892 30:-0.522627 31:-0.813097 
0.3764612031318226 0.339794941381619 0.4140182492081518 0.3460212502554044 0.3961541447787225 0.5869332628879967 0.3974821593434749 0.4806044469967972 0.4165598843293712 1:-0.483688 2:-0.326184 3:-0.389144 4:-0.259869 5:-0.392278 6:-0.43811 7:-0.302769 8:-0.454235 9:-0.521566 10:-0.526614 11:-0.655684 12:-0.245817 13:-0.688349 14:-0.0798839 15:-0.0485079 16:0.168465 17:0.142536 18:-0.506332 19:-0.301035 20:-0.426406 21:-0.326899 22:-0.168854 23:0.00613303 24:-0.204992 25:-0.431073 26:-0.658766 27:-0.922733 28:-0.995193 29:-0.858701 30:-0.702123 31:-0.817059 
0 0 0 0.01838815234846768 0.1175768192768201 0 0.111237658068072 0 0 1:-0.419375 2:-0.233541 3:-0.325939 4:-0.138685 5:-0.315527 6:-0.38059 7:-0.174721 8:-0.379486 9:-0.453572 10:-0.476479 11:-0.578837 12:-0.288146 13:-0.642488 14:-0.126508 15:-0.0976588 16:0.226561 17:0.135094 18:-0.516154 19:-0.281906 20:-0.444244 21:-0.338782 22:-0.204267 23:0.0495539 24:-0.208207 25:-0.449999 26:-0.68465 27:-0.890032 28:-0.993462 29:-0.858739 30:-0.701265 31:-0.816973 
0 0 0 0 0 0 0.4827253983793156 0 0 1:-0.403558 2:-0.15788 3:-0.280143 4:-0.010028 5:-0.201124 6:-0.320576 7:-0.0323949 8:-0.214187 9:-0.343484 10:-0.412312 11:-0.538769 12:-0.262538 13:-0.615114 14:-0.324935 15:0.131645 16:0.185548 17:0.125463 18:-0.494915 19:-0.245568 20:-0.422564 21:-0.488282 22:-0.0156023 23:-0.00596093 24:-0.222429 25:-0.420756 26:-0.731151 27:-0.85665 28:-0.979685 29:-0.85798 30:-0.696492 31:-0.817486 
0.3832056350472807 0.3121410400051203 0.3509859972015064 0.2358791790205402 0.3946889995815742 0.4232215866281734 0.325600227189792 0.3480696380769311 0.3618304403001287 1:-0.258503 2:-0.0037515 3:-0.0901644 4:0.172953 5:-0.0566111 6:-0.117551 7:0.154723 8:-0.097146 9:-0.207756 10:-0.218328 11:-0.357053 12:-0.442641 13:-0.488761 14:-0.403486 15:0.111031 16:0.265102 17:0.0610124 18:-0.526612 19:-0.271989 20:-0.443505 21:-0.440815 22:-0.0580117 23:0.0153322 24:-0.281114 25:-0.456494 26:-0.697803 27:-0.862809 28:-0.986395 29:-0.858746 30:-0.710604 31:-0.817551 
0.1127258536380419 0.141827593286786 0.104102052271061 0.009343046290398466 0 0.1051615428269704 0 0.1324159903761927 0.2720288220235346 1:-0.296052 2:-0.0243487 3:-0.174567 4:0.13451 5:-0.0955203 6:-0.233292 7:0.096184 8:-0.125465 9:-0.276956 10:-0.339851 11:-0.503562 12:-0.34162 13:-0.565657 14:-0.369983 15:0.194573 16:0.128745 17:0.139777 18:-0.611665 19:-0.227907 20:-0.49651 21:-0.443881 22:0.00107251 23:-0.0935647 24:-0.183706 25:-0.550175 26:-0.752509 27:-0.921541 28:-0.975773 29:-0.857929 30:-0.686892 31:-0.817103 
0.5475024217614451 0.4950300865721552 0.5322950665425856 0.3846689413571405 0.4372833610183799 0.4238493807331592 0.5035928156889724 0.4845097738866057 0.4368020140065295 1:-0.687656 2:-0.547675 3:-0.461346 4:-0.473078 5:-0.471414 6:-0.39833 7:-0.477207 8:-0.505708 9:-0.501515 10:-0.427668 11:-0.714918 12:-0.210886 13:-0.71203 14:-0.0663907 15:-0.043117 16:0.265817 17:0.0374072 18:-0.136455 19:-0.528074 20:-0.0296381 21:-0.443834 22:-0.191019 23:0.385917 24:-0.655551 25:0.0914295 26:-0.272179 27:-0.442235 28:-0.887754 29:-0.845661 30:-0.617518 31:-0.799174 
0.02337389105009083 0.02166692422868609 0.08320674114711829 0.05006725412182305 0.04217396385205163 0.1318930601444046 0 0.03966665077914771 0.04742893819345363 1:-0.715451 2:-0.576841 3:-0.636296 4:-0.525711 5:-0.573248 6:-0.658184 7:-0.547721 8:-0.580595 9:-0.638778 10:-0.71058 11:-0.819596 12:0.0131913 13:-0.81546 14:-0.0609929 15:-0.0808861 16:0.185553 17:0.175399 18:-0.282538 19:-0.190918 20:-0.274132 21:-0.461594 22:-0.268417 23:0.221278 24:-0.136826 25:-0.175706 26:-0.792762 27:-0.658587 28:-0.995184 29:-0.858768 30:-0.700139 31:-0.817019 
0.9358292892287683 0.8503248706393979 0.8829538712647745 0.6569752235417883 0.7537729278544885 0.753408372465562 0.8875490582349669 0.8527776979799473 0.7508197810053567 1:-0.698152 2:-0.693788 3:-0.583858 4:-0.634871 5:-0.813043 6:-0.516368 7:-0.59361 8:-0.844822 9:-0.83988 10:-0.509512 11:-0.526298 12:-0.482769 13:-0.555822 14:0.380095 15:-0.303541 16:0.15991 17:0.166782 18:0.303672 19:-1 20:0.484201 21:0.32457 22:-0.659818 23:0.134389 24:-0.170117 25:0.742041 26:0.996702 27:-0.705969 28:-0.745365 29:-0.812167 30:0.0207978 31:-0.824878 
0.8619351988613518 0.7833303346400515 0.8024685294336886 0.6058033491840882 0.6955692129857614 0.7948973939092623 0.8204729332505651 0.8277545311852598 0.6926685674783669 1:-0.592903 2:-0.508346 3:-0.494315 4:-0.459629 5:-0.559237 6:-0.483699 7:-0.464722 8:-0.637775 9:-0.586156 10:-0.52376 11:-0.627108 12:-0.220237 13:-0.613814 14:0.150465 15:-0.475887 16:0.403816 17:0.152616 18:-0.235575 19:-0.395673 20:-0.0368204 21:-0.0941967 22:-0.742618 23:0.506326 24:-0.200393 25:0.0200446 26:-0.512749 27:-0.16972 28:-0.791659 29:-0.801068 30:-0.362781 31:-0.828794 
0.9360628489702425 0.8508250898542508 0.8833631358611886 0.6576681957925289 0.7540505449361551 0.753787362608103 0.8878972195640198 0.8534693880583575 0.7509666278186234 1:-0.699909 2:-0.588112 3:-0.588998 4:-0.477764 5:-0.698367 6:-0.525643 7:-0.432413 8:-0.717764 9:-0.728188 10:-0.532266 11:-0.52121 12:-0.43707 13:-0.566767 14:0.0452557 15:-0.114574 16:0.200794 17:0.0957835 18:0.322165 19:-0.928905 20:0.458027 21:-0.259878 22:-0.322278 23:0.241091 24:-0.447899 25:0.736313 26:0.764301 27:-0.758895 28:-0.915702 29:-0.851603 30:-0.5089 31:-0.811867 
0.9308641228627927 0.8457186210575316 0.8781468021014398 0.6538953875898117 0.749474892075737 0.7491861699083235 0.8822392297772804 0.8484404283335735 0.7465811399051173 1:-0.931995 2:-0.781144 3:-0.781358 4:-0.707114 5:-0.71274 6:-0.715924 7:-0.679083 8:-0.686409 9:-0.703308 10:-0.715742 11:-0.905136 12:-0.00539273 13:-0.830684 14:0.00690551 15:-0.020705 16:0.203913 17:0.114227 18:0.354239 19:-0.610422 20:0.531147 21:-0.582123 22:-0.18865 23:0.841905 24:-0.714472 25:0.808422 26:-0.0938974 27:0.642418 28:-0.838518 29:-0.802903 30:-0.408808 31:-0.81107 
0.898191230257354 0.8161513168360714 0.8476753085311836 0.6314750196367924 0.7232708870097494 0.7230853326323526 0.8519417247694858 0.8187366632170571 0.7205158786620537 1:-0.91742 2:-0.804551 3:-0.784409 4:-0.735762 5:-0.761608 6:-0.742854 7:-0.699996 8:-0.73063 9:-0.778891 10:-0.757076 11:-0.827873 12:-0.0294718 13:-0.868847 14:0.0665139 15:-0.00909989 16:0.120886 17:0.132394 18:0.587257 19:-0.646772 20:0.216139 21:-0.320102 22:-0.13789 23:0.299636 24:-0.518589 25:0.746473 26:0.0277254 27:-0.640117 28:-0.938605 29:-0.852513 30:-0.612383 31:-0.816542 
0.5965587380646973 0.5431568613246486 0.5978654982533907 0.4228699779805147 0.4819537930254758 0.4869510690543973 0.5742751699366065 0.54701275189605 0.4814128795947769 1:-0.777475 2:-0.585457 3:-0.571221 4:-0.475791 5:-0.467147 6:-0.520682 7:-0.457992 8:-0.428462 9:-0.493013 10:-0.550694 11:-0.778165 12:-0.0362275 13:-0.807053 14:-0.150996 15:0.121364 16:0.192883 17:0.0884391 18:0.0256205 19:-0.362477 20:-0.0659752 21:-0.740056 22:0.171125 23:0.338242 24:-0.578354 25:0.174868 26:-0.562117 27:-0.0608371 28:-0.962076 29:-0.862849 30:-0.751853 31:-0.820098 
0.9441156968010291 0.8579268576442287 0.8909393270519129 0.6630604163474524 0.7600290332634209 0.7602247021549439 0.8952335517536224 0.8605614554119256 0.7572143524083504 1:-0.939379 2:-0.899849 3:-0.885152 4:-0.862533 5:-0.946049 6:-0.85468 7:-0.823118 8:-0.927097 9:-0.951664 10:-0.854688 11:-0.841279 12:-0.110298 13:-0.856912 14:0.248031 15:-0.165866 16:0.072049 17:0.203405 18:0.686928 19:-0.994533 20:0.411501 21:0.449743 22:-0.8384 23:0.0382881 24:0.129001 25:0.948503 26:1 27:-0.264935 28:-0.751558 29:-0.795303 30:-0.123219 31:-0.859991 
0.9413753540631147 0.8550211039717999 0.8880117803574572 0.6615659636552628 0.8052323563555839 0.7624753123604494 0.8932228833329885 0.882110937163025 0.7551746538719218 1:-0.765528 2:-0.769207 3:-0.750348 4:-0.752164 5:-0.857546 6:-0.748083 7:-0.743868 8:-0.869502 9:-0.876877 10:-0.763385 11:-0.728938 12:-0.148102 13:-0.747651 14:0.214275 15:-0.231556 16:0.12508 17:0.260335 18:0.106979 19:-0.566921 20:0.114351 21:0.0803872 22:-0.631619 23:0.10083 24:0.275241 25:0.354215 26:-0.190537 27:-0.471281 28:-0.929905 29:-0.861992 30:-0.704207 31:-0.828042 
0.1635334651603119 0.1579961505344184 0.1525239099342051 0.1213641113661597 0.1337470988319607 0.1375528480182508 0.2047099177340495 0.1443622330141337 0.156816723835428 1:-0.451572 2:-0.166933 3:-0.544716 4:0.0282431 5:-0.294343 6:-0.612965 7:0.0401438 8:-0.186013 9:-0.39793 10:-0.665277 11:-0.515914 12:0.234397 13:-0.600767 14:-0.432666 15:-0.104958 16:0.340789 17:0.351259 18:-0.383651 19:0.193161 20:-0.319375 21:-0.624726 22:-0.216988 23:0.215269 24:0.211636 25:-0.274779 26:-0.99987 27:-0.528657 28:-0.95745 29:-0.86266 30:-0.696783 31:-0.816386 
0.5224504787889233 0.4455445330340524 0.4899431887107683 0.3520230476512163 0.4587556158831922 0.4155529691339832 0.5957692921799997 0.5517393335868702 0.5192337843295842 1:-0.385485 2:-0.137669 3:-0.370617 4:0.0017657 5:-0.206758 6:-0.401291 7:-0.0362807 8:-0.199331 9:-0.273958 10:-0.453207 11:-0.565103 12:0.0225676 13:-0.467987 14:-0.356725 15:-0.219248 16:0.36635 17:0.284284 18:-0.552415 19:0.0121403 20:-0.216561 21:-0.498406 22:-0.293091 23:0.187537 24:0.0492341 25:-0.316676 26:-0.94276 27:-0.633815 28:-0.994979 29:-0.858675 30:-0.695166 31:-0.816871 
0.1893729230039215 0.1687352304113466 0.9507535958740365 0.1195523660197271 0.1545237625734085 0.2268104354805063 0.9818396744064659 0.2886815109863184 0.2530363542112044 1:-0.579634 2:-0.438112 3:-0.554348 4:-0.395492 5:-0.451863 6:-0.610835 7:-0.443923 8:-0.459645 9:-0.544473 10:-0.670872 11:-0.769545 12:0.125446 13:-0.74791 14:-0.0746029 15:-0.114453 16:0.153315 17:0.267578 18:-0.500815 19:0.0563919 20:-0.384124 21:-0.372577 22:-0.263907 23:0.0308924 24:0.117056 25:-0.398104 26:-0.974166 27:-0.829523 28:-0.990168 29:-0.858871 30:-0.692998 31:-0.817236 
1.084713711146041 1.121938532135404 0.8946675853432149 0.7317127215653102 0.8196697474250201 0.7642323356948655 0.9788658849444041 0.9067216354557985 1.231142008263242 1:-0.027868 2:0.113216 3:-0.181974 4:0.224072 5:-0.0272511 6:-0.167475 7:0.160213 8:-0.00499813 9:-0.09321 10:-0.283135 11:-0.143688 12:0.286237 13:0.120687 14:-0.237534 15:-0.227661 16:-0.255974 17:-0.124672 18:-0.636233 19:0.217841 20:-0.126152 21:-0.274957 22:-0.21282 23:-0.337529 24:-0.384503 25:-0.310247 26:-0.963694 27:-0.989003 28:-0.942757 29:-0.85794 30:-0.688146 31:-0.816178 
0.2556412337582223 0.2320017843739515 0.2398031851947494 0.18078571820681 0.2054784928582598 0.2062262992484201 0.2719391460685537 0.23288400755125 0.1858076852557338 1:-0.363832 2:-0.0078586 3:-0.525536 4:0.279308 5:-0.244298 6:-0.584782 7:0.340974 8:-0.100093 9:-0.352055 10:-0.622019 11:-0.349312 12:0.185717 13:-0.467854 14:-0.660365 15:-0.124631 16:0.314338 17:0.469443 18:-0.353629 19:0.153012 20:-0.255423 21:-0.700482 22:-0.215129 23:0.115362 24:0.33823 25:-0.210387 26:-0.997923 27:-0.578389 28:-0.895809 29:-0.87292 30:-0.685219 31:-0.812589 
0.3975742741307859 0.3641254195112248 0.3793588899655031 0.2733613042852313 0.3069770206275164 0.3089168940352421 0.3454841764143546 0.3563761841132145 0.3088948909081645 1:-0.484913 2:-0.247914 3:-0.398512 4:-0.0851212 5:-0.253222 6:-0.408883 7:-0.0786956 8:-0.209574 9:-0.29342 10:-0.46596 11:-0.510825 12:-0.0214244 13:-0.562045 14:-0.342538 15:-0.0304006 16:0.485816 17:0.158355 18:-0.310419 19:-0.0707165 20:-0.183169 21:-0.579278 22:-0.151137 23:0.452238 24:-0.171393 25:-0.131412 26:-0.9029 27:-0.255878 28:-0.998941 29:-0.858635 30:-0.69624 31:-0.817028 
0 0.01061320163496581 0.3000803771139969 0.02639732487142045 0 0.04394986481968906 1.008690456133089 0 0.3073283026537056 1:-0.48867 2:-0.30419 3:-0.536569 4:-0.19365 5:-0.393644 6:-0.623836 7:-0.209601 8:-0.349549 9:-0.519027 10:-0.698168 11:-0.56122 12:0.140277 13:-0.712757 14:-0.17824 15:-0.0599662 16:0.187613 17:0.264086 18:-0.370394 19:0.095401 20:-0.465247 21:-0.424375 22:-0.180767 23:0.0355503 24:0.056416 25:-0.366876 26:-0.979333 27:-0.853494 28:-0.985643 29:-0.859051 30:-0.69265 31:-0.816842 
0.1724304575146627 0.157109589735132 0.1451597436672689 0.1216937050880194 0.1388907362291353 0.1440623858613796 0.1312283170026937 0.1571214845748155 0.1491971758749659 1:-0.665455 2:-0.478371 3:-0.624164 4:-0.351339 5:-0.483614 6:-0.674027 7:-0.331716 8:-0.413122 9:-0.560266 10:-0.737253 11:-0.622933 12:0.118163 13:-0.823517 14:-0.201796 15:0.0138647 16:0.320693 17:0.198553 18:-0.0188883 19:0.0153967 20:-0.410939 21:-0.637303 22:-0.0945721 23:0.47531 24:-0.0549264 25:-0.0937629 26:-0.908122 27:-0.162792 28:-0.995862 29:-0.858789 30:-0.696509 31:-0.817141 
0.2519550440167168 0.2328763380374115 0.4133269213159376 0.1687649349631511 0.177710432866551 0.2366952658968317 0 0.2573059912304306 0.2095186112103312 1:-0.459504 2:-0.294839 3:-0.419331 4:-0.223358 5:-0.335275 6:-0.504744 7:-0.276279 8:-0.362111 9:-0.451502 10:-0.6045 11:-0.638434 12:0.00443924 13:-0.72931 14:-0.184141 15:-0.175103 16:0.333288 17:0.182441 18:-0.524354 19:-0.0325011 20:-0.53865 21:-0.410236 22:-0.283649 23:0.212972 24:-0.120691 25:-0.520847 26:-0.926555 27:-0.68863 28:-0.996132 29:-0.858651 30:-0.696583 31:-0.816937 
0.2588631038343754 0.2371959111215863 0.4264670194361302 0.1518573908590657 0.2009681669277596 0.1355211573156898 0.1641599067700217 0.2215726076310993 0.177914067601086 1:-0.666116 2:-0.495863 3:-0.60564 4:-0.406087 5:-0.50682 6:-0.657652 7:-0.415897 8:-0.473546 9:-0.603713 10:-0.732979 11:-0.719794 12:0.0340174 13:-0.844969 14:-0.161406 15:0.0778538 16:0.206268 17:0.148927 18:-0.20983 19:-0.114259 20:-0.470665 21:-0.574544 22:0.00930115 23:0.212143 24:-0.229436 25:-0.263041 26:-0.842263 27:-0.59055 28:-0.989835 29:-0.858201 30:-0.691742 31:-0.817136 
0.3240388806836618 0.2889380170130618 0.3026570800921264 0.2263662990271835 0.254010426076496 0.2465942957782909 0.7091648556861454 0.3012075477636735 0.1896293909498244 1:-0.632919 2:-0.477895 3:-0.671127 4:-0.390254 5:-0.530319 6:-0.732219 7:-0.40087 8:-0.483855 9:-0.614573 10:-0.774385 11:-0.666379 12:0.208356 13:-0.785672 14:-0.15542 15:-0.145231 16:0.226773 17:0.32072 18:-0.199547 19:0.156695 20:-0.373355 21:-0.525396 22:-0.331379 23:0.218451 24:0.327276 25:-0.18879 26:-0.983608 27:-0.471566 28:-0.964826 29:-0.860131 30:-0.701488 31:-0.820781 
0.2191696044485745 0.1999236913654064 0.1899097377703627 0.1566399335669777 0.1782860441897186 0.1538395054066095 0.2532092443793876 0.227847851554477 0.1541578712185835 1:-0.547904 2:-0.38989 3:-0.541299 4:-0.302691 5:-0.447746 6:-0.617598 7:-0.326476 8:-0.450388 9:-0.542491 10:-0.697134 11:-0.619603 12:0.0534997 13:-0.765851 14:-0.174162 15:-0.270336 16:0.357601 17:0.208425 18:-0.32984 19:-0.0191209 20:-0.479971 21:-0.466051 22:-0.433357 23:0.351199 24:-0.0522659 25:-0.349893 26:-0.92488 27:-0.381748 28:-0.991204 29:-0.858433 30:-0.6952 31:-0.816552 
0.2166709932548033 0.1974120872343512 0.211037779808793 0.1524155219169389 0.1742376505298877 0.1648138532245001 0 0.1847965210445491 0.1721204784551535 1:-0.619312 2:-0.417437 3:-0.437819 4:-0.304229 5:-0.396184 6:-0.402755 7:-0.307548 8:-0.405169 9:-0.470477 10:-0.447773 11:-0.686873 12:-0.254644 13:-0.662996 14:-0.175235 15:0.185481 16:0.147851 17:0.0506413 18:-0.272398 19:-0.479338 20:-0.0877939 21:-0.537857 22:0.143578 23:0.0443614 24:-0.518107 25:-0.0399152 26:-0.365576 27:-0.616266 28:-0.966603 29:-0.860817 30:-0.754638 31:-0.818767 
0.285615019606238 0.2576240508128836 0.2786380332653871 0.1996330172452161 0.2267240693105111 0.2384449230774013 0.2314465940335668 0.2595228604048617 0.2294205869873759 1:-0.68406 2:-0.435889 3:-0.473593 4:-0.272959 5:-0.320057 6:-0.434606 7:-0.237002 8:-0.241571 9:-0.381741 10:-0.474206 11:-0.683848 12:-0.0725353 13:-0.757258 14:-0.243934 15:0.321649 16:0.0993597 17:0.10342 18:-0.0826963 19:-0.299322 20:-0.174992 21:-0.736648 22:0.435042 23:-0.0269496 24:-0.404185 25:0.0268244 26:-0.654505 27:-0.304263 28:-0.895845 29:-0.839938 30:-0.60231 31:-0.820205 
0.2628845433256159 0.2659247623191866 0.2490074855256864 0.2021270770937083 0.2435773847102099 0.2399425957711035 0.4118276492437192 0.2540077917378327 0.2254512704880482 1:-0.530089 2:-0.257788 3:-0.31953 4:-0.0677137 5:-0.192642 6:-0.296828 7:-0.0331157 8:-0.129833 9:-0.302602 10:-0.354744 11:-0.550418 12:-0.230383 13:-0.656461 14:-0.289011 15:0.452989 16:0.0493887 17:0.0831998 18:-0.26653 19:-0.332542 20:-0.278852 21:-0.574855 22:0.380528 23:-0.158592 24:-0.356403 25:-0.168248 26:-0.611573 27:-0.5538 28:-0.920567 29:-0.848726 30:-0.616084 31:-0.819273 
0.4089590279053708 0.3725861830185878 0.3862134636700652 0.2877164977585057 0.3300958279903746 0.3293976854521162 0.388897071635348 0.3729582689472748 0.3279615449812732 1:-0.812042 2:-0.641701 3:-0.621662 4:-0.525609 5:-0.514281 6:-0.56727 7:-0.477255 8:-0.424132 9:-0.529219 10:-0.584694 11:-0.716123 12:0.0488828 13:-0.80436 14:-0.0147765 15:0.334426 16:0.0982797 17:0.122553 18:0.354684 19:-0.227183 20:0.0686203 21:-0.468582 22:0.774601 23:0.0499672 24:-0.441739 25:0.488525 26:-0.726209 27:0.307819 28:-0.939524 29:-0.865034 30:-0.657146 31:-0.804697 
0 0 0 0 0 0 0.03727459639549432 0 0 1:-0.608219 2:-0.387585 3:-0.475586 4:-0.244447 5:-0.36701 6:-0.475329 7:-0.227227 8:-0.309299 9:-0.454946 10:-0.527337 11:-0.620377 12:-0.0968091 13:-0.697455 14:-0.218671 15:0.32713 16:0.105358 17:0.150785 18:-0.184138 19:-0.250746 20:-0.202264 21:-0.583379 22:0.328903 23:-0.0453585 24:-0.208804 25:-0.0600237 26:-0.722479 27:-0.619404 28:-0.926309 29:-0.853543 30:-0.608781 31:-0.808517 
0.1504879572917972 0.1393420727029522 0.0461690675996158 0.1009263463158791 0.1209287378990146 0.1266083210916735 0.1214818312353537 0.1380812881592375 0.1219123356651953 1:-0.704423 2:-0.518358 3:-0.527529 4:-0.415937 5:-0.444305 6:-0.506356 7:-0.409861 8:-0.431808 9:-0.493473 10:-0.558067 11:-0.740082 12:-0.074914 13:-0.782376 14:-0.122679 15:0.0292296 16:0.244001 17:0.0795843 18:-0.138421 19:-0.329245 20:-0.197539 21:-0.560255 22:-0.0622116 23:0.35967 24:-0.516709 25:-0.0261212 26:-0.614143 27:-0.368174 28:-0.962246 29:-0.859043 30:-0.716659 31:-0.811971 
0.8637490444571065 0.7860559318291164 0.8156074504233403 0.6065820166272093 0.6959539955837163 0.6952746496006623 0.8158678013159667 0.7873689150337714 0.6931817249596675 1:-0.477481 2:-0.18198 3:-0.278992 4:0.0779215 5:-0.177118 6:-0.216533 7:0.153905 8:-0.073595 9:-0.247495 10:-0.247807 11:-0.323913 12:-0.377598 13:-0.464151 14:-0.589586 15:0.656454 16:0.172647 17:0.000662426 18:-0.0794842 19:-0.428965 20:-0.014422 21:-0.803838 22:0.513719 23:0.00911034 24:-0.501647 25:0.140135 26:-0.458726 27:-0.0441581 28:-0.882233 29:-0.833984 30:-0.611984 31:-0.829969 
0.9385781293808829 0.8566229763928069 0.8855319027444953 0.6596058527942541 0.7556292513357885 0.7558524588228701 0.9192631877595083 0.8559947586414949 0.7530215015074774 1:-0.345081 2:-0.0311245 3:-0.299501 4:0.280926 5:-0.25452 6:-0.324179 7:0.394502 8:-0.137893 9:-0.457929 10:-0.381548 11:-0.0916202 12:-0.541953 13:-0.433369 14:-0.611161 15:0.974638 16:-0.305557 17:0.241833 18:-0.121072 19:-0.423923 20:-0.236744 21:-0.643899 22:0.569877 23:-0.524322 24:-0.0319261 25:-0.0416377 26:-0.458871 27:-0.528038 28:-0.6436 29:-0.763535 30:-0.0932535 31:-0.784674 
0.5045938159204981 0.4585022978890764 0.4765184146145915 0.3543803581705077 0.4060701259968903 0.4060040664972447 0.4828591988497546 0.4602167097766405 0.4041477360741602 1:-0.715322 2:-0.438057 3:-0.531266 4:-0.249143 5:-0.383962 6:-0.491866 7:-0.184496 8:-0.307091 9:-0.476663 10:-0.523173 11:-0.706576 12:-0.178244 13:-0.746758 14:-0.175476 15:0.37484 16:-0.0299284 17:0.115559 18:-0.0279257 19:-0.523836 20:-0.0531908 21:-0.672353 22:0.594467 23:-0.360157 24:-0.382627 25:0.147841 26:-0.278298 27:-0.254329 28:-0.796185 29:-0.807367 30:-0.392027 31:-0.836651 
0.4124943893151725 0.3752254923004518 0.391921497357236 0.2904391905397029 0.3320286202215739 0.3326571002381241 0.3969941652575987 0.3770804214123995 0.3288309182220602 1:-0.735588 2:-0.486354 3:-0.649357 4:-0.308241 5:-0.451369 6:-0.674155 7:-0.252166 8:-0.333005 9:-0.527645 10:-0.728835 11:-0.666023 12:0.109842 13:-0.850359 14:-0.291202 15:0.141138 16:0.255219 17:0.175725 18:0.141676 19:-0.0343804 20:-0.34024 21:-0.936522 22:0.171234 23:0.449281 24:-0.135659 25:0.0627619 26:-0.861255 27:0.169044 28:-0.932195 29:-0.855092 30:-0.639717 31:-0.800978 
0.006452119676331358 0.01581629924301333 0.001291654268041495 0 0.0245221341943747 0.002399386359887287 0 0.01557416611586792 0.01254711240103322 1:-0.643867 2:-0.39217 3:-0.40822 4:-0.223573 5:-0.26054 6:-0.363694 7:-0.183039 8:-0.191547 9:-0.320134 10:-0.409361 11:-0.645319 12:-0.110458 13:-0.741248 14:-0.198057 15:0.295062 16:0.149554 17:0.0675814 18:-0.129267 19:-0.308867 20:-0.230864 21:-0.600832 22:0.330029 23:0.0644369 24:-0.490994 25:-0.0430618 26:-0.64037 27:-0.372696 28:-0.966631 29:-0.856854 30:-0.691468 31:-0.82059 
0.6697780897713768 0.6079282517166146 0.6209165080024142 0.4800668945110552 0.5398363380873161 0.5328298135778502 0.7017412418908937 0.6097483411831002 0.547696773844591 1:-0.575652 2:-0.366756 3:-0.497976 4:-0.205803 5:-0.429106 6:-0.542023 7:-0.167344 8:-0.359658 9:-0.576639 10:-0.615131 11:-0.495473 12:-0.172062 13:-0.74639 14:-0.202109 15:0.425041 16:-0.0333044 17:0.179531 18:-0.065019 19:-0.313545 20:-0.388074 21:-0.525072 22:0.411521 23:-0.303516 24:-0.124298 25:-0.108842 26:-0.605876 27:-0.688925 28:-0.851901 29:-0.840911 30:-0.482333 31:-0.801485 
0.6297848000285567 0.5723643561905234 0.5940794425284889 0.4417917164953762 0.5068911555569272 0.5069842329805176 0.5973771419203247 0.5737162266348427 0.505314369150595 1:-0.8533 2:-0.715908 3:-0.73294 4:-0.616519 5:-0.695713 6:-0.716085 7:-0.561775 8:-0.634138 9:-0.76098 10:-0.742951 11:-0.72336 12:-0.0612731 13:-0.86918 14:0.100352 15:0.219786 16:-0.0256862 17:0.173509 18:0.561724 19:-0.567681 20:-0.0650723 21:-0.176958 22:0.573534 23:-0.458588 24:-0.152005 25:0.534695 26:-0.0880703 27:-0.383367 28:-0.888666 29:-0.855858 30:-0.565147 31:-0.791753 
0.6675326803466946 0.6062473065915474 0.6288478714890194 0.4691128108112004 0.5368126448140725 0.5369514364171661 0.631875981426135 0.6079275817427566 0.534825698388932 1:-0.89854 2:-0.756716 3:-0.761746 4:-0.680457 5:-0.704466 6:-0.723484 7:-0.649468 8:-0.661233 9:-0.738548 10:-0.739922 11:-0.852262 12:-0.0122097 13:-0.865246 14:0.0313323 15:0.142993 16:0.0417708 17:0.143274 18:0.369383 19:-0.542189 20:0.144198 21:-0.433941 22:0.429863 23:-0.157779 24:-0.400413 25:0.550694 26:-0.224814 27:-0.486668 28:-0.960633 29:-0.854901 30:-0.623709 31:-0.816463 
0.6433780130155897 0.5844309668478265 0.6065434145212624 0.4517233261374586 0.5175804846686878 0.5177408689590058 0.609793020492543 0.5863733608040879 0.5156338486987022 1:-0.824956 2:-0.641377 3:-0.670097 4:-0.503777 5:-0.596699 6:-0.625015 7:-0.428584 8:-0.517004 9:-0.650271 10:-0.642178 11:-0.679129 12:-0.0948239 13:-0.795505 14:0.0498125 15:0.301832 16:-0.00286066 17:0.131317 18:0.53582 19:-0.583337 20:0.158891 21:-0.310118 22:0.728725 23:-0.339007 24:-0.404215 25:0.672382 26:-0.114582 27:0.0266736 28:-0.918716 29:-0.850736 30:-0.536871 31:-0.799241 
0.5013795748694111 0.454732342159025 0.4725619886483378 0.351645410957262 0.4026689927161639 0.4033525593854871 0.4748067358824787 0.4562820505258839 0.4017298958486732 1:-0.787294 2:-0.605892 3:-0.644278 4:-0.49336 5:-0.537247 6:-0.609665 7:-0.460125 8:-0.453814 9:-0.578624 10:-0.635455 11:-0.743652 12:0.017777 13:-0.776522 14:-0.0704823 15:0.39362 16:0.0445321 17:0.123384 18:0.159634 19:-0.263873 20:0.0867812 21:-0.571735 22:0.840085 23:-0.154665 24:-0.4108 25:0.37041 26:-0.703535 27:0.326342 28:-0.859397 29:-0.837771 30:-0.521279 31:-0.77133 
0.3504623318674058 0.3146727798836449 0.3256076743820751 0.2415681637865207 0.2784834385730853 0.278165550707885 0.3325243774486994 0.315961178053388 0.2779624420184408 1:-0.635821 2:-0.411612 3:-0.543753 4:-0.241383 5:-0.431851 6:-0.537271 7:-0.177136 8:-0.325591 9:-0.518137 10:-0.575666 11:-0.546554 12:-0.0865938 13:-0.661873 14:-0.0679685 15:0.551908 16:0.00305876 17:0.170145 18:0.0306136 19:-0.265317 20:-0.0397138 21:-0.40257 22:0.699882 23:-0.250486 24:-0.152868 25:0.196394 26:-0.701579 27:-0.246305 28:-0.834826 29:-0.863171 30:-0.5353 31:-0.766337 
0.4848376338557367 0.4412406781452393 0.4581051695954172 0.3414551228887334 0.3903795020538916 0.39034558293166 0.45970617130589 0.4417566061180371 0.3893055860876799 1:-0.687946 2:-0.506782 3:-0.609592 4:-0.356937 5:-0.566708 6:-0.609474 7:-0.288792 8:-0.486636 9:-0.665029 10:-0.646506 11:-0.534335 12:-0.17125 13:-0.719771 14:0.0136719 15:0.449041 16:-0.0604243 17:0.186094 18:0.244401 19:-0.464283 20:-0.0520108 21:-0.308927 22:0.662972 23:-0.420189 24:-0.0962309 25:0.331123 26:-0.366144 27:-0.326015 28:-0.816517 29:-0.850309 30:-0.449185 31:-0.761575 
0.6176694294067649 0.5793899958860074 0.5821934858986735 0.4369739512693661 0.5050679029654864 0.4973790026799665 0.641333484190922 0.5806567927317867 0.495374956116078 1:-0.268192 2:0.0764719 3:-0.119952 4:0.381855 5:0.0813063 6:-0.119233 7:0.453615 8:0.254905 9:-0.046816 10:-0.184618 11:-0.167112 12:-0.200699 13:-0.385979 14:-0.724305 15:0.863222 16:0.00430838 17:0.122254 18:-0.341416 19:-0.110635 20:-0.29808 21:-0.635294 22:0.397729 23:-0.205288 24:-0.203819 25:-0.231735 26:-0.870953 27:-0.623006 28:-0.858263 29:-0.838252 30:-0.589403 31:-0.806161 
0.7136889018722178 0.6442340902923336 0.6737225558614723 0.5011472614819461 0.5724549633118922 0.5752490794029307 0.6640036452191844 0.6461660208250514 0.5729696868908343 1:-0.331264 2:0.0785003 3:-0.206329 4:0.469155 5:0.0331146 6:-0.204341 7:0.621521 8:0.259166 9:-0.0977219 10:-0.260311 11:-0.132339 12:-0.270604 13:-0.415614 14:-0.858762 15:0.972704 16:0.0779957 17:0.155223 18:-0.191601 19:-0.198795 20:-0.235076 21:-0.795289 22:0.547884 23:-0.137023 24:-0.164544 25:-0.0877431 26:-0.781963 27:-0.359415 28:-0.764864 29:-0.813984 30:-0.447181 31:-0.76221 
0.1776266957271157 0.1636921201946059 0.1556767553121038 0.1244559250978931 0.1447616683293164 0.1434866374556761 0.1687605088973127 0.162174028892687 0.1426642737183951 1:-0.786504 2:-0.586601 3:-0.613955 4:-0.456621 5:-0.508733 6:-0.57191 7:-0.411238 8:-0.439627 9:-0.548745 10:-0.602479 11:-0.729657 12:-0.0522461 13:-0.791535 14:-0.0763884 15:0.271937 16:0.13148 17:0.0847547 18:0.194507 19:-0.410676 20:0.0251164 21:-0.584387 22:0.543933 23:0.144005 24:-0.612119 25:0.351086 26:-0.477367 27:0.129963 28:-0.980756 29:-0.857025 30:-0.681845 31:-0.818385 
0.4566685048729853 0.4160119441225921 0.4318232553253999 0.3216830141917472 0.368547700546744 0.3685204743980655 0.4335262372148966 0.4167688509524859 0.3669011333959987 1:-0.73022 2:-0.506661 3:-0.629277 4:-0.355367 5:-0.517963 6:-0.621888 7:-0.305929 8:-0.428417 9:-0.61078 10:-0.65961 11:-0.681737 12:-0.0878935 13:-0.759316 14:-0.124309 15:0.474444 16:-0.0435748 17:0.154064 18:0.0835078 19:-0.388858 20:-0.0480811 21:-0.59976 22:0.828521 23:-0.408002 24:-0.229029 25:0.226042 26:-0.516948 27:0.0699356 28:-0.711156 29:-0.774995 30:-0.233062 31:-0.728091 
0.6613279745802296 0.6035968552885742 0.6249573669131115 0.4639274993118463 0.5322946643431811 0.5327819212637399 0.627688979665693 0.6025459475441608 0.5307320769289118 1:-0.530605 2:-0.315585 3:-0.437108 4:-0.128928 5:-0.386625 6:-0.433634 7:-0.0765382 8:-0.284168 9:-0.503047 10:-0.484121 11:-0.384843 12:-0.250432 13:-0.570447 14:-0.274882 15:0.76068 16:-0.0908977 17:0.128396 18:-0.0221428 19:-0.355818 20:-0.0974489 21:-0.560211 22:0.72192 23:-0.379893 24:-0.248126 25:0.121077 26:-0.573462 27:-0.130699 28:-0.778676 29:-0.804272 30:-0.361657 31:-0.76997 
0.3993184730958569 0.3617427178197261 0.3760698855874838 0.2798187971746701 0.3209372753454406 0.3215458394015614 0.3773891830669074 0.3642077827856809 0.3199570796306735 1:-0.726269 2:-0.518877 3:-0.647093 4:-0.372922 5:-0.576634 6:-0.651707 7:-0.323949 8:-0.508844 9:-0.683481 10:-0.694153 11:-0.650097 12:-0.161146 13:-0.772571 14:-0.120445 15:0.396232 16:-0.0585537 17:0.160275 18:0.141952 19:-0.513975 20:-0.104349 21:-0.586494 22:0.662692 23:-0.446878 24:-0.201349 25:0.226244 26:-0.278079 27:-0.273807 28:-0.743418 29:-0.788482 30:-0.192723 31:-0.784474 
0.7090302689098663 0.6439677871133249 0.6683564415671757 0.4974231585403946 0.569917732231076 0.5707970361941545 0.6638114852022727 0.6456211496082856 0.5685198354348832 1:-0.613137 2:-0.41391 3:-0.454602 4:-0.243245 5:-0.453893 6:-0.391408 7:-0.192193 8:-0.415358 9:-0.501812 10:-0.41374 11:-0.455626 12:-0.368207 13:-0.539048 14:-0.258698 15:0.332815 16:0.193621 17:0.0178476 18:0.119043 19:-0.623956 20:0.207299 21:-0.643617 22:0.343237 23:0.130972 24:-0.61006 25:0.426648 26:-0.0655371 27:-0.189845 28:-0.963077 29:-0.860246 30:-0.750328 31:-0.822245 
0.7837796828324746 0.7122613088522062 0.7395061121854649 0.5505270554210207 0.6314060125726743 0.6309402830133407 0.743428450241612 0.7143155375204038 0.6286214114566643 1:-0.923143 2:-0.777716 3:-0.744352 4:-0.683186 5:-0.691329 6:-0.683886 7:-0.623377 8:-0.633759 9:-0.71457 10:-0.691691 11:-0.807484 12:-0.0356464 13:-0.876977 14:0.131937 15:0.165827 16:0.0531498 17:0.130615 18:0.713229 19:-0.683994 20:0.196798 21:-0.0605802 22:0.587372 23:-0.0884836 24:-0.544454 25:0.817496 26:0.147786 27:-0.140034 28:-0.985245 29:-0.857671 30:-0.730297 31:-0.817786 
0.7695707137137263 0.6992483754804245 0.7258545914275352 0.5409093571129255 0.6192504891035528 0.6194068310851468 0.7316042653888666 0.7018037049344639 0.6171672814335776 1:-0.662504 2:-0.474033 3:-0.492019 4:-0.303644 5:-0.500068 6:-0.405909 7:-0.242227 8:-0.448904 9:-0.527338 10:-0.409017 11:-0.459204 12:-0.363098 13:-0.531752 14:-0.237588 15:0.364962 16:0.188808 17:0.0124895 18:0.295064 19:-0.71679 20:0.406304 21:-0.688784 22:0.468486 23:0.167991 24:-0.703356 25:0.682348 26:0.159491 27:0.152673 28:-0.958747 29:-0.860731 30:-0.759872 31:-0.824451 
0.8312249627754582 0.7545884795437741 0.7841951496569818 0.5839141934719287 0.6685668159264999 0.6686281190231466 0.7876220760119659 0.7571240614403507 0.6667246265682559 1:-0.823989 2:-0.623128 3:-0.633566 4:-0.494932 5:-0.51982 6:-0.570514 7:-0.448388 8:-0.44848 9:-0.534779 10:-0.588663 11:-0.764715 12:-0.033885 13:-0.789336 14:-0.0887987 15:0.247598 16:0.163518 17:0.0613541 18:0.268736 19:-0.437469 20:0.181725 21:-0.682651 22:0.575556 23:0.31745 24:-0.823194 25:0.509237 26:-0.438379 27:0.679426 28:-0.977518 29:-0.861379 30:-0.731664 31:-0.818441 
0.08451610446474624 0.07537984384317804 0.08794129731824347 0.0597892420741301 0.06672117622086444 0.06758647113575816 0.08049609031235529 0.07754735103895191 0.06855210731009881 1:-0.81259 2:-0.608559 3:-0.635525 4:-0.480393 5:-0.518409 6:-0.589161 7:-0.433508 8:-0.447093 9:-0.556229 10:-0.615683 11:-0.766617 12:-0.0305196 13:-0.809998 14:-0.0575226 15:0.258307 16:0.100561 17:0.0911025 18:0.208352 19:-0.408707 20:0.0469761 21:-0.579513 22:0.574619 23:0.0590425 24:-0.62328 25:0.375495 26:-0.481563 27:0.10799 28:-0.969758 29:-0.855619 30:-0.672941 31:-0.819895 
0.4440550892358822 0.4031168461986512 0.4918689575411515 0.3112682323569537 0.3572660893520958 0.356767330329827 0.4401924944586033 0.4062939897886479 0.3565455813982866 1:-0.653137 2:-0.572251 3:-0.690737 4:-0.509246 5:-0.565521 6:-0.727031 7:-0.496629 8:-0.484552 9:-0.584766 10:-0.759727 11:-0.605993 12:0.342201 13:-0.730385 14:0.135966 15:0.148251 16:0.393607 17:0.299193 18:-0.0256465 19:0.354385 20:-0.178352 21:-0.106669 22:0.113847 23:0.613579 24:0.282821 25:0.0627229 26:-0.951219 27:-0.361858 28:-0.7405 29:-0.809785 30:-0.576474 31:-0.749909 
0.5548851869951633 0.5009079604241238 0.4927479564823433 0.3873599681486151 0.4437014537184304 0.4439157630089314 0.517462181964965 0.501471155138976 0.4424015617456019 1:-0.638627 2:-0.516837 3:-0.723742 4:-0.403875 5:-0.544367 6:-0.75602 7:-0.363221 8:-0.422251 9:-0.566304 10:-0.771075 11:-0.492981 12:0.404503 13:-0.693757 14:0.0557565 15:0.104744 16:0.429166 17:0.396039 18:0.139863 19:0.438562 20:-0.116733 21:-0.224854 22:0.0386534 23:0.655954 24:0.579198 25:0.216275 26:-0.890923 27:-0.171328 28:-0.664534 29:-0.746024 30:-0.536918 31:-0.767195 
0.9462452603133414 0.8598952518394941 0.892975779345925 0.6650005947854466 0.7617040772980505 0.7619576703370536 0.897740136341082 0.8625559051817969 0.7589732774093806 1:-0.871873 2:-0.79111 3:-0.804897 4:-0.735499 5:-0.668243 6:-0.753214 7:-0.706685 8:-0.598598 9:-0.620702 10:-0.742962 11:-0.784625 12:0.398217 13:-0.731782 14:0.112698 15:-0.0777285 16:0.184839 17:0.219709 18:0.462354 19:0.643666 20:0.703239 21:-0.139399 22:-0.365101 23:0.520495 24:0.180993 25:1 26:-0.707402 27:-0.336907 28:-0.897601 29:-0.876143 30:-0.654851 31:-0.811901 
0 0 0 0 0 0 0.2350458798449487 0 0 1:-0.668115 2:-0.53593 3:-0.699483 4:-0.477783 5:-0.615218 6:-0.751786 7:-0.496821 8:-0.601082 9:-0.688611 10:-0.795794 11:-0.746151 12:0.0901588 13:-0.797606 14:-0.0600895 15:-0.124197 16:0.227843 17:0.264962 18:-0.256984 19:-0.0290186 20:-0.331442 21:-0.416277 22:-0.319644 23:0.264689 24:0.180872 25:-0.198258 26:-0.925669 27:-0.537787 28:-0.990295 29:-0.858228 30:-0.700559 31:-0.817251 
0.5364987599233901 0.487710182352197 0.5636248391664709 0.3771170911368752 0.4315101488963667 0.4289742681808701 0.5320622899140901 0.4889152529065454 0.4311621157905303 1:-0.668712 2:-0.514294 3:-0.708801 4:-0.3842 5:-0.567745 6:-0.757957 7:-0.335721 8:-0.450753 9:-0.631756 10:-0.799607 11:-0.526272 12:0.210759 13:-0.786005 14:-0.0155272 15:0.243693 16:0.290949 17:0.264245 18:0.185787 19:0.157254 20:-0.29689 21:-0.345876 22:0.281561 23:0.412512 24:0.178901 25:0.122328 26:-0.931671 27:-0.420007 28:-0.851639 29:-0.840432 30:-0.773275 31:-0.846908 
0.946492770754469 0.8603006166508387 0.8925984633940385 0.6651277556821024 0.7619150732048349 0.7621847641844919 0.897803493084404 0.8626794576850607 0.7594460174223604 1:-1 2:-1 3:-1 4:-1 5:-0.950131 6:-1 7:-0.962925 8:-0.885011 9:-0.932813 10:-1 11:-1 12:0.27632 13:-1 14:0.307801 15:0.181942 16:0.176308 17:0.199361 18:0.330747 19:0.380132 20:-0.308787 21:1 22:1 23:0.999888 24:0.165756 25:0.211218 26:-0.842456 27:0.492839 28:1 29:1 30:1 31:1 
0.7217527489210759 0.6476127224792513 0.7092610529230802 0.5006713019256809 0.5730832580803513 0.5740679926765477 0.676214253016159 0.6494986778115428 0.5718577793014494 1:-0.64514 2:-0.547629 3:-0.69429 4:-0.485895 5:-0.47144 6:-0.715012 7:-0.491738 8:-0.35914 9:-0.479715 10:-0.733464 11:-0.639493 12:0.600824 13:-0.670611 14:-0.0112563 15:0.12957 16:0.34924 17:0.351058 18:-0.114478 19:0.729376 20:-0.0366511 21:-0.325731 22:0.0797001 23:0.498687 24:0.444412 25:0.101296 26:-0.594862 27:-0.380788 28:-0.785463 29:-0.8083 30:-0.467737 31:-0.836859 
0.8085826430638202 0.7345849437975515 0.7808211560792718 0.5681441568380107 0.6501389626708413 0.6508185645586632 0.7754162589749478 0.7373877134440953 0.6462677507724615 1:-0.318543 2:-0.0574388 3:-0.43839 4:0.157877 5:-0.113298 6:-0.515043 7:0.188783 8:0.0826749 9:-0.167077 10:-0.574486 11:-0.270263 12:0.521119 13:-0.478505 14:-0.406237 15:0.132593 16:0.713584 17:0.394518 18:-0.35276 19:0.410523 20:-0.345191 21:-0.482182 22:-0.0342459 23:0.469764 24:0.184787 25:-0.271945 26:-0.931505 27:-0.304242 28:-0.944315 29:-0.852519 30:-0.681283 31:-0.82241 
0.6109304467798716 0.5490808413185355 0.5682497329017555 0.4252937153233331 0.4870248693088128 0.487139599349336 0.569810657552002 0.5527853671768129 0.4853461985631786 1:-0.576925 2:-0.474609 3:-0.614312 4:-0.411029 5:-0.434537 6:-0.643595 7:-0.425903 8:-0.345478 9:-0.431697 10:-0.671133 11:-0.59706 12:0.460569 13:-0.628874 14:-0.0307846 15:0.136881 16:0.525992 17:0.35454 18:-0.226161 19:0.47641 20:-0.113553 21:-0.317437 22:0.0521733 23:0.694992 24:0.351717 25:-0.0267676 26:-0.886473 27:-0.0304396 28:-0.794858 29:-0.802498 30:-0.540565 31:-0.784264 
0.5728272786334485 0.5416096496999194 1.326814447888361 0.4518926220851296 0.6663813209487027 0.5450246650881659 1.452751329489695 0.8597893384518875 1.127566546804371 1:-0.321155 2:-0.287585 3:-0.463789 4:-0.257604 5:-0.442701 6:-0.580308 7:-0.305173 8:-0.451444 9:-0.555514 10:-0.664771 11:-0.413364 12:0.125844 13:-0.60021 14:0.094623 15:-0.0995125 16:0.237564 17:0.320379 18:-0.489683 19:0.110175 20:-0.512932 21:-0.155141 22:-0.190389 23:0.0155956 24:0.0779969 25:-0.479813 26:-0.987522 27:-0.933298 28:-0.985138 29:-0.858516 30:-0.700033 31:-0.816676 
0.6851087889281341 0.6218313411714983 0.6463241570197373 0.4807708474644448 0.5509266917256036 0.5510429470781186 0.6496290013163186 0.6239348950733012 0.5489307095337684 1:-0.753968 2:-0.518632 3:-0.744164 4:-0.362076 5:-0.513449 6:-0.769913 7:-0.323256 8:-0.384458 9:-0.56885 10:-0.80093 11:-0.715659 12:0.279049 13:-0.820081 14:-0.284555 15:0.0196588 16:0.299336 17:0.251967 18:0.0941036 19:0.280349 20:-0.186519 21:-0.973191 22:-0.0711931 23:0.624519 24:0.220259 25:0.137304 26:-0.961484 27:0.533877 28:-0.918424 29:-0.87734 30:-0.724292 31:-0.810294 
0.8385247545423221 0.7612630896200304 0.7914947485839025 0.5891340720125796 0.6812764505749177 0.6753027806827643 0.7945575579728807 0.7638359800784965 0.6725790980890035 1:-0.232013 2:0.241993 3:-0.213525 4:0.677019 5:0.123188 6:-0.293358 7:0.832747 8:0.37993 9:-0.0614786 10:-0.392025 11:-0.138008 12:-0.082823 13:-0.471352 14:-0.956784 15:0.718968 16:0.239291 17:0.227083 18:-0.374794 19:-0.0158878 20:-0.455551 21:-0.727666 22:0.279697 23:-0.0152504 24:-0.0711261 25:-0.363111 26:-0.932843 27:-0.639029 28:-0.864244 29:-0.850717 30:-0.614873 31:-0.792829 
0.3887675436489088 0.3537397662578308 0.364813219467488 0.2727624461029896 0.3131869094144578 0.3131304622288178 0.3651140158108583 0.3548935139788328 0.3129439375040727 1:-0.745665 2:-0.513094 3:-0.693636 4:-0.32539 5:-0.48376 6:-0.713897 7:-0.243506 8:-0.331208 9:-0.541947 10:-0.752624 11:-0.581913 12:0.206761 13:-0.81891 14:-0.220806 15:0.173523 16:0.254446 17:0.221171 18:0.388518 19:0.14212 20:-0.205886 21:-0.820359 22:0.249274 23:0.468437 24:0.0706131 25:0.321161 26:-0.902396 27:0.0856818 28:-0.898425 29:-0.88117 30:-0.728344 31:-0.813615 
0.03768589852977661 0.02104687804612504 0 0.01378838640052804 0.01756742469782416 0 0.01966842191897406 0.01943737465760593 0.01305474048066323 1:-0.728623 2:-0.507731 3:-0.541255 4:-0.363554 5:-0.402787 6:-0.506693 7:-0.324061 8:-0.329369 9:-0.449862 10:-0.542604 11:-0.699542 12:-0.0213531 13:-0.77955 14:-0.151443 15:0.224675 16:0.139722 17:0.119409 18:0.0358294 19:-0.266558 20:-0.120565 21:-0.649573 22:0.329606 23:0.10963 24:-0.377199 25:0.143917 26:-0.692851 27:-0.363739 28:-0.958717 29:-0.854164 30:-0.657678 31:-0.816419 
0.6222321324477654 0.5646430282905944 0.5864140931677205 0.4371308073867716 0.5007457333912838 0.5005050951095388 0.5896437753449214 0.5667561567817608 0.4989947753303518 1:-0.75629 2:-0.532964 3:-0.720767 4:-0.369943 5:-0.52156 6:-0.746886 7:-0.310379 8:-0.380376 9:-0.579523 10:-0.787286 11:-0.65423 12:0.204748 13:-0.836976 14:-0.19789 15:0.251896 16:0.291551 17:0.211937 18:0.257949 19:0.136752 20:-0.240504 21:-0.796822 22:0.433178 23:0.606825 24:0.0346203 25:0.209712 26:-0.925829 27:0.531395 28:-0.876027 29:-0.889116 30:-0.759807 31:-0.842808 
0.8791637783898008 0.7990796316977519 0.8293941599677839 0.6170391912332696 0.707750578005961 0.7079706202060942 0.8337141560663387 0.801303863930755 0.7063855827342661 1:-0.393111 2:0.083099 3:-0.423136 4:0.513359 5:0.0393171 6:-0.49396 7:0.679422 8:0.36161 9:-0.0851869 10:-0.561948 11:-0.311268 12:0.357105 13:-0.57222 14:-1 15:0.0625178 16:0.440658 17:0.311355 18:-0.256019 19:0.299298 20:-0.369333 21:-1 22:-0.072972 23:0.277699 24:0.0989129 25:-0.223843 26:-0.975062 27:-0.206178 28:-0.858718 29:-0.851852 30:-0.708217 31:-0.776554 
0.430961505994756 0.3909133977471305 1.010429003662545 0.3501565258130301 0.3457340871696516 0.5065862859324031 0.4465407735667059 0.4026964063016594 0.35215547989679 1:-0.654878 2:-0.563417 3:-0.530779 4:-0.508468 5:-0.50482 6:-0.552502 7:-0.512444 8:-0.494868 9:-0.555153 10:-0.62526 11:-0.659347 12:0.0446523 13:-0.800877 14:0.0453693 15:0.0292566 16:0.255758 17:0.109295 18:-0.123553 19:-0.0901308 20:-0.369159 21:-0.244694 22:-0.0714778 23:0.309744 24:-0.361042 25:-0.134967 26:-0.86481 27:-0.670891 28:-0.965776 29:-0.858662 30:-0.66735 31:-0.820238 
0.872058282933605 0.7924174887286617 0.8235962211154555 0.6131140613314803 0.706184582473427 0.7284558387789741 0.827066039309244 0.7989015800325584 0.6993692084336957 1:-0.785859 2:-0.735012 3:-0.685686 4:-0.69843 5:-0.720523 6:-0.658374 7:-0.683288 8:-0.71862 9:-0.71837 10:-0.684945 11:-0.745295 12:-0.0301242 13:-0.750889 14:0.179214 15:-0.0829015 16:0.276403 17:0.117681 18:0.148906 19:-0.362949 20:0.181356 21:0.0149509 22:-0.311299 23:0.64004 24:-0.439152 25:0.428693 26:-0.567334 27:-0.41396 28:-0.720385 29:-0.856414 30:-0.326401 31:-0.916177 
0.78466472308696 0.7081605059848066 0.7353560274701577 0.5482693860612547 0.6274156135754819 0.6382639193440702 0.7392394202426743 0.7104296997459705 0.6250228021765784 1:-0.794065 2:-0.656325 3:-0.597086 4:-0.577284 5:-0.534167 6:-0.514029 7:-0.549182 8:-0.488906 9:-0.515379 10:-0.512452 11:-0.762801 12:0.0210691 13:-0.708088 14:0.092873 15:0.230653 16:0.152566 17:0.07326 18:0.13601 19:-0.265726 20:0.386153 21:-0.188443 22:0.460111 23:0.227242 24:-0.687087 25:0.561824 26:-0.699622 27:-0.0716738 28:-0.973951 29:-0.861364 30:-0.677636 31:-0.817139 
0.9201099927641565 0.8359828607594412 0.8680476465049023 0.646519408099149 0.7407640056046146 0.7412965013379006 0.8730375064167439 0.8382765240769099 0.7379138706673767 1:-0.760691 2:-0.712041 3:-0.679227 4:-0.676008 5:-0.643293 6:-0.671158 7:-0.664682 8:-0.601417 9:-0.619284 10:-0.705101 11:-0.725684 12:0.187243 13:-0.768909 14:0.169733 15:0.134352 16:0.413025 17:0.151345 18:0.0957203 19:0.101702 20:0.0190986 21:-0.0188021 22:0.182778 23:1 24:-0.252423 25:0.280731 26:-0.983431 27:0.467744 28:-0.636303 29:-1 30:-0.657789 31:-0.674666 
0.7532889619892171 0.6805270429089705 0.872134718858128 0.5411823951159533 0.9951546670631214 0.6346646859331986 0.7772054344941339 0.6803722415850525 0.6187255261558947 1:-0.223597 2:0.0604574 3:-0.129803 4:0.275634 5:0.123787 6:-0.206999 7:0.272361 8:0.249861 9:0.0124708 10:-0.330664 11:-0.277156 12:0.168202 13:-0.522967 14:-0.54841 15:0.263963 16:0.392864 17:0.105546 18:-0.505076 19:0.149827 20:-0.527989 21:-0.498612 22:0.0217184 23:0.102901 24:-0.217743 25:-0.50055 26:-0.99442 27:-0.749062 28:-0.989513 29:-0.858279 30:-0.694701 31:-0.817 
0.6120690300880658 0.5562007968989553 0.5795858877030917 0.4288298596330999 0.4924612923589967 0.4935235864835349 0.5779282583203096 0.5580984357017758 0.4909412407459955 1:-0.765061 2:-0.674848 3:-0.651593 4:-0.616859 5:-0.615537 6:-0.640506 7:-0.596555 8:-0.577579 9:-0.624977 10:-0.682849 11:-0.719873 12:0.0765269 13:-0.794337 14:0.141746 15:0.120744 16:0.284653 17:0.108591 18:0.128441 19:-0.119458 20:-0.0591931 21:-0.0777944 22:0.157061 23:0.608834 24:-0.461681 25:0.248455 26:-0.848804 27:-0.199857 28:-0.844725 29:-0.895426 30:-0.612371 31:-0.815471 
0.6981917295120089 0.6332388473214066 0.6769118752974803 0.4969210490999657 0.5612329795574609 0.5602530695776451 0.6599057171547894 0.6356204157547105 0.5624146730764273 1:-0.785391 2:-0.658676 3:-0.723903 4:-0.565198 5:-0.641784 6:-0.731215 7:-0.520168 8:-0.560114 9:-0.684897 10:-0.773384 11:-0.67603 12:0.103861 13:-0.824902 14:0.118971 15:0.236368 16:0.145085 17:0.137147 18:0.33591 19:-0.0802444 20:-0.108884 21:-0.1261 22:0.455845 23:0.189293 24:-0.337204 25:0.353064 26:-0.839114 27:-0.379338 28:-0.950201 29:-0.852749 30:-0.727318 31:-0.817024 
0.5259645988955115 0.4726749899273903 0.6991238149111515 0.4871688186717747 0.4201299583482245 0.577040569981352 0.4918438592664467 0.4790635336705849 0.4554736540209678 1:-0.621311 2:-0.455992 3:-0.454192 4:-0.340554 5:-0.355002 6:-0.460378 7:-0.314217 8:-0.291192 9:-0.420666 10:-0.529214 11:-0.579103 12:0.0428287 13:-0.773024 14:-0.010653 15:0.246148 16:0.159845 17:0.117701 18:-0.0741465 19:-0.0711967 20:-0.364059 21:-0.312668 22:0.231324 23:0.0699093 24:-0.313667 25:-0.0983336 26:-0.872862 27:-0.681195 28:-0.996981 29:-0.858685 30:-0.697769 31:-0.817111 
0.7923074677479167 0.6987272236944415 0.7278305338443992 0.5414540081278986 0.6189862685373368 0.6388384632632059 0.7180057984051458 0.7010758280261891 0.6170566177759331 1:-0.494764 2:-0.282561 3:-0.282231 4:-0.112683 5:-0.167559 6:-0.219866 7:-0.0814216 8:-0.0932094 9:-0.155299 10:-0.262001 11:-0.416569 12:-0.0674708 13:-0.502017 14:-0.263923 15:0.270119 16:0.435821 17:-0.0617635 18:-0.160736 19:-0.124417 20:-0.0451415 21:-0.512898 22:0.151805 23:0.395997 24:-0.654706 25:0.0644276 26:-0.859337 27:-0.129515 28:-0.968235 29:-0.855799 30:-0.68945 31:-0.81427 
0.9428817507411796 0.8766067856939236 0.8905369314696899 0.659736864168583 0.754752688586048 0.7575652976217249 0.8881179910560408 0.8541151587012369 0.758621986236605 1:-0.231417 2:-0.108034 3:-0.0991676 4:0.0465951 5:0.129257 6:-0.0330647 7:0.0566973 8:0.256392 9:0.136747 10:-0.119657 11:-0.068011 12:0.573243 13:-0.128994 14:-0.177688 15:-0.00819742 16:-0.396559 17:-0.382071 18:-0.316074 19:0.415518 20:-0.0397292 21:-0.301879 22:-0.128567 23:-0.523479 24:-0.812336 25:-0.0359056 26:-0.922758 27:-0.828505 28:-0.781665 29:-0.842656 30:-0.556715 31:-0.786444 
0.1553026986832324 0.140439123770281 0.1430110066779141 0.1107717552667674 0.1265200015262849 0.1279260789989833 0.159688269536819 0.1388871628511044 0.1204146374775752 1:-0.681916 2:-0.44457 3:-0.72878 4:-0.264849 5:-0.514275 6:-0.773356 7:-0.204137 8:-0.376122 9:-0.595436 10:-0.810339 11:-0.583173 12:0.238929 13:-0.784316 14:-0.237765 15:0.0983656 16:0.264023 17:0.269144 18:0.119149 19:0.201129 20:-0.260717 21:-0.722487 22:0.0510504 23:0.371601 24:0.209942 25:0.10272 26:-0.955117 27:-0.276671 28:-0.907778 29:-0.874063 30:-0.728274 31:-0.822691 
0.0744620744840627 0.07145063100957154 0.05727158706707351 0.04540661038557209 0.03961163666975859 0.03580503112553962 0.02772420525701674 0.05474252596989355 0.08105277710966945 1:-0.533007 2:-0.282554 3:-0.4615 4:-0.122872 5:-0.31686 6:-0.519654 7:-0.11807 8:-0.260144 9:-0.451274 10:-0.60488 11:-0.597729 12:-0.0574481 13:-0.742974 14:-0.326 15:0.2067 16:0.174827 17:0.169225 18:-0.329644 19:-0.138883 20:-0.455289 21:-0.618256 22:0.109987 23:0.0406894 24:-0.150147 25:-0.332679 26:-0.836175 27:-0.72659 28:-0.949189 29:-0.855848 30:-0.653353 31:-0.813268 
0 0 0 0 0 0 0 0 1.123551520541962 1:-0.380535 2:-0.2395 3:-0.512241 4:-0.188423 5:-0.457906 6:-0.618146 7:-0.252201 8:-0.494457 9:-0.599346 10:-0.691923 11:-0.604641 12:-0.0248128 13:-0.633535 14:-0.0739523 15:-0.214066 16:0.125619 17:0.331396 18:-0.603062 19:-0.0263529 20:-0.485065 21:-0.282826 22:-0.287262 23:-0.0803455 24:0.125828 25:-0.536492 26:-0.933063 27:-0.89284 28:-0.99178 29:-0.858723 30:-0.692045 31:-0.817238 
0.250159558620047 0.2171389605870206 0.06991895368289502 0.1568895180196913 0.1727933821721879 0.1778614158770731 0.8315939142882888 0.4052874280748521 0.7325420540966628 1:-0.507759 2:-0.271079 3:-0.634528 4:-0.139106 5:-0.444949 6:-0.694242 7:-0.159517 8:-0.396144 9:-0.549191 10:-0.728847 11:-0.643221 12:0.174979 13:-0.631114 14:-0.28514 15:-0.238823 16:0.184626 17:0.400616 18:-0.446113 19:0.129092 20:-0.27146 21:-0.546795 22:-0.370092 23:0.0415664 24:0.374983 25:-0.283455 26:-0.993202 27:-0.591353 28:-0.940411 29:-0.864618 30:-0.685445 31:-0.819446 
0.02934523400216225 0.01511203480922333 0 0.009048661683864369 0.02092484239161499 0 0 0 0 1:-0.494313 2:-0.343683 3:-0.503568 4:-0.252275 5:-0.423043 6:-0.599303 7:-0.28653 8:-0.408513 9:-0.551486 10:-0.687477 11:-0.549447 12:0.033081 13:-0.762975 14:-0.284266 15:-0.060115 16:0.231012 17:0.232804 18:-0.342996 19:-0.0184074 20:-0.554163 21:-0.532446 22:-0.181675 23:0.100951 24:-0.00935279 25:-0.410076 26:-0.91812 27:-0.760087 28:-0.982577 29:-0.858458 30:-0.685433 31:-0.816095 
0.7432946965643753 0.673222504098128 0.6992116448889297 0.5218735358280823 0.5967332512390986 0.5979462259632116 0.704289120582049 0.6770961357966088 0.5762640888106315 1:-0.223839 2:0.153896 3:-0.434545 4:0.485607 5:-0.0925995 6:-0.529746 7:0.569062 8:0.133048 9:-0.213512 10:-0.58475 11:-0.151581 12:0.330469 13:-0.42137 14:-0.739101 15:0.175643 16:0.551891 17:0.511426 18:-0.398996 19:0.255187 20:-0.405573 21:-0.601274 22:-0.0269985 23:0.228197 24:0.268665 25:-0.344732 26:-0.992269 27:-0.581792 28:-0.911314 29:-0.868446 30:-0.713969 31:-0.824847 
0 0 0 0.07557439083570314 0.04729238859821533 0.02334854725764737 0.1352031771056279 0 0 1:-0.446751 2:-0.286689 3:-0.344436 4:-0.182082 5:-0.325294 6:-0.359702 7:-0.202683 8:-0.346958 9:-0.392392 10:-0.430504 11:-0.491578 12:-0.18492 13:-0.556136 14:-0.188663 15:-0.0308658 16:0.368438 17:0.108501 18:-0.362518 19:-0.208338 20:-0.248774 21:-0.406107 22:-0.14946 23:0.246106 24:-0.265037 25:-0.21174 26:-0.774993 27:-0.679948 28:-0.992189 29:-0.858454 30:-0.692306 31:-0.81681 
0.6839002896065669 0.6186959536115216 0.6597293504996026 0.4818021505744212 0.551891786167187 0.5523744377853126 0.6416481855363658 0.6098942153970592 0.5084544534702845 1:-0.607494 2:-0.659852 3:-0.629089 4:-0.676687 5:-0.6783 6:-0.692506 7:-0.655511 8:-0.673978 9:-0.741416 10:-0.755358 11:-0.675968 12:0.148844 13:-0.77241 14:0.698615 15:0.0995619 16:0.0449783 17:0.217412 18:-0.282633 19:0.079001 20:-0.389828 21:0.636094 22:0.0172511 23:-0.163086 24:-0.0112849 25:-0.255864 26:-0.973718 27:-0.853285 28:-0.73238 29:-0.827996 30:-0.688931 31:-0.84084 
0.1934890363854865 0.1738880453474224 0.1024176759941924 0.1345737201914633 0.157702164382444 0.1355701900144267 0.1931731694258785 0.1703860992895558 0.1494262690713166 1:-0.776733 2:-0.660426 3:-0.669391 4:-0.603332 5:-0.625743 6:-0.67009 7:-0.602294 8:-0.608559 9:-0.663652 10:-0.715455 11:-0.785825 12:0.0206987 13:-0.835834 14:-0.0163817 15:0.0258137 16:0.222518 17:0.137886 18:0.00231926 19:-0.244419 20:-0.177834 21:-0.433412 22:-0.052224 23:0.435253 24:-0.327299 25:0.0818192 26:-0.718009 27:-0.374744 28:-0.986214 29:-0.858286 30:-0.679563 31:-0.818078 
0.4343908571275814 0.395902705784659 0.4246597888613053 0.3075786825312763 0.3509951186439982 0.3465840834385543 0.4211171502216198 0.3985004328107409 0.3517689458835532 1:-0.777765 2:-0.570913 3:-0.665971 4:-0.441419 5:-0.508332 6:-0.669345 7:-0.40418 8:-0.417721 9:-0.570674 10:-0.714153 11:-0.746339 12:0.102161 13:-0.849666 14:-0.119246 15:0.192225 16:0.129823 17:0.160781 18:0.111754 19:-0.0779232 20:-0.227478 21:-0.668443 22:0.337093 23:0.128721 24:-0.211883 25:0.120779 26:-0.860495 27:-0.404611 28:-0.935355 29:-0.856506 30:-0.64367 31:-0.806294 
0.8795324321120782 0.79868910781086 0.8293738723637221 0.6173952794259188 0.7079552472819794 0.7083673334691161 0.8347370198420156 0.8017148688142837 0.7051135600269979 1:-0.808753 2:-0.655779 3:-0.656619 4:-0.582831 5:-0.624403 6:-0.605611 7:-0.575113 8:-0.635294 9:-0.640029 10:-0.627636 11:-0.833325 12:-0.124319 13:-0.757948 14:-0.0357479 15:-0.066461 16:0.249302 17:0.0623832 18:-0.00420042 19:-0.613159 20:0.249454 21:-0.518002 22:-0.284212 23:0.609705 24:-0.779254 25:0.373251 26:-0.0838558 27:0.00631421 28:-0.791818 29:-0.80993 30:-0.446159 31:-0.762813 
0 0 0 0 0 0.004073995651695801 0 0.002545794204563504 0 1:-0.751308 2:-0.607959 3:-0.791285 4:-0.5424 5:-0.689108 6:-0.828971 7:-0.546391 8:-0.657075 9:-0.753378 10:-0.858325 11:-0.799664 12:0.117205 13:-0.83909 14:-0.0437392 15:-0.110819 16:0.179654 17:0.258562 18:-0.124931 19:-0.0300643 20:-0.261476 21:-0.465862 22:-0.350052 23:0.253528 24:0.247601 25:-0.0613449 26:-0.920231 27:-0.476814 28:-0.985191 29:-0.858421 30:-0.697818 31:-0.818162 
0.5479058338197316 0.5036712982589647 0.5718113792899248 0.379897564359023 0.4517325866112492 0.4188128421821042 0.5352021320238332 0.5030852811008327 0.4557512662122166 1:-0.789019 2:-0.64938 3:-0.793166 4:-0.594195 5:-0.702065 6:-0.830486 7:-0.598793 8:-0.681461 9:-0.772714 10:-0.866113 11:-0.855164 12:0.0929219 13:-0.886853 14:-0.00554862 15:-0.121129 16:0.13857 17:0.222947 18:-0.140303 19:-0.106343 20:-0.340968 21:-0.420654 22:-0.406399 23:0.171474 24:0.113076 25:-0.126675 26:-0.85747 27:-0.595721 28:-0.999221 29:-0.858648 30:-0.695715 31:-0.81705 
0.1577836100527489 0.1439041866268171 0.1682760774517381 0.1053929469035071 0.1250757756272285 0.1355567741203177 0.1568481479127061 0.1467927447810142 0.1269399944751186 1:-0.818104 2:-0.666993 3:-0.787063 4:-0.587237 5:-0.677919 6:-0.80486 7:-0.571844 8:-0.62591 9:-0.726713 10:-0.839471 11:-0.808782 12:0.119906 13:-0.871152 14:-0.0423722 15:-0.00122557 16:0.193764 17:0.184608 18:0.107811 19:-0.0703739 20:-0.193845 21:-0.548643 22:-0.113193 23:0.423298 24:-0.0844228 25:0.141417 26:-0.87252 27:-0.331428 28:-0.998746 29:-0.858621 30:-0.697285 31:-0.817077 
0.2390188108054787 0.2163132593159384 0.2468854510718405 0.1749100666315891 0.1913782608565857 0.1794497238266944 0.202699124256018 0.2126506793726674 0.1921286372798028 1:-0.812526 2:-0.678297 3:-0.78361 4:-0.610655 5:-0.691173 6:-0.806283 7:-0.602673 8:-0.650699 9:-0.744085 10:-0.841288 11:-0.810202 12:0.112396 13:-0.87949 14:-0.0411779 15:-0.0389955 16:0.168557 17:0.200158 18:0.0793522 19:-0.0831514 20:-0.246214 21:-0.537253 22:-0.213607 23:0.315789 24:0.00400838 25:0.0860917 26:-0.858714 27:-0.485823 28:-0.997356 29:-0.858704 30:-0.694755 31:-0.817039 
0.7729899410337576 0.7012315260547702 0.7245933593116857 0.5427154499849998 0.6216909717800873 0.6204626094771528 0.7303595647335842 0.703019546899754 0.6196130559658651 1:-0.851462 2:-0.677501 3:-0.801789 4:-0.584825 5:-0.653249 6:-0.800994 7:-0.56483 8:-0.58637 9:-0.685179 10:-0.820676 11:-0.841589 12:0.180096 13:-0.857657 14:-0.097911 15:-0.042562 16:0.199747 17:0.218387 18:0.157403 19:0.0557308 20:-0.0171461 21:-0.769984 22:-0.238347 23:0.531249 24:0.14758 25:0.296972 26:-0.960459 27:0.135596 28:-0.980331 29:-0.860605 30:-0.690909 31:-0.816769 
0 0 0 0 0.08028867201725068 0 0 0 0 1:-0.391902 2:-0.209536 3:-0.304831 4:-0.116925 5:-0.287185 6:-0.353208 7:-0.166097 8:-0.343759 9:-0.408695 10:-0.444017 11:-0.559811 12:-0.254996 13:-0.590087 14:-0.2202 15:-0.0515472 16:0.267158 17:0.138836 18:-0.536927 19:-0.229784 20:-0.399832 21:-0.398766 22:-0.163156 23:0.0813303 24:-0.197167 25:-0.433172 26:-0.750027 27:-0.84719 28:-0.994979 29:-0.858714 30:-0.702158 31:-0.817127 
0.7392144245185881 0.6918585974321829 1.807976035878914 0.630836066065296 1.128891681875277 0.6827234012081924 1.176596641564543 1.093462001677183 1.854913822969398 1:-0.324509 2:-0.33172 3:-0.344521 4:-0.332507 5:-0.464024 6:-0.446014 7:-0.357325 8:-0.533369 9:-0.601338 10:-0.542167 11:-0.461405 12:-0.161273 13:-0.603664 14:0.508279 15:-0.10629 16:0.0443964 17:0.271625 18:-0.532385 19:-0.110439 20:-0.51364 21:0.11841 22:-0.19545 23:-0.170133 24:0.00760834 25:-0.508914 26:-0.870264 27:-0.967075 28:-0.968909 29:-0.858729 30:-0.70846 31:-0.817919 
0.6392138323947403 0.5641602319984961 0.6255647155139327 0.7110774754936856 1.232565954182131 0.4410251340973553 0.7946942989771385 0.7770231646816304 0.794924852893202 1:-0.212134 2:-0.0367066 3:-0.176884 4:0.0778088 5:-0.247814 6:-0.248518 7:0.032457 8:-0.328496 9:-0.419688 10:-0.349768 11:-0.338727 12:-0.504895 13:-0.439957 14:-0.212375 15:0.0590384 16:0.151323 17:0.189163 18:-0.571386 19:-0.27854 20:-0.442756 21:-0.314206 22:-0.092238 23:-0.0891014 24:-0.117919 25:-0.485975 26:-0.689096 27:-0.969123 28:-0.994636 29:-0.858608 30:-0.692163 31:-0.817009 
0.1056822083194805 0.1028705345939729 0.03950766261615487 0.05593328128881238 0.09068204756659397 0.03920647669007318 0.1133041330157197 0.08197346439852306 0.08225840211108273 1:-0.310934 2:-0.0591722 3:-0.371558 4:0.109597 5:-0.276068 6:-0.449334 7:0.0930988 8:-0.285806 9:-0.411351 10:-0.523992 11:-0.414085 12:-0.181131 13:-0.494875 14:-0.370021 15:-0.162682 16:0.25577 17:0.314861 18:-0.505543 19:-0.118373 20:-0.379429 21:-0.453472 22:-0.230753 23:0.0285915 24:0.0655384 25:-0.398015 26:-0.864662 27:-0.829549 28:-0.984197 29:-0.858978 30:-0.684242 31:-0.816486 
0.2944937885129504 0.3130860687084995 0.3399544135803321 0.2091063813591691 0.2623016340502936 0.2064788979587696 0.5769868466329848 0.5538181382109212 0.5654625602219645 1:-0.331651 2:-0.236402 3:-0.450877 4:-0.199223 5:-0.523356 6:-0.558459 7:-0.255067 8:-0.602535 9:-0.676744 10:-0.63942 11:-0.518772 12:-0.305152 13:-0.588401 14:0.0654557 15:-0.174783 16:0.0345244 17:0.32708 18:-0.579798 19:-0.225874 20:-0.4827 21:-0.174984 22:-0.243791 23:-0.179753 24:0.0928579 25:-0.519263 26:-0.754934 27:-0.950745 28:-0.993356 29:-0.858584 30:-0.692601 31:-0.817133 
0 0 0 0 0.2490601300184501 0 0 0 0 1:-0.335376 2:-0.256565 3:-0.443998 4:-0.229739 5:-0.523128 6:-0.540584 7:-0.288291 8:-0.60691 9:-0.660273 10:-0.614259 11:-0.525301 12:-0.284192 13:-0.56098 14:0.0831048 15:-0.218907 16:0.0662716 17:0.348677 18:-0.581319 19:-0.212208 20:-0.438139 21:-0.163281 22:-0.275443 23:-0.1483 24:0.1273 25:-0.489434 26:-0.770327 27:-0.925675 28:-0.992848 29:-0.858529 30:-0.696105 31:-0.817073 
0 0 0 0 0.04829856186017152 0 0 0 0 1:-0.379245 2:-0.247856 3:-0.432541 4:-0.204091 5:-0.456833 6:-0.523863 7:-0.265504 8:-0.535753 9:-0.598542 10:-0.607078 11:-0.608313 12:-0.240827 13:-0.610198 14:-0.00699632 15:-0.184031 16:0.138104 17:0.273252 18:-0.608861 19:-0.208238 20:-0.450344 21:-0.232458 22:-0.263761 23:-0.0669804 24:0.0283224 25:-0.516337 26:-0.774502 27:-0.930163 28:-0.998885 29:-0.858637 30:-0.695782 31:-0.817063 
0.1247802361846543 0.07068199980674375 0 0.08102173743735273 0 0.1090584608453221 0 0.06374602569852282 0 1:-0.491781 2:-0.388344 3:-0.570898 4:-0.3635 5:-0.578059 6:-0.653853 7:-0.415186 8:-0.628352 9:-0.702808 10:-0.714819 11:-0.69069 12:-0.12272 13:-0.692574 14:0.0457684 15:-0.155515 16:0.0472143 17:0.316407 18:-0.53979 19:-0.180318 20:-0.421312 21:-0.208076 22:-0.276967 23:-0.163324 24:0.171695 25:-0.44996 26:-0.805389 27:-0.913039 28:-0.986792 29:-0.858495 30:-0.688384 31:-0.8174 
0.3001799663203432 0.2705785184423065 0.3433982286792129 0.2180831566622013 0.2536371815610854 0.253758195990358 0.2515959966820929 0.1551941018149136 0 1:-0.544148 2:-0.298989 3:-0.715019 4:-0.15094 5:-0.521268 6:-0.768167 7:-0.154689 8:-0.44897 9:-0.615804 10:-0.794763 11:-0.633173 12:0.185439 13:-0.65646 14:-0.311353 15:-0.158014 16:0.211931 17:0.396396 18:-0.358585 19:0.13633 20:-0.24999 21:-0.616028 22:-0.301434 23:0.107807 24:0.4149 25:-0.209943 26:-0.995662 27:-0.542424 28:-0.912856 29:-0.869539 30:-0.683301 31:-0.822608 
0.6710538265761078 0.6174330649228431 0.6606021307194643 0.4686001766334746 0.5346353427080411 0.5414722798009454 0.6606678030823042 0.651116092335112 0.7388818280260525 1:-0.509887 2:-0.583456 3:-0.57521 4:-0.623343 5:-0.623522 6:-0.631222 7:-0.620878 8:-0.641874 9:-0.690108 10:-0.68109 11:-0.66112 12:0.186922 13:-0.632137 14:0.730562 15:0.0367457 16:-0.0438555 17:0.310308 18:-0.467289 19:0.141778 20:-0.269295 21:0.488223 22:-0.0821934 23:-0.298912 24:0.172112 25:-0.296145 26:-0.994352 27:-0.799811 28:-0.841821 29:-0.862028 30:-0.72387 31:-0.841321 
0.08451673903437394 0.1596357613349688 0 0.1311905620174948 0.1694439107565014 0.05414192255545108 0.005984744562739884 0.1026722377896676 0.9158310557994366 1:-0.432369 2:-0.239599 3:-0.570099 4:-0.130592 5:-0.48777 6:-0.63431 7:-0.147309 8:-0.492315 9:-0.610729 10:-0.685809 11:-0.552413 12:-0.0575455 13:-0.560675 14:-0.0677107 15:-0.181825 16:0.00496163 17:0.343892 18:-0.463175 19:-0.0788377 20:-0.283439 21:-0.295216 22:-0.279638 23:-0.217241 24:0.182308 25:-0.303176 26:-0.895622 27:-0.909556 28:-0.973953 29:-0.859295 30:-0.677011 31:-0.81776 
0.373753765690463 0.253882056508039 0.3714743197852192 0.2824014409702715 0.3073293388962013 0.3120749671478067 0.5110870095266047 0.3524740825934496 0.3683855625109201 1:-0.340809 2:-0.112535 3:-0.478733 4:0.0541061 5:-0.380371 6:-0.536431 7:0.058074 8:-0.378568 9:-0.500115 10:-0.579835 11:-0.372166 12:-0.0943441 13:-0.440165 14:-0.258164 15:-0.306975 16:0.0516511 17:0.438241 18:-0.417251 19:-0.0663164 20:-0.254125 21:-0.397363 22:-0.339225 23:-0.162642 24:0.26725 25:-0.252117 26:-0.905408 27:-0.821607 28:-0.957411 29:-0.861043 30:-0.666765 31:-0.817938 
0.1358836681675754 0.2512583555374291 0.1229803123819918 0.02734972894013738 0.07140682986261802 0.09957277520755109 0.2593817780929387 0.08096263241723167 0.2387849467544426 1:-0.247797 2:0.0153387 3:-0.441872 4:0.194192 5:-0.301726 6:-0.491172 7:0.186196 8:-0.301839 9:-0.425453 10:-0.523109 11:-0.36719 12:-0.0378113 13:-0.306435 14:-0.271265 15:-0.410416 16:-0.0500997 17:0.553509 18:-0.549919 19:0.00915407 20:-0.229448 21:-0.359901 22:-0.36168 23:-0.24902 24:0.341266 25:-0.323924 26:-0.942731 27:-0.791499 28:-0.942678 29:-0.861786 30:-0.667533 31:-0.820708 
0.8023021609128027 0.8887659993145287 0.7448474281923713 0.773937334504361 0.7889227823760134 0.6155886154023414 1.63574418009757 1.029184116672397 1.458647844109516 1:-0.152674 2:-8.8042e-05 3:-0.345849 4:0.123733 5:-0.364255 6:-0.400755 7:0.100611 8:-0.413888 9:-0.506106 10:-0.448 11:-0.205135 12:-0.276171 13:-0.218865 14:-0.0640003 15:-0.25762 16:-0.24947 17:0.511255 18:-0.539774 19:-0.104423 20:-0.273978 21:-0.226364 22:-0.24858 23:-0.373521 24:0.217068 25:-0.347954 26:-0.870807 27:-0.893508 28:-0.9586 29:-0.858945 30:-0.66231 31:-0.819431 
0.6442075821306412 0.5581877279366054 0.6083305332193025 0.4827085653084206 0.5329661033226942 0.5220490542956792 0.7277485465948327 0.6039263897135162 1.365038425700847 1:-0.264597 2:0.0382777 3:-0.512901 4:0.253987 5:-0.305662 6:-0.547354 7:0.261778 8:-0.263373 9:-0.413074 10:-0.563731 11:-0.364803 12:0.101681 13:-0.283076 14:-0.406497 15:-0.482915 16:-0.0282862 17:0.637038 18:-0.525197 19:0.10082 20:-0.171513 21:-0.446282 22:-0.413272 23:-0.232919 24:0.466387 25:-0.267253 26:-0.974547 27:-0.672333 28:-0.905175 29:-0.867604 30:-0.672309 31:-0.825891 
0.5883171573266317 0.6296285408541049 0.4448214073201323 0.3843606131856409 0.4764310170989794 0.4421480020912157 2.829057108523237 0.7435361713072226 2.101089571630529 1:-0.512144 2:-0.377116 3:-0.665709 4:-0.34045 5:-0.578875 6:-0.723289 7:-0.394343 8:-0.593171 9:-0.680933 10:-0.761688 11:-0.731974 12:0.0870324 13:-0.630215 14:-0.0114881 15:-0.240031 16:-0.00219859 17:0.356989 18:-0.563292 19:0.0326423 20:-0.260917 21:-0.270269 22:-0.374103 23:-0.236971 24:0.280796 25:-0.354669 26:-0.955686 27:-0.805274 28:-0.971869 29:-0.859305 30:-0.683148 31:-0.81866 
0.03997308996959677 0.03257143167949349 0 0.0184741717611932 0 0.07228187360041727 0 0.08766243224719407 0 1:-0.484978 2:-0.336093 3:-0.417324 4:-0.245293 5:-0.404904 6:-0.448863 7:-0.268228 8:-0.442359 9:-0.479725 10:-0.519732 11:-0.541236 12:-0.172308 13:-0.610296 14:-0.150794 15:-0.192138 16:0.356884 17:0.153359 18:-0.350973 19:-0.226451 20:-0.27521 21:-0.395484 22:-0.310539 23:0.271292 24:-0.182082 25:-0.222305 26:-0.754195 27:-0.629377 28:-0.98651 29:-0.858206 30:-0.686853 31:-0.816436 
0.01264842760984879 0.01350149937883561 0 0.01234203408918425 0.01789885612243268 0.005692160168618439 0 0 0 1:-0.645108 2:-0.405689 3:-0.585443 4:-0.28029 5:-0.421528 6:-0.629715 7:-0.287213 8:-0.389357 9:-0.519863 10:-0.695023 11:-0.771645 12:0.0400605 13:-0.799723 14:-0.218464 15:-0.0922379 16:0.252626 17:0.190092 18:-0.365062 19:-0.0903317 20:-0.386119 21:-0.632755 22:-0.258125 23:0.28898 24:-0.0875121 25:-0.308525 26:-0.885331 27:-0.456746 28:-0.988268 29:-0.858147 30:-0.700283 31:-0.817569 
0.6419480863906281 0.5836661342942675 0.6197585498054834 0.451522014897359 0.5192112184328158 0.5031753098248232 0.6094853926645166 0.5716141074094454 0.5268272676651725 1:-0.559529 2:-0.3627 3:-0.479768 4:-0.238756 5:-0.392363 6:-0.515131 7:-0.241913 8:-0.405159 9:-0.466709 10:-0.589903 11:-0.591414 12:-0.080369 13:-0.705704 14:-0.23913 15:-0.323557 16:0.405737 17:0.133975 18:-0.259687 19:-0.185683 20:-0.326696 21:-0.551804 22:-0.506656 23:0.449871 24:-0.242843 25:-0.196784 26:-0.794516 27:-0.165268 28:-0.945978 29:-0.859744 30:-0.6964 31:-0.807105 
0.1399654519287437 0.1282558866002286 0.1296634335218409 0.1046404233152074 0.1161338364294178 0.1202824815786853 0.1419142005558552 0.1315677243864809 0.1238639210079753 1:-0.6083 2:-0.307043 3:-0.578086 4:-0.0932278 5:-0.34151 6:-0.636566 7:-0.0431969 8:-0.207853 9:-0.464138 10:-0.703095 11:-0.616824 12:0.104158 13:-0.785889 14:-0.397572 15:0.214488 16:0.234338 17:0.223859 18:-0.177741 19:0.0188336 20:-0.421748 21:-0.821688 22:0.174858 23:0.206155 24:0.00813856 25:-0.20768 26:-0.934432 27:-0.407397 28:-0.885979 29:-0.862153 30:-0.635682 31:-0.791492 
0.3998781224824277 0.3629059545510669 0.3693829026496507 0.2783396267896958 0.3238208861490814 0.32045246762271 0.3828357611526333 0.3662351467388761 0.3234696799468877 1:-0.630565 2:-0.342114 3:-0.508883 4:-0.136769 5:-0.299111 6:-0.541381 7:-0.0848086 8:-0.191581 9:-0.404804 10:-0.621021 11:-0.620251 12:0.0118413 13:-0.808047 14:-0.360865 15:0.170936 16:0.247731 17:0.120855 18:-0.121454 19:-0.120684 20:-0.436621 21:-0.814457 22:0.131351 23:0.259316 24:-0.308603 25:-0.180263 26:-0.828423 27:-0.27195 28:-0.946133 29:-0.851676 30:-0.668026 31:-0.819313 
0.6540332172392975 0.5936475961467397 0.6314809420366143 0.4605419099532121 0.5261094200391527 0.5398561692939587 0.6016751602809131 0.6168464827724061 0.517929413254956 1:-0.747664 2:-0.625746 3:-0.711709 4:-0.585834 5:-0.655656 6:-0.73808 7:-0.603968 8:-0.667909 9:-0.703767 10:-0.784947 11:-0.844673 12:0.0342583 13:-0.829357 14:-0.00634549 15:-0.197777 16:0.269424 17:0.173441 18:-0.247745 19:-0.185084 20:-0.236944 21:-0.385251 22:-0.530557 23:0.517766 24:-0.146213 25:-0.12665 26:-0.799108 27:-0.133892 28:-0.941471 29:-0.849783 30:-0.637847 31:-0.817547 
0.682271066966338 0.6190140607755663 0.6433530303777089 0.4798246110321341 0.5493958393194633 0.5499883724068628 0.6422920215204456 0.6209305955756269 0.5449767592596795 1:-0.474562 2:-0.178587 3:-0.479745 4:0.058735 5:-0.229031 6:-0.551532 7:0.104584 8:-0.112023 9:-0.32867 10:-0.622737 11:-0.40969 12:0.171094 13:-0.671238 14:-0.603418 15:-0.221901 16:0.464178 17:0.271919 18:-0.199319 19:0.129225 20:-0.408979 21:-0.812021 22:-0.334457 23:0.406699 24:0.0662111 25:-0.213299 26:-0.975531 27:-0.0423259 28:-0.972235 29:-0.856377 30:-0.68655 31:-0.814396 
0.2240251384746153 0.1996137626742841 0.2130964141378695 0.1436128214352001 0.1110536058951208 0.1279452638386761 0.4101722062395843 0.1965921715041428 0.1667686519434499 1:-0.536103 2:-0.23192 3:-0.336456 4:-0.0303872 5:-0.167852 6:-0.316537 7:-0.00266508 8:-0.107993 9:-0.269883 10:-0.371816 11:-0.620114 12:-0.202746 13:-0.654763 14:-0.35416 15:0.344276 16:0.121718 17:0.102848 18:-0.356147 19:-0.30753 20:-0.263061 21:-0.652901 22:0.266475 23:-0.042548 24:-0.312064 25:-0.217362 26:-0.649793 27:-0.610179 28:-0.925776 29:-0.850191 30:-0.644802 31:-0.818189 
0.9487293357550332 0.8607179901380499 0.8931311950896811 0.6677994162355581 0.8008680918803838 0.8252968718826752 0.8980928227602338 0.8627719427905992 0.7597501394145252 1:0.359124 2:0.553826 3:0.766494 4:0.642344 5:0.792025 6:0.74566 7:0.482175 8:0.663554 9:0.662228 10:0.566347 11:-0.111201 12:-0.292837 13:-0.23428 14:-0.364192 15:0.350595 16:0.40347 17:-0.161566 18:-0.897192 19:0.0320957 20:-0.743817 21:-0.243212 22:-0.0512403 23:-0.0646971 24:-0.28978 25:-0.912687 26:-0.963776 27:-0.95091 28:-0.996623 29:-0.858637 30:-0.696922 31:-0.817016 
0.2250910350575779 0.2000844162741613 0.1952697703238243 0.1506551827505136 0.1943836211332723 0.1913035014869086 0.1608127423390637 0.2083106369295859 0.1212364950846826 1:-0.480383 2:-0.211691 3:-0.503208 4:-0.00328989 5:-0.321735 6:-0.588872 7:0.0305216 8:-0.217109 9:-0.457691 10:-0.668563 11:-0.433363 12:0.0368277 13:-0.710505 14:-0.481883 15:0.165953 16:0.2972 17:0.247916 18:-0.217182 19:-0.00879309 20:-0.473681 21:-0.706499 22:0.0404393 23:0.183353 24:0.0183609 25:-0.270059 26:-0.917939 27:-0.569139 28:-0.93498 29:-0.861018 30:-0.656585 31:-0.808036 
0.5539139623855426 0.5045600189784802 0.5285769522879228 0.3956025739065536 0.4463784164962553 0.4497565256122263 0.5154145286974848 0.5030995785689002 0.4477365303296972 1:-0.387145 2:-0.0934445 3:-0.278006 4:0.170105 5:-0.131577 6:-0.290051 7:0.242396 8:-7.46968e-05 9:-0.221225 10:-0.359481 11:-0.238883 12:-0.195629 13:-0.495679 14:-0.550712 15:0.59064 16:0.33684 17:0.118139 18:-0.187626 19:-0.175295 20:-0.257382 21:-0.647117 22:0.338652 23:0.156079 24:-0.231535 25:-0.100514 26:-0.80535 27:-0.373071 28:-0.948095 29:-0.85774 30:-0.643369 31:-0.808933 
0.7877380525845407 0.7161276085293339 0.7425768007585085 0.5546826571782782 0.6356131748484046 0.6351696973432345 0.7495581697266088 0.7186611247173331 0.6333897112923993 1:-0.447493 2:-0.181546 3:-0.391902 4:0.0532474 5:-0.16442 6:-0.416221 7:0.117825 8:-0.00357665 9:-0.18577 10:-0.474064 11:-0.300589 12:0.157148 13:-0.5409 14:-0.453685 15:0.258238 16:0.646133 17:0.21218 18:-0.123611 19:0.119083 20:-0.220312 21:-0.638414 22:0.110432 23:0.602593 24:-0.0630301 25:-0.031967 26:-0.985453 27:0.142401 28:-0.977698 29:-0.857635 30:-0.702208 31:-0.819888 
0 0 0 0 0 0 0.03556596246620185 0 0 1:-0.53333 2:-0.324437 3:-0.361199 4:-0.196548 5:-0.304615 6:-0.354791 7:-0.210806 8:-0.30678 9:-0.387722 10:-0.430535 11:-0.593308 12:-0.228549 13:-0.655379 14:-0.323597 15:0.154368 16:0.273237 17:0.00983458 18:-0.322409 19:-0.334023 20:-0.270028 21:-0.616048 22:0.051826 23:0.197241 24:-0.535818 25:-0.199583 26:-0.611311 27:-0.483916 28:-0.958774 29:-0.86268 30:-0.755606 31:-0.817302 
0.1571762863844236 0.1449281916489813 0.06153520189762746 0.1260501081346291 0.03079890214379766 0.01969378586587534 0 0.1640416397282627 0.1530798796413179 1:-0.450556 2:-0.203273 3:-0.46197 4:-0.0650732 5:-0.345439 6:-0.550558 7:-0.0907321 8:-0.335431 9:-0.501812 10:-0.640865 11:-0.612854 12:-0.11239 13:-0.695484 14:-0.294194 15:0.0472055 16:0.194164 17:0.211357 18:-0.506825 19:-0.141325 20:-0.490303 21:-0.501518 22:-0.0789479 23:0.0250909 24:-0.0641289 25:-0.475633 26:-0.842652 27:-0.852624 28:-0.977422 29:-0.858329 30:-0.679674 31:-0.815986 
0.3448962011083499 0.3127427156191137 0.3663075960789601 0.2418684909063275 0.2796148355036238 0.2759626122022875 0.3376864030382382 0.3170124272073427 0.2744442331220927 1:-0.550274 2:-0.331576 3:-0.589943 4:-0.171836 5:-0.409604 6:-0.643227 7:-0.142061 8:-0.284965 9:-0.480887 10:-0.697533 11:-0.511823 12:0.169927 13:-0.67462 14:-0.21353 15:0.344348 16:0.394191 17:0.261821 18:-0.159565 19:0.117282 20:-0.276697 21:-0.512765 22:0.281631 23:0.415342 24:0.0833615 25:-0.0950876 26:-0.983294 27:-0.266167 28:-0.905244 29:-0.8606 30:-0.72032 31:-0.838798 
0.4685100651686527 0.4269630295486317 0.4490361383466352 0.4310183359561737 0.3711635317545579 0.3771785693243461 0.4832613634702979 0.4577108212282145 0.383489545851201 1:-0.428323 2:-0.226985 3:-0.30874 4:-0.0436782 5:-0.208498 6:-0.349118 7:0.00866566 8:-0.0963145 9:-0.318208 10:-0.435955 11:-0.289749 12:-0.0608897 13:-0.634595 14:-0.134751 15:0.560206 16:0.196141 17:0.149656 18:-0.155187 19:-0.0798626 20:-0.417234 21:-0.349806 22:0.359176 23:0.0171206 24:-0.182669 25:-0.189447 26:-0.870257 27:-0.632047 28:-0.962896 29:-0.861506 30:-0.696262 31:-0.816357 
0.4554919186535896 0.4077294812746551 0.4021203121026964 0.3148632895377894 0.3313833211970064 0.3598487390264661 0.4161529672230396 0.4082685812821373 0.3462399774751121 1:-0.263291 2:0.0565538 3:-0.204212 4:0.319667 5:-0.000997205 6:-0.238509 7:0.354484 8:0.124246 9:-0.0875204 10:-0.314317 11:-0.239416 12:-0.0788404 13:-0.395062 14:-0.656472 15:0.430043 16:0.434185 17:0.187284 18:-0.414484 19:-0.0238961 20:-0.317236 21:-0.590922 22:0.133443 23:0.161273 24:-0.118739 25:-0.293957 26:-0.934618 27:-0.607521 28:-0.966764 29:-0.859244 30:-0.676752 31:-0.813822 
0.1168622738860673 0.1060182939335919 0.09668832471170757 0.02098579468413617 0.0931071137287038 0.08782088463499482 0.05851130008680527 0.09089367099571327 0.08401765347754263 1:-0.46605 2:-0.25731 3:-0.311983 4:-0.064448 5:-0.201495 6:-0.325945 7:-0.00894027 8:-0.0744368 9:-0.291723 10:-0.396318 11:-0.299493 12:-0.0579369 13:-0.629931 14:-0.242325 15:0.601173 16:0.174035 17:0.150035 18:-0.0766431 19:-0.0973911 20:-0.34676 21:-0.467761 22:0.443927 23:0.00583379 24:-0.186619 25:-0.0880308 26:-0.855613 27:-0.499473 28:-0.934938 29:-0.862805 30:-0.665365 31:-0.808314 
0.1859111769373977 0.1343799906021078 0.140430397882891 0.1470785222258229 0.3934807651014303 0.06205717230933916 0.0464977299788094 0.2636967018028051 0.1208795087689187 1:-0.358431 2:-0.0927402 3:-0.258201 4:0.0839914 5:-0.108696 6:-0.305336 7:0.0800322 8:-0.0512826 9:-0.238747 10:-0.392224 11:-0.459558 12:-0.0989369 13:-0.567127 14:-0.334965 15:0.338313 16:0.190033 17:0.178978 18:-0.479591 19:-0.078183 20:-0.41432 21:-0.462065 22:0.124832 23:-0.0177711 24:-0.128749 25:-0.404788 26:-0.897354 27:-0.830273 28:-0.969693 29:-0.858492 30:-0.673979 31:-0.815158 
0.7830434227709309 0.7114744660196453 0.7354201163662509 0.5517375850061333 0.6306276963893735 0.6313513816949248 0.7424505761584911 0.7143518203627598 0.6295994058187099 1:-0.492443 2:-0.240477 3:-0.636213 4:0.00148394 5:-0.426127 6:-0.687938 7:0.0856838 8:-0.232566 9:-0.491031 10:-0.727494 11:-0.260011 12:0.20775 13:-0.589066 14:-0.445077 15:0.487909 16:0.456732 17:0.355382 18:0.0462926 19:0.165342 20:-0.219511 21:-0.687739 22:0.368869 23:0.422581 24:0.257111 25:0.0824301 26:-0.973427 27:-0.100851 28:-0.795162 29:-0.904758 30:-0.762494 31:-0.865237 
0.3668678922806742 0.3443138234279099 0.3749133546334263 0.2841096225172296 0.2646093065250864 0.2856725567267637 0.3737233771606127 0.3303538233577377 0.3415792173094568 1:-0.330103 2:-0.0887932 3:-0.402841 4:0.102427 5:-0.27583 6:-0.499781 7:0.123958 8:-0.196063 9:-0.419821 10:-0.59633 11:-0.309742 12:-0.0532036 13:-0.568672 14:-0.301183 15:0.297271 16:0.275414 17:0.215419 18:-0.372054 19:-0.0297085 20:-0.456454 21:-0.420349 22:0.0814202 23:0.0564297 24:-0.074597 25:-0.3619 26:-0.92424 27:-0.822515 28:-0.97883 29:-0.859425 30:-0.687378 31:-0.816559 
0.1209072715656222 0.11028247125219 0.1163212320415519 0.06232433791811576 0.07777874027414503 0.09197385213832161 0.1180549075516543 0.1030782058356641 0.09569212728825971 1:-0.45478 2:-0.171939 3:-0.421817 4:0.0600606 5:-0.229574 6:-0.468448 7:0.126969 8:-0.0892175 9:-0.329334 10:-0.540323 11:-0.371561 12:0.00939537 13:-0.599075 14:-0.338528 15:0.441947 16:0.317217 17:0.200224 18:-0.195513 19:-0.0256309 20:-0.310603 21:-0.544656 22:0.282757 23:0.187586 24:-0.0855262 25:-0.142642 26:-0.924714 27:-0.509073 28:-0.947509 29:-0.864065 30:-0.680886 31:-0.814919 
0.01781856711725192 0.01607113451469232 0 0.009220802925060032 0.01309981106183707 0.01190548062346591 0.008938223297683987 0.01406689718756864 0.01337542329049926 1:-0.612847 2:-0.358357 3:-0.636681 4:-0.156449 5:-0.434362 6:-0.683913 7:-0.0813643 8:-0.283726 9:-0.51978 10:-0.735332 11:-0.505286 12:0.14606 13:-0.726914 14:-0.202423 15:0.337104 16:0.304027 17:0.237297 18:0.0307514 19:0.0738384 20:-0.265196 21:-0.567295 22:0.348793 23:0.348793 24:0.0503975 25:0.0403911 26:-0.950082 27:-0.268293 28:-0.89803 29:-0.872569 30:-0.729155 31:-0.83337 
0.3463503336340523 0.3149301566835185 0.3281884326604124 0.2547412215660784 0.2809295203502405 0.2791747780264533 0.3052009960887582 0.3177568621373664 0.2772481100085963 1:-0.581923 2:-0.308548 3:-0.43552 4:-0.0887438 5:-0.267393 6:-0.418682 7:-0.0124595 8:-0.135357 9:-0.344687 10:-0.460394 11:-0.477506 12:-0.0814419 13:-0.637139 14:-0.300326 15:0.513809 16:0.109002 17:0.146786 18:-0.0174677 19:-0.205961 20:-0.120432 21:-0.653156 22:0.533729 23:-0.0480408 24:-0.214443 25:0.108299 26:-0.770375 27:-0.332053 28:-0.86875 29:-0.848242 30:-0.551528 31:-0.785816 
0.06070399171730431 0.0427720540054358 0.04044057871904204 0.04316091819242406 0.03496929911281705 0.06713984169312989 0.3734910032677482 0.06012355156042192 0.0428366349268362 1:-0.61836 2:-0.387713 3:-0.424272 4:-0.262418 5:-0.334784 6:-0.377016 7:-0.264145 8:-0.333226 9:-0.39066 10:-0.410126 11:-0.726048 12:-0.204298 13:-0.642356 14:-0.172869 15:0.185444 16:0.183756 17:0.0706558 18:-0.344544 19:-0.408739 20:-0.0378515 21:-0.53354 22:0.142784 23:0.115811 24:-0.455895 25:-0.0536772 26:-0.483772 27:-0.576115 28:-0.981824 29:-0.859319 30:-0.724226 31:-0.818137 
0.327421584049061 0.316593608797025 0.3302360692188122 0.242396614035732 0.276976362396226 0.2632831928406912 0.193423032756512 0.3183383094451147 0.2793844002289966 1:-0.580924 2:-0.375003 3:-0.322714 4:-0.267833 5:-0.287133 6:-0.240507 7:-0.287273 8:-0.332898 9:-0.321527 10:-0.269323 11:-0.695845 12:-0.30078 13:-0.600224 14:-0.211395 15:0.0472055 16:0.28783 17:-0.050127 18:-0.377746 19:-0.481883 20:-0.0366562 21:-0.542083 22:-0.0594972 23:0.274545 24:-0.755706 25:-0.0750998 26:-0.34964 27:-0.440393 28:-0.888807 29:-0.858412 30:-0.732579 31:-0.792753 
0.8463769862739066 0.7765144455783661 0.7231465384205151 0.5464529304306716 0.6391279290449232 0.6120800863930269 0.8115351878361431 0.8153856847898308 0.6090249721686155 1:-0.30334 2:-0.00606803 3:-0.100395 4:0.203605 5:-0.0277747 6:-0.0436645 7:0.195315 8:-0.027076 9:-0.120176 10:-0.0797395 11:-0.396901 12:-0.470885 13:-0.318542 14:-0.578012 15:0.424522 16:0.138404 17:0.0217948 18:-0.500062 19:-0.328692 20:-0.149007 21:-0.580053 22:0.152501 23:-0.083347 24:-0.350841 25:-0.234832 26:-0.605846 27:-0.753021 28:-0.944862 29:-0.856 30:-0.712277 31:-0.821524 
0.7173776156746852 0.6176821920159488 0.6401498068496065 0.4797952554698803 0.5448796053552641 0.5217190253723888 0.6469171844875585 0.6180169819924476 0.5468609244882014 1:-0.469194 2:-0.318953 3:-0.20471 4:-0.204021 5:-0.258026 6:-0.128971 7:-0.214143 8:-0.309502 9:-0.281316 10:-0.1722 11:-0.44202 12:-0.37948 13:-0.518897 14:-0.239221 15:-0.0734469 16:0.501662 17:-0.0987014 18:-0.253523 19:-0.420777 20:-0.135653 21:-0.467402 22:-0.191039 23:0.449664 24:-0.698511 25:-0.0603966 26:-0.472825 27:-0.316737 28:-0.869036 29:-0.839177 30:-0.606944 31:-0.793917 
0 0 0.02240789958204025 0.06575324084333073 0.1542819814774922 0.2974071395114476 0 0 0 1:-0.378971 2:-0.163755 3:-0.267245 4:-0.032008 5:-0.181001 6:-0.311098 7:-0.057533 8:-0.169055 9:-0.295722 10:-0.403029 11:-0.493185 12:-0.144995 13:-0.58903 14:-0.265193 15:0.227409 16:0.27212 17:0.134541 18:-0.483238 19:-0.127164 20:-0.417665 21:-0.424961 22:0.0516879 23:0.0793094 24:-0.202451 25:-0.409544 26:-0.856836 27:-0.791529 28:-0.994254 29:-0.858583 30:-0.69182 31:-0.816895 
0.4016311288002104 0.3111710358625379 0.3250407494211402 0.2439745205164274 0.2813169284516869 0.266755569734333 0.3946002457621211 0.3195689725605768 0.2783673051585129 1:-0.49923 2:-0.276226 3:-0.229629 4:-0.137306 5:-0.163637 6:-0.160137 7:-0.144034 8:-0.166526 9:-0.205882 10:-0.201718 11:-0.569581 12:-0.266851 13:-0.577272 14:-0.272251 15:0.233738 16:0.295394 17:-0.0337811 18:-0.360514 19:-0.339005 20:-0.182261 21:-0.525354 22:0.117811 23:0.198108 24:-0.598608 25:-0.164352 26:-0.602738 27:-0.455806 28:-0.968698 29:-0.8603 30:-0.729926 31:-0.814201 
0.4051134363155621 0.3615541187815453 0.3913708630828434 0.2399458493507057 0.342603883475093 0.7490546798821575 0.3898619942090945 0.3774842739586329 0.3051956651777823 1:-0.450588 2:-0.279561 3:-0.29283 4:-0.194171 5:-0.289331 6:-0.284715 7:-0.234445 8:-0.350936 9:-0.352017 10:-0.35351 11:-0.596051 12:-0.269567 13:-0.551272 14:-0.163206 15:-0.045158 16:0.397522 17:0.0400386 18:-0.48575 19:-0.292955 20:-0.232737 21:-0.386101 22:-0.162609 23:0.287561 24:-0.400811 25:-0.28321 26:-0.664788 27:-0.63595 28:-0.968366 29:-0.856684 30:-0.668556 31:-0.815514 
0.1410005299220974 0.1318610863868802 0.2224283283580791 0.09279620048841505 0.09764495770560778 0.1276447573881796 0.1895016385488097 0.1141979954760321 0.1566891577471469 1:-0.308789 2:-0.033576 3:-0.330806 4:0.152746 5:-0.174776 6:-0.419986 7:0.140402 8:-0.144093 9:-0.315866 10:-0.511844 11:-0.41858 12:-0.0675571 13:-0.548565 14:-0.435637 15:-0.0603404 16:0.341921 17:0.258907 18:-0.513022 19:-0.0324718 20:-0.456741 21:-0.494037 22:-0.163004 23:0.108357 24:-0.0151707 25:-0.456551 26:-0.928933 27:-0.775134 28:-0.988123 29:-0.858688 30:-0.689936 31:-0.81652 
0.7135368096479013 0.648120989956791 0.6582549310462552 0.5052554124355494 0.5903401531312935 1.02784694864151 0.6744558728179469 0.7395583395467833 0.5768766086389446 1:-0.608703 2:-0.535788 3:-0.4717 4:-0.502288 5:-0.588711 6:-0.453774 7:-0.521772 8:-0.665256 9:-0.646339 10:-0.504666 11:-0.672716 12:-0.336287 13:-0.64833 14:0.0851983 15:-0.179086 16:0.269044 17:0.0657115 18:-0.273988 19:-0.572868 20:-0.0789802 21:-0.178918 22:-0.364011 23:0.274341 24:-0.461789 25:-0.0348792 26:-0.176596 27:-0.758462 28:-0.881752 29:-0.845342 30:-0.471106 31:-0.814491 
1.38443710951313 0.9938055815104344 1.106074259778518 0.7602986731746207 1.349940350822612 1.607855404919435 1.030059367820392 1.045936225121759 1.078064478377798 1:-0.350337 2:-0.191279 3:-0.118461 4:-0.153533 5:0.0570853 6:-0.0830985 7:-0.242616 8:0.0527651 9:0.0690442 10:-0.132769 11:-0.680806 12:0.2974 13:-0.473279 14:-0.0989511 15:0.190562 16:0.160284 17:0.0882646 18:-0.72225 19:0.243498 20:-0.286701 21:-0.291298 22:0.0141098 23:-0.0510539 24:-0.270358 25:-0.479025 26:-0.973085 27:-0.915977 28:-0.998311 29:-0.858645 30:-0.696627 31:-0.81707 
0.4798097950418597 0.4541887672641203 0.4528009366456887 0.3705839591873288 0.4209737600542234 0.3705286330037867 0.504464672630824 0.4174955797369524 0.47458913326859 1:-0.204363 2:0.11344 3:-0.201762 4:0.350556 5:-0.0856881 6:-0.291317 7:0.359385 8:-0.0579 9:-0.273119 10:-0.401193 11:-0.289605 12:-0.320371 13:-0.462228 14:-0.520991 15:0.252611 16:0.205228 17:0.192517 18:-0.54086 19:-0.156636 20:-0.47835 21:-0.471295 22:0.0101464 23:-0.0495767 24:-0.114276 25:-0.490162 26:-0.829137 27:-0.897 28:-0.97201 29:-0.858011 30:-0.674897 31:-0.816021 
0.06200412638526281 0.05101112099486477 0 0.01746539659639354 0.04481726949553416 0.03818092766950509 0 0 0.002791179899806507 1:-0.434788 2:-0.212329 3:-0.465172 4:-0.102094 5:-0.352488 6:-0.565198 7:-0.147009 8:-0.363274 9:-0.507945 10:-0.653421 11:-0.633986 12:-0.0547643 13:-0.704773 14:-0.261194 15:-0.126373 16:0.20987 17:0.258095 18:-0.558013 19:-0.0774814 20:-0.528682 21:-0.460281 22:-0.232147 23:0.037161 24:0.0217659 25:-0.536499 26:-0.897038 27:-0.827347 28:-0.98698 29:-0.85865 30:-0.688968 31:-0.816513 
0.3779371308657806 0.3425258617525083 1.162153659220014 0.2650629577206225 0.3187082791693378 0.6122131394443587 0.2834215577168741 0.341088987026661 0.2171178660699569 1:-0.454586 2:-0.430465 3:-0.408181 4:-0.436455 5:-0.527519 6:-0.453693 7:-0.479247 8:-0.646604 9:-0.600103 10:-0.521806 11:-0.626832 12:-0.226333 13:-0.605876 14:0.249754 15:-0.506085 16:0.310845 17:0.229869 18:-0.517723 19:-0.254692 20:-0.323187 21:-0.0209565 22:-0.584518 23:0.179111 24:-0.0267221 25:-0.367245 26:-0.718011 27:-0.634857 28:-0.924781 29:-0.851183 30:-0.618503 31:-0.822053 
0 0 0.4931073243352987 0 0.03162034539534186 0 0 0 0.2117599913450753 1:-0.451007 2:-0.39174 3:-0.410768 4:-0.384026 5:-0.469957 6:-0.489199 7:-0.44219 8:-0.561857 9:-0.583652 10:-0.582405 11:-0.636795 12:-0.141618 13:-0.699385 14:0.0588758 15:-0.334874 16:0.207259 17:0.199795 18:-0.536047 19:-0.169831 20:-0.496623 21:-0.190417 22:-0.425341 23:0.0422281 24:-0.0867999 25:-0.499584 26:-0.815503 27:-0.830166 28:-0.984358 29:-0.858258 30:-0.68273 31:-0.81655 
0 0 0 0 0 0 0.3825062324480888 0 0 1:-0.492459 2:-0.397873 3:-0.535663 4:-0.380057 5:-0.540034 6:-0.616159 7:-0.433388 8:-0.605578 9:-0.653814 10:-0.682347 11:-0.698686 12:-0.0865335 13:-0.697587 14:0.0652183 15:-0.289685 16:0.13756 17:0.298927 18:-0.549521 19:-0.14292 20:-0.429921 21:-0.189181 22:-0.411951 23:-0.0340422 24:0.13413 25:-0.462439 26:-0.842508 27:-0.799674 28:-0.998051 29:-0.858656 30:-0.698164 31:-0.817028 
0.3540232202719951 0.3171283017035246 0 0.2475100493123633 0.3017998731328392 0.2292064742742357 0.4580775545363426 0.7287120893518004 0.3818951787884305 1:-0.483333 2:-0.479581 3:-0.429653 4:-0.495482 5:-0.559965 6:-0.477715 7:-0.536155 8:-0.671439 9:-0.639003 10:-0.544754 11:-0.651449 12:-0.200483 13:-0.647894 14:0.269857 15:-0.456687 16:0.228248 17:0.244808 18:-0.501292 19:-0.25406 20:-0.349956 21:0.00725934 22:-0.56945 23:0.0895752 24:0.0128584 25:-0.374767 26:-0.72016 27:-0.686299 28:-0.942001 29:-0.853982 30:-0.639825 31:-0.820248 
0.1120660232000177 0.1022557685327901 0.02409369952446187 0.06420819420984146 0.08961401290593678 0.0786471524722492 0.07666643131634696 0.09268510398339667 0.1191540123667793 1:-0.664181 2:-0.532312 3:-0.596689 4:-0.474581 5:-0.564229 6:-0.635976 7:-0.489421 8:-0.593154 9:-0.639655 10:-0.703673 11:-0.744394 12:-0.0623431 13:-0.809322 14:-0.00728947 15:-0.223912 16:0.279273 17:0.154001 18:-0.264071 19:-0.260275 20:-0.373294 21:-0.330186 22:-0.478169 23:0.377618 24:-0.211117 25:-0.23198 26:-0.704391 27:-0.452887 28:-0.943583 29:-0.852349 30:-0.63828 31:-0.814174 
0.2130065729609477 0.1915291047832725 0.0598874033461442 0.1484953943401263 0.1609025071090885 0.1544985490354077 0.1960232247276388 0.1478283510563699 0 1:-0.599723 2:-0.490248 3:-0.568012 4:-0.46853 5:-0.545537 6:-0.626214 7:-0.514898 8:-0.597287 9:-0.636894 10:-0.693737 11:-0.787917 12:-0.0337856 13:-0.777494 14:0.0129624 15:-0.231357 16:0.208536 17:0.221292 18:-0.492567 19:-0.15937 20:-0.417029 21:-0.271922 22:-0.427892 23:0.147886 24:-0.00268605 25:-0.415354 26:-0.826637 27:-0.705651 28:-0.99275 29:-0.858415 30:-0.689395 31:-0.817096 
0.3049231494603583 0.2778910811295299 0.2920890922232676 0.2153896848416716 0.2450017914432056 0.2433771795868166 0.3044129514061711 0.2746332746775569 0.2401767567183717 1:-0.610251 2:-0.327366 3:-0.601196 4:-0.106098 5:-0.338687 6:-0.657012 7:-0.0413512 8:-0.173985 9:-0.436288 10:-0.712712 11:-0.524961 12:0.244269 13:-0.766624 14:-0.440664 15:0.110863 16:0.302841 17:0.26532 18:-0.0118915 19:0.206904 20:-0.370036 21:-0.883155 22:0.0339448 23:0.342594 24:0.13271 25:-0.0607589 26:-0.958284 27:-0.189268 28:-0.892513 29:-0.871483 30:-0.697857 31:-0.794853 
0.781728541218387 0.8572126500827796 0.7837418329965342 0.5649529743615708 0.8008386869001514 0.6107669044706799 1.037593031557871 0.9452028506560238 0.9009268117708333 1:-0.340228 2:-0.271676 3:-0.453238 4:-0.220205 5:-0.550146 6:-0.502073 7:-0.255231 8:-0.61666 9:-0.673112 10:-0.538793 11:-0.413022 12:-0.315223 13:-0.417156 14:0.0849576 15:-0.22317 16:-0.20066 17:0.459937 18:-0.459953 19:-0.240081 20:-0.221569 21:-0.162214 22:-0.28001 23:-0.415522 24:0.299854 25:-0.25819 26:-0.733718 27:-0.819086 28:-0.953062 29:-0.857372 30:-0.642795 31:-0.820467 
1.012830670929021 0.8335869878509669 0.8349193805343856 0.622476489738469 0.7129233984049282 0.7129324064666217 0.8402652923469295 0.8191809797744987 0.7111381817341701 1:-0.733122 2:-0.544229 3:-0.81551 4:-0.450895 5:-0.64544 6:-0.818389 7:-0.44729 8:-0.590031 9:-0.695703 10:-0.823499 11:-0.801922 12:0.225419 13:-0.708863 14:-0.071156 15:-0.222476 16:0.0690011 17:0.335452 18:-0.189402 19:0.177777 20:0.131362 21:-0.500361 22:-0.56098 23:-0.0883224 24:0.559877 25:0.16741 26:-0.988244 27:-0.351034 28:-0.922083 29:-0.868305 30:-0.691295 31:-0.825835 
0.351910096138417 0.3144711669378602 0.3189493268606282 0.2373103464532252 0.2727621696088612 0.2740621934175303 0.2268146277031501 0.3354698262651965 0.3231083422645246 1:-0.589856 2:-0.333703 3:-0.689014 4:-0.149228 5:-0.478016 6:-0.733108 7:-0.113775 8:-0.37142 9:-0.561067 10:-0.766678 11:-0.561106 12:0.194742 13:-0.675392 14:-0.362562 15:-0.0789885 16:0.263378 17:0.325601 18:-0.133067 19:0.142483 20:-0.191716 21:-0.743151 22:-0.221744 23:0.240575 24:0.287792 25:-0.0185033 26:-0.992121 27:-0.392445 28:-0.92158 29:-0.869407 30:-0.686115 31:-0.811748 
0.5103244159160264 0.462481587372305 0.4818425303711141 0.3582505084652967 0.4104535142016919 0.410405405958165 0.4734373549300464 0.4640877329303195 0.4104574072180985 1:-0.394191 2:-0.0260501 3:-0.511071 4:0.257478 5:-0.189887 6:-0.550589 7:0.303475 8:-0.0377992 9:-0.269614 10:-0.571057 11:-0.431972 12:0.258549 13:-0.445247 14:-0.746634 15:-0.25031 16:0.373882 17:0.517848 18:-0.389625 19:0.214002 20:-0.163674 21:-0.806517 22:-0.321052 23:0.203334 24:0.45496 25:-0.17099 26:-0.995715 27:-0.269101 28:-0.872498 29:-0.884302 30:-0.703919 31:-0.810337 
0.9385139379424438 0.8528632257228799 0.8855688833059673 0.6594099452668016 0.7556651879823678 0.755988172099232 0.8903170370950255 0.8552881838882253 0.7528735855884424 1:-0.686027 2:-0.415056 3:-0.77447 4:-0.207448 5:-0.46767 6:-0.778367 7:-0.136993 8:-0.277588 9:-0.497864 10:-0.772364 11:-0.591425 12:0.463063 13:-0.658787 14:-0.35976 15:-0.0721044 16:0.3697 17:0.444364 18:0.11715 19:0.56316 20:0.124616 21:-0.934687 22:-0.240698 23:0.638372 24:0.870107 25:0.368137 26:-0.805711 27:0.834874 28:-0.700597 29:-0.909126 30:-0.867213 31:-1 
0.5775201342949441 0.5276880128691639 0.5457410811679388 0.4018602900528317 0.4631595744388427 0.4640288310769037 0.540869726289394 0.5237350490482865 0.5436744149178013 1:-0.368201 2:0.0184762 3:-0.607527 4:0.325822 5:-0.296558 6:-0.651225 7:0.394565 8:-0.152815 9:-0.41074 10:-0.665283 11:-0.390879 12:0.259083 13:-0.432848 14:-0.701706 15:-0.386328 16:0.155192 17:0.596106 18:-0.39033 19:0.213437 20:-0.194076 21:-0.73602 22:-0.411782 23:-0.0514347 24:0.548447 25:-0.192508 26:-0.997226 27:-0.462805 28:-0.826551 29:-0.894098 30:-0.709732 31:-0.812843 
0.8910073213026432 0.8591756829128581 0.8642868891384174 0.6261594458042734 0.7201344002289183 0.7169618648505777 1.646551263356191 0.8134433532146361 1.348584909991841 1:-0.0433135 2:0.201736 3:-0.338731 4:0.371218 5:-0.064404 6:-0.505168 7:0.317529 8:0.029735 9:-0.249373 10:-0.599528 11:-0.209871 12:0.42712 13:-0.4405 14:-0.45441 15:-0.208904 16:0.444822 17:0.48989 18:-0.663213 19:0.288439 20:-0.618706 21:-0.361956 22:-0.207695 23:0.0531058 24:0.136177 25:-0.669307 26:-0.986285 27:-0.840399 28:-0.984319 29:-0.858821 30:-0.699528 31:-0.8177 
-1.048696275906182 0.8937075674079256 0.9436423919890187 0.7035198129314784 0.8178385069580572 0.7992113591385698 0.9464615751188943 0.9174089861462957 0.8144510449720671 1:-0.407721 2:-0.427364 3:-0.29595 4:-0.509089 5:-0.293045 6:-0.0499907 7:-0.616585 8:-0.314229 9:0.057003 10:0.180478 11:-0.789907 12:0.0335952 13:0.273696 14:0.0290782 15:0.64504 16:0.183131 17:-0.367421 18:-0.690644 19:0.0384934 20:0.946172 21:-0.0143348 22:0.131356 23:-0.0519834 24:-0.041755 25:0.246542 26:-0.524617 27:-0.931845 28:-0.958192 29:0.669146 30:0.171965 31:0.781222 
-1.050871576170043 0.8956458036801577 0.94583100309018 0.7053514950649039 0.8194747014239598 0.8008828956799127 0.94908854748557 0.9197570403712928 0.8164587717961497 1:-0.107863 2:-0.126871 3:-0.0135852 4:-0.116978 5:-0.193345 6:0.272724 7:-0.116948 8:-0.228472 9:0.121824 10:0.561934 11:0.0055869 12:-1 13:0.726666 14:0.153333 15:0.474563 16:0.441949 17:0.0793051 18:-0.51003 19:-0.345822 20:0.500216 21:0.00463265 22:-0.123487 23:-0.0121257 24:0.176403 25:0.130359 26:-0.62756 27:-0.987136 28:-0.911752 29:0.67087 30:0.108314 31:0.782508 
-1.048494242613506 0.8936441458196214 0.9438539977970575 0.7037320119904006 0.8177283629220555 0.7986050965696669 0.9467693375409603 0.9175851992189161 0.8158137680032146 1:-0.296679 2:-0.338416 3:-0.187733 4:-0.452557 5:-0.109088 6:-0.0263827 7:-0.587365 8:-0.108026 9:0.222657 10:0.0985731 11:-0.791546 12:0.468416 13:0.111286 14:0.0652254 15:0.757572 16:0.391175 17:-0.660095 18:-0.828401 19:0.235209 20:0.238488 21:-0.00739698 22:0.115785 23:0.023433 24:-0.19596 25:-0.223759 26:-0.683995 27:-0.8949 28:-0.956988 29:0.665552 30:0.127425 31:0.784113 
-1.050773206179061 0.8956056315061937 0.9459248993620144 0.7054427363114946 0.8198328195389561 0.80070100243996 0.9486008324531063 0.9196309546037129 0.816384772867887 1:-0.160979 2:-0.14383 3:-0.0497282 4:-0.179113 5:-0.158009 6:0.260489 7:-0.256256 8:-0.222216 9:0.150151 10:0.533707 11:-0.399819 12:-0.835228 13:0.725955 14:-0.251477 15:0.649039 16:-0.196818 17:-0.590797 18:-0.699553 19:-0.307135 20:0.674739 21:-0.0985459 22:-0.0241721 23:-0.235116 24:-0.116264 25:0.0957548 26:-0.504485 27:-0.964383 28:-0.983863 29:0.666993 30:0.146926 31:0.781918 
-1.053396624248959 0.8976085311912998 0.9481130994602029 0.7069575877700847 0.8217107503666932 0.8027632848869423 0.9511784131113097 0.9218611105181033 0.8180277013379393 1:-0.737187 2:-0.727781 3:-0.464419 4:-0.752329 5:-0.522807 6:-0.269208 7:-0.804127 8:-0.524098 9:-0.250962 10:-0.137957 11:-0.896204 12:-0.280953 13:-0.568103 14:0.0575882 15:0.727907 16:0.606676 17:-0.947767 18:-0.143831 19:-0.247491 20:0.44742 21:0.0412433 22:0.752194 23:0.598286 24:-1 25:0.348933 26:-0.851679 27:0.154892 28:-0.248485 29:-0.0236191 30:0.342282 31:0.513609 
-1.053619125250956 0.8980186075541603 0.9481347942343133 0.7070158790512625 0.8216289266182671 0.8025325091820521 0.9510697762571727 0.9246126485028208 0.818393405384478 1:-0.194412 2:-0.15102 3:-0.235212 4:-0.0835357 5:-0.126823 6:-0.0953824 7:-0.0577601 8:-0.0222457 9:0.116206 10:0.0735473 11:0.0385226 12:0.136278 13:0.347635 14:-0.471663 15:-0.43571 16:0.075591 17:0.626901 18:-0.35962 19:0.0703921 20:0.272134 21:-0.163532 22:-0.551818 23:-0.131963 24:0.461899 25:0.110045 26:-0.923986 27:-0.928335 28:-0.911144 29:0.6671 30:0.180077 31:0.777021 
-0.1275991276747475 0.03418730704634913 0.115760070140861 0.004166776359068896 1.253813480824937 0.1647999454842053 0.08989698987630768 0.1628640952376361 0.06759271658895478 1:0.20217 2:0.289735 3:0.436461 4:0.331117 5:0.363558 6:0.562289 7:0.218627 8:0.266829 9:0.401845 10:0.547802 11:-0.130453 12:-0.234154 13:0.343325 14:0.0716565 15:0.476488 16:0.290178 17:-0.1934 18:-0.815148 19:0.0223045 20:-0.259065 21:-0.154532 22:0.00139633 23:-0.08014 24:-0.347241 25:-0.52214 26:-0.916839 27:-0.936339 28:-0.994311 29:-0.858603 30:-0.692673 31:-0.817137 
-0.6303075116963027 2.297896787002131 0.5703799788152263 0.4720741079655521 3.334594775278844 0.5141475820477109 0.9191834015632798 0.7472450409912751 0.5558125247282788 1:0.0939709 2:0.215553 3:0.123576 4:0.267648 5:0.0101295 6:0.168211 7:0.165423 8:-0.129823 9:-0.0600949 10:0.132203 11:-0.24041 12:-0.48149 13:0.223978 14:0.0409091 15:0.0570274 16:0.0114998 17:0.172561 18:-0.796326 19:-0.104263 20:-0.211867 21:-0.165812 22:-0.107607 23:-0.188054 24:-0.135518 25:-0.476855 26:-0.828332 27:-0.999602 28:-0.999597 29:-0.858639 30:-0.696319 31:-0.817054 
