svm_type c_svc
kernel_type linear
nr_class 10
total_sv 942
rho -10.5785 -12.7902 -69.7299 -143.85 -126.611 -46.1556 -213.559 -86.4255 -71.8992 -16.976 -7.09259 -23.1218 -22.5241 -116.374 -5.74763 -199.818 -52.799 1.67982 -38.172 -33.4426 -71.7747 -34.9458 -108.059 -6.29475 -34.5401 -44.9195 15.1191 54.1405 -52.1424 -37.4838 -61.0638 15.0943 -50.814 -136.088 -50.2762 -67.0499 50.605 -119.878 7.10471 3.71888 -137.315 -1.45209 -341.267 -92.7815 17.6249
label 1 2 3 4 5 6 7 8 9 10
nr_sv 85 73 108 83 123 109 57 130 108 66
SV
0 0 0 1803.964077047759 0 0 5834.367037911719 8192 0 1:-0.335839 2:-0.371918 3:-0.275582 4:-0.434985 5:-0.363094 6:-0.274861 7:-0.511781 8:-0.45333 9:-0.391962 10:-0.309425 11:-0.566773 12:0.246586 13:-0.557277 14:-0.191754 15:0.324909 16:0.178759 17:0.258215 18:-0.589155 19:-0.0272954 20:-0.789555 21:0.109814 22:0.185378 23:0.181131 24:0.619896 25:-0.804468 26:-0.918334 27:-0.999019 28:-0.999489 29:-0.974728 30:-0.948024 31:0.950954 
0 0 0 0 8192 0 8192 8192 0 1:-0.475551 2:-0.606207 3:-0.496916 4:-0.696151 5:-0.66176 6:-0.54251 7:-0.770511 8:-0.759542 9:-0.718102 10:-0.600587 11:-0.55503 12:0.160813 13:-0.631605 14:-0.166548 15:0.315757 16:0.185202 17:0.251977 18:-0.367899 19:-0.217897 20:-0.705415 21:0.130622 22:0.184665 23:0.173209 24:0.631685 25:-0.637092 26:-0.769888 27:-0.997243 28:-0.999134 29:-0.974727 30:-0.947977 31:0.950956 
8192 0 0 0 8192 0 0 0 0 1:-0.70566 2:-0.78812 3:-0.629995 4:-0.845233 5:-0.764048 6:-0.611098 7:-0.893841 8:-0.842692 9:-0.76718 10:-0.629736 11:-0.805178 12:0.426887 13:-0.825931 14:-0.177009 15:0.311201 16:0.224678 17:0.216766 18:-0.380056 19:-0.118277 20:-0.656361 21:0.143761 22:0.192305 23:0.187885 24:0.625107 25:-0.602276 26:-0.851419 27:-0.998962 28:-0.999262 29:-0.974728 30:-0.948098 31:0.950956 
0 0 0 0 8192 0 8192 0 1564.871755023825 1:-0.499674 2:-0.532521 3:-0.524896 4:-0.561009 5:-0.610291 6:-0.540852 7:-0.594788 8:-0.662162 9:-0.661276 10:-0.55849 11:-0.255436 12:0.0577658 13:-0.383545 14:-0.152505 15:0.355446 16:-0.00761297 17:0.372031 18:0.171851 19:-0.363398 20:-0.329758 21:0.145066 22:0.217675 23:0.0466342 24:0.740623 25:-0.0890714 26:-0.573469 27:-0.943267 28:-0.986583 29:-0.974544 30:-0.94276 31:0.951072 
0 6298.377727115473 1.061636323424785 0 0 0 5553.168988966817 1596.206809413014 0 1:-0.365683 2:-0.454209 3:-0.308464 4:-0.518329 5:-0.47528 6:-0.27941 7:-0.580131 8:-0.572677 9:-0.503087 10:-0.269291 11:-0.200382 12:-0.147145 13:-0.319088 14:-0.290554 15:0.517081 16:0.0371547 17:0.312428 18:-0.136789 19:-0.350499 20:-0.531505 21:0.0538688 22:0.285352 23:0.121235 24:0.652897 25:-0.391729 26:-0.599748 27:-0.98769 28:-0.993708 29:-0.974707 30:-0.945327 31:0.951054 
0 0 0 0 0 0 8192 0 0 1:-0.950307 2:-0.916336 3:-0.909131 4:-0.918345 5:-0.912122 6:-0.905421 7:-0.939455 8:-0.925898 9:-0.924523 10:-0.923765 11:-0.981998 12:0.554709 13:-0.990688 14:-0.19562 15:0.301277 16:0.229332 17:0.200105 18:-0.726626 19:0.0830261 20:-0.872039 21:0.0677619 22:0.159762 23:0.162738 24:0.57973 25:-0.933226 26:-0.968258 27:-0.998511 28:-0.999389 29:-0.974728 30:-0.948199 31:0.950955 
0 1167.727402702864 0 0 8192 0 8192 8192 0 1:-0.78694 2:-0.739253 3:-0.794913 4:-0.744562 5:-0.781275 6:-0.829751 7:-0.779566 8:-0.794381 9:-0.833957 10:-0.874675 11:-0.918364 12:0.538874 13:-0.946636 14:-0.189024 15:0.307968 16:0.231512 17:0.204076 18:-0.628789 19:0.110014 20:-0.905973 21:0.122045 22:0.192492 23:0.197121 24:0.601722 25:-0.917547 26:-0.987316 27:-0.999812 28:-0.99986 29:-0.974728 30:-0.948115 31:0.950954 
0 0 0 0 0 101.8286146875575 8192 0 0 1:-0.898658 2:-0.813033 3:-0.890576 4:-0.788191 5:-0.847016 6:-0.905984 7:-0.800768 8:-0.834634 9:-0.88808 10:-0.932696 11:-0.956357 12:0.567668 13:-0.978581 14:-0.19365 15:0.305771 16:0.232744 17:0.20048 18:-0.587811 19:0.209598 20:-0.883553 21:0.10073 22:0.199491 23:0.198641 24:0.587187 25:-0.880942 26:-0.998278 27:-0.999061 28:-0.999975 29:-0.974728 30:-0.948117 31:0.950954 
8192 0 0 0 0 0 0 3072.423348025793 0 1:-0.930188 2:-0.87809 3:-0.893669 4:-0.873955 5:-0.881472 6:-0.894626 7:-0.896288 8:-0.889976 9:-0.902151 10:-0.916697 11:-0.969355 12:0.544149 13:-0.989351 14:-0.193681 15:0.303326 16:0.233384 17:0.200723 18:-0.621621 19:0.0131044 20:-0.909299 21:0.097343 22:0.183396 23:0.202788 24:0.588614 25:-0.917086 26:-0.9535 27:-0.999842 28:-0.999995 29:-0.974728 30:-0.948117 31:0.950954 
0 130.5850383967632 0 0 0 0 0 0 0 1:-0.715174 2:-0.684258 3:-0.65095 4:-0.698144 5:-0.662037 6:-0.651561 7:-0.73723 8:-0.693749 9:-0.682477 10:-0.691744 11:-0.820451 12:0.525573 13:-0.92876 14:-0.191837 15:0.31517 16:0.231229 17:0.204529 18:-0.405785 19:0.105102 20:-0.937072 21:0.111149 22:0.201592 23:0.198155 24:0.598956 25:-0.843887 26:-0.983408 27:-0.999486 28:-0.999848 29:-0.974728 30:-0.948124 31:0.950954 
0 0 0 0 4252.179235733649 0 8192 0 0 1:-0.762964 2:-0.746861 3:-0.801362 4:-0.769467 5:-0.808691 6:-0.84655 7:-0.812124 8:-0.831745 9:-0.864672 10:-0.892095 11:-0.881533 12:0.519386 13:-0.916559 14:-0.187183 15:0.311714 16:0.226531 17:0.203173 18:-0.515178 19:0.0624129 20:-0.828468 21:0.125903 22:0.200427 23:0.186752 24:0.597481 25:-0.803479 26:-0.971923 27:-0.998863 28:-0.999877 29:-0.974728 30:-0.948109 31:0.950954 
443.8086230463738 0 0 0 0 0 0 0 0 1:-0.469282 2:-0.468453 3:-0.446933 4:-0.478361 5:-0.448796 6:-0.367283 7:-0.508485 8:-0.475609 9:-0.399757 10:-0.335582 11:-0.237753 12:0.941377 13:0.23463 14:-0.723858 15:-0.748526 16:-0.938693 17:-0.771112 18:0.0953251 19:0.586556 20:0.37303 21:-0.314327 22:-0.587021 23:-0.473708 24:-0.172389 25:0.453158 26:-0.239415 27:-0.392802 28:-0.418441 29:-0.821897 30:-0.592878 31:0.489959 
0 0 36.30260100817033 0 0 0 0 0 22.81578026934976 1:-0.374648 2:-0.406656 3:-0.43737 4:-0.43623 5:-0.461901 6:-0.401937 7:-0.479693 8:-0.505229 9:-0.457077 10:-0.404487 11:-0.13706 12:0.859605 13:0.357397 14:-0.69958 15:-0.800528 16:-0.825402 17:-0.522616 18:-0.0423926 19:0.436666 20:0.143912 21:-0.186011 22:-0.409274 23:-0.244084 24:0.175742 25:0.204054 26:-0.527404 27:-0.677823 28:-0.777075 29:-0.95139 30:-0.850502 31:0.844484 
5305.234544669642 0 0 0 0 0 0 0 86.10711418930902 1:-0.457984 2:-0.513906 3:-0.557063 4:-0.550308 5:-0.583736 6:-0.498345 7:-0.596022 8:-0.62935 9:-0.551117 10:-0.488002 11:-0.144333 12:1 13:0.584507 14:-0.679322 15:-1 16:-0.363538 17:-0.502261 18:0.195084 19:0.632612 20:0.749409 21:-0.263727 22:-0.732629 23:-0.128972 24:0.0601162 25:0.806131 26:0.267824 27:-0.624588 28:-0.623824 29:-0.97917 30:-0.640114 31:0.548533 
0 0 0 1042.997151709116 700.6184118331162 0 1880.871591248065 0 0 1:-0.301222 2:-0.49602 3:-0.477084 4:-0.592957 5:-0.63769 6:-0.459584 7:-0.662168 8:-0.737903 9:-0.642167 10:-0.473333 11:-0.00129626 12:0.374769 13:0.658824 14:0.0460432 15:-0.783883 16:-0.011743 17:-0.223267 18:-0.0720629 19:0.0760954 20:0.175162 21:0.221069 22:-0.287293 23:0.118675 24:0.395278 25:0.216485 26:-0.52438 27:-0.86525 28:-0.938545 29:-0.97729 30:-0.917296 31:0.944544 
0 0 0 0 8192 0 0 0 0 1:-0.598042 2:-0.737578 3:-0.610602 4:-0.823844 5:-0.759167 6:-0.633398 7:-0.886942 8:-0.845443 9:-0.781491 10:-0.667997 11:-0.803452 12:0.502222 13:-0.604108 14:-0.177162 15:0.311427 16:0.220216 17:0.239304 18:-0.603305 19:0.105507 20:-0.42307 21:0.129728 22:0.185544 23:0.189114 24:0.640506 25:-0.510255 26:-0.806933 27:-0.998301 28:-0.998765 29:-0.974727 30:-0.947732 31:0.950957 
0 3195.384850751594 0 8192 8192 0 3832.36544823779 0 3002.408884290001 1:-0.653204 2:-0.813586 3:-0.701403 4:-0.889365 5:-0.841879 6:-0.741501 7:-0.936708 8:-0.908989 9:-0.865171 10:-0.784981 11:-0.842787 12:0.579874 13:-0.688161 14:-0.183779 15:0.283085 16:0.247933 17:0.215019 18:-0.611126 19:0.228435 20:-0.443724 21:0.124316 22:0.144973 23:0.219495 24:0.614209 25:-0.530669 26:-0.829353 27:-0.996618 28:-0.999861 29:-0.974728 30:-0.948123 31:0.950954 
0 0 0 0 8192 0 0 0 0 1:-0.692468 2:-0.795203 3:-0.683089 4:-0.859476 5:-0.802881 6:-0.703199 7:-0.90926 8:-0.87241 9:-0.822329 10:-0.741918 11:-0.834459 12:0.532126 13:-0.779195 14:-0.180728 15:0.285053 16:0.2505 17:0.209242 18:-0.509887 19:0.128459 20:-0.560272 21:0.133812 22:0.142227 23:0.227186 24:0.607567 25:-0.581218 26:-0.917755 27:-0.99662 28:-0.999802 29:-0.974728 30:-0.94816 31:0.950954 
0 0 0 0 807.6961301636256 0 0 0 0 1:-0.776182 2:-0.851958 3:-0.753301 4:-0.899511 5:-0.85043 6:-0.765796 7:-0.937719 8:-0.905512 9:-0.864487 10:-0.799469 11:-0.89908 12:0.554439 13:-0.862808 14:-0.184118 15:0.296971 16:0.225394 17:0.205643 18:-0.56112 19:0.164607 20:-0.593113 21:0.137444 22:0.158262 23:0.182786 24:0.6061 25:-0.630925 26:-0.925153 27:-0.997738 28:-0.999969 29:-0.974728 30:-0.948111 31:0.950954 
4304.090737678875 0 0 0 8192 0 0 0 0 1:-0.68966 2:-0.795113 3:-0.702883 4:-0.861467 5:-0.817104 6:-0.729813 7:-0.912155 8:-0.883004 9:-0.841492 10:-0.768679 11:-0.852869 12:0.512286 13:-0.740125 14:-0.183547 15:0.296294 16:0.230322 17:0.209986 18:-0.574336 19:0.0865801 20:-0.464131 21:0.127744 22:0.163421 23:0.197247 24:0.608811 25:-0.531041 26:-0.838626 27:-0.998999 28:-0.999915 29:-0.974728 30:-0.948103 31:0.950954 
0 0 0 0 8192 0 0 0 0 1:-0.636324 2:-0.789697 3:-0.648111 4:-0.869344 5:-0.806616 6:-0.679139 7:-0.921921 8:-0.886302 9:-0.829247 10:-0.722979 11:-0.828421 12:0.506775 13:-0.72053 14:-0.175352 15:0.288487 16:0.251359 17:0.225448 18:-0.601421 19:0.0990012 20:-0.559769 21:0.136357 22:0.154931 23:0.221994 24:0.628472 25:-0.621505 26:-0.88733 27:-0.996417 28:-0.999462 29:-0.974728 30:-0.948112 31:0.950956 
0 8192 530.7195593406155 8192 8192 0 0 0 0 1:-0.67215 2:-0.809943 3:-0.594316 4:-0.882616 5:-0.774432 6:-0.565019 7:-0.931111 8:-0.86848 9:-0.76147 10:-0.569662 11:-0.864415 12:0.578703 13:-0.721258 14:-0.179121 15:0.303943 16:0.215916 17:0.216369 18:-0.64101 19:0.227945 20:-0.467654 21:0.134408 22:0.177295 23:0.178281 24:0.618947 25:-0.563578 26:-0.834469 27:-0.99789 28:-0.999639 29:-0.974728 30:-0.94801 31:0.950954 
4665.482322601327 0 0 0 0 0 0 0 0 1:-0.823824 2:-0.811325 3:-0.78887 4:-0.825486 5:-0.800355 6:-0.773148 7:-0.858365 8:-0.826244 9:-0.80511 10:-0.793954 11:-0.816767 12:0.711755 13:-0.724662 14:-0.317724 15:0.0989291 16:-0.118898 17:-0.105921 18:0.0766468 19:0.799149 20:0.278586 21:-0.458889 22:-0.66539 23:-0.953788 24:-0.780991 25:0.367412 26:-0.0794936 27:0.962767 28:0.483386 29:0.288906 30:0.104896 31:0.475169 
0 0 0 0 0 0 2622.983751256947 0 0 1:-0.807414 2:-0.83081 3:-0.796289 4:-0.864632 5:-0.843097 6:-0.817222 7:-0.903912 8:-0.882247 9:-0.869614 10:-0.854772 11:-0.901717 12:0.551718 13:-0.920126 14:-0.185354 15:0.29963 16:0.222304 17:0.201684 18:-0.488847 19:0.147435 20:-0.750503 21:0.138752 22:0.164327 23:0.169522 24:0.593773 25:-0.727844 26:-0.983886 27:-0.996993 28:-0.999991 29:-0.974728 30:-0.948118 31:0.950954 
8192 0 0 0 0 0 0 0 0 1:-0.863153 2:-0.890062 3:-0.763328 4:-0.913989 5:-0.847566 6:-0.723453 7:-0.94168 8:-0.897516 9:-0.833583 10:-0.728009 11:-0.89578 12:0.526281 13:-0.955713 14:-0.202765 15:0.300783 16:0.237659 17:0.198375 18:-0.22497 19:-0.00684094 20:-0.804606 21:0.0473439 22:0.165413 23:0.221055 24:0.575449 25:-0.654872 26:-0.943484 27:-0.997761 28:-0.999775 29:-0.974728 30:-0.948157 31:0.950954 
0 0 112.2706461578151 0 1008.547299918622 0 559.6509416401165 291.9252315258015 120.8814996424969 1:-0.87899 2:-0.81958 3:-0.788766 4:-0.808739 5:-0.773875 6:-0.758102 7:-0.828606 8:-0.78304 9:-0.765589 10:-0.76989 11:-0.873696 12:0.596243 13:-0.97698 14:-0.300909 15:0.255687 16:0.216268 17:0.200743 18:0.0524992 19:0.373778 20:-0.912413 21:-0.64322 22:-0.120691 23:0.116384 24:0.589537 25:-0.619896 26:-0.901583 27:-0.87254 28:-0.951493 29:-0.972826 30:-0.936815 31:0.95183 
8192 8192 0 0 8192 0 0 0 0 1:-0.749236 2:-0.817894 3:-0.709407 4:-0.871428 5:-0.809554 6:-0.712522 7:-0.917589 8:-0.874755 9:-0.8211 10:-0.742709 11:-0.911153 12:0.528837 13:-0.839272 14:-0.187375 15:0.311298 16:0.225569 17:0.203573 18:-0.670763 19:0.097813 20:-0.586086 21:0.124068 22:0.197357 23:0.185954 24:0.598056 25:-0.673917 26:-0.881214 27:-0.999001 28:-0.999885 29:-0.974728 30:-0.948087 31:0.950954 
1114.240052480185 0 0 0 0 0 0 0 0 1:-0.861428 2:-0.87758 3:-0.739852 4:-0.903136 5:-0.820141 6:-0.680512 7:-0.934373 8:-0.877116 9:-0.793742 10:-0.670747 11:-0.938948 12:0.528641 13:-0.966307 14:-0.186733 15:0.300791 16:0.232036 17:0.201519 18:-0.559851 19:0.00760692 20:-0.875887 21:0.144707 22:0.165586 23:0.196334 24:0.594285 25:-0.862225 26:-0.950856 27:-0.999465 28:-0.999955 29:-0.974728 30:-0.948118 31:0.950954 
8192 8192 1629.626253034035 8192 1529.911685976245 0 0 491.7358881338665 0 1:-0.781772 2:-0.81529 3:-0.690711 4:-0.858501 5:-0.775306 6:-0.659311 7:-0.904143 8:-0.842654 9:-0.766492 10:-0.670005 11:-0.944408 12:0.525733 13:-0.891317 14:-0.187833 15:0.305593 16:0.227756 17:0.201276 18:-0.765072 19:0.0693877 20:-0.690705 21:0.125718 22:0.184523 23:0.187963 24:0.59192 25:-0.801636 26:-0.898742 27:-0.99935 28:-0.99999 29:-0.974728 30:-0.948114 31:0.950954 
0 8192 0 883.5601972332199 0 161.6221599376367 0 0 0 1:-0.72298 2:-0.809052 3:-0.533402 4:-0.871406 5:-0.708577 6:-0.403358 7:-0.921152 8:-0.819751 9:-0.635582 10:-0.325587 11:-0.930317 12:0.559542 13:-0.862089 14:-0.186638 15:0.310559 16:0.225265 17:0.2011 18:-0.783559 19:0.186008 20:-0.724536 21:0.123818 22:0.192608 23:0.187575 24:0.591142 25:-0.837594 26:-0.931319 27:-0.999072 28:-0.999976 29:-0.974728 30:-0.948112 31:0.950954 
0 0 196.7356663604625 2250.262531360979 0 0 6268.937609323962 687.9752393487229 0 1:-0.801284 2:-0.86505 3:-0.722742 4:-0.907169 5:-0.831546 6:-0.700118 7:-0.943029 8:-0.895788 9:-0.82656 10:-0.71878 11:-0.916266 12:0.568388 13:-0.896704 14:-0.213452 15:0.248328 16:0.129842 17:0.142682 18:-0.584565 19:0.209742 20:-0.660582 21:0.0282692 22:-0.0166283 23:-0.0890195 24:0.367728 25:-0.696672 26:-0.948991 27:-0.86784 28:-0.949683 29:-0.972677 30:-0.943585 31:0.950496 
3671.193061731105 0 0 0 0 0 0 30.79669491819216 0 1:-0.742997 2:-0.824746 3:-0.728041 4:-0.874354 5:-0.825874 6:-0.700916 7:-0.915439 8:-0.889213 9:-0.81793 10:-0.715567 11:-0.809252 12:0.590956 13:-0.44948 14:-0.171387 15:-0.0659361 16:0.125825 17:-0.325515 18:-0.275383 19:0.269664 20:0.698426 21:0.166893 22:-0.73302 23:-0.0088545 24:-0.814212 25:0.555134 26:0.405992 27:-0.829084 28:0.324822 29:-0.730047 30:0.217488 31:-0.183787 
8192 0 0 0 578.1164416954437 0 0 0 0 1:-0.813433 2:-0.809914 3:-0.761989 4:-0.832764 5:-0.786993 6:-0.748653 7:-0.871955 8:-0.825085 9:-0.792388 10:-0.772964 11:-0.87656 12:0.694864 13:-0.820882 14:-0.316468 15:0.0966692 16:-0.111267 17:-0.000745598 18:-0.326986 19:0.700131 20:-0.262937 21:-0.413788 22:-0.615226 23:-0.849607 24:-0.247679 25:-0.256088 26:-0.506008 27:0.543036 28:-0.22734 29:-0.552709 30:-0.551828 31:0.902185 
3361.467597494704 0 0 0 0 58.6235924750212 0 0 0 1:-0.650854 2:-0.793688 3:-0.599447 4:-0.868364 5:-0.77323 6:-0.551466 7:-0.918918 8:-0.869559 9:-0.751643 10:-0.549599 11:-0.810923 12:0.562511 13:-0.372803 14:-0.158323 15:-0.0143482 16:0.183154 17:-0.389104 18:-0.528656 19:0.196127 20:0.265979 21:0.166779 22:-0.307389 23:0.140928 24:-0.381856 25:0.08793 26:-0.103996 27:-0.861461 28:-0.425946 29:-0.896303 30:-0.544791 31:0.835487 
0 3625.171080226566 0 347.8441382914737 814.1831444388677 0 0 0 0 1:-0.775005 2:-0.880397 3:-0.650339 4:-0.929351 5:-0.821068 6:-0.580004 7:-0.961785 8:-0.904523 9:-0.788025 10:-0.55983 11:-0.923529 12:0.618121 13:-0.813736 14:-0.209306 15:0.241853 16:0.0590492 17:0.0430831 18:-0.677646 19:0.366591 20:-0.405563 21:0.0545133 22:-0.00614956 23:-0.211756 24:0.0804538 25:-0.528958 26:-0.744479 27:-0.639176 28:-0.836021 29:-0.954775 30:-0.890434 31:0.94865 
0 1263.294010220606 0 0 8192 0 0 0 0 1:-0.770612 2:-0.772462 3:-0.736817 4:-0.80381 5:-0.772594 6:-0.749361 7:-0.848934 8:-0.815526 9:-0.797554 10:-0.788115 11:-0.900322 12:0.544608 13:-0.910124 14:-0.175677 15:0.295379 16:0.242006 17:0.200902 18:-0.580174 19:0.135208 20:-0.789883 21:0.163471 22:0.154197 23:0.221778 24:0.590662 25:-0.800742 26:-0.980058 27:-0.999397 28:-0.9996 29:-0.974728 30:-0.948136 31:0.950953 
5198.353769272016 0 0 0 0 664.5638165153683 0 0 0 1:-0.834932 2:-0.845272 3:-0.781953 4:-0.87391 5:-0.831056 6:-0.780119 7:-0.910996 8:-0.87468 9:-0.842732 10:-0.80949 11:-0.938829 12:0.539127 13:-0.948833 14:-0.18683 15:0.299929 16:0.237622 17:0.198684 18:-0.632633 19:0.0828132 20:-0.829927 21:0.137773 22:0.163419 23:0.217132 24:0.5799 25:-0.8569 26:-0.969846 27:-0.999868 28:-0.999765 29:-0.974728 30:-0.948097 31:0.950954 
5588.175956790944 0 0 0 8192 0 0 0 0 1:-0.754014 2:-0.736845 3:-0.743151 4:-0.759331 5:-0.759939 6:-0.766604 7:-0.802397 8:-0.792342 9:-0.79849 10:-0.808282 11:-0.87656 12:0.507531 13:-0.880614 14:-0.182225 15:0.297408 16:0.240236 17:0.205763 18:-0.516848 19:0.0344348 20:-0.717555 21:0.139379 22:0.161498 23:0.216147 24:0.6045 25:-0.713276 26:-0.941796 27:-0.999154 28:-0.999833 29:-0.974728 30:-0.948147 31:0.950954 
0 8192 0 8192 0 0 0 0 0 1:-0.746829 2:-0.76988 3:-0.694601 4:-0.812212 5:-0.754613 6:-0.697203 7:-0.861999 8:-0.811883 9:-0.769726 10:-0.733355 11:-0.902889 12:0.548697 13:-0.901796 14:-0.173403 15:0.297985 16:0.235761 17:0.194834 18:-0.641494 19:0.153939 20:-0.805511 21:0.162596 22:0.1635 23:0.206581 24:0.574109 25:-0.840822 26:-0.979184 27:-0.999876 28:-0.999609 29:-0.974728 30:-0.948102 31:0.950954 
0 8192 0 8192 0 0 882.4420661278776 0 0 1:-0.818644 2:-0.7998 3:-0.735604 4:-0.81987 5:-0.761446 6:-0.715251 7:-0.859238 8:-0.801784 9:-0.76043 10:-0.737303 11:-0.939979 12:0.572875 13:-0.962216 14:-0.187315 15:0.301986 16:0.23296 17:0.20139 18:-0.67676 19:0.228193 20:-0.928281 21:0.132526 22:0.172861 23:0.200666 24:0.592753 25:-0.95717 26:-0.997305 27:-0.99991 28:-0.999973 29:-0.974728 30:-0.948118 31:0.950954 
0 3299.907665012965 0 7833.391970741235 0 0 0 0 0 1:-0.825365 2:-0.801744 3:-0.698313 4:-0.818885 5:-0.729681 6:-0.636726 7:-0.856668 8:-0.775846 9:-0.696001 10:-0.62725 11:-0.938871 12:0.55784 13:-0.959385 14:-0.186174 15:0.300037 16:0.237856 17:0.201889 18:-0.65549 19:0.166847 20:-0.903443 21:0.138887 22:0.16463 23:0.216867 24:0.595109 25:-0.927346 26:-0.995055 27:-0.999654 28:-0.99986 29:-0.974728 30:-0.948124 31:0.950954 
0 0 0 0 8192 0 0 0 0 1:-0.559222 2:-0.689386 3:-0.62554 4:-0.779627 5:-0.744774 6:-0.674124 7:-0.850721 8:-0.82277 9:-0.784396 10:-0.72389 11:-0.769288 12:0.548365 13:-0.579609 14:-0.193074 15:0.319615 16:0.246273 17:0.21311 18:-0.590908 19:0.179367 20:-0.477126 21:0.108846 22:0.192277 23:0.212064 24:0.604148 25:-0.549068 26:-0.857487 27:-0.99975 28:-0.999814 29:-0.974728 30:-0.948072 31:0.950954 
8192 0 0 0 8192 0 0 0 0 1:-0.610545 2:-0.696265 3:-0.643008 4:-0.765865 5:-0.747683 6:-0.678046 7:-0.82875 8:-0.818069 9:-0.787885 10:-0.7222 11:-0.738759 12:0.369094 13:-0.643579 14:-0.19382 15:0.296323 16:0.24913 17:0.197474 18:-0.431877 19:-0.111158 20:-0.4658 21:0.10768 22:0.167035 23:0.217498 24:0.585983 25:-0.469067 26:-0.776435 27:-0.9995 28:-0.999954 29:-0.974728 30:-0.948104 31:0.950954 
0 4962.646930107643 0 8192 8192 0 0 0 0 1:-0.555538 2:-0.706421 3:-0.592693 4:-0.796466 5:-0.725354 6:-0.617034 7:-0.862709 8:-0.808434 9:-0.740142 10:-0.648763 11:-0.706426 12:0.762144 13:-0.468413 14:-0.164376 15:0.301989 16:0.233522 17:0.221569 18:-0.47422 19:0.462796 20:-0.304638 21:0.140538 22:0.174333 23:0.201738 24:0.613142 25:-0.355751 26:-0.701172 27:-0.999452 28:-0.999737 29:-0.974728 30:-0.948018 31:0.950954 
8192 8192 1602.845574408241 8192 8192 0 8192 8192 0 1:-0.738653 2:-0.760722 3:-0.736339 4:-0.805118 5:-0.782299 6:-0.760695 7:-0.857856 8:-0.830969 9:-0.814507 10:-0.800808 11:-0.92394 12:0.542549 13:-0.835731 14:-0.190337 15:0.300518 16:0.235387 17:0.20355 18:-0.739 19:0.139419 20:-0.603721 21:0.115364 22:0.170111 23:0.205633 24:0.597559 25:-0.718719 26:-0.879719 27:-0.99986 28:-0.999984 29:-0.974728 30:-0.948117 31:0.950954 
0 0 0 0 8192 0 0 0 0 1:-0.77491 2:-0.760451 3:-0.742717 4:-0.784408 5:-0.763337 6:-0.75717 7:-0.827536 8:-0.799011 9:-0.792271 10:-0.79718 11:-0.905578 12:0.545628 13:-0.922877 14:-0.179111 15:0.29833 16:0.232758 17:0.204415 18:-0.59442 19:0.136957 20:-0.830737 21:0.153657 22:0.162446 23:0.200395 24:0.602012 25:-0.840574 26:-0.986128 27:-0.999149 28:-0.999881 29:-0.974728 30:-0.948128 31:0.950954 
0 0 0 0 8192 0 5446.196974569087 0 0 1:-0.757997 2:-0.73221 3:-0.762606 4:-0.750745 5:-0.768605 6:-0.79574 7:-0.792511 8:-0.79472 9:-0.816417 10:-0.841647 11:-0.8915 12:0.51987 13:-0.907488 14:-0.173877 15:0.293127 16:0.235784 17:0.203761 18:-0.570511 19:0.0671682 20:-0.804678 21:0.164814 22:0.149658 23:0.206976 24:0.598994 25:-0.808576 26:-0.9663 27:-0.998602 28:-0.999777 29:-0.974728 30:-0.94813 31:0.950953 
0 0 0 0 8192 0 0 0 0 1:-0.729144 2:-0.720509 3:-0.708245 4:-0.747581 5:-0.73373 6:-0.729347 7:-0.793027 8:-0.771966 9:-0.769067 10:-0.773006 11:-0.848107 12:0.51867 13:-0.87938 14:-0.177361 15:0.294151 16:0.240807 17:0.20777 18:-0.468277 19:0.0812033 20:-0.76563 21:0.147572 22:0.155855 23:0.21523 24:0.607611 25:-0.731099 26:-0.973446 27:-0.998625 28:-0.999785 29:-0.974728 30:-0.948143 31:0.950954 
8192 6811.475156164208 0 0 8192 0 0 0 0 1:-0.746652 2:-0.777651 3:-0.735262 4:-0.820284 5:-0.792495 6:-0.756125 7:-0.867907 8:-0.841693 9:-0.820623 10:-0.794953 11:-0.867602 12:0.523105 13:-0.852455 14:-0.172063 15:0.306171 16:0.257855 17:0.21454 18:-0.498729 19:0.0832432 20:-0.638209 21:0.166251 22:0.184115 23:0.250777 24:0.627841 25:-0.640161 26:-0.939314 27:-0.99722 28:-0.99845 29:-0.974728 30:-0.948294 31:0.950963 
0 0 0 4008.275541175614 0 0 0 0 0 1:-0.781375 2:-0.785859 3:-0.72 4:-0.81844 5:-0.765207 6:-0.713501 7:-0.863742 8:-0.814789 9:-0.775155 10:-0.741803 11:-0.921216 12:0.544089 13:-0.908627 14:-0.19023 15:0.29818 16:0.229902 17:0.201648 18:-0.654344 19:0.129705 20:-0.761326 21:0.117483 22:0.161465 23:0.193298 24:0.593168 25:-0.810304 26:-0.962573 27:-0.999522 28:-0.999997 29:-0.974728 30:-0.948117 31:0.950954 
8192 8192 0 0 8192 0 8192 8192 0 1:-0.767267 2:-0.754454 3:-0.787502 4:-0.779599 5:-0.800703 6:-0.821252 7:-0.823706 8:-0.82911 9:-0.846146 10:-0.862263 11:-0.901074 12:0.520011 13:-0.872582 14:-0.183548 15:0.290558 16:0.240984 17:0.204832 18:-0.591239 19:0.0613216 20:-0.655815 21:0.137725 22:0.140897 23:0.219054 24:0.602774 25:-0.695734 26:-0.920563 27:-0.997411 28:-0.999849 29:-0.974728 30:-0.94814 31:0.950954 
0 0 0 3971.982363406547 0 0 0 0 0 1:-0.340335 2:-0.576894 3:-0.372598 4:-0.714384 5:-0.603158 6:-0.439421 7:-0.808784 8:-0.737195 9:-0.646866 10:-0.522232 11:-0.594413 12:0.56317 13:-0.624609 14:-0.15396 15:0.304112 16:0.310996 17:0.208149 18:-0.613773 19:0.201449 20:-0.845599 21:0.12965 22:0.175603 23:0.23098 24:0.594432 25:-0.861365 26:-0.992385 27:-0.998924 28:-0.999795 29:-0.974728 30:-0.94813 31:0.950954 
0 0 0 0 0 463.0766213686409 1532.435488919649 0 0 1:-0.346368 2:-0.603197 3:-0.44931 4:-0.74459 5:-0.676085 6:-0.546722 7:-0.836714 8:-0.798075 9:-0.739729 10:-0.640791 11:-0.63984 12:0.444156 13:-0.606183 14:-0.150632 15:0.299402 16:0.284062 17:0.169087 18:-0.656761 19:0.113211 20:-0.823673 21:0.131799 22:0.17333 23:0.221122 24:0.573957 25:-0.862503 26:-0.974132 27:-0.999463 28:-0.999742 29:-0.974728 30:-0.948098 31:0.950953 
0 0 0 0 0 420.1883833326173 8192 5022.418290945087 0 1:-0.241282 2:-0.509198 3:-0.381226 4:-0.677632 5:-0.604845 6:-0.482746 7:-0.793044 8:-0.744361 9:-0.673042 10:-0.574792 11:-0.698367 12:0.510741 13:-0.38387 14:-0.170048 15:0.306168 16:0.306119 17:0.167032 18:-0.79095 19:0.171374 20:-0.743547 21:0.11832 22:0.176154 23:0.222385 24:0.577468 25:-0.85647 26:-0.936579 27:-0.999191 28:-0.999857 29:-0.974728 30:-0.948115 31:0.950954 
0 0 0 8192 0 0 1833.29480093051 0 0 1:-0.400545 2:-0.55074 3:-0.428179 4:-0.669599 5:-0.582524 6:-0.468335 7:-0.767122 8:-0.698812 9:-0.618592 10:-0.522067 11:-0.742418 12:0.562073 13:-0.477724 14:-0.185015 15:0.306343 16:0.22677 17:0.193438 18:-0.727146 19:0.200087 20:-0.635636 21:0.114174 22:0.177045 23:0.198551 24:0.586041 25:-0.739618 26:-0.904913 27:-0.99993 28:-0.999995 29:-0.974728 30:-0.948116 31:0.950954 
0 0 0 0 0 0 8192 2073.612360997864 0 1:-0.446804 2:-0.667041 3:-0.542099 4:-0.790976 5:-0.728787 6:-0.615495 7:-0.87235 8:-0.833118 9:-0.77585 10:-0.684813 11:-0.761743 12:0.542903 13:-0.553788 14:-0.193033 15:0.294815 16:0.252581 17:0.201471 18:-0.711714 19:0.181171 20:-0.65173 21:0.109057 22:0.169686 23:0.211814 24:0.5911 25:-0.745952 26:-0.916053 27:-0.999774 28:-0.99999 29:-0.974728 30:-0.948119 31:0.950954 
0 2383.300340476798 0 0 0 0 0 0 0 1:-0.188448 2:-0.370516 3:-0.241109 4:-0.489887 5:-0.418203 6:-0.196533 7:-0.586772 8:-0.551799 9:-0.396578 10:-0.183475 11:-0.166681 12:0.585395 13:0.590384 14:-0.230696 15:-0.566676 16:-0.0473899 17:-0.538468 18:-0.410151 19:0.213836 20:-0.164441 21:0.0962068 22:-0.0982552 23:0.131422 24:0.339103 25:-0.212305 26:-0.698323 27:-0.986639 28:-0.944207 29:-0.974996 30:-0.925775 31:0.946885 
0 0 0 8192 8192 0 8192 0 0 1:-0.602579 2:-0.638555 3:-0.635147 4:-0.695509 5:-0.688588 6:-0.674373 7:-0.760906 8:-0.745683 9:-0.734975 10:-0.722768 11:-0.802736 12:0.525115 13:-0.669896 14:-0.18096 15:0.298243 16:0.221731 17:0.198425 18:-0.594537 19:0.139437 20:-0.536136 21:0.125026 22:0.169648 23:0.190339 24:0.587403 25:-0.599065 26:-0.885524 27:-0.999587 28:-0.999989 29:-0.974728 30:-0.948114 31:0.950954 
0 0 0 0 0 0 1893.012217893373 0 0 1:-0.533569 2:-0.576983 3:-0.607944 4:-0.636154 5:-0.66171 6:-0.658835 7:-0.702624 8:-0.716793 9:-0.718856 10:-0.710537 11:-0.684237 12:0.501311 13:-0.540189 14:-0.167472 15:0.273986 16:0.215773 17:0.196075 18:-0.472879 19:0.12317 20:-0.473652 21:0.134809 22:0.148613 23:0.188741 24:0.585875 25:-0.493739 26:-0.884429 27:-0.998729 28:-0.999897 29:-0.974728 30:-0.948091 31:0.950954 
0 0 0 2950.668968427192 0 0 0 0 0 1:-0.509443 2:-0.569635 3:-0.462854 4:-0.639976 5:-0.555328 6:-0.441062 7:-0.713832 8:-0.640608 9:-0.550871 10:-0.443119 11:-0.701701 12:0.538266 13:-0.44302 14:-0.185919 15:0.26749 16:0.227255 17:0.187253 18:-0.543495 19:0.171334 20:-0.38804 21:0.115544 22:0.14547 23:0.19752 24:0.578283 25:-0.454936 26:-0.815909 27:-0.999498 28:-0.999753 29:-0.974728 30:-0.948038 31:0.950954 
0 0 0 0 0 0 8192 0 535.1258331611997 1:-0.440995 2:-0.582595 3:-0.557903 4:-0.687478 5:-0.670934 6:-0.605094 7:-0.773165 8:-0.754875 9:-0.712695 10:-0.648943 11:-0.657526 12:0.630543 13:-0.25657 14:-0.165895 15:0.249352 16:0.16675 17:0.202792 18:-0.572733 19:0.264267 20:-0.315453 21:0.128686 22:0.139911 23:0.166778 24:0.592032 25:-0.40842 26:-0.746878 27:-0.995559 28:-0.999892 29:-0.974728 30:-0.948101 31:0.950954 
8192 1639.176676035917 0 0 0 0 0 0 0 1:-0.825168 2:-0.800747 3:-0.71281 4:-0.817112 5:-0.741818 6:-0.663752 7:-0.854432 8:-0.785038 9:-0.720043 10:-0.662857 11:-0.932598 12:0.53395 13:-0.941904 14:-0.191115 15:0.303976 16:0.235451 17:0.19908 18:-0.617855 19:0.0680442 20:-0.81487 21:0.11619 22:0.181061 23:0.208879 24:0.582421 25:-0.837983 26:-0.963814 27:-0.999736 28:-0.999972 29:-0.974728 30:-0.948114 31:0.950954 
5093.894409670215 7646.59949746094 0 0 4905.624385279382 0 0 0 0 1:-0.790769 2:-0.755012 3:-0.668133 4:-0.765576 5:-0.685104 6:-0.612451 7:-0.801472 8:-0.72297 9:-0.657058 10:-0.608664 11:-0.89273 12:0.52618 13:-0.938226 14:-0.185161 15:0.2989 16:0.241422 17:0.197543 18:-0.491229 19:0.0645652 20:-0.864662 21:0.136386 22:0.163015 23:0.223 24:0.578652 25:-0.822507 26:-0.976059 27:-0.99961 28:-0.999708 29:-0.974728 30:-0.948085 31:0.950954 
0 0 0 0 0 1616.500887183417 0 0 0 1:-0.889695 2:-0.867532 3:-0.819621 4:-0.880025 5:-0.84179 6:-0.804065 7:-0.910027 8:-0.872726 9:-0.845257 10:-0.824227 11:-0.962213 12:0.555647 13:-0.980443 14:-0.190271 15:0.300919 16:0.235493 17:0.200632 18:-0.66978 19:0.13463 20:-0.917118 21:0.127122 22:0.164025 23:0.213984 24:0.588588 25:-0.944912 26:-0.991358 27:-0.999788 28:-0.999917 29:-0.974728 30:-0.948115 31:0.950954 
8192 8192 0 0 8192 0 0 0 0 1:-0.791364 2:-0.758682 3:-0.697788 4:-0.771729 5:-0.714023 6:-0.665432 7:-0.809455 8:-0.750354 9:-0.706568 10:-0.67662 11:-0.904686 12:0.518465 13:-0.909826 14:-0.192396 15:0.301322 16:0.239133 17:0.198542 18:-0.549892 19:0.0375689 20:-0.743447 21:0.110125 22:0.170991 23:0.217057 24:0.582191 25:-0.7492 26:-0.945016 27:-0.999567 28:-0.999933 29:-0.974728 30:-0.948106 31:0.950954 
8192 0 0 0 0 0 0 0 0 1:-0.884114 2:-0.836143 3:-0.785939 4:-0.837018 5:-0.787565 6:-0.747134 7:-0.864687 8:-0.811636 9:-0.773989 10:-0.752228 11:-0.955453 12:0.553544 13:-0.970998 14:-0.192141 15:0.301493 16:0.235635 17:0.200933 18:-0.625018 19:0.124693 20:-0.85839 21:0.112715 22:0.168321 23:0.214139 24:0.590841 25:-0.876854 26:-0.985505 27:-0.9997 28:-0.999976 29:-0.974728 30:-0.948117 31:0.950954 
0 0 0 0 8192 0 0 0 0 1:-0.464305 2:-0.604947 3:-0.510458 4:-0.704334 5:-0.667519 6:-0.55369 7:-0.784008 8:-0.765501 9:-0.715677 10:-0.602865 11:-0.631996 12:0.28892 13:-0.491342 14:-0.125655 15:0.338359 16:0.182973 17:0.236106 18:-0.503061 19:-0.0756922 20:-0.547269 21:0.161841 22:0.20038 23:0.173051 24:0.617842 25:-0.567521 26:-0.823341 27:-0.99686 28:-0.999398 29:-0.974728 30:-0.948035 31:0.950956 
0 2810.381251728118 0 0 3143.416931627823 0 0 0 0 1:-0.595524 2:-0.781361 3:-0.458126 4:-0.854268 5:-0.736078 6:-0.381879 7:-0.902217 8:-0.843204 9:-0.717632 10:-0.351629 11:-0.569528 12:0.259418 13:-0.699407 14:-0.139701 15:0.258691 16:0.265879 17:0.200076 18:-0.0878998 19:-0.261008 20:-0.607001 21:0.178353 22:0.122931 23:0.23226 24:0.589621 25:-0.431897 26:-0.728834 27:-0.996442 28:-0.999115 29:-0.974727 30:-0.947849 31:0.950952 
0 0 0 0 2163.98391941367 792.074111604056 0 0 0 1:-0.652514 2:-0.692408 3:-0.64114 4:-0.731007 5:-0.717374 6:-0.663842 7:-0.773584 8:-0.769344 9:-0.753257 10:-0.708674 11:-0.580899 12:0.381721 13:-0.769656 14:-0.0922197 15:0.287422 16:0.293444 17:0.175488 18:0.102425 19:-0.140203 20:-0.632026 21:0.278809 22:0.151726 23:0.27493 24:0.548453 25:-0.367785 26:-0.851028 27:-0.998105 28:-0.994849 29:-0.974731 30:-0.946801 31:0.950912 
0 0 0 0 4915.650625053544 0 0 0 0 1:-0.480368 2:-0.665552 3:-0.414064 4:-0.764932 5:-0.650897 6:-0.367832 7:-0.83463 8:-0.771951 9:-0.639406 10:-0.338845 11:-0.549549 12:0.318135 13:-0.330292 14:-0.0979946 15:0.25501 16:0.2578 17:0.280162 18:-0.349908 19:-0.0579675 20:-0.308277 21:0.187869 22:0.139029 23:0.21623 24:0.655416 25:-0.303457 26:-0.748761 27:-0.990048 28:-0.998392 29:-0.974729 30:-0.948289 31:0.950971 
0 0 0 0 0 0 8192 0 0 1:-0.544896 2:-0.59722 3:-0.659434 4:-0.66086 5:-0.703484 6:-0.730995 7:-0.72859 8:-0.749916 9:-0.774051 10:-0.790814 11:-0.706823 12:0.605897 13:-0.631816 14:-0.142181 15:0.335992 16:0.189429 17:0.221504 18:-0.494306 19:0.254129 20:-0.591613 21:0.162726 22:0.207053 23:0.168024 24:0.612141 25:-0.599986 26:-0.93835 27:-0.995769 28:-0.999497 29:-0.974728 30:-0.948024 31:0.950956 
0 0 0 0 0 0 0 0 1077.145933797951 1:-0.337961 2:-0.418555 3:-0.431913 4:-0.501363 5:-0.519876 6:-0.473362 7:-0.583721 8:-0.597316 9:-0.570553 10:-0.507324 11:-0.501651 12:0.444345 13:-0.143771 14:-0.109363 15:0.335329 16:0.167264 17:0.334693 18:-0.517407 19:0.115162 20:-0.418348 21:0.152742 22:0.190379 23:0.176675 24:0.6593 25:-0.46819 26:-0.836707 27:-0.995595 28:-0.997632 29:-0.974726 30:-0.947448 31:0.950972 
0 3675.268998327454 278.1301768018527 0 0 0 988.196618643452 0 0 1:-0.515787 2:-0.427124 3:-0.408998 4:-0.356018 5:-0.377907 6:-0.340344 7:-0.298281 8:-0.332183 9:-0.34937 10:-0.300038 11:-0.0430851 12:0.225044 13:-0.45078 14:-0.485716 15:0.620411 16:0.149888 17:0.22875 18:0.596811 19:-0.195725 20:-0.383562 21:-0.16773 22:0.448004 23:0.144585 24:0.616599 25:0.0557657 26:-0.797871 27:-0.920831 28:-0.985153 29:-0.974574 30:-0.943247 31:0.952112 
0 0 0 0 0 15.62009549341899 0 0 0 1:-0.243937 2:-0.254557 3:-0.167154 4:-0.238643 5:-0.211058 6:-0.128939 7:-0.209437 8:-0.204656 9:-0.187316 10:-0.1166 11:0.468595 12:0.503088 13:-0.262597 14:0.220444 15:0.590435 16:0.38624 17:0.273853 18:0.215972 19:0.166694 20:-0.653423 21:0.274359 22:0.279362 23:0.245654 24:0.619372 25:-0.334845 26:-0.985811 27:-0.991859 28:-0.995056 29:-0.974714 30:-0.948208 31:0.950909 
0 8192 0 8192 8192 0 8192 7716.000859112263 0 1:-0.738393 2:-0.788624 3:-0.744349 4:-0.841008 5:-0.807943 6:-0.78079 7:-0.892261 8:-0.860609 9:-0.842245 10:-0.83038 11:-0.916692 12:0.590565 13:-0.90755 14:-0.198523 15:0.304886 16:0.24008 17:0.202137 18:-0.711076 19:0.267253 20:-0.839303 21:0.0937382 22:0.180599 23:0.214579 24:0.593878 25:-0.89947 26:-0.976492 27:-0.999471 28:-0.999988 29:-0.974728 30:-0.948116 31:0.950954 
0 0 0 0 0 0 1423.728588574729 0 0 1:-0.829977 2:-0.938769 3:-0.796044 4:-0.968599 5:-0.925114 6:-0.804192 7:-0.984789 8:-0.965814 9:-0.927996 10:-0.836232 11:-0.935405 12:0.556207 13:-0.932396 14:-0.192833 15:0.297478 16:0.227311 17:0.204866 18:-0.623204 19:0.1589 20:-0.754452 21:0.108278 22:0.15325 23:0.181228 24:0.609162 25:-0.790824 26:-0.9697 27:-0.997595 28:-0.999917 29:-0.974728 30:-0.948114 31:0.950954 
3025.37976897341 0 0 0 8192 0 8192 8192 5728.586033116687 1:-0.793509 2:-0.949859 3:-0.855265 4:-0.980208 5:-0.966691 6:-0.900679 7:-0.991976 8:-0.987444 9:-0.978893 10:-0.937354 11:-0.933894 12:0.524539 13:-0.93149 14:-0.196987 15:0.309496 16:0.221474 17:0.206594 18:-0.693447 19:0.0568464 20:-0.831049 21:0.0931673 22:0.198392 23:0.170133 24:0.611361 25:-0.884861 26:-0.954763 27:-0.998606 28:-0.999428 29:-0.974728 30:-0.948031 31:0.950954 
5988.957787424291 0 0 0 0 0 8192 0 0 1:-0.869646 2:-0.874769 3:-0.866914 4:-0.897603 5:-0.893582 6:-0.888258 7:-0.929387 8:-0.918928 9:-0.920453 10:-0.920119 11:-0.953528 12:0.543686 13:-0.9739 14:-0.196363 15:0.310906 16:0.228846 17:0.200819 18:-0.649105 19:0.0785414 20:-0.909019 21:0.0851846 22:0.224086 23:0.181161 24:0.590104 25:-0.929077 26:-0.978039 27:-0.996559 28:-0.999696 29:-0.974728 30:-0.948085 31:0.950954 
0 0 0 8192 0 0 8192 6438.894436564029 0 1:-0.42538 2:-0.593642 3:-0.443369 4:-0.712081 5:-0.614255 6:-0.510148 7:-0.803478 8:-0.731345 9:-0.664306 10:-0.597059 11:-0.725595 12:0.593314 13:-0.779083 14:-0.200183 15:0.311356 16:0.221535 17:0.207447 18:-0.682899 19:0.228094 20:-0.933118 21:0.104174 22:0.180359 23:0.195707 24:0.595107 25:-0.963866 26:-0.997438 27:-0.999966 28:-0.999973 29:-0.974728 30:-0.948117 31:0.950954 
0 0 0 8192 0 0 0 0 0 1:-0.674553 2:-0.700041 3:-0.69426 4:-0.746394 5:-0.736992 6:-0.740383 7:-0.802394 8:-0.783429 9:-0.786667 10:-0.797367 11:-0.822895 12:0.57425 13:-0.863556 14:-0.196345 15:0.325601 16:0.229751 17:0.199819 18:-0.513577 19:0.219147 20:-0.815166 21:0.102341 22:0.214318 23:0.196785 24:0.588672 25:-0.791861 26:-0.995267 27:-0.997883 28:-0.99991 29:-0.974728 30:-0.948114 31:0.950954 
0 0 1288.083785972218 0 8192 0 8192 8192 8192 1:-0.721899 2:-0.741368 3:-0.73159 4:-0.785476 5:-0.772274 6:-0.769229 7:-0.839822 8:-0.818324 9:-0.815452 10:-0.818855 11:-0.904549 12:0.549035 13:-0.884216 14:-0.207352 15:0.311236 16:0.233736 17:0.21153 18:-0.691413 19:0.160128 20:-0.793995 21:0.0738642 22:0.193984 23:0.202392 24:0.615856 25:-0.853574 26:-0.970525 27:-0.99983 28:-0.999479 29:-0.974728 30:-0.948056 31:0.950954 
0 0 0 0 2109.169215513811 0 8192 0 0 1:-0.719526 2:-0.795528 3:-0.741411 4:-0.852307 5:-0.827968 6:-0.783302 7:-0.901401 8:-0.882259 9:-0.865823 10:-0.832949 11:-0.855778 12:0.490295 13:-0.874751 14:-0.193271 15:0.330082 16:0.206009 17:0.21304 18:-0.520157 19:0.0169314 20:-0.769732 21:0.107784 22:0.234442 23:0.154779 24:0.619061 25:-0.757532 26:-0.944715 27:-0.994494 28:-0.998614 29:-0.974727 30:-0.94788 31:0.950962 
0 0 0 56.23021742812277 0 0 731.8980724630123 0 135.378685272257 1:-0.0673446 2:-0.267757 3:-0.10824 4:-0.408475 5:-0.3218 6:-0.173938 7:-0.526276 8:-0.466376 9:-0.386265 10:-0.252951 11:-0.168941 12:0.351324 13:-0.301067 14:-0.391912 15:0.309591 16:0.21779 17:0.254154 18:-0.544248 19:0.114666 20:-0.832692 21:0.0577713 22:0.176498 23:0.198613 24:0.604263 25:-0.819869 26:-0.985698 27:-0.99971 28:-0.999742 29:-0.974728 30:-0.948104 31:0.950954 
0 346.0785234662712 0 0 1120.181993236067 0 0 0 0 1:-0.43235 2:-0.430818 3:-0.434802 4:-0.393327 5:-0.44364 6:-0.465009 7:-0.321342 8:-0.415549 9:-0.483892 10:-0.512832 11:0.178599 12:-0.250414 13:-0.7102 14:0.631679 15:-0.121761 16:-0.0491819 17:-0.205764 18:0.446776 19:-0.602356 20:-0.789896 21:0.971212 22:-0.00018869 23:0.027306 24:0.404077 25:-0.101705 26:-0.962202 27:-0.992109 28:-0.958386 29:-0.978634 30:-0.910693 31:0.399182 
0 2241.797412839062 0 0 0 0 736.4069657914637 0 0 1:-0.688708 2:-0.69351 3:-0.693894 4:-0.685488 5:-0.703605 6:-0.709743 7:-0.666822 8:-0.699247 9:-0.724439 10:-0.732902 11:-0.521057 12:-0.115607 13:-0.777247 14:0.0248264 15:-0.0853397 16:-0.0837595 17:-0.266202 18:0.025909 19:-0.662619 20:-0.448407 21:-0.133015 22:0.193182 23:-0.061214 24:0.273539 25:-0.00774713 26:-0.90215 27:-0.96182 28:-0.962745 29:-0.979439 30:-0.917537 31:0.398329 
-0 0 6038.43142731425 0 0 0 0 0 0 1:-0.602529 2:-0.613478 3:-0.560135 4:-0.652999 5:-0.626245 6:-0.565637 7:-0.709908 8:-0.689316 9:-0.661514 10:-0.602482 11:-0.723622 12:0.233899 13:-0.738103 14:-0.311465 15:0.38403 16:0.22387 17:0.184254 18:-0.414676 19:-0.31199 20:-0.666213 21:-0.0503839 22:0.274445 23:0.192418 24:0.568655 25:-0.625749 26:-0.647358 27:-0.980989 28:-0.998192 29:-0.974723 30:-0.947875 31:0.950941 
-0 0 0 0 0 2470.777118104713 0 0 0 1:-0.576073 2:-0.558329 3:-0.541558 4:-0.576775 5:-0.588254 6:-0.540317 7:-0.617089 8:-0.642354 9:-0.621932 10:-0.566357 11:-0.630343 12:0.0948224 13:-0.610359 14:-0.208 15:0.195693 16:0.414845 17:0.157343 18:-0.275817 19:-0.464524 20:-0.489635 21:0.0908838 22:0.0582745 23:0.35906 24:0.539194 25:-0.419219 26:-0.391799 27:-0.945574 28:-0.993851 29:-0.974672 30:-0.944558 31:0.95098 
-0 0 2853.93835432 0 0 0 0 0 0 1:-0.441127 2:-0.466011 3:-0.486859 4:-0.492183 5:-0.576468 6:-0.527276 7:-0.534854 8:-0.632776 9:-0.64746 10:-0.57839 11:-0.219552 12:-0.151093 13:-0.442858 14:-0.738276 15:0.454978 16:0.392337 17:0.146315 18:0.0343009 19:-0.473867 20:-0.531373 21:-0.285359 22:0.275087 23:0.28465 24:0.551818 25:-0.315549 26:-0.425394 27:-0.918099 28:-0.995427 29:-0.974689 30:-0.948249 31:0.950833 
-0 0 0 0 0 913.0154346369421 0 0 0 1:-0.893698 2:-0.956368 3:-0.868608 4:-0.973658 5:-0.949911 6:-0.878159 7:-0.986423 8:-0.974878 9:-0.955747 10:-0.905863 11:-0.95448 12:0.529858 13:-0.976734 14:-0.203112 15:0.300356 16:0.241154 17:0.202627 18:-0.586404 19:-0.0320328 20:-0.879996 21:0.0264713 22:0.159599 23:0.24669 24:0.604008 25:-0.877399 26:-0.928735 27:-0.991267 28:-0.99995 29:-0.974728 30:-0.948107 31:0.950954 
-0 0 0 0 5015.877060163495 1998.691799540781 0 0 0 1:-0.868369 2:-0.909056 3:-0.813633 4:-0.936391 5:-0.893836 6:-0.807199 7:-0.961925 8:-0.936358 9:-0.89858 10:-0.830874 11:-0.95303 12:0.506472 13:-0.950027 14:-0.191743 15:0.290389 16:0.249795 17:0.202588 18:-0.648518 19:-0.120594 20:-0.753572 21:0.114843 22:0.104879 23:0.277702 24:0.601189 25:-0.801358 26:-0.837026 27:-0.982182 28:-0.999225 29:-0.974727 30:-0.948029 31:0.950946 
-0 1334.298971969749 0 4707.41830401459 8192 6808.950254872561 0 0 0 1:-0.992423 2:-0.969912 3:-0.950147 4:-0.967005 5:-0.961674 6:-0.940674 7:-0.977733 8:-0.96993 9:-0.965352 10:-0.951666 11:-0.987486 12:0.543606 13:-0.994814 14:-0.192123 15:0.300584 16:0.236307 17:0.200083 18:-0.681541 19:-0.146088 20:-0.782178 21:0.120422 22:0.135079 23:0.252892 24:0.571859 25:-0.839494 26:-0.818661 27:-0.995001 28:-0.999133 29:-0.974727 30:-0.94785 31:0.950953 
-7451.750150017684 0 0 0 0 0 0 4476.42422637795 0 1:-0.993034 2:-0.959199 3:-0.939225 4:-0.954921 5:-0.945299 6:-0.924939 7:-0.967857 8:-0.955232 9:-0.947988 10:-0.935797 11:-0.988623 12:0.55204 13:-1 14:-0.194751 15:0.302615 16:0.236166 17:0.200194 18:-0.704376 19:-0.0204455 20:-0.876123 21:0.0593592 22:0.177682 23:0.250957 24:0.574236 25:-0.926682 26:-0.926717 27:-0.99271 28:-0.999889 29:-0.974728 30:-0.948097 31:0.950954 
-8192 0 2722.653786409853 0 0 0 0 640.9830021454715 5954.32809488666 1:-0.945692 2:-0.949627 3:-0.916763 4:-0.958918 5:-0.946985 6:-0.91847 7:-0.974957 8:-0.964041 9:-0.955501 10:-0.937466 11:-0.985234 12:0.545 13:-0.986847 14:-0.194953 15:0.302621 16:0.235753 17:0.201262 18:-0.785061 19:-0.00525842 20:-0.839681 21:0.078548 22:0.176513 23:0.225455 24:0.595203 25:-0.932677 26:-0.917032 27:-0.998184 28:-0.99999 29:-0.974728 30:-0.948116 31:0.950954 
-0 581.1798944993382 0 6730.047165479358 5629.056088266005 0 6104.787412482457 0 215.8327352624243 1:-0.705463 2:-0.702856 3:-0.644316 4:-0.733803 5:-0.673943 6:-0.617385 7:-0.785237 8:-0.722258 9:-0.666104 10:-0.618877 11:-0.829963 12:0.652529 13:-0.662864 14:-0.375367 15:0.0967467 16:0.0677492 17:0.179853 18:-0.46432 19:0.401361 20:-0.195472 21:-0.293251 22:-0.237099 23:-0.0618437 24:0.545027 25:-0.261835 26:-0.651531 27:-0.778091 28:-0.949054 29:-0.972028 30:-0.945419 31:0.952294 
-8192 0 215.4158735703889 0 0 0 0 0 0 1:-0.700501 2:-0.659079 3:-0.610836 4:-0.665249 5:-0.612281 6:-0.571299 7:-0.702684 8:-0.64303 9:-0.599753 10:-0.571375 11:-0.790832 12:0.550476 13:-0.739695 14:-0.40186 15:0.071996 16:0.0322064 17:0.140185 18:-0.347123 19:0.167244 20:-0.429126 21:-0.339694 22:-0.274722 23:-0.110136 24:0.462416 25:-0.401311 26:-0.903027 27:-0.781491 28:-0.917454 29:-0.969239 30:-0.951033 31:0.946399 
-4780.975785536129 0 0 0 8192 0 0 6109.855766227935 0 1:-0.750936 2:-0.779912 3:-0.661137 4:-0.821083 5:-0.742675 6:-0.631752 7:-0.869112 8:-0.808654 9:-0.738044 10:-0.644722 11:-0.863911 12:0.478952 13:-0.872597 14:-0.25041 15:0.2872 16:0.227629 17:0.198182 18:-0.472246 19:-0.0437105 20:-0.696694 21:-0.0547692 22:0.135392 23:0.190024 24:0.583063 25:-0.676343 26:-0.902031 27:-0.997042 28:-0.997947 29:-0.974726 30:-0.948561 31:0.95095 
-8192 0 1578.664171037101 0 0 0 954.6080268086827 0 0 1:-0.739514 2:-0.735316 3:-0.682888 4:-0.759587 5:-0.708968 6:-0.661528 7:-0.803724 8:-0.750475 9:-0.710055 10:-0.679112 11:-0.786841 12:0.676644 13:-0.713973 14:-0.399835 15:0.0426676 16:-0.175323 17:-0.0255476 18:-0.199786 19:0.49779 20:-0.201135 21:-0.441356 22:-0.452717 23:-0.582842 24:-0.00169888 25:-0.148854 26:-0.709662 27:-0.220677 28:-0.555199 29:-0.843984 30:-0.796821 31:1 
-7923.942859256132 0 0 450.3024133527074 0 0 0 0 0 1:-0.756097 2:-0.839747 3:-0.647873 4:-0.891665 5:-0.785422 6:-0.577919 7:-0.933742 8:-0.867941 9:-0.752672 10:-0.554201 11:-0.887061 12:0.616517 13:-0.664837 14:-0.253845 15:0.185477 16:-0.036934 17:-0.113067 18:-0.556044 19:0.347672 20:0.0535862 21:-0.0699073 22:-0.136478 23:-0.369826 24:-0.314044 25:-0.098403 26:-0.353622 27:-0.261988 28:-0.502848 29:-0.824061 30:-0.680044 31:0.948486 
-1759.092480899454 0 0 0 0 0 0 0 0 1:-0.711657 2:-0.800306 3:-0.69132 4:-0.853625 5:-0.80204 6:-0.643291 7:-0.897105 8:-0.874303 9:-0.782347 10:-0.638683 11:-0.753217 12:0.538846 13:-0.261379 14:-0.117282 15:-0.217688 16:0.163711 17:-0.419897 18:-0.182395 19:0.137965 20:0.997749 21:0.280885 22:-0.901719 23:0.0871517 24:-0.800787 25:0.841912 26:0.919037 27:-0.948552 28:0.404893 29:-0.90905 30:0.49501 31:-0.0592831 
-4161.382754504933 271.6781244230363 50.40642424032642 8.487047419517625 95.79098660530086 0 8.760538083239583 0 0 1:-0.724323 2:-0.740744 3:-0.656532 4:-0.772899 5:-0.695696 6:-0.589712 7:-0.820581 8:-0.748119 9:-0.658767 10:-0.570571 11:-0.746095 12:0.815577 13:-0.376649 14:-0.479023 15:-0.165857 16:-0.448429 17:-0.461412 18:-0.106829 19:0.825411 20:0.768606 21:-0.589471 22:-0.863753 23:-1 24:-1 25:0.687622 26:0.840558 27:1 28:1 29:1 30:1 31:-0.901776 
-0 0 0 0 99.50517711379406 0 0 0 79.69647926463776 1:-0.668083 2:-0.701827 3:-0.68222 4:-0.739403 5:-0.721306 6:-0.648963 7:-0.78848 8:-0.772157 9:-0.712626 10:-0.654735 11:-0.628579 12:0.750605 13:-0.191251 14:-0.458185 15:-0.407706 16:-0.216864 17:-0.344138 18:0.0360682 19:0.567193 20:0.807774 21:-0.374013 22:-1 23:-0.390303 24:-0.3858 25:0.783278 26:0.453675 27:-0.430712 28:-0.0221726 29:-0.847749 30:-0.106607 31:-1 
-0 0 0 0 0 0 0 0 719.5748155947276 1:-0.926667 2:-0.864741 3:-0.879274 4:-0.855747 5:-0.860416 6:-0.873623 7:-0.876914 8:-0.866445 9:-0.877263 10:-0.893428 11:-0.972963 12:0.545134 13:-0.97589 14:-0.201511 15:0.31132 16:0.235011 17:0.200488 18:-0.677 19:0.0265151 20:-0.782005 21:0.0135726 22:0.261222 23:0.215387 24:0.5862 25:-0.837333 26:-0.932574 27:-0.987298 28:-0.999274 29:-0.974728 30:-0.948004 31:0.95096 
-0 7113.656055305826 0 0 0 0 0 0 0 1:-0.89683 2:-0.812144 3:-0.775665 4:-0.788641 5:-0.740715 6:-0.712268 7:-0.802862 8:-0.741344 9:-0.705548 10:-0.69592 11:-0.96421 12:0.527829 13:-0.963253 14:-0.204037 15:0.305987 16:0.244157 17:0.197585 18:-0.669101 19:-0.0506032 20:-0.764639 21:0.0166295 22:0.200683 23:0.265559 24:0.564129 25:-0.819584 26:-0.887429 27:-0.983357 28:-0.999888 29:-0.974728 30:-0.948111 31:0.950954 
-0 8192 1896.845981191553 0 8192 0 0 0 0 1:-0.9123 2:-0.873156 3:-0.834771 4:-0.875392 5:-0.844557 6:-0.809109 7:-0.900408 8:-0.867433 9:-0.843684 10:-0.819454 11:-0.947973 12:0.522702 13:-0.960869 14:-0.206858 15:0.313364 16:0.217987 17:0.202612 18:-0.448524 19:-0.118815 20:-0.69094 21:-0.0239309 22:0.267323 23:0.0985761 24:0.606332 25:-0.661073 26:-0.850403 27:-0.983393 28:-0.994695 29:-0.974713 30:-0.947251 31:0.950842 
-8192 0 0 0 0 0 0 0 0 1:-0.928363 2:-0.915212 3:-0.843944 4:-0.924786 5:-0.881418 6:-0.81401 7:-0.947366 8:-0.912836 9:-0.874157 10:-0.822877 11:-0.963285 12:0.542149 13:-0.984946 14:-0.200543 15:0.313953 16:0.231724 17:0.20004 18:-0.554069 19:-0.000683915 20:-0.868621 21:0.0225153 22:0.288886 23:0.189651 24:0.581304 25:-0.853696 26:-0.946416 27:-0.981361 28:-0.99884 29:-0.974726 30:-0.947921 31:0.950965 
-1872.063482045222 0 1752.422546762042 0 0 0 0 0 0 1:-0.818173 2:-0.862343 3:-0.766618 4:-0.899406 5:-0.848744 6:-0.76491 7:-0.935411 8:-0.899709 9:-0.858262 10:-0.79391 11:-0.922019 12:0.514872 13:-0.926379 14:-0.217004 15:0.336884 16:0.224133 17:0.199465 18:-0.572942 19:-0.00257628 20:-0.753791 21:0.00286755 22:0.311304 23:0.172835 24:0.584477 25:-0.767931 26:-0.925874 27:-0.975044 28:-0.997813 29:-0.974722 30:-0.947763 31:0.950982 
-3236.349314481757 0 0 0 0 0 0 0 0 1:-0.868618 2:-0.897972 3:-0.767092 4:-0.922724 5:-0.855625 6:-0.726427 7:-0.949962 8:-0.906475 9:-0.842059 10:-0.731009 11:-0.922712 12:0.516976 13:-0.967077 14:-0.211474 15:0.327864 16:0.224869 17:0.201077 18:-0.408204 19:-0.0645295 20:-0.865762 21:-0.0109958 22:0.321976 23:0.163007 24:0.591727 25:-0.786492 26:-0.910872 27:-0.973248 28:-0.996799 29:-0.974716 30:-0.947404 31:0.951005 
-8192 0 0 0 0 0 0 0 0 1:-0.852632 2:-0.858734 3:-0.8074 4:-0.884358 5:-0.850282 6:-0.808908 7:-0.919406 8:-0.888702 9:-0.864551 10:-0.838078 11:-0.951054 12:0.534594 13:-0.953213 14:-0.205804 15:0.317738 16:0.232691 17:0.199906 18:-0.672761 19:0.04712 20:-0.814794 21:0.0351752 22:0.252765 23:0.199336 24:0.585126 25:-0.862337 26:-0.949949 27:-0.991038 28:-0.999383 29:-0.974728 30:-0.948043 31:0.950957 
-0 197.5290558481557 0 0 0 0 0 0 0 1:-0.938087 2:-0.895446 3:-0.859751 4:-0.894989 5:-0.866694 6:-0.831342 7:-0.917427 8:-0.88705 9:-0.86344 10:-0.838423 11:-0.970454 12:0.524321 13:-0.96508 14:-0.20068 15:0.311995 16:0.231926 17:0.197461 18:-0.607046 19:-0.177917 20:-0.621793 21:0.0117254 22:0.279366 23:0.190164 24:0.549623 25:-0.674866 26:-0.74724 27:-0.975833 28:-0.999282 29:-0.974728 30:-0.948248 31:0.950945 
-0 0 0 0 0 0 4711.388524118973 0 0 1:-0.927681 2:-0.876283 3:-0.877709 4:-0.872009 5:-0.869834 6:-0.869566 7:-0.894105 8:-0.880928 9:-0.883783 10:-0.887609 11:-0.958642 12:0.527836 13:-0.967752 14:-0.203136 15:0.320851 16:0.22303 17:0.20136 18:-0.500602 19:-0.11763 20:-0.696095 21:-0.00506332 22:0.356209 23:0.1215 24:0.595482 25:-0.688455 26:-0.845673 27:-0.956072 28:-0.994683 29:-0.97469 30:-0.946725 31:0.951043 
-0 8192 0 0 0 0 0 0 0 1:-0.961322 2:-0.932345 3:-0.892237 4:-0.933872 5:-0.909165 6:-0.870366 7:-0.952342 8:-0.928852 9:-0.907992 10:-0.880647 11:-0.978346 12:0.542721 13:-0.983932 14:-0.198392 15:0.310332 16:0.232509 17:0.199016 18:-0.633241 19:-0.0619193 20:-0.746194 21:0.0189335 22:0.286301 23:0.193431 24:0.561541 25:-0.788514 26:-0.880391 27:-0.976752 28:-0.999317 29:-0.974727 30:-0.948071 31:0.950952 
-0 0 0 4510.689151459903 0 0 0 0 0 1:-0.802341 2:-0.871313 3:-0.807665 4:-0.917871 5:-0.883482 6:-0.82666 7:-0.954221 8:-0.929293 9:-0.899518 10:-0.855795 11:-0.984097 12:0.577358 13:-0.838343 14:-0.19629 15:0.302388 16:0.258727 17:0.231586 18:-0.944975 19:0.242494 20:-0.39586 21:0.0949276 22:0.174499 23:0.273677 24:0.708974 25:-0.639867 26:-0.642658 27:-0.977648 28:-0.993744 29:-0.974691 30:-0.945583 31:0.950952 
-0 8192 8192 8192 8192 0 0 0 264.002053821241 1:-0.930442 2:-0.92672 3:-0.902823 4:-0.939915 5:-0.925086 6:-0.898588 7:-0.962006 8:-0.94545 9:-0.931667 10:-0.912087 11:-1 12:0.581011 13:-0.911658 14:-0.192585 15:0.303271 16:0.241817 17:0.206 18:-1 19:0.323652 20:-0.103176 21:0.109557 22:0.182862 23:0.270843 24:0.646629 25:-0.424347 26:-0.250632 27:-0.989503 28:-0.998044 29:-0.974724 30:-0.947319 31:0.950964 
-0 6196.517787097916 5526.229010176674 1194.625677571905 2378.087541211758 0 0 0 1166.8580646187 1:-0.907662 2:-0.884826 3:-0.894068 4:-0.897231 5:-0.8987 6:-0.898369 7:-0.926477 8:-0.916053 9:-0.916389 10:-0.916247 11:-0.998687 12:0.570525 13:-0.910851 14:-0.193209 15:0.301892 16:0.239216 17:0.212197 18:-0.994996 19:0.230162 20:-0.273863 21:0.103941 22:0.170041 23:0.240256 24:0.690128 25:-0.562078 26:-0.486417 27:-0.987691 28:-0.995875 29:-0.974713 30:-0.94602 31:0.950954 
-0 0 0 3843.300868052452 2277.820988384869 0 0 500.3206901043698 2171.393803796323 1:-0.67032 2:-0.661123 3:-0.725086 4:-0.701414 5:-0.735526 6:-0.754501 7:-0.764788 8:-0.772237 9:-0.778102 10:-0.783364 11:-0.980794 12:0.546331 13:-0.601036 14:-0.194267 15:0.295422 16:0.259736 17:0.293806 18:-0.984331 19:0.16325 20:-0.178395 21:0.10631 22:0.16302 23:0.236747 24:0.758964 25:-0.479052 26:-0.376819 27:-0.969358 28:-0.988627 29:-0.974622 30:-0.941662 31:0.950961 
-4994.119231729945 0 0 0 0 0 0 0 0 1:-0.876768 2:-0.880093 3:-0.854301 4:-0.90112 5:-0.884907 6:-0.864849 7:-0.93178 8:-0.912965 9:-0.903478 10:-0.8931 11:-0.95022 12:0.558026 13:-0.95537 14:-0.212535 15:0.308918 16:0.250623 17:0.206661 18:-0.602098 19:0.154017 20:-0.765642 21:-0.0265851 22:0.214735 23:0.287229 24:0.629291 25:-0.790614 26:-0.974933 27:-0.973927 28:-0.998713 29:-0.97473 30:-0.947963 31:0.950935 
-2667.39004057047 0 0 0 0 0 0 0 0 1:-0.833487 2:-0.847937 3:-0.829498 4:-0.878207 5:-0.864545 6:-0.851524 7:-0.915979 8:-0.897499 9:-0.89094 10:-0.886196 11:-0.944012 12:0.565275 13:-0.935448 14:-0.214028 15:0.312621 16:0.261692 17:0.206943 18:-0.669178 19:0.19733 20:-0.761611 21:0.00506332 22:0.219697 23:0.301621 24:0.619593 25:-0.817136 26:-0.96716 27:-0.970585 28:-0.999024 29:-0.974727 30:-0.947999 31:0.950941 
-0 8192 0 8192 0 0 0 0 0 1:-0.597757 2:-0.635096 3:-0.54396 4:-0.70314 5:-0.620217 6:-0.537258 7:-0.780585 8:-0.705085 9:-0.630189 10:-0.562621 11:-0.954086 12:0.492675 13:-0.696404 14:-0.201706 15:0.305443 16:0.277241 17:0.195708 18:-0.940729 19:0.0910481 20:-0.596802 21:0.0973889 22:0.17837 23:0.243363 24:0.58395 25:-0.802744 26:-0.796743 27:-0.996259 28:-0.999882 29:-0.974728 30:-0.948141 31:0.950954 
-0 8192 0 8192 6837.695612649976 8192 0 7504.731710418223 0 1:-0.706085 2:-0.72702 3:-0.710501 4:-0.778306 5:-0.756232 6:-0.738767 7:-0.839885 8:-0.81104 9:-0.792864 10:-0.782436 11:-0.977588 12:0.518018 13:-0.805307 14:-0.194766 15:0.300941 16:0.264515 17:0.186931 18:-0.96263 19:0.0914555 20:-0.59688 21:0.104591 22:0.171734 23:0.251463 24:0.560277 25:-0.812546 26:-0.78855 27:-0.994665 28:-0.999364 29:-0.974728 30:-0.947992 31:0.950952 
-0 2136.536304260865 0 1392.460984781199 5909.755357471923 0 8192 8192 0 1:-0.698282 2:-0.687294 3:-0.673285 4:-0.72349 5:-0.696936 6:-0.689768 7:-0.781986 8:-0.743914 9:-0.728874 10:-0.731657 11:-0.966404 12:0.525113 13:-0.828586 14:-0.197751 15:0.316724 16:0.242996 17:0.182237 18:-0.928914 19:0.110947 20:-0.680233 21:0.0984516 22:0.202288 23:0.216474 24:0.551701 25:-0.8659 26:-0.859207 27:-0.995007 28:-0.999669 29:-0.974728 30:-0.948024 31:0.950954 
-0 8192 0 8192 0 0 0 0 0 1:-0.759572 2:-0.777675 3:-0.689132 4:-0.822101 5:-0.748606 6:-0.67191 7:-0.875279 8:-0.811434 9:-0.748031 10:-0.690684 11:-0.984917 12:0.562021 13:-0.853415 14:-0.195113 15:0.304962 16:0.258815 17:0.199096 18:-0.969542 19:0.18997 20:-0.606435 21:0.10187 22:0.181568 23:0.256756 24:0.585349 25:-0.823456 26:-0.808199 27:-0.993943 28:-0.999753 29:-0.974728 30:-0.948195 31:0.950954 
-1345.849761652052 0 0 8192 0 0 0 3582.611731161554 0 1:-0.722595 2:-0.778509 3:-0.682822 4:-0.838611 5:-0.769497 6:-0.690613 7:-0.89538 8:-0.840952 9:-0.784572 10:-0.726995 11:-0.974322 12:0.556211 13:-0.854193 14:-0.197114 15:0.307344 16:0.252992 17:0.203784 18:-0.944056 19:0.17778 20:-0.701284 21:0.098471 22:0.185509 23:0.236013 24:0.597526 25:-0.889894 26:-0.876491 27:-0.997464 28:-0.99988 29:-0.974728 30:-0.948124 31:0.950954 
-8192 0 0 8192 8192 8192 623.3391063426051 8192 0 1:-0.738649 2:-0.773628 3:-0.711445 4:-0.824255 5:-0.774434 6:-0.728654 7:-0.878383 8:-0.833508 9:-0.798171 10:-0.771132 11:-0.95328 12:0.561524 13:-0.885887 14:-0.18407 15:0.311944 16:0.252529 17:0.191405 18:-0.853676 19:0.189966 20:-0.767956 21:0.131937 22:0.197572 23:0.238379 24:0.565947 25:-0.904371 26:-0.933736 27:-0.995922 28:-0.99961 29:-0.974728 30:-0.948149 31:0.950953 
-5817.431332353844 0 0 6126.009889248125 0 1743.445673903951 8192 8192 2843.07151317721 1:-0.620159 2:-0.694254 3:-0.65784 4:-0.77177 5:-0.741869 6:-0.710309 7:-0.844502 8:-0.814073 9:-0.791315 10:-0.770001 11:-0.929911 12:0.503807 13:-0.78691 14:-0.211491 15:0.324199 16:0.259807 17:0.193235 18:-0.872978 19:0.100125 20:-0.730947 21:0.0819283 22:0.203508 23:0.229405 24:0.579713 25:-0.882612 26:-0.899381 27:-0.996042 28:-0.999996 29:-0.974728 30:-0.948118 31:0.950954 
-0 0 0 0 0 5885.196291028374 0 0 0 1:-0.734991 2:-0.736934 3:-0.720646 4:-0.77651 5:-0.753213 6:-0.744212 7:-0.832081 8:-0.80045 9:-0.788146 10:-0.788779 11:-0.96884 12:0.530757 13:-0.876376 14:-0.199251 15:0.310176 16:0.250821 17:0.188686 18:-0.916779 19:0.109594 20:-0.744426 21:0.0921538 22:0.192942 23:0.234425 24:0.559524 25:-0.91314 26:-0.896759 27:-0.995101 28:-0.999722 29:-0.974728 30:-0.948056 31:0.950953 
-8192 802.3330804525835 0 5.021081099768945 0 276.1486907149835 0 113.0728486223287 0 1:-0.585449 2:-0.694013 3:-0.612455 4:-0.772371 5:-0.725356 6:-0.609023 7:-0.837082 8:-0.812992 9:-0.732343 10:-0.641602 11:-0.725503 12:0.568287 13:-0.302992 14:-0.13412 15:-0.255029 16:0.195945 17:-0.319655 18:-0.455072 19:0.206244 20:0.0853112 21:0.182421 22:-0.458078 23:0.167862 24:-0.0493278 25:-0.0274934 26:-0.408043 27:-0.981607 28:-0.662097 29:-0.986384 30:-0.755115 31:0.914073 
-0 2508.611319481344 0 0 0 0 0 0 2259.730333143777 1:-0.808059 2:-0.852646 3:-0.878764 4:-0.892289 5:-0.910767 6:-0.916566 7:-0.930863 8:-0.934613 9:-0.943426 10:-0.944772 11:-0.929121 12:0.559539 13:-0.889412 14:-0.223279 15:0.304202 16:0.265971 17:0.224425 18:-0.638141 19:0.176659 20:-0.60691 21:-0.0155199 22:0.181199 23:0.297815 24:0.68492 25:-0.676485 26:-0.913462 27:-0.964154 28:-0.996052 29:-0.974717 30:-0.947258 31:0.950834 
-0 0 0 0 2946.849411359941 3445.191531605321 7343.09657131942 8192 1267.834677851527 1:-0.71347 2:-0.730051 3:-0.816564 4:-0.772177 5:-0.838235 6:-0.875517 7:-0.826491 8:-0.866622 9:-0.899412 10:-0.918766 11:-0.87805 12:0.46544 13:-0.849272 14:-0.247825 15:0.323451 16:0.270792 17:0.203377 18:-0.611846 19:-0.0374078 20:-0.706265 21:-0.0176067 22:0.218653 23:0.263907 24:0.596272 25:-0.746263 26:-0.887157 27:-0.982005 28:-0.999663 29:-0.974728 30:-0.948036 31:0.950955 
-0 0 0 0 7164.708556743328 0 0 0 0 1:-0.681016 2:-0.736763 3:-0.794165 4:-0.799217 5:-0.841053 6:-0.838308 7:-0.860647 8:-0.882965 9:-0.885162 10:-0.870344 11:-0.915069 12:0.454792 13:-0.645835 14:-0.191388 15:0.288086 16:0.258142 17:0.299299 18:-0.780735 19:-0.0289528 20:-0.248438 21:0.111732 22:0.14943 23:0.236445 24:0.778688 25:-0.445957 26:-0.518819 27:-0.957242 28:-0.986553 29:-0.974567 30:-0.942337 31:0.951023 
-0 0 0 0 1496.016168781807 0 6198.719300507529 2461.979761210226 0 1:-0.745084 2:-0.684956 3:-0.79115 4:-0.684171 5:-0.767903 6:-0.831913 7:-0.718638 8:-0.77554 9:-0.829707 10:-0.871725 11:-0.917771 12:0.489575 13:-0.832875 14:-0.221249 15:0.293728 16:0.263493 17:0.233105 18:-0.70473 19:-0.00788287 20:-0.576238 21:0.0307619 22:0.152997 23:0.261506 24:0.677651 25:-0.680946 26:-0.824119 27:-0.977583 28:-0.997428 29:-0.974721 30:-0.947458 31:0.950914 
-6409.056574115858 8192 3326.01912346564 0 2288.622116729446 3253.28744153505 0 2917.62066941308 2157.914103080719 1:-0.838587 2:-0.753192 3:-0.785751 4:-0.726804 5:-0.745876 6:-0.780766 7:-0.735838 8:-0.737928 9:-0.767448 10:-0.805397 11:-0.888766 12:0.52547 13:-0.924239 14:-0.121461 15:0.303892 16:0.236318 17:0.209936 18:-0.294963 19:0.0190943 20:-0.686714 21:0.468924 22:0.181315 23:0.212799 24:0.635584 25:-0.589331 26:-0.951757 27:-0.987562 28:-0.991112 29:-0.974716 30:-0.949376 31:0.950696 
-0 8192 0 0 0 0 0 0 0 1:-0.919099 2:-0.894246 3:-0.81165 4:-0.903224 5:-0.843225 6:-0.760478 7:-0.929455 8:-0.879363 9:-0.820993 10:-0.75331 11:-0.979762 12:0.544949 13:-0.970967 14:-0.198898 15:0.304326 16:0.241404 17:0.200428 18:-0.775686 19:0.0353792 20:-0.759463 21:0.0465323 22:0.191577 23:0.260479 24:0.585939 25:-0.862733 26:-0.911868 27:-0.989361 28:-0.999986 29:-0.974728 30:-0.94812 31:0.950954 
-8192 0 0 0 0 0 0 0 0 1:-0.951802 2:-0.904731 3:-0.879831 4:-0.901602 5:-0.879016 6:-0.857392 7:-0.922354 8:-0.894677 9:-0.87891 10:-0.868543 11:-0.980194 12:0.555199 13:-0.987977 14:-0.199058 15:0.302592 16:0.238206 17:0.202982 18:-0.695489 19:0.0863666 20:-0.833977 21:0.0188689 22:0.176261 23:0.251949 24:0.619247 25:-0.88817 26:-0.964893 27:-0.989707 28:-0.999612 29:-0.974728 30:-0.948063 31:0.950952 
-8192 6180.842183173092 586.7996790749604 7078.749239539588 8192 6062.791767494613 0 0 1153.122033513592 1:-0.615759 2:-0.655166 3:-0.56392 4:-0.694316 5:-0.657667 6:-0.563071 7:-0.737163 8:-0.721215 9:-0.68426 10:-0.592472 11:-0.53112 12:0.262606 13:-0.751192 14:-0.0507353 15:0.271804 16:0.24137 17:0.252602 18:0.0745444 19:-0.290006 20:-0.666944 21:0.3115 22:0.135103 23:0.209884 24:0.663184 25:-0.40882 26:-0.693049 27:-0.984415 28:-0.996085 29:-0.974743 30:-0.949579 31:0.950939 
-288.5468704004812 0 0 0 0 0 3942.325089716389 3925.344104368095 0 1:-0.521546 2:-0.63215 3:-0.59365 4:-0.701408 5:-0.730568 6:-0.649661 7:-0.761864 8:-0.804756 9:-0.793005 10:-0.699961 11:-0.429477 12:0.0671691 13:-0.575751 14:-0.217487 15:0.191085 16:0.243799 17:0.326996 18:-0.0489817 19:-0.390745 20:-0.552048 21:0.0853286 22:0.0769915 23:0.208882 24:0.71062 25:-0.369529 26:-0.554143 27:-0.951436 28:-0.997263 29:-0.974713 30:-0.947779 31:0.950929 
-0 0 0 0 0 0 0 3122.148653709321 0 1:-0.667781 2:-0.677097 3:-0.708086 4:-0.71134 5:-0.749188 6:-0.755458 7:-0.760238 8:-0.791399 9:-0.809363 10:-0.80464 11:-0.740384 12:0.344027 13:-0.794949 14:-0.22367 15:0.263844 16:0.236292 17:0.256702 18:-0.288942 19:-0.235563 20:-0.658889 21:0.0529122 22:0.111008 23:0.205528 24:0.690496 25:-0.563836 26:-0.750371 27:-0.972787 28:-0.997543 29:-0.974722 30:-0.947531 31:0.950909 
-8192 8192 0 6322.056490508923 8192 1912.309689348092 5417.864086909542 0 0 1:-0.815698 2:-0.790376 3:-0.781186 4:-0.797252 5:-0.792994 6:-0.787297 7:-0.820938 8:-0.813159 9:-0.816571 10:-0.816289 11:-0.78271 12:0.538217 13:-0.903011 14:0.00293716 15:0.303573 16:0.217883 17:0.230019 18:0.222363 19:0.0918338 20:-0.647182 21:0.94828 22:0.179088 23:0.153954 24:0.713608 25:-0.326885 26:-0.972381 27:-0.867654 28:-0.959403 29:-0.974686 30:-0.948587 31:0.942469 
-0 0 0 0 4951.968761415878 0 0 0 0 1:-0.771151 2:-0.857301 3:-0.766336 4:-0.904957 5:-0.870601 6:-0.782367 7:-0.941934 8:-0.921985 9:-0.888676 10:-0.811149 11:-0.876889 12:0.465125 13:-0.810994 14:-0.212245 15:0.284499 16:0.214397 17:0.256369 18:-0.472056 19:-0.112023 20:-0.410087 21:0.0463828 22:0.122418 23:0.157886 24:0.765746 25:-0.441248 26:-0.732389 27:-0.950308 28:-0.989193 29:-0.97463 30:-0.944034 31:0.950509 
-0 0 0 0 8192 0 4755.273060625723 0 0 1:-0.858726 2:-0.912839 3:-0.854224 4:-0.941773 5:-0.921449 6:-0.868959 7:-0.966285 8:-0.952891 9:-0.93537 10:-0.894907 11:-0.941295 12:0.525458 13:-0.907122 14:-0.204542 15:0.292209 16:0.227335 17:0.227388 18:-0.585623 19:-0.00516683 20:-0.513437 21:0.0390052 22:0.119811 23:0.176428 24:0.744275 25:-0.57649 26:-0.826537 27:-0.958742 28:-0.992119 29:-0.974678 30:-0.945676 31:0.950664 
-0 0 790.2653649489342 0 0 0 0 0 0 1:-0.783063 2:-0.848637 3:-0.773005 4:-0.89642 5:-0.860867 6:-0.775289 7:-0.936696 8:-0.913296 9:-0.873697 10:-0.789506 11:-0.937055 12:0.476909 13:-0.726701 14:-0.19816 15:0.291979 16:0.177303 17:0.288252 18:-0.727587 19:-0.0925813 20:-0.0198151 21:0.0901688 22:0.141851 23:0.0619204 24:0.887732 25:-0.234867 26:-0.244687 27:-0.870726 28:-0.963709 29:-0.973522 30:-0.924884 31:0.949224 
-357.8267515079939 23.69234156805009 421.322774139164 243.9586682784997 0 203.5573732368824 0 1400.768124099122 0 1:0.268985 2:-0.0429053 3:0.498 4:-0.273326 5:0.0932881 6:0.663707 7:-0.460159 8:-0.190953 9:0.197027 10:0.772175 11:-0.291895 12:0.12624 13:0.122712 14:-0.581746 15:0.586473 16:0.558653 17:-0.0673369 18:-0.797558 19:0.096441 20:-0.85565 21:0.0574105 22:0.209292 23:0.232894 24:0.555435 25:-0.951327 26:-0.959599 27:-0.9914 28:-0.999803 29:-0.974728 30:-0.9481 31:0.950954 
-0 1978.68784877641 0 5974.085786687963 0 8192 0 0 0 1:-0.758634 2:-0.765919 3:-0.752584 4:-0.803321 5:-0.793247 6:-0.758254 7:-0.853964 8:-0.838521 9:-0.814874 10:-0.782196 11:-0.938602 12:0.444912 13:-0.712036 14:-0.221513 15:0.317738 16:0.298164 17:0.153036 18:-0.771165 19:-0.152483 20:-0.100846 21:0.0234495 22:0.216041 23:0.34093 24:0.450633 25:-0.320684 26:-0.268003 27:-0.922453 28:-0.993024 29:-0.974647 30:-0.943702 31:0.950968 
-0 0 0 0 0 0 785.9362033925494 0 0 1:-0.670078 2:-0.599987 3:-0.663007 4:-0.591285 5:-0.636359 6:-0.675951 7:-0.621148 8:-0.643397 9:-0.67389 10:-0.706411 11:-0.85617 12:0.458828 13:-0.683225 14:-0.25648 15:0.375933 16:0.28717 17:0.204459 18:-0.620287 19:-0.0109581 20:-0.38053 21:-0.00803726 22:0.297535 23:0.273133 24:0.597111 25:-0.482924 26:-0.724355 27:-0.964352 28:-0.998655 29:-0.974732 30:-0.947601 31:0.950944 
-0 6147.453144475985 0 0 0 0 0 0 0 1:-0.633198 2:-0.747355 3:-0.61013 4:-0.826995 5:-0.752168 6:-0.610121 7:-0.889976 8:-0.840134 9:-0.761944 10:-0.628489 11:-0.860302 12:0.459302 13:-0.612653 14:-0.246574 15:0.332876 16:0.308917 17:0.249466 18:-0.687533 19:0.0180732 20:-0.337693 21:0.0261589 22:0.217421 23:0.28581 24:0.664382 25:-0.477701 26:-0.675215 27:-0.979562 28:-0.996475 29:-0.974721 30:-0.946887 31:0.950878 
-0 7917.146417133805 6681.366785447214 0 4880.869199028752 0 1237.502403755373 5426.376857053049 0 1:-0.622433 2:-0.578825 3:-0.6199 4:-0.588684 5:-0.628631 6:-0.625704 7:-0.630762 8:-0.660474 9:-0.665249 10:-0.649421 11:-0.80327 12:0.26597 13:-0.550975 14:-0.261464 15:0.403387 16:0.221904 17:0.158812 18:-0.562391 19:-0.296387 20:-0.244683 21:0.00828213 22:0.309463 23:0.189495 24:0.529857 25:-0.345796 26:-0.384889 27:-0.957142 28:-0.999208 29:-0.974729 30:-0.948525 31:0.950941 
-0 0 0 0 0 1206.863647063422 0 0 0 1:-0.67692 2:-0.696913 3:-0.587402 4:-0.739898 5:-0.672855 6:-0.542517 7:-0.794167 8:-0.748024 9:-0.666772 10:-0.533274 11:-0.811249 12:0.246619 13:-0.671751 14:-0.198216 15:0.258297 16:0.34907 17:0.159144 18:-0.473485 19:-0.451119 20:-0.329122 21:0.098698 22:0.09846 23:0.360648 24:0.51251 25:-0.375497 26:-0.26868 27:-0.952436 28:-0.992716 29:-0.974661 30:-0.943553 31:0.950896 
-8192 8192 0 7839.629100119715 8192 0 0 0 0 1:-0.693995 2:-0.739191 3:-0.626076 4:-0.79661 5:-0.710625 6:-0.612939 7:-0.856501 8:-0.78566 9:-0.711669 10:-0.636614 11:-0.91521 12:0.561994 13:-0.81471 14:-0.211658 15:0.320929 16:0.261678 17:0.192534 18:-0.766341 19:0.193499 20:-0.651982 21:0.0698443 22:0.209609 23:0.24414 24:0.573586 25:-0.770447 26:-0.902337 27:-0.992029 28:-0.999981 29:-0.974728 30:-0.94812 31:0.950954 
-0 1335.976044647558 0 0 0 0 0 0 0 1:-0.64689 2:-0.80099 3:-0.565468 4:-0.878924 5:-0.774765 6:-0.536726 7:-0.930576 8:-0.87513 9:-0.769399 10:-0.543512 11:-0.845116 12:0.410268 13:-0.728438 14:-0.25389 15:0.296079 16:0.30263 17:0.23062 18:-0.627821 19:-0.08095 20:-0.551742 21:0.00865261 22:0.165264 23:0.283902 24:0.638751 25:-0.62666 26:-0.788368 27:-0.976 28:-0.999174 29:-0.974727 30:-0.947942 31:0.950945 
-0 0 0 0 2524.056423942713 0 0 0 0 1:-0.649753 2:-0.811253 3:-0.608333 4:-0.888759 5:-0.81038 6:-0.605905 7:-0.937023 8:-0.901051 9:-0.820964 10:-0.628384 11:-0.854832 12:0.340519 13:-0.707247 14:-0.185859 15:0.248672 16:0.288017 17:0.246766 18:-0.649423 19:-0.212437 20:-0.496756 21:0.120607 22:0.0933565 23:0.267441 24:0.665882 25:-0.591183 26:-0.635047 27:-0.967142 28:-0.998694 29:-0.974728 30:-0.948504 31:0.950978 
-0 1891.556779129867 0 0 352.6217406473284 0 0 0 0 1:-0.700302 2:-0.779174 3:-0.603313 4:-0.842638 5:-0.744342 6:-0.559223 7:-0.896964 8:-0.836255 9:-0.733845 10:-0.551467 11:-0.894973 12:0.384633 13:-0.753275 14:-0.184107 15:0.265638 16:0.258468 17:0.245042 18:-0.691826 19:-0.206222 20:-0.467357 21:0.127586 22:0.103042 23:0.240595 24:0.683814 25:-0.58593 26:-0.607093 27:-0.970331 28:-0.997989 29:-0.974723 30:-0.948125 31:0.950988 
-0 0 0 0 1479.445159475711 0 0 0 0 1:-0.840534 2:-0.873072 3:-0.793567 4:-0.904467 5:-0.864561 6:-0.789319 7:-0.937356 8:-0.909871 9:-0.874442 10:-0.810802 11:-0.927731 12:0.488716 13:-0.90074 14:-0.195024 15:0.293968 16:0.209489 17:0.233117 18:-0.544826 19:-0.149353 20:-0.550086 21:0.0969554 22:0.135157 23:0.113582 24:0.753236 25:-0.588399 26:-0.75607 27:-0.949343 28:-0.990009 29:-0.974625 30:-0.944609 31:0.950701 
-0 4009.282042245484 1746.84131461532 2051.735102204581 8192 0 8192 0 0 1:-0.942811 2:-0.97064 3:-0.912834 4:-0.978545 5:-0.961948 6:-0.91119 7:-0.988373 8:-0.978494 9:-0.963786 10:-0.92692 11:-0.980049 12:0.557992 13:-0.95772 14:-0.197149 15:0.296984 16:0.232155 17:0.214473 18:-0.720481 19:0.121375 20:-0.51366 21:0.0515843 22:0.11135 23:0.191686 24:0.760309 25:-0.636635 26:-0.828553 27:-0.948389 28:-0.990979 29:-0.974646 30:-0.945362 31:0.950658 
-4825.981897015543 0 0 8192 0 0 0 0 0 1:-0.925104 2:-0.904289 3:-0.931142 4:-0.912686 5:-0.930253 6:-0.943945 7:-0.936885 8:-0.939206 9:-0.952806 10:-0.961783 11:-0.965604 12:0.568036 13:-0.969009 14:-0.206329 15:0.298332 16:0.243497 17:0.211516 18:-0.594411 19:0.213785 20:-0.718815 21:-0.0359521 22:0.13492 23:0.280069 24:0.701192 25:-0.7488 26:-0.966436 27:-0.954637 28:-0.996151 29:-0.974721 30:-0.947624 31:0.950814 
-0 0 0 0 0 0 0 0 8192 1:-0.750873 2:-0.823669 3:-0.798603 4:-0.877662 5:-0.861788 6:-0.839499 7:-0.923711 8:-0.905603 9:-0.893331 10:-0.877666 11:-0.915209 12:0.611977 13:-0.839493 14:-0.233984 15:0.285693 16:0.274963 17:0.25308 18:-0.684594 19:0.331371 20:-0.582137 21:-0.00808352 22:0.131519 23:0.287087 24:0.736446 25:-0.67683 26:-0.869082 27:-0.942693 28:-0.993066 29:-0.974677 30:-0.946414 31:0.950689 
-0 0 0 0 462.7267791746619 0 0 0 0 1:-0.894222 2:-0.882134 3:-0.898968 4:-0.895999 5:-0.906569 6:-0.910973 7:-0.924262 8:-0.921892 9:-0.92835 10:-0.930022 11:-0.942485 12:0.575768 13:-0.911385 14:-0.218205 15:0.286049 16:0.243141 17:0.232943 18:-0.471864 19:0.261346 20:-0.363995 21:-0.0935128 22:0.0564877 23:0.258274 24:0.840539 25:-0.40337 26:-0.823213 27:-0.847794 28:-0.981871 29:-0.974496 30:-0.943458 31:0.948581 
-6252.519345745804 0 0 0 0 0 2219.85801630678 0 0 1:-0.36455 2:-0.577653 3:-0.51099 4:-0.712841 5:-0.671117 6:-0.59062 7:-0.813106 8:-0.777006 9:-0.721979 10:-0.646136 11:-0.684242 12:0.654512 13:-0.347971 14:-0.396174 15:0.208365 16:0.427488 17:0.444607 18:-0.689281 19:0.272044 20:-0.560863 21:-0.00558039 22:0.126521 23:0.280749 24:0.726151 25:-0.66147 26:-0.870341 27:-0.946919 28:-0.994329 29:-0.974693 30:-0.946653 31:0.950757 
-0 0 0 0 526.3242390768303 0 130.329756483811 0 0 1:-0.241099 2:-0.236421 3:-0.247505 4:-0.232683 5:-0.258948 6:-0.246634 7:-0.231081 8:-0.268003 9:-0.270726 10:-0.245798 11:-0.563993 12:-0.407554 13:-0.171341 14:-0.213771 15:0.0852454 16:0.441736 17:-0.185703 18:-0.756559 19:-0.599965 20:-0.283929 21:-0.0718271 22:0.200384 23:0.333377 24:0.411622 25:-0.276782 26:-0.630281 27:-0.922322 28:-0.977906 29:-0.979107 30:-0.898119 31:0.398781 
-0 5.06698755805212 0 0 0 0 0 0 186.7024522915976 1:-0.879959 2:-0.884318 3:-0.878247 4:-0.887863 5:-0.882237 6:-0.892516 7:-0.890902 8:-0.884795 9:-0.896206 10:-0.916258 11:-0.914593 12:0.0284439 13:-1 14:0.0675521 15:-0.11577 16:0.0370299 17:-0.241175 18:-0.661087 19:-0.588628 20:-0.884936 21:-0.309803 22:0.255676 23:0.254876 24:0.308298 25:-0.791938 26:-0.942629 27:-0.898896 28:-0.992473 29:-0.978886 30:-0.907601 31:0.400413 
-8192 -0 8192 0 8192 0 8192 8192 182.0967636860445 1:-0.461465 2:-0.457201 3:-0.462356 4:-0.49803 5:-0.505465 6:-0.475218 7:-0.562665 8:-0.567756 9:-0.547829 10:-0.501325 11:-0.731688 12:0.24613 13:-0.433644 14:-0.172175 15:0.30996 16:0.143331 17:0.262236 18:-0.653526 19:-0.116216 20:-0.481592 21:0.125225 22:0.1801 23:0.151112 24:0.637531 25:-0.580571 26:-0.712208 27:-0.993268 28:-0.998843 29:-0.974726 30:-0.947655 31:0.950954 
-0 -8148.16908352423 0 6945.634092304266 0 8192 0 0 0 1:-0.641483 2:-0.649063 3:-0.538669 4:-0.689331 5:-0.608538 6:-0.47481 7:-0.746213 8:-0.681123 9:-0.5827 10:-0.444095 11:-0.810083 12:0.305711 13:-0.573738 14:-0.21494 15:0.297891 16:0.369279 17:0.148623 18:-0.544665 19:-0.261761 20:-0.225495 21:0.0735834 22:0.168143 23:0.358981 24:0.508228 25:-0.322177 26:-0.417955 27:-0.945156 28:-0.995245 29:-0.974697 30:-0.945796 31:0.950821 
-0 -0 0 0 8192 0 0 0 0 1:-0.656194 2:-0.689138 3:-0.625613 4:-0.734637 5:-0.705314 6:-0.61584 7:-0.788196 8:-0.767843 9:-0.720792 10:-0.628462 11:-0.733386 12:0.308434 13:-0.58995 14:-0.218199 15:0.354344 16:0.293335 17:0.174042 18:-0.303227 19:-0.283343 20:-0.207307 21:0.0654011 22:0.255804 23:0.276101 24:0.545257 25:-0.199909 26:-0.485433 27:-0.969255 28:-0.999761 29:-0.974728 30:-0.948065 31:0.950952 
-0 -0 0 0 0 0 0 1001.912375897538 0 1:-0.591615 2:-0.564815 3:-0.567114 4:-0.586412 5:-0.581187 6:-0.565207 7:-0.635868 8:-0.619705 9:-0.60172 10:-0.584798 11:-0.78117 12:0.436196 13:-0.564007 14:-0.234338 15:0.305321 16:0.280358 17:0.19199 18:-0.564328 19:0.00909548 20:-0.366428 21:0.05586 22:0.178136 23:0.245161 24:0.579432 25:-0.446482 26:-0.746613 27:-0.993909 28:-0.999959 29:-0.974728 30:-0.948101 31:0.950954 
-0 -6646.596665416447 0 0 8192 1171.68001113004 0 5939.104015938651 0 1:-0.625037 2:-0.704632 3:-0.616431 4:-0.770273 5:-0.742423 6:-0.612294 7:-0.830521 8:-0.821625 9:-0.765277 10:-0.624849 11:-0.736996 12:0.163763 13:-0.496506 14:-0.182807 15:0.300211 16:0.238167 17:0.183774 18:-0.394456 19:-0.472755 20:-0.123227 21:0.123925 22:0.171762 23:0.206804 24:0.565635 25:-0.171535 26:-0.099166 27:-0.999615 28:-0.999684 29:-0.974728 30:-0.947906 31:0.950954 
-1598.388718071283 -8192 0 8192 8192 0 8192 3209.411856519107 1144.782130375232 1:-0.893497 2:-0.903206 3:-0.898363 4:-0.924091 5:-0.922625 6:-0.915153 7:-0.951138 8:-0.943139 9:-0.943155 10:-0.939098 11:-0.976493 12:0.559077 13:-0.951318 14:-0.192405 15:0.300957 16:0.238549 17:0.205696 18:-0.79301 19:0.154619 20:-0.681245 21:0.110923 22:0.163933 23:0.231792 24:0.627764 25:-0.8063 26:-0.906739 27:-0.996244 28:-0.999453 29:-0.974728 30:-0.948056 31:0.950955 
-0 -8192 0 0 8192 0 0 0 0 1:-0.872438 2:-0.82083 3:-0.834753 4:-0.820879 5:-0.822377 6:-0.837782 7:-0.849419 8:-0.835176 9:-0.845252 10:-0.864735 11:-0.960733 12:0.559822 13:-0.949546 14:-0.186907 15:0.30846 16:0.236671 17:0.199576 18:-0.700056 19:0.165354 20:-0.738329 21:0.146847 22:0.210594 23:0.217889 24:0.582037 25:-0.811774 26:-0.952537 27:-0.997626 28:-0.999789 29:-0.974728 30:-0.94815 31:0.950954 
-8192 -0 0 8192 8192 8192 8192 0 0 1:-0.767287 2:-0.755034 3:-0.775546 4:-0.779246 5:-0.789662 6:-0.808952 7:-0.821851 8:-0.817652 9:-0.833997 10:-0.85407 11:-0.882856 12:0.548899 13:-0.908279 14:-0.17117 15:0.33085 16:0.234664 17:0.191539 18:-0.509675 19:0.149411 20:-0.789575 21:0.176492 22:0.255576 23:0.204758 24:0.5618 25:-0.769143 26:-0.988734 27:-0.986052 28:-0.999707 29:-0.974728 30:-0.94814 31:0.950955 
-8192 -0 0 0 7041.162107562808 0 0 0 0 1:-0.834008 2:-0.846681 3:-0.789253 4:-0.875766 5:-0.835814 6:-0.789795 7:-0.912571 8:-0.877112 9:-0.847567 10:-0.818068 11:-0.934141 12:0.56949 13:-0.924301 14:-0.185231 15:0.31397 16:0.238001 17:0.197451 18:-0.604951 19:0.215664 20:-0.700627 21:0.145393 22:0.225861 23:0.218365 24:0.574041 25:-0.738571 26:-0.958915 27:-0.994672 28:-0.999802 29:-0.974728 30:-0.948145 31:0.950954 
-0 -886.771667067888 0 8192 8192 4743.094274742614 0 0 0 1:-0.861821 2:-0.837439 3:-0.833377 4:-0.848238 5:-0.842298 6:-0.84198 7:-0.877459 8:-0.863984 9:-0.86485 10:-0.871262 11:-0.902409 12:0.567595 13:-0.945487 14:-0.137936 15:0.262381 16:0.251884 17:0.204323 18:-0.282124 19:0.208019 20:-0.743105 21:0.439514 22:-0.0452752 23:0.282913 24:0.610967 25:-0.629858 26:-0.999915 27:-0.930196 28:-0.987154 29:-0.974547 30:-0.948343 31:0.950574 
-0 -0 0 8192 0 0 0 0 0 1:-0.892338 2:-0.87932 3:-0.884606 4:-0.894087 5:-0.894173 6:-0.898813 7:-0.922933 8:-0.912192 9:-0.917326 10:-0.924919 11:-0.956173 12:0.594993 13:-0.958256 14:-0.183313 15:0.30965 16:0.234476 17:0.198676 18:-0.606563 19:0.38218 20:-0.739387 21:0.181771 22:0.225615 23:0.208552 24:0.573537 25:-0.771071 26:-0.931161 27:-0.994531 28:-0.999618 29:-0.974728 30:-0.948153 31:0.950955 
-0 -8192 0 0 8192 0 5032.527376417867 0 0 1:-0.874234 2:-0.766117 3:-0.812522 4:-0.723053 5:-0.751101 6:-0.800731 7:-0.722499 8:-0.727111 9:-0.768312 10:-0.820991 11:-0.958246 12:0.538946 13:-0.948686 14:-0.190602 15:0.299703 16:0.23235 17:0.205132 18:-0.675451 19:0.0482041 20:-0.726945 21:0.122731 22:0.157971 23:0.197286 24:0.618432 25:-0.791498 26:-0.924849 27:-0.997935 28:-0.999813 29:-0.974728 30:-0.948095 31:0.950954 
-3055.014793990033 -0 0 8192 0 0 0 0 0 1:-0.915941 2:-0.958189 3:-0.865635 4:-0.972557 5:-0.938674 6:-0.858532 7:-0.985314 8:-0.966987 9:-0.93686 10:-0.878277 11:-0.972767 12:0.580702 13:-0.966658 14:-0.189533 15:0.305791 16:0.236157 17:0.200996 18:-0.705165 19:0.308399 20:-0.7302 21:0.139084 22:0.20396 23:0.222015 24:0.591488 25:-0.807381 26:-0.937042 27:-0.998689 28:-0.999751 29:-0.974728 30:-0.948118 31:0.950954 
-8192 -0 0 8192 0 0 0 0 31.43932223446194 1:-0.888247 2:-0.959545 3:-0.86721 4:-0.974947 5:-0.949102 6:-0.879031 7:-0.986009 8:-0.972695 9:-0.952793 10:-0.907774 11:-0.924771 12:0.597377 13:-0.97489 14:-0.178578 15:0.309877 16:0.236364 17:0.200232 18:-0.335959 19:0.391817 20:-0.877985 21:0.214833 22:0.225386 23:0.218557 24:0.585653 25:-0.764391 26:-0.95397 27:-0.99612 28:-0.998973 29:-0.974727 30:-0.947989 31:0.950956 
-0 -0 0 3651.869000950096 0 0 0 0 0 1:-0.860991 2:-0.842672 3:-0.847151 4:-0.858831 5:-0.856322 6:-0.861006 7:-0.892226 8:-0.878104 9:-0.881956 10:-0.890678 11:-0.944665 12:0.585615 13:-0.933285 14:-0.181448 15:0.312757 16:0.23 17:0.194729 18:-0.604249 19:0.300448 20:-0.668547 21:0.176295 22:0.23087 23:0.187526 24:0.554176 25:-0.711955 26:-0.936501 27:-0.989044 28:-0.999788 29:-0.974728 30:-0.948142 31:0.950954 
-0 -0 4032.762291135846 0 0 0 0 0 0 1:-0.852326 2:-0.832595 3:-0.785572 4:-0.847674 5:-0.80838 6:-0.772149 7:-0.8809 8:-0.840445 9:-0.813655 10:-0.794184 11:-0.922353 12:0.560451 13:-0.945057 14:-0.188065 15:0.330334 16:0.229532 17:0.188082 18:-0.468834 19:0.173073 20:-0.766799 21:0.134812 22:0.316768 23:0.186549 24:0.519884 25:-0.732308 26:-0.991165 27:-0.949188 28:-0.999922 29:-0.974728 30:-0.948111 31:0.950954 
-0 -0 8192 8192 0 0 8192 0 0 1:-0.861597 2:-0.732457 3:-0.787725 4:-0.667959 5:-0.701373 6:-0.766516 7:-0.647214 8:-0.652402 9:-0.707879 10:-0.781493 11:-0.944108 12:0.583841 13:-0.930924 14:-0.189156 15:0.29889 16:0.211509 17:0.195445 18:-0.598316 19:0.291681 20:-0.651565 21:0.130147 22:0.155157 23:0.106931 24:0.558249 25:-0.695392 26:-0.933306 27:-0.981923 28:-0.998693 29:-0.974726 30:-0.948011 31:0.950966 
-0 -0 0 8192 0 0 0 0 0 1:-0.83574 2:-0.849309 3:-0.767458 4:-0.878135 5:-0.820524 6:-0.748192 7:-0.914366 8:-0.866646 9:-0.817085 10:-0.762887 11:-0.930862 12:0.599489 13:-0.889281 14:-0.185452 15:0.306396 16:0.218928 17:0.192513 18:-0.579228 19:0.347721 20:-0.506245 21:0.144762 22:0.192441 23:0.150387 24:0.549777 25:-0.567748 26:-0.853291 27:-0.990202 28:-0.99946 29:-0.974727 30:-0.947967 31:0.950954 
-8192 -8192 0 8192 8192 0 8192 8192 1607.280370818758 1:-0.777967 2:-0.793722 3:-0.796333 4:-0.83048 5:-0.833361 6:-0.829195 7:-0.876232 8:-0.870929 9:-0.872823 10:-0.869417 11:-0.916534 12:0.493319 13:-0.885101 14:-0.191197 15:0.300221 16:0.230985 17:0.205372 18:-0.639046 19:-0.0322737 20:-0.675784 21:0.114073 22:0.167955 23:0.196089 24:0.60538 25:-0.733362 26:-0.874166 27:-0.999479 28:-0.999941 29:-0.974728 30:-0.948105 31:0.950954 
-8192 -8192 486.0006894752199 0 8192 0 8192 1534.535716687336 0 1:-0.855891 2:-0.887295 3:-0.771475 4:-0.917596 5:-0.853969 6:-0.743958 7:-0.948494 8:-0.90688 9:-0.847553 10:-0.755944 11:-0.96161 12:0.525427 13:-0.942424 14:-0.189814 15:0.300256 16:0.225759 17:0.207088 18:-0.741938 19:-0.00163307 20:-0.741072 21:0.125442 22:0.163178 23:0.170416 24:0.625729 25:-0.832645 26:-0.894598 27:-0.995725 28:-0.999578 29:-0.974728 30:-0.948016 31:0.950954 
-8192 -8192 0 0 8192 0 0 0 0 1:-0.880249 2:-0.841653 3:-0.795603 4:-0.848572 5:-0.805621 6:-0.766282 7:-0.879364 8:-0.834281 9:-0.800703 10:-0.776059 11:-0.96888 12:0.537175 13:-0.949758 14:-0.19177 15:0.301654 16:0.231436 17:0.201107 18:-0.750752 19:0.0315023 20:-0.715279 21:0.115217 22:0.169556 23:0.192432 24:0.592037 25:-0.815418 26:-0.898227 27:-0.999755 28:-0.999999 29:-0.974728 30:-0.948118 31:0.950954 
-5499.127393131922 -8192 752.735083548773 8192 3851.290974627652 0 0 871.7185078906213 0 1:-0.843512 2:-0.805807 3:-0.745917 4:-0.814516 5:-0.757924 6:-0.710436 7:-0.848111 8:-0.789991 9:-0.747187 10:-0.72026 11:-0.941858 12:0.53942 13:-0.95899 14:-0.195947 15:0.313779 16:0.242439 17:0.195741 18:-0.631165 19:0.0778301 20:-0.868208 21:0.0918378 22:0.228671 23:0.236404 24:0.564004 25:-0.887639 26:-0.974388 27:-0.990043 28:-0.999944 29:-0.974728 30:-0.948115 31:0.950954 
-4181.807732489373 -8192 0 0 8192 0 47.84678073228777 0 0 1:-0.84 2:-0.860471 3:-0.795921 4:-0.892333 5:-0.851846 6:-0.795191 7:-0.928745 8:-0.896394 9:-0.863175 10:-0.821022 11:-0.963846 12:0.532057 13:-0.915633 14:-0.191932 15:0.299391 16:0.233021 17:0.206427 18:-0.785427 19:0.0472455 20:-0.634702 21:0.112795 22:0.160487 23:0.200752 24:0.618416 25:-0.764767 26:-0.857472 27:-0.998277 28:-0.999798 29:-0.974728 30:-0.948069 31:0.950954 
-0 -0 5119.476506746828 8192 0 0 8192 8192 0 1:-0.769232 2:-0.884608 3:-0.734426 4:-0.935697 5:-0.872089 6:-0.738979 7:-0.967157 8:-0.933613 9:-0.876552 10:-0.768811 11:-0.944152 12:0.566376 13:-0.844793 14:-0.203496 15:0.307112 16:0.221653 17:0.196668 18:-0.781377 19:0.202697 20:-0.545406 21:0.0748477 22:0.188167 23:0.175008 24:0.577453 25:-0.689745 26:-0.836236 27:-0.998698 28:-0.9997 29:-0.974728 30:-0.948192 31:0.950954 
-7241.594867665897 -8192 0 8192 8192 2049.86907550058 0 0 0 1:-0.712694 2:-0.802934 3:-0.643991 4:-0.865607 5:-0.772694 6:-0.632765 7:-0.915543 8:-0.853733 9:-0.770633 10:-0.658661 11:-0.895298 12:0.582364 13:-0.852723 14:-0.187531 15:0.312208 16:0.271538 17:0.209984 18:-0.673399 19:0.240982 20:-0.717981 21:0.120987 22:0.195071 23:0.26488 24:0.61114 25:-0.783237 26:-0.950658 27:-0.993376 28:-0.999137 29:-0.974727 30:-0.94812 31:0.950959 
-8192 -8192 0 8192 8192 6786.155290137172 8192 8192 0 1:-0.738109 2:-0.792079 3:-0.72088 4:-0.845826 5:-0.79998 6:-0.740354 7:-0.896954 8:-0.860408 9:-0.824183 10:-0.780512 11:-0.923593 12:0.525331 13:-0.857394 14:-0.189598 15:0.305047 16:0.245132 17:0.206245 18:-0.738424 19:0.0938242 20:-0.675953 21:0.117293 22:0.180977 23:0.224179 24:0.604533 25:-0.777689 26:-0.906052 27:-0.999197 28:-0.999807 29:-0.974728 30:-0.948128 31:0.950954 
-8058.894398634664 -0 0 8192 6485.196156215986 0 8192 0 0 1:-0.798167 2:-0.82641 3:-0.766415 4:-0.865783 5:-0.823614 6:-0.775106 7:-0.908787 8:-0.87223 9:-0.840628 10:-0.808088 11:-0.945437 12:0.564868 13:-0.894268 14:-0.188438 15:0.310753 16:0.227193 17:0.195224 18:-0.744964 19:0.19709 20:-0.658719 21:0.125239 22:0.203476 23:0.1849 24:0.56936 25:-0.766467 26:-0.911427 27:-0.996575 28:-0.999959 29:-0.974728 30:-0.948109 31:0.950954 
-0 -0 8192 0 0 0 3697.805389221091 0 0 1:-0.894108 2:-0.87493 3:-0.83933 4:-0.88841 5:-0.859619 6:-0.827569 7:-0.918116 8:-0.887757 9:-0.865581 10:-0.844638 11:-0.96976 12:0.563616 13:-0.928469 14:-0.190782 15:0.309144 16:0.21914 17:0.192417 18:-0.728621 19:0.183472 20:-0.499148 21:0.12378 22:0.222779 23:0.120955 24:0.524497 25:-0.628357 26:-0.824014 27:-0.974078 28:-0.998592 29:-0.974726 30:-0.948003 31:0.950975 
-0 -0 0 8192 0 0 0 0 0 1:-0.89939 2:-0.863854 3:-0.815803 4:-0.870088 5:-0.826286 6:-0.784225 7:-0.898238 8:-0.852751 9:-0.816884 10:-0.790021 11:-0.964766 12:0.581881 13:-0.939607 14:-0.192783 15:0.30498 16:0.233053 17:0.198838 18:-0.6674 19:0.304159 20:-0.563292 21:0.107872 22:0.193684 23:0.200478 24:0.57375 25:-0.653733 26:-0.871609 27:-0.998663 28:-0.999964 29:-0.974728 30:-0.948107 31:0.950954 
-0 -0 0 8192 0 0 0 0 0 1:-0.964498 2:-0.891773 3:-0.872979 4:-0.874262 5:-0.847411 6:-0.831585 7:-0.888889 8:-0.850041 9:-0.830957 10:-0.828159 11:-0.981376 12:0.589807 13:-0.969405 14:-0.189612 15:0.306348 16:0.234849 17:0.198851 18:-0.671094 19:0.465097 20:-0.529663 21:0.157834 22:0.231823 23:0.220528 24:0.557803 25:-0.627798 26:-0.779001 27:-0.991106 28:-0.999653 29:-0.974728 30:-0.948239 31:0.950954 
-0 -0 0 8192 0 0 0 0 0 1:-0.918193 2:-0.894553 3:-0.844577 4:-0.9033 5:-0.864371 6:-0.820397 7:-0.928812 8:-0.891494 9:-0.859411 10:-0.830532 11:-0.968591 12:0.590602 13:-0.953483 14:-0.189223 15:0.305125 16:0.233558 17:0.199625 18:-0.652176 19:0.386004 20:-0.598049 21:0.142798 22:0.198608 23:0.203888 24:0.578161 25:-0.675462 26:-0.865322 27:-0.998492 28:-0.999922 29:-0.974728 30:-0.948139 31:0.950954 
-0 -0 0 8192 0 0 0 0 0 1:-0.942585 2:-0.900816 3:-0.869168 4:-0.900629 5:-0.871585 6:-0.844523 7:-0.922627 8:-0.889511 9:-0.867799 10:-0.853841 11:-0.976613 12:0.587343 13:-0.969735 14:-0.188454 15:0.306348 16:0.232358 17:0.197597 18:-0.67407 19:0.395489 20:-0.652829 21:0.161957 22:0.219403 23:0.193572 24:0.54932 25:-0.730113 26:-0.880894 27:-0.99148 28:-0.999671 29:-0.974728 30:-0.948139 31:0.950952 
-0 -0 6707.034996094323 0 0 0 0 0 0 1:-0.965166 2:-0.915563 3:-0.882092 4:-0.910568 5:-0.88041 6:-0.848333 7:-0.92967 8:-0.895971 9:-0.87057 10:-0.850579 11:-0.9895 12:0.573869 13:-0.974666 14:-0.192072 15:0.303935 16:0.23388 17:0.199244 18:-0.804966 19:0.284496 20:-0.599375 21:0.11803 22:0.19644 23:0.209248 24:0.563864 25:-0.744488 26:-0.853934 27:-0.997566 28:-0.999843 29:-0.974728 30:-0.948092 31:0.950954 
-0 -0 8192 2128.965985117696 0 0 0 0 0 1:-0.934246 2:-0.859057 3:-0.865717 4:-0.841543 5:-0.834791 6:-0.844915 7:-0.858053 8:-0.834238 9:-0.838083 10:-0.856765 11:-0.978404 12:0.581649 13:-0.965445 14:-0.190311 15:0.305494 16:0.229002 17:0.195993 18:-0.72258 19:0.332988 20:-0.643836 21:0.135973 22:0.206642 23:0.166077 24:0.534459 25:-0.744309 26:-0.88952 27:-0.989175 28:-0.999184 29:-0.974727 30:-0.947916 31:0.950953 
-0 -0 0 8192 0 0 0 0 0 1:-0.928411 2:-0.942499 3:-0.87211 4:-0.954992 5:-0.920318 6:-0.85821 7:-0.972155 8:-0.947718 9:-0.917195 10:-0.872516 11:-0.965326 12:0.607416 13:-0.950803 14:-0.186545 15:0.306306 16:0.230632 17:0.19756 18:-0.578724 19:0.540812 20:-0.520269 21:0.17565 22:0.212881 23:0.18101 24:0.554585 25:-0.579023 26:-0.745861 27:-0.991778 28:-0.999734 29:-0.974728 30:-0.948163 31:0.950953 
-0 -0 8192 0 0 0 0 0 61.96475052234361 1:-0.670146 2:-0.761127 3:-0.659847 4:-0.827112 5:-0.755622 6:-0.671504 7:-0.881521 8:-0.823266 9:-0.76478 10:-0.700269 11:-0.8165 12:0.749613 13:-0.687131 14:-0.12733 15:0.354666 16:0.197668 17:0.228927 18:-0.504237 19:0.568184 20:-0.389874 21:0.229389 22:0.262036 23:0.154271 24:0.641396 25:-0.438986 26:-0.668006 27:-0.986621 28:-0.996707 29:-0.974738 30:-0.94677 31:0.950978 
-0 -0 0 8192 8192 0 8192 0 99.86886933007132 1:-0.741987 2:-0.842915 3:-0.77374 4:-0.901452 5:-0.867219 6:-0.810263 7:-0.943145 8:-0.918876 9:-0.89243 10:-0.852188 11:-0.926249 12:0.585466 13:-0.82804 14:-0.179837 15:0.318469 16:0.229542 17:0.196033 18:-0.743325 19:0.254509 20:-0.568997 21:0.143783 22:0.213998 23:0.194331 24:0.577748 25:-0.692167 26:-0.860624 27:-0.99646 28:-0.999963 29:-0.974728 30:-0.948125 31:0.950954 
-0 -8192 8192 0 8192 0 8192 0 1826.616341338279 1:-0.765348 2:-0.73148 3:-0.781724 4:-0.747656 5:-0.779458 6:-0.806634 7:-0.790338 8:-0.801925 9:-0.821957 10:-0.83892 11:-0.933598 12:0.51781 13:-0.80548 14:-0.187673 15:0.283475 16:0.219858 17:0.24422 18:-0.739703 19:0.0560025 20:-0.411702 21:0.12463 22:0.121367 23:0.171617 24:0.722623 25:-0.561583 26:-0.728642 27:-0.965114 28:-0.994835 29:-0.974693 30:-0.946143 31:0.950954 
-0 -0 0 8192 0 0 0 0 0 1:-0.797006 2:-0.849759 3:-0.76986 4:-0.89499 5:-0.845423 6:-0.776393 7:-0.935448 8:-0.898179 9:-0.856245 10:-0.804354 11:-0.963677 12:0.589371 13:-0.852625 14:-0.188759 15:0.310786 16:0.250644 17:0.20897 18:-0.841745 19:0.284025 20:-0.480501 21:0.123906 22:0.203371 23:0.249086 24:0.620686 25:-0.66337 26:-0.75857 27:-0.996495 28:-0.998933 29:-0.974727 30:-0.947913 31:0.950955 
-0 -0 0 0 8192 0 0 0 698.2421420120504 1:-0.510347 2:-0.608105 3:-0.566589 4:-0.701981 5:-0.665532 6:-0.593511 7:-0.786956 8:-0.749795 9:-0.694619 10:-0.62394 11:-0.838929 12:0.550641 13:-0.364949 14:-0.16236 15:0.355663 16:0.299648 17:0.235764 18:-0.773822 19:0.185486 20:-0.275404 21:0.137385 22:0.219594 23:0.245945 24:0.622468 25:-0.464996 26:-0.617076 27:-0.997046 28:-0.998526 29:-0.974726 30:-0.947854 31:0.950952 
-0 -0 0 0 0 0 6477.390088497698 0 0 1:-0.412178 2:-0.463407 3:-0.449482 4:-0.534403 5:-0.52354 6:-0.457533 7:-0.613799 8:-0.595291 9:-0.547694 10:-0.480013 11:-0.644482 12:0.432286 13:-0.168111 14:-0.176747 15:0.50084 16:0.244185 17:0.0526692 18:-0.591535 19:0.0865034 20:-0.285711 21:0.119789 22:0.293239 23:0.206701 24:0.494851 25:-0.392393 26:-0.701119 27:-0.951411 28:-0.999011 29:-0.974725 30:-0.947715 31:0.950947 
-0 -0 0 1959.421524051605 0 0 0 0 0 1:-0.758926 2:-0.77799 3:-0.658762 4:-0.819059 5:-0.722533 6:-0.612158 7:-0.868413 8:-0.786226 9:-0.696273 10:-0.606864 11:-0.927819 12:0.633784 13:-0.807103 14:-0.174865 15:0.326773 16:0.218866 17:0.165793 18:-0.724436 19:0.400196 20:-0.441547 21:0.162182 22:0.240561 23:0.170619 24:0.487774 25:-0.579264 26:-0.737476 27:-0.9682 28:-0.997534 29:-0.974718 30:-0.947318 31:0.950923 
-0 -0 2139.094730851484 6423.997258094271 0 0 0 0 0 1:-0.760484 2:-0.757901 3:-0.658766 4:-0.790341 5:-0.701113 6:-0.614826 7:-0.838665 8:-0.755869 9:-0.677738 10:-0.613584 11:-0.929698 12:0.613544 13:-0.843308 14:-0.178584 15:0.31951 16:0.22736 17:0.192081 18:-0.730106 19:0.341944 20:-0.567183 21:0.151502 22:0.221342 23:0.188769 24:0.564569 25:-0.684804 26:-0.843329 27:-0.993253 28:-0.999943 29:-0.974728 30:-0.948127 31:0.950954 
-0 -0 0 8192 0 0 0 0 0 1:-0.763738 2:-0.843133 3:-0.691913 4:-0.897329 5:-0.811835 6:-0.671639 7:-0.939706 8:-0.885113 9:-0.805395 10:-0.687845 11:-0.952306 12:0.583245 13:-0.839665 14:-0.191117 15:0.317489 16:0.213726 17:0.179375 18:-0.824422 19:0.253302 20:-0.543774 21:0.113925 22:0.216634 23:0.158332 24:0.525722 25:-0.707548 26:-0.816566 27:-0.985108 28:-0.998869 29:-0.974726 30:-0.947827 31:0.950962 
-0 -0 0 5341.794685788935 0 0 0 0 0 1:-0.79658 2:-0.864031 3:-0.7726 4:-0.909229 5:-0.858005 6:-0.779232 7:-0.945759 8:-0.909898 9:-0.866772 10:-0.807889 11:-0.943139 12:0.614371 13:-0.838596 14:-0.179166 15:0.320384 16:0.213575 17:0.174937 18:-0.735604 19:0.3723 20:-0.421104 21:0.160039 22:0.236185 23:0.147977 24:0.494284 25:-0.56747 26:-0.729909 27:-0.967325 28:-0.997814 29:-0.974719 30:-0.947283 31:0.950943 
-0 -0 0 8192 0 0 0 0 0 1:-0.79264 2:-0.834347 3:-0.783854 4:-0.877383 5:-0.841739 6:-0.799642 7:-0.919841 8:-0.887788 9:-0.860444 10:-0.83222 11:-0.943144 12:0.610008 13:-0.84936 14:-0.192864 15:0.306259 16:0.226477 17:0.190352 18:-0.74211 19:0.353745 20:-0.482827 21:0.108411 22:0.187449 23:0.183589 24:0.552495 25:-0.620973 26:-0.780419 27:-0.997013 28:-0.999505 29:-0.974728 30:-0.947947 31:0.950954 
-0 -0 0 8192 0 0 0 0 0 1:-0.767197 2:-0.756982 3:-0.713095 4:-0.781426 5:-0.733219 6:-0.703737 7:-0.823261 8:-0.768323 9:-0.736546 10:-0.726199 11:-0.871541 12:0.676671 13:-0.827865 14:-0.156261 15:0.331838 16:0.207183 17:0.167868 18:-0.459304 19:0.538938 20:-0.488453 21:0.223121 22:0.258342 23:0.142619 24:0.488886 25:-0.499836 26:-0.764583 27:-0.951209 28:-0.997975 29:-0.974724 30:-0.947889 31:0.950902 
-0 -0 0 8192 0 0 0 0 0 1:-0.808356 2:-0.809349 3:-0.804705 4:-0.838793 5:-0.826179 6:-0.822513 7:-0.880971 8:-0.857846 9:-0.852312 10:-0.855083 11:-0.941791 12:0.620987 13:-0.866326 14:-0.186015 15:0.313553 16:0.22883 17:0.188548 18:-0.707519 19:0.408162 20:-0.499032 21:0.136246 22:0.215883 23:0.188552 24:0.541044 25:-0.61888 26:-0.780333 27:-0.990923 28:-0.999535 29:-0.974728 30:-0.947995 31:0.950952 
-0 -0 0 8192 0 0 0 0 0 1:-0.815052 2:-0.836651 3:-0.774395 4:-0.870889 5:-0.825232 6:-0.776146 7:-0.910355 8:-0.86991 9:-0.83607 10:-0.805228 11:-0.933059 12:0.609875 13:-0.895225 14:-0.175495 15:0.319022 16:0.215692 17:0.180136 18:-0.644514 19:0.372351 20:-0.611743 21:0.182437 22:0.239041 23:0.147406 24:0.503348 25:-0.683283 26:-0.879862 27:-0.967369 28:-0.998411 29:-0.974723 30:-0.947775 31:0.950936 
-0 -0 3166.568054524406 8192 0 8134.299110867023 55.25320610532066 0 0 1:-0.860755 2:-0.839219 3:-0.839202 4:-0.855596 5:-0.847705 6:-0.849247 7:-0.890466 8:-0.87121 9:-0.870909 10:-0.878173 11:-0.967076 12:0.585022 13:-0.928719 14:-0.185302 15:0.314584 16:0.229063 17:0.189512 18:-0.773366 19:0.297265 20:-0.640593 21:0.153088 22:0.240705 23:0.183498 24:0.523491 25:-0.764232 26:-0.883891 27:-0.980149 28:-0.999284 29:-0.974727 30:-0.947973 31:0.950948 
-0 -0 0 8192 0 0 0 7012.341391598606 0 1:-0.635728 2:-0.61163 3:-0.621248 4:-0.642699 5:-0.626435 6:-0.632223 7:-0.702504 8:-0.664863 9:-0.652213 10:-0.663067 11:-0.938762 12:0.593657 13:-0.666502 14:-0.193398 15:0.311749 16:0.262327 17:0.206311 18:-0.885139 19:0.250961 20:-0.445207 21:0.108134 22:0.187967 23:0.234297 24:0.598984 25:-0.653723 26:-0.715837 27:-0.997974 28:-0.999822 29:-0.974728 30:-0.948119 31:0.950954 
-0 -0 0 8192 0 0 0 0 0 1:-0.629186 2:-0.651791 3:-0.596948 4:-0.706678 5:-0.64215 6:-0.599481 7:-0.774141 8:-0.703339 9:-0.652686 10:-0.628074 11:-0.902982 12:0.678088 13:-0.679759 14:-0.182454 15:0.327107 16:0.244792 17:0.178919 18:-0.799629 19:0.393791 20:-0.490874 21:0.124736 22:0.208708 23:0.214151 24:0.557923 25:-0.653147 26:-0.746877 27:-0.995243 28:-0.999789 29:-0.974728 30:-0.948115 31:0.950953 
-0 -0 2642.184852241004 8192 0 0 0 0 0 1:-0.557059 2:-0.56689 3:-0.532284 4:-0.620334 5:-0.558499 6:-0.523499 7:-0.693569 8:-0.613722 9:-0.556705 10:-0.533449 11:-0.890185 12:0.752425 13:-0.473374 14:-0.187003 15:0.325045 16:0.266198 17:0.213703 18:-0.830216 19:0.451132 20:-0.308364 21:0.115594 22:0.197606 23:0.227961 24:0.604679 25:-0.517097 26:-0.544007 27:-0.998728 28:-0.999678 29:-0.974728 30:-0.947997 31:0.950954 
-0 -0 0 8192 0 0 3817.647129150231 4291.124918733097 0 1:-0.610201 2:-0.690785 3:-0.627183 4:-0.771697 5:-0.717664 6:-0.646453 7:-0.845767 8:-0.79666 9:-0.74166 10:-0.679187 11:-0.930917 12:0.586211 13:-0.568143 14:-0.201775 15:0.300517 16:0.189639 17:0.177555 18:-0.881606 19:0.234977 20:-0.319034 21:0.0966244 22:0.172345 23:0.157733 24:0.558736 25:-0.548695 26:-0.601453 27:-0.996316 28:-0.999259 29:-0.974728 30:-0.948017 31:0.950956 
-0 -0 0 8192 0 3314.035704068869 8192 5065.102573331375 0 1:-0.619796 2:-0.614822 3:-0.635716 4:-0.658381 5:-0.651565 6:-0.66164 7:-0.7249 8:-0.69549 9:-0.688618 10:-0.701448 11:-0.937503 12:0.618654 13:-0.640772 14:-0.186866 15:0.32672 16:0.237929 17:0.180335 18:-0.891569 19:0.28951 20:-0.435574 21:0.117696 22:0.206786 23:0.206432 24:0.56131 25:-0.648683 26:-0.698198 27:-0.996057 28:-0.999874 29:-0.974728 30:-0.948081 31:0.950954 
-0 -0 8063.141462485131 8192 0 0 0 0 0 1:-0.655632 2:-0.679061 3:-0.619131 4:-0.734312 5:-0.669021 6:-0.611686 7:-0.801152 8:-0.733155 9:-0.674014 10:-0.628765 11:-0.941496 12:0.636617 13:-0.641728 14:-0.193973 15:0.305542 16:0.208191 17:0.185896 18:-0.879615 19:0.335476 20:-0.329242 21:0.107027 22:0.179593 23:0.170518 24:0.565369 25:-0.556181 26:-0.592539 27:-0.997514 28:-0.999664 29:-0.974728 30:-0.948026 31:0.950954 
-5591.486074797926 -1264.650423208957 3952.229917162701 8192 1414.317843128265 0 2543.743382835773 811.2975962440164 52.57378661705468 1:-0.611909 2:-0.592926 3:-0.583337 4:-0.620524 5:-0.580597 6:-0.568364 7:-0.6775 8:-0.615209 9:-0.581659 10:-0.582096 11:-0.814787 12:0.801217 13:-0.492205 14:-0.439551 15:0.0102724 16:-0.144341 17:0.0118292 18:-0.607586 19:0.579629 20:-0.164168 21:-0.236497 22:-0.197142 23:-0.180518 24:0.330019 25:-0.29987 26:-0.420935 27:-0.811751 28:-0.887707 29:-0.966564 30:-0.900364 31:0.949393 
-0 -0 0 0 8192 0 0 0 0 1:-0.716226 2:-0.733691 3:-0.729541 4:-0.777841 5:-0.769659 6:-0.749207 7:-0.833088 8:-0.816189 9:-0.800462 10:-0.780798 11:-0.907711 12:0.522405 13:-0.708636 14:-0.203457 15:0.299956 16:0.232611 17:0.200296 18:-0.711457 19:0.0970113 20:-0.283657 21:0.0840393 22:0.169472 23:0.200467 24:0.589277 25:-0.444033 26:-0.643915 27:-0.999934 28:-0.999956 29:-0.974728 30:-0.948135 31:0.950954 
-0 -0 0 0 8192 0 0 0 0 1:-0.670628 2:-0.741942 3:-0.707016 4:-0.808504 5:-0.784693 6:-0.731635 7:-0.869554 8:-0.845282 9:-0.811965 10:-0.764778 11:-0.889603 12:0.534131 13:-0.61454 14:-0.199073 15:0.330272 16:0.268846 17:0.183808 18:-0.717239 19:0.138853 20:-0.210277 21:0.0974477 22:0.22138 23:0.24893 24:0.559663 25:-0.386435 26:-0.577211 27:-0.98892 28:-0.999791 29:-0.974728 30:-0.948147 31:0.950953 
-0 -0 0 6533.107138608168 8192 0 0 0 0 1:-0.674342 2:-0.700675 3:-0.691214 4:-0.751982 5:-0.737168 6:-0.706986 7:-0.81296 8:-0.789406 9:-0.763031 10:-0.734233 11:-0.89222 12:0.547154 13:-0.611691 14:-0.201001 15:0.310667 16:0.27715 17:0.20494 18:-0.720027 19:0.164259 20:-0.18852 21:0.0936067 22:0.188795 23:0.261073 24:0.598137 25:-0.369834 26:-0.556024 27:-0.992626 28:-0.999702 29:-0.974728 30:-0.948202 31:0.950955 
-0 -0 0 0 8192 0 0 0 0 1:-0.640139 2:-0.694387 3:-0.652203 4:-0.757374 5:-0.727938 6:-0.664824 7:-0.821991 8:-0.793747 9:-0.752099 10:-0.691368 11:-0.847612 12:0.483626 13:-0.564515 14:-0.204747 15:0.311812 16:0.227062 17:0.179589 18:-0.644959 19:0.0564075 20:-0.210244 21:0.0900367 22:0.18833 23:0.194412 24:0.557275 25:-0.354267 26:-0.595049 27:-0.997895 28:-0.999625 29:-0.974728 30:-0.948018 31:0.950955 
-0 -0 0 8192 2103.454131026233 0 0 0 0 1:-0.714739 2:-0.700051 3:-0.737658 4:-0.727607 5:-0.741102 6:-0.756989 7:-0.776731 8:-0.767296 9:-0.771508 10:-0.785452 11:-0.885492 12:0.652364 13:-0.670199 14:-0.192512 15:0.314371 16:0.284135 17:0.215464 18:-0.635569 19:0.408969 20:-0.176383 21:0.109582 22:0.199847 23:0.286654 24:0.623856 25:-0.32233 26:-0.541058 27:-0.986892 28:-0.998486 29:-0.974725 30:-0.947831 31:0.950967 
-0 -0 0 8192 8192 0 0 0 0 1:-0.756405 2:-0.801726 3:-0.759887 4:-0.850739 5:-0.821146 6:-0.781256 7:-0.899444 8:-0.871135 9:-0.845804 10:-0.816349 11:-0.927583 12:0.565831 13:-0.808039 14:-0.195163 15:0.311944 16:0.248769 17:0.197206 18:-0.727367 19:0.201206 20:-0.453932 21:0.101864 22:0.200052 23:0.234435 24:0.579993 25:-0.590723 26:-0.793236 27:-0.996368 28:-0.999927 29:-0.974728 30:-0.948142 31:0.950954 
-0 -0 0 8192 0 0 0 0 0 1:-0.640493 2:-0.713263 3:-0.709665 4:-0.781053 5:-0.760425 6:-0.718833 7:-0.843386 8:-0.808439 9:-0.770755 10:-0.739599 11:-0.832873 12:0.81887 13:-0.34483 14:-0.136635 15:0.42493 16:0.319052 17:0.114903 18:-0.605979 19:0.652124 20:0.271039 21:0.198633 22:0.352318 23:0.300385 24:0.455674 25:0.0576964 26:0.218338 27:-0.885464 28:-0.995554 29:-0.974765 30:-0.950492 31:0.950762 
-0 -0 4046.516159914567 0 0 0 0 0 0 1:-0.78867 2:-0.725292 3:-0.698174 4:-0.722471 5:-0.681018 6:-0.652389 7:-0.75501 8:-0.699512 9:-0.661815 10:-0.64062 11:-0.95668 12:0.526839 13:-0.768932 14:-0.193403 15:0.310618 16:0.213693 17:0.197259 18:-0.815874 19:0.0683077 20:-0.161747 21:0.106506 22:0.201317 23:0.150969 24:0.577814 25:-0.390499 26:-0.44694 27:-0.993801 28:-0.999722 29:-0.974728 30:-0.948271 31:0.950953 
-0 -0 8192 0 0 0 0 0 0 1:-0.885141 2:-0.854961 3:-0.778663 4:-0.866191 5:-0.800216 6:-0.72419 7:-0.898097 8:-0.836779 9:-0.772769 10:-0.709946 11:-0.983162 12:0.573529 13:-0.902591 14:-0.191234 15:0.307151 16:0.232631 17:0.200183 18:-0.866576 19:0.244362 20:-0.350152 21:0.119385 22:0.205911 23:0.198367 24:0.585437 25:-0.567528 26:-0.639409 27:-0.998387 28:-0.999977 29:-0.974728 30:-0.948108 31:0.950954 
-0 -3330.54057551338 4455.250793761097 0 0 0 0 0 0 1:-0.847908 2:-0.753423 3:-0.756907 4:-0.724346 5:-0.709299 6:-0.718794 7:-0.736807 8:-0.701317 9:-0.69881 10:-0.718978 11:-0.968544 12:0.519661 13:-0.890952 14:-0.192368 15:0.3035 16:0.230966 17:0.207527 18:-0.804993 19:-0.0190319 20:-0.463767 21:0.110642 22:0.179853 23:0.192659 24:0.625983 25:-0.633306 26:-0.707056 27:-0.999131 28:-0.999408 29:-0.974728 30:-0.947887 31:0.950954 
-404.7181322902482 -0 0 0 8192 0 8192 0 0 1:-0.559424 2:-0.679619 3:-0.534675 4:-0.762791 5:-0.688504 6:-0.548814 7:-0.831061 8:-0.782444 9:-0.713544 10:-0.590131 11:-0.693337 12:0.389539 13:-0.673585 14:-0.200815 15:0.349981 16:0.222602 17:0.167081 18:-0.44115 19:-0.0336623 20:-0.631571 21:0.100164 22:0.223242 23:0.192894 24:0.553347 25:-0.609115 26:-0.895001 27:-0.992116 28:-0.999844 29:-0.974728 30:-0.948124 31:0.950954 
-8192 -0 0 1896.991139317478 1710.891137172474 2931.381225415849 0 0 0 1:-0.486166 2:-0.694635 3:-0.322098 4:-0.792657 5:-0.617955 6:-0.218015 7:-0.859134 8:-0.755705 9:-0.569761 10:-0.161028 11:-0.519572 12:0.42595 13:-0.581764 14:-0.194958 15:0.336447 16:0.242066 17:0.164611 18:-0.290915 19:0.0531479 20:-0.624495 21:0.107379 22:0.20098 23:0.206912 24:0.560421 25:-0.536512 26:-0.955904 27:-0.996686 28:-0.999836 29:-0.974728 30:-0.948098 31:0.950954 
-8192 -0 0 0 0 8192 0 0 0 1:-0.553484 2:-0.574282 3:-0.406944 4:-0.611853 5:-0.492329 6:-0.326314 7:-0.661346 8:-0.564418 9:-0.451036 10:-0.29669 11:-0.555229 12:0.353316 13:-0.698675 14:-0.202706 15:0.33258 16:0.270843 17:0.174217 18:-0.186158 19:-0.0768084 20:-0.682901 21:0.0983115 22:0.20478 23:0.231257 24:0.561922 25:-0.537822 26:-0.901361 27:-0.9945 28:-0.999838 29:-0.974728 30:-0.948081 31:0.950953 
-0 -0 0 0 0 3667.301479893304 0 0 0 1:-0.548556 2:-0.575694 3:-0.449063 4:-0.620578 5:-0.521055 6:-0.405936 7:-0.675638 8:-0.586584 9:-0.499262 10:-0.405211 11:-0.60968 12:0.522248 13:-0.646369 14:-0.144021 15:0.409338 16:0.291334 17:0.157993 18:-0.303181 19:0.146376 20:-0.607691 21:0.161532 22:0.279093 23:0.246569 24:0.545338 25:-0.528186 26:-0.9749 27:-0.973157 28:-0.999287 29:-0.974729 30:-0.948189 31:0.950962 
-0 -0 260.2732078677571 0 0 0 0 0 0 1:-0.479825 2:-0.565732 3:-0.317654 4:-0.630206 5:-0.48112 6:-0.202017 7:-0.692015 8:-0.581332 9:-0.421587 10:-0.127337 11:-0.402842 12:0.287271 13:-0.459186 14:-0.239925 15:0.510102 16:0.205801 17:0.0757475 18:-0.124517 19:-0.0900336 20:-0.476358 21:0.0701887 22:0.331083 23:0.185095 24:0.488674 25:-0.341057 26:-0.862528 27:-0.927931 28:-0.999151 29:-0.974728 30:-0.94824 31:0.950973 
-8192 -0 0 0 0 0 0 0 0 1:-0.48287 2:-0.597834 3:-0.326207 4:-0.67986 5:-0.517848 6:-0.228956 7:-0.751244 8:-0.637714 9:-0.470156 10:-0.177996 11:-0.520159 12:0.341519 13:-0.573575 14:-0.206687 15:0.383054 16:0.254364 17:0.165518 18:-0.299055 19:-0.0350397 20:-0.619253 21:0.0975838 22:0.236133 23:0.214286 24:0.561527 25:-0.535831 26:-0.911066 27:-0.990482 28:-0.999992 29:-0.974728 30:-0.948115 31:0.950954 
-5106.843872755273 -0 0 0 8192 0 0 0 0 1:-0.493612 2:-0.653332 3:-0.427345 4:-0.73856 5:-0.62919 6:-0.399183 7:-0.804014 8:-0.731847 9:-0.624564 10:-0.403989 11:-0.430964 12:0.459888 13:-0.497895 14:-0.197435 15:0.396557 16:0.113636 17:0.128126 18:-0.13183 19:0.0870035 20:-0.499024 21:0.105168 22:0.249256 23:0.126297 24:0.528327 25:-0.362894 26:-0.9581 27:-0.970315 28:-0.998948 29:-0.974729 30:-0.948238 31:0.950969 
-0 -0 0 0 386.8960958614651 0 0 0 0 1:-0.734853 2:-0.671469 3:-0.710763 4:-0.666787 5:-0.690021 6:-0.711782 7:-0.696919 8:-0.701363 9:-0.714963 10:-0.733082 11:-0.886775 12:0.48871 13:-0.726884 14:-0.184886 15:0.31685 16:0.272819 17:0.210656 18:-0.601608 19:-0.0004383 20:-0.263619 21:0.129344 22:0.208627 23:0.275527 24:0.615514 25:-0.378759 26:-0.64229 27:-0.991166 28:-0.998586 29:-0.974726 30:-0.948424 31:0.950964 
