svm_type c_svc
kernel_type rbf
gamma 8
nr_class 10
total_sv 1738
rho -0.123621 -0.0399427 -0.0908844 -0.273478 0.0926864 -0.202922 -0.0877686 -0.107685 -0.0184036 0.0307541 0.0164298 -0.164722 0.117733 -0.075105 -0.0242861 0.00519303 0.0853676 -0.0729886 -0.190868 0.0743417 -0.121072 -0.0343999 -0.0598375 0.0385678 -0.143542 0.0720593 -0.120679 -0.00419367 -0.0120793 0.0677205 0.252552 0.0583004 0.195539 0.171308 0.28811 -0.232106 -0.0845332 -0.142749 -0.0233284 0.0752369 0.087645 0.170127 0.0485086 0.0686262 0.0878484
label 1 2 3 4 5 6 7 8 9 10
nr_sv 183 156 180 178 172 181 158 178 172 180
SV
0.2660799157920423 0.3242990981880678 0.264096803566054 0.2192890786356095 0.2889085258421364 0.2248675277948154 0.2645515185283143 0.2900356996395349 0.3400118719365196 1:-0.26795 2:-0.483104 3:-0.223809 4:-0.602436 5:-0.500019 6:-0.207526 7:-0.692398 8:-0.639877 9:-0.524156 10:-0.210534 11:-0.183696 12:0.0108242 13:-0.260275 14:-0.252164 15:0.429779 16:0.10715 17:0.294911 18:-0.308163 19:-0.139862 20:-0.622483 21:0.083981 22:0.224153 23:0.16267 24:0.630142 25:-0.542534 26:-0.834681 27:-0.997751 28:-0.998182 29:-0.974727 30:-0.947598 31:0.95096 
0.7010630998689312 0.7950920498631454 0.8902193614287019 0.5851612119014683 0.843025515450899 0.6739234211793905 0.7486864040459645 0.8686544627955585 0.7897946417398397 1:-0.335839 2:-0.371918 3:-0.275582 4:-0.434985 5:-0.363094 6:-0.274861 7:-0.511781 8:-0.45333 9:-0.391962 10:-0.309425 11:-0.566773 12:0.246586 13:-0.557277 14:-0.191754 15:0.324909 16:0.178759 17:0.258215 18:-0.589155 19:-0.0272954 20:-0.789555 21:0.109814 22:0.185378 23:0.181131 24:0.619896 25:-0.804468 26:-0.918334 27:-0.999019 28:-0.999489 29:-0.974728 30:-0.948024 31:0.950954 
1.129273346015936 0.7511081675218731 0.5550185381034859 0.3781555189001422 0.2860517814151917 0.8771134935127396 1.010203045612075 1.973836147021383 0.6110646158126208 1:-0.475551 2:-0.606207 3:-0.496916 4:-0.696151 5:-0.66176 6:-0.54251 7:-0.770511 8:-0.759542 9:-0.718102 10:-0.600587 11:-0.55503 12:0.160813 13:-0.631605 14:-0.166548 15:0.315757 16:0.185202 17:0.251977 18:-0.367899 19:-0.217897 20:-0.705415 21:0.130622 22:0.184665 23:0.173209 24:0.631685 25:-0.637092 26:-0.769888 27:-0.997243 28:-0.999134 29:-0.974727 30:-0.947977 31:0.950956 
0.630031647399013 0.6811316345508508 0.6602014133969522 0.522983962149587 0.8071720689974171 0.599806811473617 0.6595315265096423 0.6378683897887685 0.6871811386571149 1:-0.229928 2:-0.434333 3:-0.158338 4:-0.552489 5:-0.437203 6:-0.125123 7:-0.641836 8:-0.586165 9:-0.453972 10:-0.115887 11:-0.121707 12:-0.067662 13:-0.25842 14:-0.132421 15:0.326119 16:0.177514 17:0.306612 18:-0.314959 19:-0.157515 20:-0.666502 21:0.132534 22:0.183092 23:0.186013 24:0.630731 25:-0.581645 26:-0.827067 27:-0.99842 28:-0.999208 29:-0.974728 30:-0.948065 31:0.950956 
1.64471837682973 0 0 0 0 0.1300359434943741 0 0 0 1:-0.70566 2:-0.78812 3:-0.629995 4:-0.845233 5:-0.764048 6:-0.611098 7:-0.893841 8:-0.842692 9:-0.76718 10:-0.629736 11:-0.805178 12:0.426887 13:-0.825931 14:-0.177009 15:0.311201 16:0.224678 17:0.216766 18:-0.380056 19:-0.118277 20:-0.656361 21:0.143761 22:0.192305 23:0.187885 24:0.625107 25:-0.602276 26:-0.851419 27:-0.998962 28:-0.999262 29:-0.974728 30:-0.948098 31:0.950956 
0.8566539606289523 0.914743367741274 0.8936953886648469 0.6927706995242187 1.203477608035684 0.7601115771614574 0.8776415922295929 0.8651520076417231 0.9616618085470064 1:-0.499674 2:-0.532521 3:-0.524896 4:-0.561009 5:-0.610291 6:-0.540852 7:-0.594788 8:-0.662162 9:-0.661276 10:-0.55849 11:-0.255436 12:0.0577658 13:-0.383545 14:-0.152505 15:0.355446 16:-0.00761297 17:0.372031 18:0.171851 19:-0.363398 20:-0.329758 21:0.145066 22:0.217675 23:0.0466342 24:0.740623 25:-0.0890714 26:-0.573469 27:-0.943267 28:-0.986583 29:-0.974544 30:-0.94276 31:0.951072 
0.7474280102931378 0.8214517628370328 0.7765720901354737 0.6194869274808781 0.9365463600523405 0.680137059688247 0.7775460330822402 0.7604686986872949 0.8405638662286292 1:-0.316341 2:-0.518272 3:-0.252525 4:-0.60333 5:-0.524945 6:-0.209867 7:-0.668688 8:-0.632947 9:-0.534821 10:-0.183142 11:0.168758 12:-0.0179084 13:-0.200891 14:-0.325268 15:0.477738 16:0.0946468 17:0.310902 18:0.134944 19:-0.199487 20:-0.505514 21:0.0445191 22:0.252695 23:0.15256 24:0.643622 25:-0.249594 26:-0.79674 27:-0.996625 28:-0.996049 29:-0.974723 30:-0.946928 31:0.950982 
0.7266119509456461 0.7918169361069154 0.7570036776443031 0.5973206101049195 0.9062336640018122 0.6549163013169654 0.7651266864590961 0.7469126476204646 0.8499527059701674 1:-0.365683 2:-0.454209 3:-0.308464 4:-0.518329 5:-0.47528 6:-0.27941 7:-0.580131 8:-0.572677 9:-0.503087 10:-0.269291 11:-0.200382 12:-0.147145 13:-0.319088 14:-0.290554 15:0.517081 16:0.0371547 17:0.312428 18:-0.136789 19:-0.350499 20:-0.531505 21:0.0538688 22:0.285352 23:0.121235 24:0.652897 25:-0.391729 26:-0.599748 27:-0.98769 28:-0.993708 29:-0.974707 30:-0.945327 31:0.951054 
0.2372827478459727 0.202335269579686 0.2075985715653867 0.2012508705120075 0.08367126709054436 0.238446053851874 0.2795495822715636 0.2620980821856982 0.3113722413496311 1:-0.317494 2:-0.448926 3:-0.338814 4:-0.534674 5:-0.512699 6:-0.364292 7:-0.608083 8:-0.613827 9:-0.561831 10:-0.397927 11:-0.17595 12:0.0695292 13:-0.297866 14:-0.208385 15:0.355495 16:0.19576 17:0.295243 18:-0.211891 19:-0.140056 20:-0.586144 21:0.101634 22:0.198459 23:0.188225 24:0.636239 25:-0.469931 26:-0.837862 27:-0.999531 28:-0.998686 29:-0.974727 30:-0.947879 31:0.950955 
5.12625003697345 0 4.711306122054181 1.872618856446064 0 0.832168876915793 0.6800736936234776 0.3715595199783918 1.819197657803143 1:-0.950307 2:-0.916336 3:-0.909131 4:-0.918345 5:-0.912122 6:-0.905421 7:-0.939455 8:-0.925898 9:-0.924523 10:-0.923765 11:-0.981998 12:0.554709 13:-0.990688 14:-0.19562 15:0.301277 16:0.229332 17:0.200105 18:-0.726626 19:0.0830261 20:-0.872039 21:0.0677619 22:0.159762 23:0.162738 24:0.57973 25:-0.933226 26:-0.968258 27:-0.998511 28:-0.999389 29:-0.974728 30:-0.948199 31:0.950955 
0.5184466247728633 0 0 0 0 0.4849858298008723 0 0 0 1:-0.701259 2:-0.663549 3:-0.697394 4:-0.670693 5:-0.697053 6:-0.729899 7:-0.70384 8:-0.716928 9:-0.748661 10:-0.780435 11:-0.769553 12:0.486408 13:-0.87123 14:-0.178827 15:0.310573 16:0.227167 17:0.201405 18:-0.274271 19:0.022257 20:-0.792245 21:0.139054 22:0.190674 23:0.192074 24:0.591739 25:-0.666662 26:-0.95951 27:-0.999212 28:-0.999961 29:-0.974728 30:-0.948123 31:0.950954 
0 0.4271247501700122 0 0 0 4.207872986724174 5.22654308428532 9.883612967699378 0 1:-0.78694 2:-0.739253 3:-0.794913 4:-0.744562 5:-0.781275 6:-0.829751 7:-0.779566 8:-0.794381 9:-0.833957 10:-0.874675 11:-0.918364 12:0.538874 13:-0.946636 14:-0.189024 15:0.307968 16:0.231512 17:0.204076 18:-0.628789 19:0.110014 20:-0.905973 21:0.122045 22:0.192492 23:0.197121 24:0.601722 25:-0.917547 26:-0.987316 27:-0.999812 28:-0.99986 29:-0.974728 30:-0.948115 31:0.950954 
0 0 1.941237031242233 2.254676619282043 0 0 8.413422672110649 0 3.286511929943187 1:-0.898658 2:-0.813033 3:-0.890576 4:-0.788191 5:-0.847016 6:-0.905984 7:-0.800768 8:-0.834634 9:-0.88808 10:-0.932696 11:-0.956357 12:0.567668 13:-0.978581 14:-0.19365 15:0.305771 16:0.232744 17:0.20048 18:-0.587811 19:0.209598 20:-0.883553 21:0.10073 22:0.199491 23:0.198641 24:0.587187 25:-0.880942 26:-0.998278 27:-0.999061 28:-0.999975 29:-0.974728 30:-0.948117 31:0.950954 
3.68040828940007 0 0 0 1.905146020547767 0 4.391180608154167 0 0 1:-0.930188 2:-0.87809 3:-0.893669 4:-0.873955 5:-0.881472 6:-0.894626 7:-0.896288 8:-0.889976 9:-0.902151 10:-0.916697 11:-0.969355 12:0.544149 13:-0.989351 14:-0.193681 15:0.303326 16:0.233384 17:0.200723 18:-0.621621 19:0.0131044 20:-0.909299 21:0.097343 22:0.183396 23:0.202788 24:0.588614 25:-0.917086 26:-0.9535 27:-0.999842 28:-0.999995 29:-0.974728 30:-0.948117 31:0.950954 
0.3858955561847427 0.4067158374420959 0 0.01117026960187194 0 0.7829044794190965 1.001216432481932 0.5799681784866387 0.7825679077553919 1:-0.686087 2:-0.684591 3:-0.733293 4:-0.710808 5:-0.752341 6:-0.791553 7:-0.752789 8:-0.779897 9:-0.818505 10:-0.849845 11:-0.724736 12:0.518563 13:-0.893626 14:-0.152786 15:0.301242 16:0.2323 17:0.206667 18:-0.182083 19:0.101614 20:-0.875421 21:0.18868 22:0.172584 23:0.20017 24:0.601975 25:-0.693868 26:-0.973326 27:-0.999024 28:-0.999616 29:-0.974728 30:-0.948112 31:0.950953 
0.02745020670757039 0.5197568452976554 0.1669334925497917 0.1232472263522783 0 0.5669034771286697 0.634148979478361 0.6883853255075931 0.1483730824019984 1:-0.715174 2:-0.684258 3:-0.65095 4:-0.698144 5:-0.662037 6:-0.651561 7:-0.73723 8:-0.693749 9:-0.682477 10:-0.691744 11:-0.820451 12:0.525573 13:-0.92876 14:-0.191837 15:0.31517 16:0.231229 17:0.204529 18:-0.405785 19:0.105102 20:-0.937072 21:0.111149 22:0.201592 23:0.198155 24:0.598956 25:-0.843887 26:-0.983408 27:-0.999486 28:-0.999848 29:-0.974728 30:-0.948124 31:0.950954 
0 0.2952538195750179 0 0 0 0 0 0 0 1:-0.758502 2:-0.704214 3:-0.732927 4:-0.70185 5:-0.718886 6:-0.751515 7:-0.729968 8:-0.731014 9:-0.759104 10:-0.79376 11:-0.842845 12:0.515829 13:-0.909865 14:-0.188768 15:0.310911 16:0.222293 17:0.204388 18:-0.360688 19:0.0550254 20:-0.812269 21:0.120759 22:0.197581 23:0.178049 24:0.600854 25:-0.721503 26:-0.9731 27:-0.998497 28:-0.999822 29:-0.974728 30:-0.948102 31:0.950954 
0 2.226524752800195 0 0 0 2.073804421955768 6.273066788525577 0 0 1:-0.762964 2:-0.746861 3:-0.801362 4:-0.769467 5:-0.808691 6:-0.84655 7:-0.812124 8:-0.831745 9:-0.864672 10:-0.892095 11:-0.881533 12:0.519386 13:-0.916559 14:-0.187183 15:0.311714 16:0.226531 17:0.203173 18:-0.515178 19:0.0624129 20:-0.828468 21:0.125903 22:0.200427 23:0.186752 24:0.597481 25:-0.803479 26:-0.971923 27:-0.998863 28:-0.999877 29:-0.974728 30:-0.948109 31:0.950954 
0.8613725750150548 0.9437388901498185 0.8935617378010181 0.7136047237062926 1.074038461551204 0.7835435134400511 0.8961747310180386 0.8769555386126259 0.9645179172881067 1:-0.473363 2:-0.526905 3:-0.397474 4:-0.574054 5:-0.476442 6:-0.267588 7:-0.628294 8:-0.551416 9:-0.387145 10:-0.183973 11:-0.345384 12:0.720787 13:0.335173 14:-0.413459 15:-0.443189 16:-0.418304 17:-0.981103 18:-0.0544283 19:0.363149 20:0.518973 21:-0.0693357 22:-0.373568 23:-0.179353 24:-0.350764 25:0.506237 26:-0.0789648 27:-0.73024 28:-0.403773 29:-0.865413 30:-0.53538 31:0.67383 
0.8760279679409264 0.9601133879199862 0.9087792127793093 0.7266536458284967 1.092691607846304 0.7968007091253653 0.9118585924311008 0.8919596637428033 0.981233936648318 1:-0.469282 2:-0.468453 3:-0.446933 4:-0.478361 5:-0.448796 6:-0.367283 7:-0.508485 8:-0.475609 9:-0.399757 10:-0.335582 11:-0.237753 12:0.941377 13:0.23463 14:-0.723858 15:-0.748526 16:-0.938693 17:-0.771112 18:0.0953251 19:0.586556 20:0.37303 21:-0.314327 22:-0.587021 23:-0.473708 24:-0.172389 25:0.453158 26:-0.239415 27:-0.392802 28:-0.418441 29:-0.821897 30:-0.592878 31:0.489959 
0.8673949501264332 0.9510518303554082 0.9000935999315002 0.7193421898169364 1.081884231660552 0.7889696037627595 0.903275701347621 0.8835953822021079 0.9720010833468 1:-0.535014 2:-0.589168 3:-0.461341 4:-0.641566 5:-0.541224 6:-0.36047 7:-0.699936 8:-0.620867 9:-0.477616 10:-0.315877 11:-0.509436 12:0.73262 13:0.0453236 14:-0.330964 15:-0.390888 16:-0.429449 17:-0.914435 18:-0.151971 19:0.409869 20:0.422753 21:-0.0314546 22:-0.466596 23:-0.285757 24:-0.526743 25:0.383969 26:-0.122194 27:-0.531661 28:-0.166708 29:-0.742921 30:-0.376456 31:0.273974 
0.8666317958536431 0.9488170772470135 0.8989667532793705 0.7179633955032469 1.080081738155995 0.7883909347364595 0.9018078571054557 0.8820788896854399 0.9706389212433785 1:-0.456471 2:-0.585325 3:-0.432173 4:-0.661591 5:-0.586127 6:-0.331075 7:-0.723909 8:-0.69301 9:-0.531223 10:-0.283175 11:-0.313516 12:0.508581 13:0.420952 14:-0.0997897 15:-0.621302 16:-0.063992 17:-1 18:-0.054672 19:0.146741 20:0.543205 21:0.180148 22:-0.465409 23:0.0377735 24:-0.310699 25:0.525998 26:-0.0690181 27:-0.926833 28:-0.43201 29:-0.942789 30:-0.546358 31:0.675394 
0.8762949269693876 0.95955205223349 0.9089409829823495 0.7267071021691568 1.092315973180041 0.7972302315520514 0.9123241835547589 0.8919869665674159 0.9817697573948367 1:-0.374648 2:-0.406656 3:-0.43737 4:-0.43623 5:-0.461901 6:-0.401937 7:-0.479693 8:-0.505229 9:-0.457077 10:-0.404487 11:-0.13706 12:0.859605 13:0.357397 14:-0.69958 15:-0.800528 16:-0.825402 17:-0.522616 18:-0.0423926 19:0.436666 20:0.143912 21:-0.186011 22:-0.409274 23:-0.244084 24:0.175742 25:0.204054 26:-0.527404 27:-0.677823 28:-0.777075 29:-0.95139 30:-0.850502 31:0.844484 
0.876383152870341 0.9600623201034895 0.9090520634564357 0.7265188953284805 1.093138130384691 0.7974417317482385 0.9121755284785268 0.8925731815855306 0.9815647568831487 1:-0.457984 2:-0.513906 3:-0.557063 4:-0.550308 5:-0.583736 6:-0.498345 7:-0.596022 8:-0.62935 9:-0.551117 10:-0.488002 11:-0.144333 12:1 13:0.584507 14:-0.679322 15:-1 16:-0.363538 17:-0.502261 18:0.195084 19:0.632612 20:0.749409 21:-0.263727 22:-0.732629 23:-0.128972 24:0.0601162 25:0.806131 26:0.267824 27:-0.624588 28:-0.623824 29:-0.97917 30:-0.640114 31:0.548533 
0.8763947552610063 0.9600030115058903 0.9087647525768732 0.7260655288029173 1.092399631560865 0.7972041661581202 0.9121710283587783 0.8922879992167024 0.9815891477390117 1:-0.478545 2:-0.566112 3:-0.509951 4:-0.618624 5:-0.591972 6:-0.407636 7:-0.669263 8:-0.666794 9:-0.524689 10:-0.361725 11:-0.209814 12:0.784884 13:0.688619 14:-0.311683 15:-0.922824 16:-0.128376 17:-0.933768 18:0.168987 19:0.432716 20:1 21:0.01122 22:-0.743129 23:-0.0138201 24:-0.329933 25:1 26:0.583156 27:-0.903347 28:-0.289281 29:-1 30:-0.28436 31:0.439531 
0.8431648883958094 0.9235245045648468 0.874281621382729 0.6989214308424073 1.051141960309044 0.7666598384563443 0.8777807376790099 0.858784223448558 0.9444298788515676 1:-0.301222 2:-0.49602 3:-0.477084 4:-0.592957 5:-0.63769 6:-0.459584 7:-0.662168 8:-0.737903 9:-0.642167 10:-0.473333 11:-0.00129626 12:0.374769 13:0.658824 14:0.0460432 15:-0.783883 16:-0.011743 17:-0.223267 18:-0.0720629 19:0.0760954 20:0.175162 21:0.221069 22:-0.287293 23:0.118675 24:0.395278 25:0.216485 26:-0.52438 27:-0.86525 28:-0.938545 29:-0.97729 30:-0.917296 31:0.944544 
0.8732537248293535 0.9557699208350461 0.905223931927665 0.7235610335755327 1.088658891741964 0.7938838565878299 0.9086888467693944 0.8888562115927946 0.9780615817554459 1:-0.374845 2:-0.550409 3:-0.407421 4:-0.643621 5:-0.591822 6:-0.292793 7:-0.712117 8:-0.714263 9:-0.529018 10:-0.228867 11:-0.193001 12:0.433923 13:0.909768 14:0.0161797 15:-0.980738 16:0.0549138 17:-0.980858 18:-0.107119 19:0.0985052 20:0.684096 21:0.231096 22:-0.505122 23:0.126402 24:-0.0874791 25:0.618202 26:0.221054 27:-0.961966 28:-0.617623 29:-0.99095 30:-0.635707 31:0.857412 
0.8430308526301767 0.9235398036499479 0.8748274772008053 0.6987163798855641 1.050882752568549 0.7671232196062446 0.8776581482056043 0.8586606112370346 0.9439256458036152 1:-0.39518 2:-0.522531 3:-0.554968 4:-0.589314 5:-0.648096 6:-0.548006 7:-0.645658 8:-0.718001 9:-0.657861 10:-0.574562 11:-0.052833 12:0.62794 13:0.383577 14:-0.238896 15:-0.706815 16:-0.0303272 17:-0.257648 18:0.114803 19:0.255244 20:0.242296 21:0.0805955 22:-0.395459 23:0.0831367 24:0.310084 25:0.354623 26:-0.577839 27:-0.83508 28:-0.888125 29:-0.98016 30:-0.894969 31:0.920625 
0.0325075492933898 0 0 0 3.085235532472513 0 0 0.6019085878784493 1.166208069685136 1:-0.598042 2:-0.737578 3:-0.610602 4:-0.823844 5:-0.759167 6:-0.633398 7:-0.886942 8:-0.845443 9:-0.781491 10:-0.667997 11:-0.803452 12:0.502222 13:-0.604108 14:-0.177162 15:0.311427 16:0.220216 17:0.239304 18:-0.603305 19:0.105507 20:-0.42307 21:0.129728 22:0.185544 23:0.189114 24:0.640506 25:-0.510255 26:-0.806933 27:-0.998301 28:-0.998765 29:-0.974727 30:-0.947732 31:0.950957 
0.5147976675200697 1.815729462163352 0.1146937553411328 1.749838991639125 0 1.385129616416291 1.673654816031414 1.119454226491337 1.796426430872721 1:-0.653204 2:-0.813586 3:-0.701403 4:-0.889365 5:-0.841879 6:-0.741501 7:-0.936708 8:-0.908989 9:-0.865171 10:-0.784981 11:-0.842787 12:0.579874 13:-0.688161 14:-0.183779 15:0.283085 16:0.247933 17:0.215019 18:-0.611126 19:0.228435 20:-0.443724 21:0.124316 22:0.144973 23:0.219495 24:0.614209 25:-0.530669 26:-0.829353 27:-0.996618 28:-0.999861 29:-0.974728 30:-0.948123 31:0.950954 
0 0 0 0 17.57189791774182 0 0 0 0 1:-0.692468 2:-0.795203 3:-0.683089 4:-0.859476 5:-0.802881 6:-0.703199 7:-0.90926 8:-0.87241 9:-0.822329 10:-0.741918 11:-0.834459 12:0.532126 13:-0.779195 14:-0.180728 15:0.285053 16:0.2505 17:0.209242 18:-0.509887 19:0.128459 20:-0.560272 21:0.133812 22:0.142227 23:0.227186 24:0.607567 25:-0.581218 26:-0.917755 27:-0.99662 28:-0.999802 29:-0.974728 30:-0.94816 31:0.950954 
0 0 1.037725926555088 0 17.96297453670174 0.2392925006017556 0.515850744932095 0 0 1:-0.776182 2:-0.851958 3:-0.753301 4:-0.899511 5:-0.85043 6:-0.765796 7:-0.937719 8:-0.905512 9:-0.864487 10:-0.799469 11:-0.89908 12:0.554439 13:-0.862808 14:-0.184118 15:0.296971 16:0.225394 17:0.205643 18:-0.56112 19:0.164607 20:-0.593113 21:0.137444 22:0.158262 23:0.182786 24:0.6061 25:-0.630925 26:-0.925153 27:-0.997738 28:-0.999969 29:-0.974728 30:-0.948111 31:0.950954 
0 0 0 0 5.771141827564317 0 1.809719244199483 0 0 1:-0.68966 2:-0.795113 3:-0.702883 4:-0.861467 5:-0.817104 6:-0.729813 7:-0.912155 8:-0.883004 9:-0.841492 10:-0.768679 11:-0.852869 12:0.512286 13:-0.740125 14:-0.183547 15:0.296294 16:0.230322 17:0.209986 18:-0.574336 19:0.0865801 20:-0.464131 21:0.127744 22:0.163421 23:0.197247 24:0.608811 25:-0.531041 26:-0.838626 27:-0.998999 28:-0.999915 29:-0.974728 30:-0.948103 31:0.950954 
0 0 0 0 0 0 0 0 1.350224390607021 1:-0.636324 2:-0.789697 3:-0.648111 4:-0.869344 5:-0.806616 6:-0.679139 7:-0.921921 8:-0.886302 9:-0.829247 10:-0.722979 11:-0.828421 12:0.506775 13:-0.72053 14:-0.175352 15:0.288487 16:0.251359 17:0.225448 18:-0.601421 19:0.0990012 20:-0.559769 21:0.136357 22:0.154931 23:0.221994 24:0.628472 25:-0.621505 26:-0.88733 27:-0.996417 28:-0.999462 29:-0.974728 30:-0.948112 31:0.950956 
0.69737524495739 3.903427947672183 1.225305917958595 3.002897218388769 0 0.6812636408052279 0.2029363765440571 0.7427893057678844 0.7531555528188019 1:-0.67215 2:-0.809943 3:-0.594316 4:-0.882616 5:-0.774432 6:-0.565019 7:-0.931111 8:-0.86848 9:-0.76147 10:-0.569662 11:-0.864415 12:0.578703 13:-0.721258 14:-0.179121 15:0.303943 16:0.215916 17:0.216369 18:-0.64101 19:0.227945 20:-0.467654 21:0.134408 22:0.177295 23:0.178281 24:0.618947 25:-0.563578 26:-0.834469 27:-0.99789 28:-0.999639 29:-0.974728 30:-0.94801 31:0.950954 
0 0 0 1.716143497850635 1.827015127992799 0 0 0 1.251781810818031 1:-0.686899 2:-0.761958 3:-0.696408 4:-0.819229 5:-0.781931 6:-0.727699 7:-0.870822 8:-0.840562 9:-0.81105 10:-0.771823 11:-0.776417 12:0.585821 13:-0.789139 14:-0.180414 15:0.279469 16:0.248194 17:0.216921 18:-0.340741 19:0.244567 20:-0.600738 21:0.133751 22:0.132997 23:0.22313 24:0.622211 25:-0.539187 26:-0.970063 27:-0.99384 28:-0.999752 29:-0.974728 30:-0.948118 31:0.950954 
0 0 1.308527741865435 0 0 0 0 0 0 1:-0.690639 2:-0.833759 3:-0.66617 4:-0.898875 5:-0.827701 6:-0.672535 7:-0.94081 8:-0.901449 9:-0.834583 10:-0.70098 11:-0.830277 12:0.548564 13:-0.730943 14:-0.186891 15:0.297826 16:0.226795 17:0.205683 18:-0.500695 19:0.16459 20:-0.436751 21:0.121018 22:0.166202 23:0.192032 24:0.600267 25:-0.475848 26:-0.861438 27:-0.999389 28:-0.999986 29:-0.974728 30:-0.948113 31:0.950954 
0 0 1.368740463931318 0 0 0 0 0 0 1:-0.767088 2:-0.780171 3:-0.69332 4:-0.810895 5:-0.749625 6:-0.675152 7:-0.852135 8:-0.799323 9:-0.750189 10:-0.694272 11:-0.818733 12:0.550224 13:-0.873511 14:-0.190085 15:0.316164 16:0.212619 17:0.203935 18:-0.223553 19:0.153501 20:-0.659773 21:0.117246 22:0.213727 23:0.154942 24:0.599999 25:-0.535485 26:-0.992576 27:-0.994531 28:-0.999573 29:-0.974728 30:-0.948094 31:0.950954 
0.8766295566575647 0.9603726499878391 0.9091167925718184 0.7264902561220753 1.092645327167977 0.7974824598563467 0.9125866647254586 0.8923312602714303 0.9817923935858066 1:-0.823824 2:-0.811325 3:-0.78887 4:-0.825486 5:-0.800355 6:-0.773148 7:-0.858365 8:-0.826244 9:-0.80511 10:-0.793954 11:-0.816767 12:0.711755 13:-0.724662 14:-0.317724 15:0.0989291 16:-0.118898 17:-0.105921 18:0.0766468 19:0.799149 20:0.278586 21:-0.458889 22:-0.66539 23:-0.953788 24:-0.780991 25:0.367412 26:-0.0794936 27:0.962767 28:0.483386 29:0.288906 30:0.104896 31:0.475169 
0.1426500959751096 0 0.04396441889271455 1.649350385484922 0.02836807053916363 0 0.4487873450061405 0 0 1:-0.706803 2:-0.802767 3:-0.595117 4:-0.858564 5:-0.747348 6:-0.552262 7:-0.903344 8:-0.832024 9:-0.726669 10:-0.558728 11:-0.763155 12:0.579133 13:-0.881722 14:-0.166939 15:0.276594 16:0.219656 17:0.214585 18:-0.23405 19:0.232585 20:-0.812461 21:0.166313 22:0.122625 23:0.179754 24:0.620554 25:-0.665351 26:-0.997606 27:-0.990304 28:-0.999924 29:-0.974728 30:-0.948115 31:0.950954 
0 0 0 2.493656266223534 0 0 0.55762035200644 0 0 1:-0.887387 2:-0.905902 3:-0.766331 4:-0.927213 5:-0.848964 6:-0.706852 7:-0.952739 8:-0.901574 9:-0.821085 10:-0.697029 11:-0.947863 12:0.562884 13:-0.986524 14:-0.186502 15:0.299216 16:0.230204 17:0.202852 18:-0.547232 19:0.179952 20:-0.96725 21:0.154907 22:0.152683 23:0.185219 24:0.604945 25:-0.931526 26:-0.998873 27:-0.997186 28:-0.999957 29:-0.974728 30:-0.948117 31:0.950954 
0 0 0 0 10.36840414455764 0 5.428250389602828 0 0 1:-0.807414 2:-0.83081 3:-0.796289 4:-0.864632 5:-0.843097 6:-0.817222 7:-0.903912 8:-0.882247 9:-0.869614 10:-0.854772 11:-0.901717 12:0.551718 13:-0.920126 14:-0.185354 15:0.29963 16:0.222304 17:0.201684 18:-0.488847 19:0.147435 20:-0.750503 21:0.138752 22:0.164327 23:0.169522 24:0.593773 25:-0.727844 26:-0.983886 27:-0.996993 28:-0.999991 29:-0.974728 30:-0.948118 31:0.950954 
1.733569974295339 0 0.3159584835756259 0 1.288542909640717 0.7474275227036919 0.2419035333041443 0.5592237554493436 0.2081482319161994 1:-0.863153 2:-0.890062 3:-0.763328 4:-0.913989 5:-0.847566 6:-0.723453 7:-0.94168 8:-0.897516 9:-0.833583 10:-0.728009 11:-0.89578 12:0.526281 13:-0.955713 14:-0.202765 15:0.300783 16:0.237659 17:0.198375 18:-0.22497 19:-0.00684094 20:-0.804606 21:0.0473439 22:0.165413 23:0.221055 24:0.575449 25:-0.654872 26:-0.943484 27:-0.997761 28:-0.999775 29:-0.974728 30:-0.948157 31:0.950954 
0.8954658435321291 0.9591819817522604 0.9093234424645028 0.7267309202607228 1.092009587570683 0.7960382483176242 0.9232848296850046 0.8916653789099863 0.9812407405929083 1:-0.87899 2:-0.81958 3:-0.788766 4:-0.808739 5:-0.773875 6:-0.758102 7:-0.828606 8:-0.78304 9:-0.765589 10:-0.76989 11:-0.873696 12:0.596243 13:-0.97698 14:-0.300909 15:0.255687 16:0.216268 17:0.200743 18:0.0524992 19:0.373778 20:-0.912413 21:-0.64322 22:-0.120691 23:0.116384 24:0.589537 25:-0.619896 26:-0.901583 27:-0.87254 28:-0.951493 29:-0.972826 30:-0.936815 31:0.95183 
0 0.7552541238225413 0.314136009084428 0.8939076890303982 0 0.2114656595897217 0.2938424835403058 0 0 1:-0.832134 2:-0.839423 3:-0.819004 4:-0.863257 5:-0.852186 6:-0.838583 7:-0.897202 8:-0.88252 9:-0.879431 10:-0.8745 11:-0.872883 12:0.551361 13:-0.945162 14:-0.182684 15:0.298383 16:0.226999 17:0.201842 18:-0.222753 19:0.137465 20:-0.816453 21:0.157186 22:0.156876 23:0.179822 24:0.595102 25:-0.663604 26:-0.992258 27:-0.997374 28:-0.999977 29:-0.974728 30:-0.948115 31:0.950954 
0 9.912317477662418 0 0 0 0 0 0 0 1:-0.749236 2:-0.817894 3:-0.709407 4:-0.871428 5:-0.809554 6:-0.712522 7:-0.917589 8:-0.874755 9:-0.8211 10:-0.742709 11:-0.911153 12:0.528837 13:-0.839272 14:-0.187375 15:0.311298 16:0.225569 17:0.203573 18:-0.670763 19:0.097813 20:-0.586086 21:0.124068 22:0.197357 23:0.185954 24:0.598056 25:-0.673917 26:-0.881214 27:-0.999001 28:-0.999885 29:-0.974728 30:-0.948087 31:0.950954 
0.1497817129307404 0.9893439121052457 0.04330091626518228 0.5112590817796501 0 0.5989841390844518 0.05301636925936384 1.757266164535563 0 1:-0.589301 2:-0.7246 3:-0.514177 4:-0.809609 5:-0.700199 6:-0.497222 7:-0.87306 8:-0.807222 9:-0.704476 10:-0.518111 11:-0.764669 12:0.409005 13:-0.737238 14:-0.145974 15:0.298215 16:0.199517 17:0.223539 18:-0.532313 19:-0.0296439 20:-0.688333 21:0.168576 22:0.169903 23:0.170584 24:0.618971 25:-0.696191 26:-0.899539 27:-0.995219 28:-0.999691 29:-0.974728 30:-0.948109 31:0.950955 
0.2715095687738401 0 0 0 0 0 0 0 0 1:-0.861428 2:-0.87758 3:-0.739852 4:-0.903136 5:-0.820141 6:-0.680512 7:-0.934373 8:-0.877116 9:-0.793742 10:-0.670747 11:-0.938948 12:0.528641 13:-0.966307 14:-0.186733 15:0.300791 16:0.232036 17:0.201519 18:-0.559851 19:0.00760692 20:-0.875887 21:0.144707 22:0.165586 23:0.196334 24:0.594285 25:-0.862225 26:-0.950856 27:-0.999465 28:-0.999955 29:-0.974728 30:-0.948118 31:0.950954 
4.068400385730748 11.21246578976348 3.76539341216115 1.088061384462312 0 3.945730149227531 2.516130032842824 7.858760246291499 0 1:-0.781772 2:-0.81529 3:-0.690711 4:-0.858501 5:-0.775306 6:-0.659311 7:-0.904143 8:-0.842654 9:-0.766492 10:-0.670005 11:-0.944408 12:0.525733 13:-0.891317 14:-0.187833 15:0.305593 16:0.227756 17:0.201276 18:-0.765072 19:0.0693877 20:-0.690705 21:0.125718 22:0.184523 23:0.187963 24:0.59192 25:-0.801636 26:-0.898742 27:-0.99935 28:-0.99999 29:-0.974728 30:-0.948114 31:0.950954 
1.065228021888767 0.5295949880275548 1.023732366276523 1.032663978625597 0.8215615683962407 1.024981330462454 0.940147260737061 0.7909909303147511 1.085444134946414 1:-0.72298 2:-0.809052 3:-0.533402 4:-0.871406 5:-0.708577 6:-0.403358 7:-0.921152 8:-0.819751 9:-0.635582 10:-0.325587 11:-0.930317 12:0.559542 13:-0.862089 14:-0.186638 15:0.310559 16:0.225265 17:0.2011 18:-0.783559 19:0.186008 20:-0.724536 21:0.123818 22:0.192608 23:0.187575 24:0.591142 25:-0.837594 26:-0.931319 27:-0.999072 28:-0.999976 29:-0.974728 30:-0.948112 31:0.950954 
0.4512437726272077 0.07861315912301807 1.59898066408279 0.7229266896771613 0.8102899824368482 0.7180523844966574 1.815982873808186 0.7696184516115077 0.5287141307572504 1:-0.801284 2:-0.86505 3:-0.722742 4:-0.907169 5:-0.831546 6:-0.700118 7:-0.943029 8:-0.895788 9:-0.82656 10:-0.71878 11:-0.916266 12:0.568388 13:-0.896704 14:-0.213452 15:0.248328 16:0.129842 17:0.142682 18:-0.584565 19:0.209742 20:-0.660582 21:0.0282692 22:-0.0166283 23:-0.0890195 24:0.367728 25:-0.696672 26:-0.948991 27:-0.86784 28:-0.949683 29:-0.972677 30:-0.943585 31:0.950496 
0.8792300536971787 0.9600929222785628 0.9091302860646522 0.7260575626893013 1.092710276395472 0.7974419924172648 0.9123105402327656 0.8923312602717606 0.9816904341163387 1:-0.742997 2:-0.824746 3:-0.728041 4:-0.874354 5:-0.825874 6:-0.700916 7:-0.915439 8:-0.889213 9:-0.81793 10:-0.715567 11:-0.809252 12:0.590956 13:-0.44948 14:-0.171387 15:-0.0659361 16:0.125825 17:-0.325515 18:-0.275383 19:0.269664 20:0.698426 21:0.166893 22:-0.73302 23:-0.0088545 24:-0.814212 25:0.555134 26:0.405992 27:-0.829084 28:0.324822 29:-0.730047 30:0.217488 31:-0.183787 
0.8765840173688738 0.9598376996022934 0.9086957055894576 0.7262621163734825 1.092752176635928 0.7971354118205993 0.9124918702640376 0.8921884954131506 0.981731975043072 1:-0.813433 2:-0.809914 3:-0.761989 4:-0.832764 5:-0.786993 6:-0.748653 7:-0.871955 8:-0.825085 9:-0.792388 10:-0.772964 11:-0.87656 12:0.694864 13:-0.820882 14:-0.316468 15:0.0966692 16:-0.111267 17:-0.000745598 18:-0.326986 19:0.700131 20:-0.262937 21:-0.413788 22:-0.615226 23:-0.849607 24:-0.247679 25:-0.256088 26:-0.506008 27:0.543036 28:-0.22734 29:-0.552709 30:-0.551828 31:0.902185 
0.8926773293011373 0.960389398379491 0.9090778020715043 0.7264693473716222 1.092727922891379 0.7971405597809181 0.9122453952773444 0.8927596033350291 0.9816499689128538 1:-0.650854 2:-0.793688 3:-0.599447 4:-0.868364 5:-0.77323 6:-0.551466 7:-0.918918 8:-0.869559 9:-0.751643 10:-0.549599 11:-0.810923 12:0.562511 13:-0.372803 14:-0.158323 15:-0.0143482 16:0.183154 17:-0.389104 18:-0.528656 19:0.196127 20:0.265979 21:0.166779 22:-0.307389 23:0.140928 24:-0.381856 25:0.08793 26:-0.103996 27:-0.861461 28:-0.425946 29:-0.896303 30:-0.544791 31:0.835487 
0.8578444528627318 0.9778966014313858 0.8577557901571047 0.7107257560004195 1.063121890052129 0.7786908681805151 0.8505656355362339 0.8645265023148629 0.9583021652472071 1:-0.775005 2:-0.880397 3:-0.650339 4:-0.929351 5:-0.821068 6:-0.580004 7:-0.961785 8:-0.904523 9:-0.788025 10:-0.55983 11:-0.923529 12:0.618121 13:-0.813736 14:-0.209306 15:0.241853 16:0.0590492 17:0.0430831 18:-0.677646 19:0.366591 20:-0.405563 21:0.0545133 22:-0.00614956 23:-0.211756 24:0.0804538 25:-0.528958 26:-0.744479 27:-0.639176 28:-0.836021 29:-0.954775 30:-0.890434 31:0.94865 
0.6691045751304238 0 0 0 21.36248007452601 0 0 0 0 1:-0.760892 2:-0.778457 3:-0.751237 4:-0.812853 5:-0.796239 6:-0.771138 7:-0.856553 8:-0.837674 9:-0.825739 10:-0.808244 11:-0.838483 12:0.52181 13:-0.852408 14:-0.192215 15:0.303723 16:0.237103 17:0.208452 18:-0.333777 19:0.0709874 20:-0.599012 21:0.110541 22:0.17823 23:0.209943 24:0.613053 25:-0.534676 26:-0.950609 27:-0.999604 28:-0.999755 29:-0.974728 30:-0.948099 31:0.950954 
0 0 0 0 13.21082400663379 0 0 0 0 1:-0.770612 2:-0.772462 3:-0.736817 4:-0.80381 5:-0.772594 6:-0.749361 7:-0.848934 8:-0.815526 9:-0.797554 10:-0.788115 11:-0.900322 12:0.544608 13:-0.910124 14:-0.175677 15:0.295379 16:0.242006 17:0.200902 18:-0.580174 19:0.135208 20:-0.789883 21:0.163471 22:0.154197 23:0.221778 24:0.590662 25:-0.800742 26:-0.980058 27:-0.999397 28:-0.9996 29:-0.974728 30:-0.948136 31:0.950953 
0 7.842922690885327 0 0 0.7716431413350915 0 4.079510453012923 0.9907582719118633 0 1:-0.834932 2:-0.845272 3:-0.781953 4:-0.87391 5:-0.831056 6:-0.780119 7:-0.910996 8:-0.87468 9:-0.842732 10:-0.80949 11:-0.938829 12:0.539127 13:-0.948833 14:-0.18683 15:0.299929 16:0.237622 17:0.198684 18:-0.632633 19:0.0828132 20:-0.829927 21:0.137773 22:0.163419 23:0.217132 24:0.5799 25:-0.8569 26:-0.969846 27:-0.999868 28:-0.999765 29:-0.974728 30:-0.948097 31:0.950954 
0 0 0 0 0 3.691918446970118 0 0 0 1:-0.746829 2:-0.76988 3:-0.694601 4:-0.812212 5:-0.754613 6:-0.697203 7:-0.861999 8:-0.811883 9:-0.769726 10:-0.733355 11:-0.902889 12:0.548697 13:-0.901796 14:-0.173403 15:0.297985 16:0.235761 17:0.194834 18:-0.641494 19:0.153939 20:-0.805511 21:0.162596 22:0.1635 23:0.206581 24:0.574109 25:-0.840822 26:-0.979184 27:-0.999876 28:-0.999609 29:-0.974728 30:-0.948102 31:0.950954 
0 0 0 0 5.126666658492854 0 0 0 0 1:-0.777987 2:-0.828412 3:-0.723123 4:-0.872611 5:-0.811553 6:-0.7241 7:-0.914547 8:-0.871407 9:-0.822522 10:-0.758773 11:-0.896471 12:0.530337 13:-0.931449 14:-0.1788 15:0.295782 16:0.236652 17:0.202624 18:-0.544346 19:0.0867436 20:-0.858924 21:0.155558 22:0.154455 23:0.209787 24:0.596331 25:-0.841421 26:-0.981095 27:-0.999208 28:-0.999813 29:-0.974728 30:-0.94812 31:0.950954 
0 4.842914118786945 0 0 0 0 0 0 0 1:-0.856701 2:-0.824493 3:-0.795866 4:-0.834423 5:-0.805006 6:-0.787129 7:-0.866618 8:-0.831154 9:-0.814976 10:-0.811391 11:-0.935393 12:0.565015 13:-0.954011 14:-0.187123 15:0.305364 16:0.236745 17:0.200751 18:-0.548276 19:0.195012 20:-0.809878 21:0.141156 22:0.190033 23:0.216255 24:0.589769 25:-0.802954 26:-0.992261 27:-0.999606 28:-0.999841 29:-0.974728 30:-0.948127 31:0.950954 
0 0 2.578134842247721 0 0 0 0 0.6413128328784211 0 1:-0.818644 2:-0.7998 3:-0.735604 4:-0.81987 5:-0.761446 6:-0.715251 7:-0.859238 8:-0.801784 9:-0.76043 10:-0.737303 11:-0.939979 12:0.572875 13:-0.962216 14:-0.187315 15:0.301986 16:0.23296 17:0.20139 18:-0.67676 19:0.228193 20:-0.928281 21:0.132526 22:0.172861 23:0.200666 24:0.592753 25:-0.95717 26:-0.997305 27:-0.99991 28:-0.999973 29:-0.974728 30:-0.948118 31:0.950954 
0.2946924663371737 1.236914796465751 0.5163011875208237 0.01734736518317637 5.204201144147964 1.359176929306317 0 1.793585354300793 0 1:-0.825365 2:-0.801744 3:-0.698313 4:-0.818885 5:-0.729681 6:-0.636726 7:-0.856668 8:-0.775846 9:-0.696001 10:-0.62725 11:-0.938871 12:0.55784 13:-0.959385 14:-0.186174 15:0.300037 16:0.237856 17:0.201889 18:-0.65549 19:0.166847 20:-0.903443 21:0.138887 22:0.16463 23:0.216867 24:0.595109 25:-0.927346 26:-0.995055 27:-0.999654 28:-0.99986 29:-0.974728 30:-0.948124 31:0.950954 
0 0 0 0 0 0.6551122115840456 0 0 0 1:-0.545354 2:-0.708333 3:-0.559838 4:-0.806815 5:-0.72835 6:-0.590054 7:-0.876839 8:-0.826537 9:-0.753333 10:-0.633257 11:-0.78081 12:0.527184 13:-0.603378 14:-0.185505 15:0.302578 16:0.233142 17:0.230986 18:-0.632667 19:0.153289 20:-0.545918 21:0.116898 22:0.17492 23:0.201437 24:0.622073 25:-0.624042 26:-0.881635 27:-0.99917 28:-0.999582 29:-0.974728 30:-0.948016 31:0.950954 
0 0 0 0 0 0.2386294110297429 0 0 1.198479359632906 1:-0.54828 2:-0.741701 3:-0.564899 4:-0.837368 5:-0.752857 6:-0.586501 7:-0.899249 8:-0.847496 9:-0.766685 10:-0.619909 11:-0.723383 12:0.61445 13:-0.52246 14:-0.179742 15:0.322416 16:0.210591 17:0.22332 18:-0.519712 19:0.265737 20:-0.411128 21:0.123166 22:0.194256 23:0.183966 24:0.614348 25:-0.463295 26:-0.836444 27:-0.999209 28:-0.999578 29:-0.974728 30:-0.947999 31:0.950954 
0 0 0 0 0 0.3729790634542492 0 0 0.3412702446527761 1:-0.559222 2:-0.689386 3:-0.62554 4:-0.779627 5:-0.744774 6:-0.674124 7:-0.850721 8:-0.82277 9:-0.784396 10:-0.72389 11:-0.769288 12:0.548365 13:-0.579609 14:-0.193074 15:0.319615 16:0.246273 17:0.21311 18:-0.590908 19:0.179367 20:-0.477126 21:0.108846 22:0.192277 23:0.212064 24:0.604148 25:-0.549068 26:-0.857487 27:-0.99975 28:-0.999814 29:-0.974728 30:-0.948072 31:0.950954 
1.568024276652961 1.232430564172576 0.2601236847738138 0 6.170500903165878 1.528571253241224 3.509600308116523 1.336864256479313 1.00817484952651 1:-0.610545 2:-0.696265 3:-0.643008 4:-0.765865 5:-0.747683 6:-0.678046 7:-0.82875 8:-0.818069 9:-0.787885 10:-0.7222 11:-0.738759 12:0.369094 13:-0.643579 14:-0.19382 15:0.296323 16:0.24913 17:0.197474 18:-0.431877 19:-0.111158 20:-0.4658 21:0.10768 22:0.167035 23:0.217498 24:0.585983 25:-0.469067 26:-0.776435 27:-0.9995 28:-0.999954 29:-0.974728 30:-0.948104 31:0.950954 
0.686697931783539 1.46689996739138 1.395786749983676 1.254680973304553 1.780973951659598 0.7040119556736243 0.6678891007323107 0.7113902553592314 1.005234153608749 1:-0.555538 2:-0.706421 3:-0.592693 4:-0.796466 5:-0.725354 6:-0.617034 7:-0.862709 8:-0.808434 9:-0.740142 10:-0.648763 11:-0.706426 12:0.762144 13:-0.468413 14:-0.164376 15:0.301989 16:0.233522 17:0.221569 18:-0.47422 19:0.462796 20:-0.304638 21:0.140538 22:0.174333 23:0.201738 24:0.613142 25:-0.355751 26:-0.701172 27:-0.999452 28:-0.999737 29:-0.974728 30:-0.948018 31:0.950954 
3.152915460588614 18.73423046169999 5.000694546140364 7.256883392127033 19.62049507896292 4.233010995362537 15.20661239615761 4.992925503855822 4.69285501567269 1:-0.738653 2:-0.760722 3:-0.736339 4:-0.805118 5:-0.782299 6:-0.760695 7:-0.857856 8:-0.830969 9:-0.814507 10:-0.800808 11:-0.92394 12:0.542549 13:-0.835731 14:-0.190337 15:0.300518 16:0.235387 17:0.20355 18:-0.739 19:0.139419 20:-0.603721 21:0.115364 22:0.170111 23:0.205633 24:0.597559 25:-0.718719 26:-0.879719 27:-0.99986 28:-0.999984 29:-0.974728 30:-0.948117 31:0.950954 
0.3116405573260828 0.354148422657429 0.3188266759300206 0.2512364755041288 0.2591347355521488 0.317629692811547 0.3406824401110644 0.2836489105073215 0.3879850182001133 1:-0.356821 2:-0.642227 3:-0.40155 4:-0.765466 5:-0.674738 6:-0.414528 7:-0.843411 8:-0.792359 9:-0.686035 10:-0.430883 11:-0.384712 12:0.479802 13:-0.118664 14:-0.195774 15:0.360475 16:0.260299 17:0.244991 18:-0.362061 19:0.137972 20:-0.358591 21:0.107626 22:0.203893 23:0.212287 24:0.614622 25:-0.350118 26:-0.85616 27:-0.999671 28:-0.999457 29:-0.974728 30:-0.947979 31:0.950953 
0.4244817607771971 0.382660607427531 0.3232498017830489 0.3899129616589215 0.4928072161850592 0.411935456873941 0.4493414709036374 0.4398451118288528 0.4436317611966855 1:-0.355549 2:-0.621155 3:-0.337742 4:-0.745693 5:-0.613735 6:-0.306466 7:-0.8269 8:-0.746699 9:-0.597325 10:-0.285393 11:-0.407934 12:0.58705 13:-0.0526111 14:-0.178289 15:0.306481 16:0.196777 17:0.197039 18:-0.390018 19:0.219444 20:-0.299673 21:0.117238 22:0.176822 23:0.187036 24:0.5886 25:-0.314238 26:-0.813402 27:-0.999501 28:-0.999993 29:-0.974728 30:-0.948119 31:0.950954 
0.3695414926706974 0.603491296286947 1.047799872242541 0.08595927478114483 0.3926165901985226 0.6286789909557569 0.3806557927937167 0.4363530424185136 0.5109890884762808 1:-0.448994 2:-0.589984 3:-0.37468 4:-0.692719 5:-0.554024 6:-0.313825 7:-0.776737 8:-0.675878 9:-0.520191 10:-0.268237 11:-0.645724 12:0.538697 13:-0.229561 14:-0.185088 15:0.347475 16:0.214845 17:0.252609 18:-0.545406 19:0.176974 20:-0.263904 21:0.114958 22:0.205214 23:0.191634 24:0.628508 25:-0.354003 26:-0.720138 27:-0.999776 28:-0.998941 29:-0.974728 30:-0.947701 31:0.950955 
0.4340083266470802 0.5659656493853343 0.8075528796825743 0.0711473495106467 1.25349940237248 0.5130739710362613 0.7562627095372155 0.6733338751027026 1.179418700453676 1:-0.455391 2:-0.625266 3:-0.526737 4:-0.733911 5:-0.692804 6:-0.562624 7:-0.816002 8:-0.790876 9:-0.728693 10:-0.598939 11:-0.6517 12:0.389628 13:-0.320751 14:-0.204805 15:0.341877 16:0.20354 17:0.247822 18:-0.54497 19:0.0300893 20:-0.357336 21:0.100105 22:0.202027 23:0.185209 24:0.625772 25:-0.430416 26:-0.757273 27:-0.99965 28:-0.999054 29:-0.974728 30:-0.947771 31:0.950955 
0.4368435228992207 1.735669236427278 0.6848395950406215 0.08449122670145585 0.4724879061431623 0.8836252076204866 0.3915523738175415 0.01797778066928127 0.3013895239939591 1:-0.559462 2:-0.702154 3:-0.437233 4:-0.787389 5:-0.644404 6:-0.380778 7:-0.852407 8:-0.761123 9:-0.620906 10:-0.371725 11:-0.662547 12:0.464393 13:-0.713851 14:-0.194991 15:0.312949 16:0.208803 17:0.207068 18:-0.380481 19:0.0667138 20:-0.697888 21:0.106695 22:0.185498 23:0.181712 24:0.597491 25:-0.636517 26:-0.965501 27:-0.999314 28:-0.999902 29:-0.974728 30:-0.948105 31:0.950954 
0 2.215554821456871 0 0 0 0 0 0 0 1:-0.754546 2:-0.731925 3:-0.747084 4:-0.750722 5:-0.755785 6:-0.776842 7:-0.79165 8:-0.782627 9:-0.799274 10:-0.824147 11:-0.865143 12:0.549276 13:-0.921406 14:-0.183998 15:0.3107 16:0.231786 17:0.200735 18:-0.46745 19:0.153748 20:-0.860159 21:0.13433 22:0.196496 23:0.198486 24:0.590187 25:-0.808241 26:-0.99739 27:-0.999244 28:-0.999948 29:-0.974728 30:-0.948119 31:0.950954 
0 0 0 0 0 3.786440036644912 0 0 0 1:-0.757997 2:-0.73221 3:-0.762606 4:-0.750745 5:-0.768605 6:-0.79574 7:-0.792511 8:-0.79472 9:-0.816417 10:-0.841647 11:-0.8915 12:0.51987 13:-0.907488 14:-0.173877 15:0.293127 16:0.235784 17:0.203761 18:-0.570511 19:0.0671682 20:-0.804678 21:0.164814 22:0.149658 23:0.206976 24:0.598994 25:-0.808576 26:-0.9663 27:-0.998602 28:-0.999777 29:-0.974728 30:-0.94813 31:0.950953 
0 0 0 0 22.62847329404783 0 0 0 0 1:-0.746652 2:-0.777651 3:-0.735262 4:-0.820284 5:-0.792495 6:-0.756125 7:-0.867907 8:-0.841693 9:-0.820623 10:-0.794953 11:-0.867602 12:0.523105 13:-0.852455 14:-0.172063 15:0.306171 16:0.257855 17:0.21454 18:-0.498729 19:0.0832432 20:-0.638209 21:0.166251 22:0.184115 23:0.250777 24:0.627841 25:-0.640161 26:-0.939314 27:-0.99722 28:-0.99845 29:-0.974728 30:-0.948294 31:0.950963 
0 0 0 0 5.142747849498848 0.7210262922658794 0 0 0 1:-0.715764 2:-0.758716 3:-0.700327 4:-0.804493 5:-0.771548 6:-0.728375 7:-0.852939 8:-0.826044 9:-0.805631 10:-0.778051 11:-0.794855 12:0.49819 13:-0.899968 14:-0.171203 15:0.289828 16:0.231292 17:0.206354 18:-0.313779 19:0.0389689 20:-0.851266 21:0.159196 22:0.148054 23:0.198251 24:0.603165 25:-0.73262 26:-0.965015 27:-0.997847 28:-0.999883 29:-0.974728 30:-0.948117 31:0.950954 
0 0 1.78584298180373 0 6.316956234275453 0 0 0 0 1:-0.781375 2:-0.785859 3:-0.72 4:-0.81844 5:-0.765207 6:-0.713501 7:-0.863742 8:-0.814789 9:-0.775155 10:-0.741803 11:-0.921216 12:0.544089 13:-0.908627 14:-0.19023 15:0.29818 16:0.229902 17:0.201648 18:-0.654344 19:0.129705 20:-0.761326 21:0.117483 22:0.161465 23:0.193298 24:0.593168 25:-0.810304 26:-0.962573 27:-0.999522 28:-0.999997 29:-0.974728 30:-0.948117 31:0.950954 
0 3.391250818588877 0 0 48.66820510250214 0 1.377938060975381 0 3.50124933698592 1:-0.767267 2:-0.754454 3:-0.787502 4:-0.779599 5:-0.800703 6:-0.821252 7:-0.823706 8:-0.82911 9:-0.846146 10:-0.862263 11:-0.901074 12:0.520011 13:-0.872582 14:-0.183548 15:0.290558 16:0.240984 17:0.204832 18:-0.591239 19:0.0613216 20:-0.655815 21:0.137725 22:0.140897 23:0.219054 24:0.602774 25:-0.695734 26:-0.920563 27:-0.997411 28:-0.999849 29:-0.974728 30:-0.94814 31:0.950954 
0.1169909738416124 0.05819406870749629 0.07217654090800657 0 0.4063471671239487 0.06145818272055439 0 0.5816216054956332 0.8948267433489319 1:-0.274178 2:-0.415455 3:-0.354515 4:-0.538373 5:-0.491857 6:-0.418757 7:-0.646566 8:-0.60523 9:-0.549159 10:-0.482364 11:-0.605611 12:0.522165 13:-0.318813 14:-0.159501 15:0.293489 16:0.319418 17:0.25753 18:-0.68613 19:0.176108 20:-0.65964 21:0.123733 22:0.17128 23:0.228508 24:0.614866 25:-0.741061 26:-0.925568 27:-0.998328 28:-0.999641 29:-0.974728 30:-0.94811 31:0.950955 
0.09583580434888705 0.08836251435993804 0 0.1942792737483414 0.04744873614964737 0.07763890695067106 0 0 0 1:-0.340335 2:-0.576894 3:-0.372598 4:-0.714384 5:-0.603158 6:-0.439421 7:-0.808784 8:-0.737195 9:-0.646866 10:-0.522232 11:-0.594413 12:0.56317 13:-0.624609 14:-0.15396 15:0.304112 16:0.310996 17:0.208149 18:-0.613773 19:0.201449 20:-0.845599 21:0.12965 22:0.175603 23:0.23098 24:0.594432 25:-0.861365 26:-0.992385 27:-0.998924 28:-0.999795 29:-0.974728 30:-0.94813 31:0.950954 
0.4700744513182901 0.5195848363347576 0.604971774089918 0.4336348700293009 0.5946550589825881 0.4860709786016352 0.5292216835864404 0.700109790577189 0.4203525327199211 1:-0.235867 2:-0.361603 3:-0.299447 4:-0.477471 5:-0.429615 6:-0.368569 7:-0.583614 8:-0.54194 9:-0.493164 10:-0.444879 11:-0.536388 12:0.499829 13:-0.391039 14:-0.129761 15:0.271164 16:0.35132 17:0.207541 18:-0.656786 19:0.165452 20:-0.753853 21:0.133941 22:0.163698 23:0.234851 24:0.593245 25:-0.805264 26:-0.96505 27:-0.998451 28:-0.999731 29:-0.974728 30:-0.948152 31:0.950953 
0.05178066002903719 0.3147709932399432 0.02284852941055293 0.3335830027769132 0.6340146468331518 0.8251081740184485 0.1157593295375411 0.7456416616860653 0 1:-0.346368 2:-0.603197 3:-0.44931 4:-0.74459 5:-0.676085 6:-0.546722 7:-0.836714 8:-0.798075 9:-0.739729 10:-0.640791 11:-0.63984 12:0.444156 13:-0.606183 14:-0.150632 15:0.299402 16:0.284062 17:0.169087 18:-0.656761 19:0.113211 20:-0.823673 21:0.131799 22:0.17333 23:0.221122 24:0.573957 25:-0.862503 26:-0.974132 27:-0.999463 28:-0.999742 29:-0.974728 30:-0.948098 31:0.950953 
0.4705496661725664 0.4556319921202657 0.3038754043033278 0 0.3568201252791331 0.5227407412403957 1.174208091156628 3.003471905603047 0.9714876970401545 1:-0.241282 2:-0.509198 3:-0.381226 4:-0.677632 5:-0.604845 6:-0.482746 7:-0.793044 8:-0.744361 9:-0.673042 10:-0.574792 11:-0.698367 12:0.510741 13:-0.38387 14:-0.170048 15:0.306168 16:0.306119 17:0.167032 18:-0.79095 19:0.171374 20:-0.743547 21:0.11832 22:0.176154 23:0.222385 24:0.577468 25:-0.85647 26:-0.936579 27:-0.999191 28:-0.999857 29:-0.974728 30:-0.948115 31:0.950954 
0.2814221249105667 0.2968713914778757 0.995416266511975 1.889314204097505 1.044679274499819 1.858268321820074 0.369941334586014 3.748028503093091 0.3177749727022626 1:-0.400545 2:-0.55074 3:-0.428179 4:-0.669599 5:-0.582524 6:-0.468335 7:-0.767122 8:-0.698812 9:-0.618592 10:-0.522067 11:-0.742418 12:0.562073 13:-0.477724 14:-0.185015 15:0.306343 16:0.22677 17:0.193438 18:-0.727146 19:0.200087 20:-0.635636 21:0.114174 22:0.177045 23:0.198551 24:0.586041 25:-0.739618 26:-0.904913 27:-0.99993 28:-0.999995 29:-0.974728 30:-0.948116 31:0.950954 
0.1697177790856927 0.2422813661627037 0.05352649991200466 0.1409977521502495 0 0.2274920638577728 0.115127603315881 0 0.04421057628241324 1:-0.322983 2:-0.454735 3:-0.298773 4:-0.568554 5:-0.453169 6:-0.31204 7:-0.669378 8:-0.576664 9:-0.47153 10:-0.351824 11:-0.608402 12:0.531523 13:-0.444656 14:-0.174093 15:0.316844 16:0.28378 17:0.194626 18:-0.645842 19:0.179372 20:-0.704729 21:0.118601 22:0.181332 23:0.219704 24:0.58761 25:-0.76012 26:-0.95218 27:-0.999448 28:-0.999938 29:-0.974728 30:-0.948127 31:0.950954 
0 0 0 0.548398510891157 0.3237017146422859 0 0 0 0 1:-0.371045 2:-0.551621 3:-0.452762 4:-0.679991 5:-0.615287 6:-0.523453 7:-0.778931 8:-0.729011 9:-0.66918 10:-0.593323 11:-0.697473 12:0.578871 13:-0.481457 14:-0.184527 15:0.289925 16:0.250888 17:0.233041 18:-0.698672 19:0.2136 20:-0.6797 21:0.114027 22:0.16825 23:0.208852 24:0.608915 25:-0.763084 26:-0.93212 27:-0.999356 28:-0.999887 29:-0.974728 30:-0.948099 31:0.950954 
0.854526987102298 0.9189302671258648 1.015379607299687 3.122352497193523 3.102956799421208 3.067196660836273 2.853289223545696 3.356127275943524 2.727189371597667 1:-0.446804 2:-0.667041 3:-0.542099 4:-0.790976 5:-0.728787 6:-0.615495 7:-0.87235 8:-0.833118 9:-0.77585 10:-0.684813 11:-0.761743 12:0.542903 13:-0.553788 14:-0.193033 15:0.294815 16:0.252581 17:0.201471 18:-0.711714 19:0.181171 20:-0.65173 21:0.109057 22:0.169686 23:0.211814 24:0.5911 25:-0.745952 26:-0.916053 27:-0.999774 28:-0.99999 29:-0.974728 30:-0.948119 31:0.950954 
0.8764754466088183 0.9599236302994698 0.909061975809983 0.7264877565362045 1.092342309574992 0.7974363759376112 0.9121349285476024 0.8922865342620581 0.9816206990022364 1:-0.188448 2:-0.370516 3:-0.241109 4:-0.489887 5:-0.418203 6:-0.196533 7:-0.586772 8:-0.551799 9:-0.396578 10:-0.183475 11:-0.166681 12:0.585395 13:0.590384 14:-0.230696 15:-0.566676 16:-0.0473899 17:-0.538468 18:-0.410151 19:0.213836 20:-0.164441 21:0.0962068 22:-0.0982552 23:0.131422 24:0.339103 25:-0.212305 26:-0.698323 27:-0.986639 28:-0.944207 29:-0.974996 30:-0.925775 31:0.946885 
0.03086792333471981 0 0 0 0.3301299965253232 0 1.445695579637965 0 0.8992855229117244 1:-0.669215 2:-0.650387 3:-0.682339 4:-0.670508 5:-0.693454 6:-0.714951 7:-0.712794 8:-0.72156 9:-0.741275 10:-0.760974 11:-0.757823 12:0.520041 13:-0.765882 14:-0.196908 15:0.293894 16:0.230568 17:0.192975 18:-0.335398 19:0.111255 20:-0.584934 21:0.101494 22:0.160543 23:0.197989 24:0.576395 25:-0.523854 26:-0.957752 27:-0.999995 28:-0.999823 29:-0.974728 30:-0.948102 31:0.950954 
0 0 0 0 0.8730306968797015 0 0 0 0 1:-0.680212 2:-0.682665 3:-0.648907 4:-0.716547 5:-0.687709 6:-0.660749 7:-0.766748 8:-0.73537 9:-0.715771 10:-0.69897 11:-0.802837 12:0.498787 13:-0.803517 14:-0.187789 15:0.287048 16:0.229311 17:0.202024 18:-0.440184 19:0.0630231 20:-0.65337 21:0.11868 22:0.147709 23:0.196035 24:0.59281 25:-0.626562 26:-0.946985 27:-0.99886 28:-0.999968 29:-0.974728 30:-0.948112 31:0.950954 
0.2340015795647077 0 1.362266289182883 4.759384531452904 4.270961044258002 1.223384523768697 2.641966892539564 1.55058019449707 1.145205142148163 1:-0.602579 2:-0.638555 3:-0.635147 4:-0.695509 5:-0.688588 6:-0.674373 7:-0.760906 8:-0.745683 9:-0.734975 10:-0.722768 11:-0.802736 12:0.525115 13:-0.669896 14:-0.18096 15:0.298243 16:0.221731 17:0.198425 18:-0.594537 19:0.139437 20:-0.536136 21:0.125026 22:0.169648 23:0.190339 24:0.587403 25:-0.599065 26:-0.885524 27:-0.999587 28:-0.999989 29:-0.974728 30:-0.948114 31:0.950954 
0 0.4660849485151843 0.2419168755101661 0 0 0.493705877816185 0.3303395308721706 0 0.3335972877573576 1:-0.512582 2:-0.561988 3:-0.526993 4:-0.61835 5:-0.601821 6:-0.553898 7:-0.680544 8:-0.665671 9:-0.640298 10:-0.596135 11:-0.569273 12:0.455152 13:-0.54074 14:-0.202963 15:0.304889 16:0.242916 17:0.183591 18:-0.313549 19:0.0747281 20:-0.519517 21:0.0996975 22:0.17687 23:0.20804 24:0.574769 25:-0.460498 26:-0.930343 27:-0.999574 28:-0.999905 29:-0.974728 30:-0.948102 31:0.950954 
0 0 0 0 0 0.2844308325340209 0 0 0 1:-0.502007 2:-0.565423 3:-0.528122 4:-0.632688 5:-0.612497 6:-0.55568 7:-0.701942 8:-0.684433 9:-0.650404 10:-0.595632 11:-0.622307 12:0.457903 13:-0.482373 14:-0.163675 15:0.283275 16:0.223955 17:0.180699 18:-0.423904 19:0.0818421 20:-0.460099 21:0.135347 22:0.159153 23:0.195488 24:0.57283 25:-0.460846 26:-0.880744 27:-0.999722 28:-0.999737 29:-0.974728 30:-0.94805 31:0.950954 
0 0.4090262639275675 0 0 0.3208923780580009 0 0 0 0.5291983904951653 1:-0.533569 2:-0.576983 3:-0.607944 4:-0.636154 5:-0.66171 6:-0.658835 7:-0.702624 8:-0.716793 9:-0.718856 10:-0.710537 11:-0.684237 12:0.501311 13:-0.540189 14:-0.167472 15:0.273986 16:0.215773 17:0.196075 18:-0.472879 19:0.12317 20:-0.473652 21:0.134809 22:0.148613 23:0.188741 24:0.585875 25:-0.493739 26:-0.884429 27:-0.998729 28:-0.999897 29:-0.974728 30:-0.948091 31:0.950954 
0.1716914899277383 0.9488914109331577 2.085548520098366 2.050139248359839 3.758420679633107 0.569561037907018 0.4243650314120673 0 0.02183875809328399 1:-0.509443 2:-0.569635 3:-0.462854 4:-0.639976 5:-0.555328 6:-0.441062 7:-0.713832 8:-0.640608 9:-0.550871 10:-0.443119 11:-0.701701 12:0.538266 13:-0.44302 14:-0.185919 15:0.26749 16:0.227255 17:0.187253 18:-0.543495 19:0.171334 20:-0.38804 21:0.115544 22:0.14547 23:0.19752 24:0.578283 25:-0.454936 26:-0.815909 27:-0.999498 28:-0.999753 29:-0.974728 30:-0.948038 31:0.950954 
0.446825626130648 0.655393387552835 0.601107886215396 0.7450756171064377 0.5965477831429163 0.3789783788544174 0.477856418628482 0.7176416997048117 0.7911829057828642 1:-0.440995 2:-0.582595 3:-0.557903 4:-0.687478 5:-0.670934 6:-0.605094 7:-0.773165 8:-0.754875 9:-0.712695 10:-0.648943 11:-0.657526 12:0.630543 13:-0.25657 14:-0.165895 15:0.249352 16:0.16675 17:0.202792 18:-0.572733 19:0.264267 20:-0.315453 21:0.128686 22:0.139911 23:0.166778 24:0.592032 25:-0.40842 26:-0.746878 27:-0.995559 28:-0.999892 29:-0.974728 30:-0.948101 31:0.950954 
0.3382791613698943 0.681080231505886 1.283495681566584 1.443174315152143 0.1582955860453461 0.4005722707477449 0.01858904927175735 0 0.6887784528573939 1:-0.644597 2:-0.702007 3:-0.549134 4:-0.756549 5:-0.651949 6:-0.509098 7:-0.812134 8:-0.729894 9:-0.632548 10:-0.508046 11:-0.712217 12:0.574437 13:-0.728117 14:-0.200171 15:0.281343 16:0.22678 17:0.214934 18:-0.279504 19:0.217842 20:-0.556592 21:0.0970695 22:0.143593 23:0.193932 24:0.613133 25:-0.475757 26:-0.96881 27:-0.996888 28:-0.999932 29:-0.974728 30:-0.948116 31:0.950954 
0 0 0.0909690860099881 0 0 0.4426806016361206 0.1629423547218837 0 0 1:-0.836311 2:-0.839967 3:-0.677809 4:-0.866967 5:-0.751772 6:-0.576732 7:-0.904683 8:-0.817562 9:-0.692494 10:-0.526081 11:-0.946132 12:0.546443 13:-0.932776 14:-0.191778 15:0.300211 16:0.237755 17:0.199848 18:-0.676504 19:0.114113 20:-0.739837 21:0.113467 22:0.164577 23:0.21777 24:0.585486 25:-0.80254 26:-0.949139 27:-0.999542 28:-0.999927 29:-0.974728 30:-0.948112 31:0.950954 
0 4.721482329761809 0 0 0 0 0 0 0 1:-0.825168 2:-0.800747 3:-0.71281 4:-0.817112 5:-0.741818 6:-0.663752 7:-0.854432 8:-0.785038 9:-0.720043 10:-0.662857 11:-0.932598 12:0.53395 13:-0.941904 14:-0.191115 15:0.303976 16:0.235451 17:0.19908 18:-0.617855 19:0.0680442 20:-0.81487 21:0.11619 22:0.181061 23:0.208879 24:0.582421 25:-0.837983 26:-0.963814 27:-0.999736 28:-0.999972 29:-0.974728 30:-0.948114 31:0.950954 
0 0 0 0 2.001862629173369 0 0 0 0 1:-0.790769 2:-0.755012 3:-0.668133 4:-0.765576 5:-0.685104 6:-0.612451 7:-0.801472 8:-0.72297 9:-0.657058 10:-0.608664 11:-0.89273 12:0.52618 13:-0.938226 14:-0.185161 15:0.2989 16:0.241422 17:0.197543 18:-0.491229 19:0.0645652 20:-0.864662 21:0.136386 22:0.163015 23:0.223 24:0.578652 25:-0.822507 26:-0.976059 27:-0.99961 28:-0.999708 29:-0.974728 30:-0.948085 31:0.950954 
0 0 0 0 0 3.59328198807852 0 5.187529021319367 0 1:-0.889695 2:-0.867532 3:-0.819621 4:-0.880025 5:-0.84179 6:-0.804065 7:-0.910027 8:-0.872726 9:-0.845257 10:-0.824227 11:-0.962213 12:0.555647 13:-0.980443 14:-0.190271 15:0.300919 16:0.235493 17:0.200632 18:-0.66978 19:0.13463 20:-0.917118 21:0.127122 22:0.164025 23:0.213984 24:0.588588 25:-0.944912 26:-0.991358 27:-0.999788 28:-0.999917 29:-0.974728 30:-0.948115 31:0.950954 
1.277132014659033 0 0.3701210666819936 0 8.181247331715751 0 0 0 0 1:-0.791364 2:-0.758682 3:-0.697788 4:-0.771729 5:-0.714023 6:-0.665432 7:-0.809455 8:-0.750354 9:-0.706568 10:-0.67662 11:-0.904686 12:0.518465 13:-0.909826 14:-0.192396 15:0.301322 16:0.239133 17:0.198542 18:-0.549892 19:0.0375689 20:-0.743447 21:0.110125 22:0.170991 23:0.217057 24:0.582191 25:-0.7492 26:-0.945016 27:-0.999567 28:-0.999933 29:-0.974728 30:-0.948106 31:0.950954 
0 0 0 0 0 0.2633641812855 0 0 0 1:-0.783986 2:-0.826991 3:-0.737882 4:-0.868955 5:-0.81609 6:-0.74585 7:-0.910835 8:-0.871572 9:-0.83225 10:-0.78492 11:-0.899651 12:0.530063 13:-0.94799 14:-0.184794 15:0.300488 16:0.239181 17:0.198849 18:-0.54414 19:0.0822185 20:-0.915872 21:0.13651 22:0.168534 23:0.216458 24:0.583635 25:-0.888025 26:-0.982308 27:-0.999887 28:-0.999838 29:-0.974728 30:-0.948103 31:0.950954 
0.4409041573054083 1.716945050835056 0 0 2.868872442025597 0 0 1.332706392942481 0 1:-0.884114 2:-0.836143 3:-0.785939 4:-0.837018 5:-0.787565 6:-0.747134 7:-0.864687 8:-0.811636 9:-0.773989 10:-0.752228 11:-0.955453 12:0.553544 13:-0.970998 14:-0.192141 15:0.301493 16:0.235635 17:0.200933 18:-0.625018 19:0.124693 20:-0.85839 21:0.112715 22:0.168321 23:0.214139 24:0.590841 25:-0.876854 26:-0.985505 27:-0.9997 28:-0.999976 29:-0.974728 30:-0.948117 31:0.950954 
1.048871327790484 0 0 0.6417538365700191 0 5.420206260542545 0 0 0 1:-0.884771 2:-0.904022 3:-0.80291 4:-0.92704 5:-0.870512 6:-0.778173 7:-0.953726 8:-0.915135 9:-0.864084 10:-0.792921 11:-0.964032 12:0.557286 13:-0.973988 14:-0.190629 15:0.300852 16:0.235059 17:0.200889 18:-0.698619 19:0.146791 20:-0.878914 21:0.123773 22:0.164033 23:0.211175 24:0.590527 25:-0.926411 26:-0.986332 27:-0.999799 28:-0.999951 29:-0.974728 30:-0.948118 31:0.950954 
0.6149709675346062 0.343858051446228 0.3676694137178624 0.2945428667430025 0.4845168840016624 0.3706607352778635 0.4489358924945568 0.231264683121919 0.3459232924015405 1:-0.46284 2:-0.57796 3:-0.440124 4:-0.65125 5:-0.604993 6:-0.450286 7:-0.713881 8:-0.697253 9:-0.640759 10:-0.483476 11:-0.3462 12:0.150906 13:-0.537709 14:-0.136747 15:0.319579 16:0.198687 17:0.22175 18:-0.0848604 19:-0.212935 20:-0.607083 21:0.152924 22:0.186941 23:0.182048 24:0.606686 25:-0.43061 26:-0.781718 27:-0.998335 28:-0.9998 29:-0.974728 30:-0.94815 31:0.950954 
0.3303560029249025 0.303898554168509 0.3177726228480171 0.246293977883106 1.055798776706417 0.3545956136054939 0.4488605980493191 0.9077189740243716 1.158075459495221 1:-0.354541 2:-0.477244 3:-0.359398 4:-0.571941 5:-0.52106 6:-0.384086 7:-0.654278 8:-0.629132 9:-0.566573 10:-0.422034 11:-0.426869 12:0.191932 13:-0.411635 14:-0.104123 15:0.362678 16:0.137881 17:0.293911 18:-0.412646 19:-0.0792592 20:-0.635438 21:0.157832 22:0.204789 23:0.163779 24:0.640827 25:-0.59961 26:-0.871056 27:-0.99534 28:-0.99837 29:-0.974727 30:-0.9479 31:0.950966 
0 0.09544601052390746 0.1645466259087098 0.02246594256875712 0.5009858812189419 0 0.07074220068420156 0 0.01812088230923675 1:-0.4154 2:-0.525627 3:-0.378094 4:-0.604312 5:-0.542538 6:-0.365959 7:-0.673543 8:-0.642892 9:-0.564692 10:-0.372654 11:-0.363866 12:0.142836 13:-0.386105 14:-0.137143 15:0.377727 16:0.14684 17:0.279846 18:-0.224642 19:-0.169676 20:-0.514189 21:0.146189 22:0.220222 23:0.160076 24:0.642269 25:-0.416597 26:-0.791572 27:-0.995351 28:-0.997924 29:-0.974727 30:-0.94771 31:0.950972 
0.08755880576904777 1.126121306589591 0 0 1.847888543736704 0 0.2384555559678427 0 0 1:-0.586233 2:-0.631657 3:-0.523729 4:-0.68603 5:-0.619076 6:-0.508544 7:-0.745173 8:-0.695909 9:-0.630593 10:-0.526005 11:-0.676031 12:0.355537 13:-0.667317 14:-0.139503 15:0.313314 16:0.208731 17:0.205173 18:-0.347088 19:-0.105592 20:-0.567646 21:0.175919 22:0.187165 23:0.179327 24:0.595949 25:-0.514875 26:-0.842016 27:-0.997192 28:-0.999879 29:-0.974728 30:-0.948152 31:0.950954 
0 0.6351311153110959 0 0 0 0.1104521176590852 0 0 0 1:-0.555198 2:-0.702932 3:-0.529375 4:-0.78388 5:-0.709799 6:-0.544536 7:-0.843958 8:-0.802175 9:-0.733286 10:-0.58614 11:-0.574043 12:0.382842 13:-0.684316 14:-0.105944 15:0.307613 16:0.229588 17:0.196428 18:-0.217886 19:-0.0392984 20:-0.656703 21:0.204917 22:0.179969 23:0.198604 24:0.585827 25:-0.530449 26:-0.922081 27:-0.998595 28:-0.999522 29:-0.974728 30:-0.948126 31:0.950954 
0 0.2236161865093953 0 0 0.4904177338188373 1.290306638797978 0.5095102445769761 0.06803585199587503 0.1674093773075327 1:-0.611116 2:-0.814335 3:-0.545694 4:-0.892466 5:-0.795594 6:-0.537285 7:-0.937214 8:-0.891305 9:-0.800003 10:-0.565856 11:-0.742504 12:0.415088 13:-0.766499 14:-0.146444 15:0.307095 16:0.221161 17:0.205373 18:-0.439399 19:-0.0383141 20:-0.705691 21:0.173796 22:0.18068 23:0.189338 24:0.596823 25:-0.669111 26:-0.9113 27:-0.998553 28:-0.999839 29:-0.974728 30:-0.948152 31:0.950954 
0 0.5465080521002306 0 0 0 0 0 0 0 1:-0.634102 2:-0.718249 3:-0.579004 4:-0.784449 5:-0.704978 6:-0.572325 7:-0.843209 8:-0.78824 9:-0.715989 10:-0.596994 11:-0.74844 12:0.44656 13:-0.737033 14:-0.156669 15:0.324179 16:0.19241 17:0.219763 18:-0.401405 19:-0.00466549 20:-0.600201 21:0.165009 22:0.20536 23:0.15585 24:0.619422 25:-0.565719 26:-0.908071 27:-0.993517 28:-0.99929 29:-0.974728 30:-0.948003 31:0.950958 
0 0.8584384289960976 0.4805979011416583 0 0.5716955100510031 0.2266386327693056 0.8753410861404272 3.206980747402446 0.5162030383271362 1:-0.464305 2:-0.604947 3:-0.510458 4:-0.704334 5:-0.667519 6:-0.55369 7:-0.784008 8:-0.765501 9:-0.715677 10:-0.602865 11:-0.631996 12:0.28892 13:-0.491342 14:-0.125655 15:0.338359 16:0.182973 17:0.236106 18:-0.503061 19:-0.0756922 20:-0.547269 21:0.161841 22:0.20038 23:0.173051 24:0.617842 25:-0.567521 26:-0.823341 27:-0.99686 28:-0.999398 29:-0.974728 30:-0.948035 31:0.950956 
0 0 0 0.6053148571157657 0 0.3420430171900519 0 0 0 1:-0.538105 2:-0.615149 3:-0.477404 4:-0.686625 5:-0.5962 6:-0.467124 7:-0.754811 8:-0.686533 9:-0.605137 10:-0.489059 11:-0.662658 12:0.45271 13:-0.655703 14:-0.127607 15:0.316645 16:0.196596 17:0.23682 18:-0.42493 19:0.0611141 20:-0.641237 21:0.176333 22:0.188088 23:0.174241 24:0.627106 25:-0.609829 26:-0.945244 27:-0.996141 28:-0.999213 29:-0.974728 30:-0.948076 31:0.950957 
0 0.7695366532082087 0.4704129923663989 0 0 0.2550932009388804 2.156062273259078 1.888905501067029 0.3298626638646343 1:-0.582439 2:-0.627652 3:-0.580186 4:-0.685998 5:-0.655283 6:-0.611508 7:-0.74981 8:-0.722658 9:-0.698051 10:-0.660974 11:-0.731568 12:0.443964 13:-0.729233 14:-0.156728 15:0.309145 16:0.202153 17:0.234842 18:-0.473995 19:0.0263153 20:-0.685805 21:0.153618 22:0.182296 23:0.173817 24:0.631883 25:-0.66819 26:-0.936159 27:-0.996406 28:-0.999175 29:-0.974728 30:-0.948035 31:0.950958 
0 0 0 0 3.514514482569047 0 0.8082094156955939 0.04941130990280997 0 1:-0.655777 2:-0.757157 3:-0.646618 4:-0.820777 5:-0.77357 6:-0.673511 7:-0.873586 8:-0.843928 9:-0.803826 10:-0.720513 11:-0.713581 12:0.42613 13:-0.798693 14:-0.203494 15:0.32162 16:0.220564 17:0.209718 18:-0.249696 19:-0.0608899 20:-0.692126 21:0.0907008 22:0.204649 23:0.18582 24:0.605553 25:-0.573638 26:-0.910291 27:-0.999405 28:-0.999608 29:-0.974728 30:-0.948036 31:0.950954 
0 0 0.08229208233765899 0.6650067338419964 0 0.9137522786453285 0.05260288822790837 0 0 1:-0.640928 2:-0.691365 3:-0.559284 4:-0.747296 5:-0.657331 6:-0.546885 7:-0.805424 8:-0.736076 9:-0.663879 10:-0.578961 11:-0.762759 12:0.479768 13:-0.866006 14:-0.153673 15:0.292032 16:0.232347 17:0.216175 18:-0.422095 19:0.0491015 20:-0.867105 21:0.171587 22:0.15965 23:0.200488 24:0.614702 25:-0.793771 26:-0.97085 27:-0.997982 28:-0.999657 29:-0.974728 30:-0.94816 31:0.950954 
0.03221956900168505 0.1214117071414931 0.4538449485643585 0.07349578531093126 0.2702863883391418 0.3178775580026212 0 0.2740720776821056 0.4088891995351886 1:-0.692727 2:-0.814491 3:-0.657591 4:-0.871628 5:-0.812852 6:-0.66331 7:-0.913879 8:-0.882149 9:-0.826652 10:-0.695089 11:-0.7111 12:0.426604 13:-0.782985 14:-0.175159 15:0.280102 16:0.236967 17:0.208644 18:-0.114356 19:-0.101886 20:-0.569749 21:0.145321 22:0.132911 23:0.207074 24:0.606378 25:-0.413112 26:-0.875194 27:-0.996239 28:-0.999894 29:-0.974728 30:-0.94812 31:0.950954 
0.5346525874970949 0.5905412212467738 0.5514042098799886 0.446834483116671 0.6985263999794094 0.4854081018144141 0.5568621427750505 0.5526672855267427 0.6063196438475583 1:-0.524805 2:-0.650056 3:-0.458084 4:-0.714933 5:-0.636654 6:-0.417966 7:-0.767286 8:-0.725469 9:-0.63309 10:-0.400882 11:-0.312483 12:0.304597 13:-0.424922 14:-0.0848954 15:0.218384 16:0.107306 17:0.224388 18:0.167501 19:-0.111209 20:-0.322645 21:0.214759 22:0.10004 23:0.112498 24:0.613303 25:-0.0851762 26:-0.847771 27:-0.965012 28:-0.999968 29:-0.974728 30:-0.948123 31:0.950954 
1.475723868774137 0.4315520063581498 0.4436468150289782 0.3429490793538145 0.6386249916700427 0.3707245730694967 0.2945211331235403 0.3673713722335005 0.4700589380137296 1:-0.579344 2:-0.740804 3:-0.539196 4:-0.812234 5:-0.749269 6:-0.543313 7:-0.864926 8:-0.835727 9:-0.771904 10:-0.576495 11:-0.488108 12:0.221516 13:-0.691955 14:-0.197816 15:0.290675 16:0.252951 17:0.202449 18:0.0315967 19:-0.290424 20:-0.625482 21:0.103028 22:0.161764 23:0.218849 24:0.592535 25:-0.393917 26:-0.696533 27:-0.999093 28:-0.999981 29:-0.974728 30:-0.94811 31:0.950954 
0.4416382383810424 0.5694121218241172 0.5271988385000339 0.4436184044088181 0.7015827992054423 0.5663654740420736 0.5564014301153609 0.4891548197643464 0.5970951030222045 1:-0.595524 2:-0.781361 3:-0.458126 4:-0.854268 5:-0.736078 6:-0.381879 7:-0.902217 8:-0.843204 9:-0.717632 10:-0.351629 11:-0.569528 12:0.259418 13:-0.699407 14:-0.139701 15:0.258691 16:0.265879 17:0.200076 18:-0.0878998 19:-0.261008 20:-0.607001 21:0.178353 22:0.122931 23:0.23226 24:0.589621 25:-0.431897 26:-0.728834 27:-0.996442 28:-0.999115 29:-0.974727 30:-0.947849 31:0.950952 
0 0.279244859511507 0.4119482422847905 0.0515980206081811 0 0.05426124391132516 0.06998710819140005 0.1293453452081156 0.3374888194919973 1:-0.697118 2:-0.864757 3:-0.597098 4:-0.919742 5:-0.822575 6:-0.566438 7:-0.952035 8:-0.90399 9:-0.809599 10:-0.583799 11:-0.751922 12:0.548944 13:-0.889053 14:-0.140809 15:0.290005 16:0.224309 17:0.210519 18:-0.23018 19:0.164357 20:-0.84791 21:0.218572 22:0.150921 23:0.187922 24:0.610631 25:-0.692696 26:-0.992909 27:-0.994938 28:-0.999486 29:-0.974728 30:-0.948102 31:0.950951 
0.2561197135505555 0 0 0.05077474651280044 0 0 0.3750906058919355 0 0 1:-0.611719 2:-0.721867 3:-0.614623 4:-0.785463 5:-0.753546 6:-0.646646 7:-0.838191 8:-0.824916 9:-0.791878 10:-0.695867 11:-0.566202 12:0.316978 13:-0.741398 14:-0.16234 15:0.283999 16:0.216103 17:0.20835 18:-0.0239429 19:-0.195911 20:-0.655245 21:0.151724 22:0.15132 23:0.184192 24:0.600939 25:-0.443017 26:-0.801674 27:-0.997323 28:-0.99998 29:-0.974728 30:-0.948118 31:0.950954 
0.3327271291022407 0.3734726254484286 0.3415191584582802 0.2761586225963866 0.4220031070003282 0.2970487790994443 0.3432077183989188 0.3338391699841015 0.3676398657864325 1:-0.522469 2:-0.630208 3:-0.4952 4:-0.683066 5:-0.635424 6:-0.506911 7:-0.727006 8:-0.701664 9:-0.657121 10:-0.546199 11:-0.195876 12:0.431697 13:-0.631921 14:-0.0530327 15:0.330303 16:0.297717 17:0.172145 18:0.363051 19:0.0427834 20:-0.632649 21:0.244718 22:0.199346 23:0.24668 24:0.563235 25:-0.252412 26:-0.942038 27:-0.997006 28:-0.997712 29:-0.974731 30:-0.947731 31:0.950963 
0.7059015902809596 0.770697829007021 0.7322056156444281 0.5847607335272162 0.877071879664049 0.6406580149691422 0.7340659864212256 0.7191530003698249 0.7908768144993585 1:-0.47445 2:-0.576846 3:-0.508734 4:-0.622168 5:-0.627414 6:-0.541365 7:-0.656327 8:-0.680524 9:-0.66332 10:-0.583796 11:-0.0106888 12:0.423371 13:-0.460845 14:0.118324 15:0.259237 16:0.389308 17:0.203212 18:0.457486 19:0.0554744 20:-0.489482 21:0.361941 22:0.142899 23:0.293093 24:0.592533 25:-0.093031 26:-0.96547 27:-0.997176 28:-0.992027 29:-0.974738 30:-0.947442 31:0.950862 
0.6968661924485932 0.7798567015718743 0.7442949145729325 0.5903004969233522 0.9253899984992594 0.6483761760005851 0.7458980533236176 0.7233772451364326 0.8050844723338717 1:-0.686136 2:-0.719754 3:-0.680232 4:-0.747152 5:-0.736192 6:-0.705365 7:-0.780871 8:-0.770904 9:-0.766884 10:-0.749552 11:-0.506844 12:0.571206 13:-0.800218 14:-0.157776 15:0.321556 16:0.276146 17:0.189825 18:0.497074 19:0.2134 20:-0.631522 21:0.178757 22:0.209368 23:0.263276 24:0.568952 25:-0.191895 26:-0.952338 27:-0.993015 28:-0.998678 29:-0.97473 30:-0.947912 31:0.950958 
0 0 0 0 0.005167940672908952 0 0 0 0 1:-0.575869 2:-0.694296 3:-0.543667 4:-0.749063 5:-0.691597 6:-0.551656 7:-0.794205 8:-0.759415 9:-0.706305 10:-0.587101 11:-0.311863 12:0.488989 13:-0.676961 14:-0.10431 15:0.29708 16:0.300244 17:0.188138 18:0.385135 19:0.0939218 20:-0.605997 21:0.215311 22:0.168937 23:0.259592 24:0.575607 25:-0.220739 26:-0.962995 27:-0.998157 28:-0.997976 29:-0.97473 30:-0.947829 31:0.950948 
0.3258730901281447 0.2674478337103135 0.2942555021504846 0.1935655857420402 0.1569765761769432 0.2070656059564017 0.395940487441613 0.2802642245244312 0.3214549647023579 1:-0.608295 2:-0.677304 3:-0.579778 4:-0.72421 5:-0.684499 6:-0.601417 7:-0.769455 8:-0.745897 9:-0.715989 10:-0.652526 11:-0.466552 12:0.424941 13:-0.804965 14:-0.114747 15:0.290136 16:0.283732 17:0.183458 18:0.19497 19:-0.0203271 20:-0.785358 21:0.216692 22:0.15936 23:0.251795 24:0.567012 25:-0.452365 26:-0.893261 27:-0.998998 28:-0.997909 29:-0.974729 30:-0.947608 31:0.950946 
0.8303153058507202 0.9094496609001317 0.8611127328497259 0.6884045948901595 1.033885462586438 0.7550708095443912 0.864084827342156 0.8454392600463768 0.9298292751144481 1:-0.566578 2:-0.703251 3:-0.574451 4:-0.755024 5:-0.706978 6:-0.592129 7:-0.795619 8:-0.763368 9:-0.716202 10:-0.624428 11:-0.19095 12:0.745653 13:-0.547387 14:-0.0360015 15:0.245717 16:0.317066 17:0.203474 18:0.585202 19:0.449607 20:-0.405266 21:0.290196 22:0.115255 23:0.271437 24:0.593606 25:0.0328112 26:-0.920007 27:-0.994136 28:-0.995575 29:-0.974726 30:-0.948249 31:0.95089 
0.675367776209996 0.7415056564521907 0.7073383598670065 0.5657234149264972 0.8749370512252961 0.6409201324048979 0.7170286331336039 0.6948987528065137 0.7629455103735013 1:-0.507356 2:-0.640906 3:-0.583404 4:-0.707511 5:-0.719349 6:-0.621309 7:-0.759822 8:-0.78275 9:-0.756592 10:-0.664239 11:-0.266042 12:0.33896 13:-0.387988 14:-0.0503487 15:0.299662 16:0.37154 17:0.140436 18:0.182394 19:-0.0557837 20:-0.315932 21:0.239664 22:0.172479 23:0.293017 24:0.536173 25:-0.0730469 26:-0.887789 27:-0.991478 28:-0.995117 29:-0.974735 30:-0.947479 31:0.950874 
0.586043710733497 0.7343927063331586 0.5937040085578119 0.5615381014287828 0.4908758402156237 0.4982549915412418 0.619781647173267 0.6371347370977631 0.6181372278376737 1:-0.713565 2:-0.810753 3:-0.655337 4:-0.857913 5:-0.787011 6:-0.654142 7:-0.896151 8:-0.850584 9:-0.790848 10:-0.688937 11:-0.653415 12:0.576055 13:-0.874643 14:-0.112861 15:0.300435 16:0.272385 17:0.192299 18:0.17374 19:0.226087 20:-0.780377 21:0.292828 22:0.170549 23:0.266585 24:0.571188 25:-0.45772 26:-0.960744 27:-0.999176 28:-0.99569 29:-0.974732 30:-0.94757 31:0.95095 
0.6055259309902595 0.718879302511011 0.6227807570499674 0.4971785413320445 0.7693818884590091 0.5446920939198476 0.6223200776798234 0.6207803444566155 0.6768282453610593 1:-0.617307 2:-0.717005 3:-0.479091 4:-0.768056 5:-0.648038 6:-0.404652 7:-0.812621 8:-0.731591 9:-0.610779 10:-0.37974 11:-0.422924 12:0.460918 13:-0.74256 14:-0.146507 15:0.293326 16:0.319358 17:0.175312 18:0.340054 19:0.0311366 20:-0.646678 21:0.175503 22:0.162889 23:0.290769 24:0.554543 25:-0.274141 26:-0.936788 27:-0.990049 28:-0.997364 29:-0.974729 30:-0.947634 31:0.950916 
0.7943880732831489 0.3426414209095713 0.3360571313613296 0.3172221325791288 0.5509503846328678 0.5340648477311374 0.1982539135200626 0.4106943849074243 0.356676627114129 1:-0.652514 2:-0.692408 3:-0.64114 4:-0.731007 5:-0.717374 6:-0.663842 7:-0.773584 8:-0.769344 9:-0.753257 10:-0.708674 11:-0.580899 12:0.381721 13:-0.769656 14:-0.0922197 15:0.287422 16:0.293444 17:0.175488 18:0.102425 19:-0.140203 20:-0.632026 21:0.278809 22:0.151726 23:0.27493 24:0.548453 25:-0.367785 26:-0.851028 27:-0.998105 28:-0.994849 29:-0.974731 30:-0.946801 31:0.950912 
0.8764460718807504 0.9601811204051226 0.9088733076742553 0.7264436519957322 1.092635920591676 0.7975437572544111 0.9127299630694392 0.892393833594409 0.9815207067778082 1:1 2:1 3:1 4:1 5:1 6:1 7:1 8:1 9:1 10:1 11:1 12:0.45252 13:1 14:-0.259012 15:0.519051 16:0.120941 17:0.412177 18:-0.736008 19:0.191807 20:-0.930823 21:0.106188 22:0.184272 23:0.197607 24:0.600676 25:-0.985598 26:-0.994764 27:-0.999988 28:-0.999917 29:-0.974728 30:-0.948112 31:0.950954 
0.5872425994108086 0.6356603911461441 0.6081090185279423 0.4883198865356172 0.7303653793117098 0.5307497778543789 0.6148920463606548 0.6084228737577569 0.6787701986552442 1:-0.36896 2:-0.397033 3:-0.340358 4:-0.434375 5:-0.409179 6:-0.298787 7:-0.477979 8:-0.466886 9:-0.395921 10:-0.260598 11:-0.284116 12:0.349477 13:-0.0381761 14:-0.0301416 15:0.28799 16:0.224555 17:0.325617 18:-0.225549 19:0.0339079 20:-0.255687 21:0.202374 22:0.167286 23:0.197915 24:0.660961 25:-0.20504 26:-0.80774 27:-0.993342 28:-0.997656 29:-0.974729 30:-0.947945 31:0.950979 
0.2695920858623937 0.5535643619491492 0.2905085027137233 0.2017334523579164 0.277566248435457 0.242054871175861 0.2812375183049939 0.2811305745083456 0.3169242562663395 1:-0.528528 2:-0.572739 3:-0.468955 4:-0.616689 5:-0.556136 6:-0.430177 7:-0.66541 8:-0.619377 9:-0.543577 10:-0.415592 11:-0.44107 12:0.431619 13:-0.393768 14:-0.147254 15:0.335576 16:0.247277 17:0.154196 18:-0.0479153 19:0.0396576 20:-0.265982 21:0.154385 22:0.20468 23:0.211577 24:0.545053 25:-0.134496 26:-0.87064 27:-0.994324 28:-0.999333 29:-0.974728 30:-0.947969 31:0.95095 
0 0.03728852183712774 0 0 0 0 0 0 0 1:-0.564041 2:-0.629135 3:-0.486894 4:-0.688613 5:-0.596218 6:-0.452665 7:-0.747436 8:-0.676811 9:-0.58485 10:-0.448702 11:-0.595482 12:0.486666 13:-0.579423 14:-0.117607 15:0.306577 16:0.244379 17:0.233987 18:-0.236419 19:0.094975 20:-0.465428 21:0.195075 22:0.17908 23:0.210709 24:0.627897 25:-0.381852 26:-0.931866 27:-0.998861 28:-0.99882 29:-0.974729 30:-0.948207 31:0.950955 
0.1229589029119933 0 0.1744134431918198 0.06719732936056787 2.70600727578331 0 0.109443857435283 0.1204209684524967 0.126306726992125 1:-0.480368 2:-0.665552 3:-0.414064 4:-0.764932 5:-0.650897 6:-0.367832 7:-0.83463 8:-0.771951 9:-0.639406 10:-0.338845 11:-0.549549 12:0.318135 13:-0.330292 14:-0.0979946 15:0.25501 16:0.2578 17:0.280162 18:-0.349908 19:-0.0579675 20:-0.308277 21:0.187869 22:0.139029 23:0.21623 24:0.655416 25:-0.303457 26:-0.748761 27:-0.990048 28:-0.998392 29:-0.974729 30:-0.948289 31:0.950971 
0.3049540331477992 0.5487149547901562 0.1109494116927967 0.2232211787972263 0.05777460420860395 1.166071884663609 0.2776826646387177 0.2772602907579325 0.2652960661639568 1:-0.460931 2:-0.659998 3:-0.359091 4:-0.766162 5:-0.61161 6:-0.289177 7:-0.837993 8:-0.744289 9:-0.574635 10:-0.246511 11:-0.566923 12:0.500677 13:-0.354914 14:-0.0464995 15:0.323052 16:0.318651 17:0.181285 18:-0.413011 19:0.13814 20:-0.386144 21:0.222529 22:0.189305 23:0.249296 24:0.575731 25:-0.395363 26:-0.856142 27:-0.99843 28:-0.998201 29:-0.974729 30:-0.948569 31:0.950957 
0.4744591722090241 0.7549279183828479 0.4506854306443807 0.4056774826018557 0.5478829721908285 0.4893528280645855 0.4664026271640671 0.4943154539405693 0.5256506600272577 1:-0.519494 2:-0.490332 3:-0.396742 4:-0.492565 5:-0.41372 6:-0.310258 7:-0.513703 8:-0.439693 9:-0.353665 10:-0.25048 11:-0.450773 12:0.474011 13:-0.422265 14:-0.110354 15:0.291392 16:0.286029 17:0.230556 18:-0.0922037 19:0.0943024 20:-0.332881 21:0.188233 22:0.165162 23:0.238075 24:0.618671 25:-0.209044 26:-0.909481 27:-0.998161 28:-0.998838 29:-0.974729 30:-0.948341 31:0.950956 
0.6480587020272858 0.9604614341669431 0.8564624076213505 0.5345397142090612 1.649254746072464 0.6299366171919758 0.6065696381626807 0.5459615698035759 0.6805856024082575 1:-0.568561 2:-0.697489 3:-0.470395 4:-0.77719 5:-0.662685 6:-0.403666 7:-0.840097 8:-0.769283 9:-0.639234 10:-0.361221 11:-0.638979 12:0.339 13:-0.450261 14:-0.167838 15:0.34996 16:0.228306 17:0.237377 18:-0.312416 19:-0.110697 20:-0.235124 21:0.138203 22:0.22506 23:0.197364 24:0.632476 25:-0.226806 26:-0.674523 27:-0.999465 28:-0.998348 29:-0.974729 30:-0.947701 31:0.950955 
0.2879141484889277 0.1789702603013486 0.2949841208292972 0.2391528702471964 0.3668059353000144 0.2583666240580079 0.2992063101115164 0.2872044415084542 0.3265509252077886 1:-0.396036 2:-0.492469 3:-0.390769 4:-0.557939 5:-0.506268 6:-0.373133 7:-0.616423 8:-0.57993 9:-0.504365 10:-0.364742 11:-0.214365 12:0.550784 13:-0.139181 14:-0.112938 15:0.290059 16:0.166939 17:0.232888 18:-0.0813334 19:0.190668 20:-0.293249 21:0.159037 22:0.167787 23:0.171649 24:0.610315 25:-0.171714 26:-0.908559 27:-0.996094 28:-0.999877 29:-0.974728 30:-0.948092 31:0.950954 
0.5359554061952241 0.774494428606966 0.563261835447467 0.4282562946482955 0.561991239344882 0.4421983679460184 0.499794658523943 0.5511333504509403 0.5727409573668414 1:-0.489433 2:-0.557054 3:-0.437784 4:-0.615883 5:-0.525906 6:-0.410763 7:-0.673725 8:-0.593553 9:-0.508178 10:-0.405406 11:-0.447493 12:0.721286 13:-0.411029 14:-0.0883231 15:0.338595 16:0.199892 17:0.231326 18:-0.16924 19:0.371214 20:-0.391998 21:0.198775 22:0.202966 23:0.180856 24:0.616359 25:-0.291771 26:-0.897266 27:-0.996587 28:-0.999206 29:-0.974729 30:-0.947949 31:0.950953 
0.10544646090334 0.2416989860412753 0.6109379213732381 0.5923951395981394 0.3384323933017148 0.01780370393850701 2.668120842487721 0 3.552136036541006 1:-0.544896 2:-0.59722 3:-0.659434 4:-0.66086 5:-0.703484 6:-0.730995 7:-0.72859 8:-0.749916 9:-0.774051 10:-0.790814 11:-0.706823 12:0.605897 13:-0.631816 14:-0.142181 15:0.335992 16:0.189429 17:0.221504 18:-0.494306 19:0.254129 20:-0.591613 21:0.162726 22:0.207053 23:0.168024 24:0.612141 25:-0.599986 26:-0.93835 27:-0.995769 28:-0.999497 29:-0.974728 30:-0.948024 31:0.950956 
0.2945740411449739 0.3355833238011938 0.2701768607106791 0.2336262453242364 0.3505214786537194 0.2706636888933776 0.2781617168172096 0.2939898103702148 0.3230020658440042 1:-0.429851 2:-0.481886 3:-0.363701 4:-0.525296 5:-0.452097 6:-0.337575 7:-0.569208 8:-0.513208 9:-0.445824 10:-0.339075 11:-0.242852 12:0.515937 13:-0.458743 14:-0.0468874 15:0.293362 16:0.161939 17:0.248728 18:-0.0296179 19:0.157499 20:-0.569245 21:0.210848 22:0.169054 23:0.165639 24:0.62347 25:-0.375023 26:-0.994592 27:-0.991856 28:-0.999447 29:-0.974729 30:-0.948127 31:0.950955 
0.4539617676969218 0.4514401101664741 0.4751706715187932 0.3795681638480781 0.6071515195281071 0.416271886486174 0.4789163162797349 0.4658991495226996 0.5099993502287482 1:-0.394905 2:-0.532064 3:-0.397926 4:-0.606277 5:-0.563099 6:-0.39384 7:-0.663998 8:-0.65174 9:-0.579945 10:-0.398095 11:-0.115008 12:0.340228 13:-0.211428 14:0.00348948 15:0.150093 16:0.126899 17:0.272423 18:0.0377212 19:0.0146869 20:-0.370104 21:0.231174 22:0.0887968 23:0.153791 24:0.634415 25:-0.181794 26:-0.920145 27:-0.97035 28:-0.999774 29:-0.974728 30:-0.948165 31:0.950952 
0.05117874042061248 0.5510939417848433 0.3186292037802296 0.02853358162133605 0.09455924040135642 0 0.07916025630006321 0.02636448713731433 0.1433560108167106 1:-0.410126 2:-0.558842 3:-0.317667 4:-0.653678 5:-0.515962 6:-0.254564 7:-0.729819 8:-0.634031 9:-0.486733 10:-0.212339 11:-0.406399 12:0.44482 13:-0.301599 14:-0.135249 15:0.382304 16:0.140435 17:0.282796 18:-0.290267 19:0.0980312 20:-0.433257 21:0.146795 22:0.222159 23:0.157766 24:0.64328 25:-0.379413 26:-0.907333 27:-0.99488 28:-0.997812 29:-0.974727 30:-0.947629 31:0.950974 
0.568445892528946 0.8135365134697872 0.8288687059977784 0.4036127436686719 1.179611041203545 0.4633379478212085 0.741569268692989 0.6776986493968122 1.691533452544415 1:-0.337961 2:-0.418555 3:-0.431913 4:-0.501363 5:-0.519876 6:-0.473362 7:-0.583721 8:-0.597316 9:-0.570553 10:-0.507324 11:-0.501651 12:0.444345 13:-0.143771 14:-0.109363 15:0.335329 16:0.167264 17:0.334693 18:-0.517407 19:0.115162 20:-0.418348 21:0.152742 22:0.190379 23:0.176675 24:0.6593 25:-0.46819 26:-0.836707 27:-0.995595 28:-0.997632 29:-0.974726 30:-0.947448 31:0.950972 
0.3245386635065708 0.8636953591004534 1.612350481301283 0 0.7379774221389338 0.2257959515572369 0.7446907802497006 0.5045671648598891 0.7529024702228181 1:-0.50356 2:-0.536681 3:-0.422079 4:-0.591481 5:-0.50255 6:-0.386677 7:-0.657473 8:-0.581207 9:-0.493683 10:-0.3832 11:-0.656287 12:0.419625 13:-0.545959 14:-0.192298 15:0.308575 16:0.228742 17:0.234678 18:-0.47722 19:0.0381095 20:-0.544827 21:0.10965 22:0.179827 23:0.198576 24:0.620707 25:-0.554026 26:-0.891602 27:-0.999503 28:-0.999568 29:-0.974728 30:-0.948024 31:0.950954 
0 0.293461280858942 0 0.08469945529490047 0 0.02105077701913965 0 0 0.004147926048434714 1:-0.430306 2:-0.478235 3:-0.387512 4:-0.530811 5:-0.471296 6:-0.387751 7:-0.588134 8:-0.540351 9:-0.48948 10:-0.41461 11:-0.414402 12:0.460563 13:-0.539537 14:-0.118301 15:0.307554 16:0.18648 17:0.259926 18:-0.259226 19:0.106654 20:-0.659562 21:0.161196 22:0.178041 23:0.177949 24:0.631208 25:-0.551171 26:-0.981472 27:-0.996449 28:-0.999241 29:-0.974728 30:-0.948093 31:0.950957 
0.1057599731722003 0.07748105160222449 0.5384277227636508 0 0.5995168475019389 0.01060688937549887 0.3654970349223174 0.1063001293015061 0.205605156400146 1:-0.520205 2:-0.498323 3:-0.458659 4:-0.513529 5:-0.474665 6:-0.431806 7:-0.549776 8:-0.507803 9:-0.469884 10:-0.429914 11:-0.572276 12:0.513913 13:-0.502058 14:-0.11065 15:0.270356 16:0.179899 17:0.252245 18:-0.301496 19:0.141376 20:-0.447289 21:0.188162 22:0.146756 23:0.164466 24:0.63927 25:-0.395915 26:-0.919989 27:-0.988378 28:-0.999367 29:-0.974728 30:-0.948025 31:0.950959 
0.8538919387234722 0.9346700494793815 0.8853143108481512 0.7074949758446062 1.063973030853189 0.7762212169107466 0.8884205883877084 0.8692746933333746 0.9557871575924699 1:-0.247433 2:-0.462055 3:-0.222173 4:-0.530268 5:-0.49101 6:-0.210832 7:-0.57633 8:-0.579331 9:-0.512376 10:-0.221518 11:0.636823 12:0.0170794 13:-0.169651 14:-0.0937245 15:0.365613 16:0.329513 17:0.129834 18:0.371575 19:-0.121135 20:-0.581724 21:0.149243 22:0.19796 23:0.229547 24:0.562485 25:-0.206866 26:-0.853553 27:-0.996734 28:-0.999515 29:-0.974728 30:-0.947979 31:0.950953 
0.8658006428783074 0.9486974701157297 0.8978948675227844 0.717705244895515 1.0793958411183 0.7879030804273809 0.9011285096839015 0.8814728963832803 0.9700150415034505 1:-0.515787 2:-0.427124 3:-0.408998 4:-0.356018 5:-0.377907 6:-0.340344 7:-0.298281 8:-0.332183 9:-0.34937 10:-0.300038 11:-0.0430851 12:0.225044 13:-0.45078 14:-0.485716 15:0.620411 16:0.149888 17:0.22875 18:0.596811 19:-0.195725 20:-0.383562 21:-0.16773 22:0.448004 23:0.144585 24:0.616599 25:0.0557657 26:-0.797871 27:-0.920831 28:-0.985153 29:-0.974574 30:-0.943247 31:0.952112 
0.6709527184850284 0.711995792521935 0.6485714346266089 0.5574719770621873 0.7797340001279895 0.5928443625528351 0.9989673565857975 0.7186572538021662 0.8072131913485825 1:-0.465976 2:-0.414592 3:-0.509964 4:-0.398043 5:-0.496268 6:-0.555475 7:-0.4035 8:-0.496857 9:-0.562476 10:-0.609533 11:-0.372851 12:0.421901 13:-0.521848 14:-0.19455 15:0.319575 16:0.316195 17:0.19796 18:-0.115849 19:0.0575119 20:-0.582133 21:0.10784 22:0.187073 23:0.24875 24:0.588403 25:-0.423933 26:-0.966601 27:-0.995651 28:-0.999786 29:-0.974728 30:-0.948137 31:0.950954 
0.8763680364465997 0.9601139093894101 0.9093898861398009 0.7263100980884625 1.092604348005239 0.7975418874527823 0.9123460391271171 0.8924127565459331 0.9815837391405811 1:-0.105959 2:-0.135287 3:-0.0553429 4:-0.114105 5:-0.153637 6:0.0153672 7:-0.0712173 8:-0.18119 9:-0.119173 10:0.0712316 11:0.858372 12:-0.10973 13:0.312283 14:0.0745495 15:0.00757749 16:0.92513 17:-0.0144268 18:0.164774 19:-0.0973527 20:-0.469918 21:0.184952 22:0.0989996 23:0.342904 24:0.530731 25:-0.207147 26:-0.884833 27:-0.972016 28:-0.992621 29:-0.974688 30:-0.946298 31:0.950758 
0.8345141154768296 0.915138239066436 0.8662237375778402 0.692698974484249 1.041131622751216 0.7595330298375383 0.8693596393587022 0.8503217987093464 0.935413114258265 1:-0.298618 2:-0.307353 3:-0.212477 4:-0.27572 5:-0.28279 6:-0.154471 7:-0.236685 8:-0.28558 9:-0.26447 10:-0.119117 11:0.640032 12:0.123234 13:-0.203704 14:-0.4082 15:0.255631 16:0.34446 17:0.236685 18:0.545659 19:-0.0898272 20:-0.535487 21:0.00921574 22:0.155043 23:0.238832 24:0.607052 25:-0.091544 26:-0.866472 27:-0.991564 28:-0.999827 29:-0.974728 30:-0.948071 31:0.950954 
0.7193758914764874 0.833310693747764 0.7565447007042204 0.5972845196094764 0.9073899778353437 0.6548307358743044 0.7652452083857405 0.7357783606443438 0.8241421551194347 1:-0.341451 2:-0.581925 3:-0.373996 4:-0.681829 5:-0.61713 6:-0.402237 7:-0.754459 8:-0.714754 9:-0.643681 10:-0.436306 11:-0.0214539 12:0.427278 13:-0.290929 14:-0.301971 15:0.49089 16:0.227888 17:0.288051 18:0.00307657 19:0.101918 20:-0.544282 21:0.051798 22:0.264975 23:0.199471 24:0.635849 25:-0.340021 26:-0.983583 27:-0.996252 28:-0.996995 29:-0.974732 30:-0.947863 31:0.950968 
0.8682111027047926 0.9513455082292153 0.9000578210814525 0.7200266060023026 1.082341271568911 0.7895347141944783 0.9035851512010923 0.8838992806680104 0.9722618687467239 1:-0.243937 2:-0.254557 3:-0.167154 4:-0.238643 5:-0.211058 6:-0.128939 7:-0.209437 8:-0.204656 9:-0.187316 10:-0.1166 11:0.468595 12:0.503088 13:-0.262597 14:0.220444 15:0.590435 16:0.38624 17:0.273853 18:0.215972 19:0.166694 20:-0.653423 21:0.274359 22:0.279362 23:0.245654 24:0.619372 25:-0.334845 26:-0.985811 27:-0.991859 28:-0.995056 29:-0.974714 30:-0.948208 31:0.950909 
0.4106301882944999 0.5790266476748257 0.4370002482768353 0.3437357444500262 0.5174774083537214 0.3970009169204078 0.5173373268745974 0.4305519810961382 0.4455920574274814 1:-0.432347 2:-0.466934 3:-0.395696 4:-0.498877 5:-0.477316 6:-0.400797 7:-0.53474 8:-0.532359 9:-0.506361 10:-0.435527 11:-0.213713 12:0.287162 13:-0.546486 14:-0.0914333 15:0.30468 16:0.30387 17:0.179809 18:0.0166891 19:-0.0537962 20:-0.664478 21:0.18042 22:0.176229 23:0.237339 24:0.576107 25:-0.43252 26:-0.916703 27:-0.999195 28:-0.999122 29:-0.974728 30:-0.947988 31:0.950953 
0.8346000543624382 0.9140113383126717 0.8658800380176137 0.6922247841159777 1.040057944666795 0.7589380576458298 0.8685158353347988 0.8495863301747033 0.9347995960141103 1:-0.259315 2:-0.264424 3:-0.161221 4:-0.243279 5:-0.221929 6:-0.124947 7:-0.216402 8:-0.232886 9:-0.220493 10:-0.128378 11:0.477848 12:0.2094 13:-0.441575 14:-0.236736 15:0.206818 16:0.233176 17:0.252617 18:0.267124 19:-0.0128636 20:-0.768555 21:0.0909985 22:0.138622 23:0.201486 24:0.611886 25:-0.406503 26:-0.889442 27:-0.996379 28:-0.999964 29:-0.974728 30:-0.94811 31:0.950954 
0 0.2463907197197412 0 0 1.700872774433701 0.7722545293141294 0.0393767098396326 0 0 1:-0.567226 2:-0.703867 3:-0.639146 4:-0.784627 5:-0.765916 6:-0.704652 7:-0.845715 8:-0.835931 9:-0.816842 10:-0.768849 11:-0.631559 12:0.472486 13:-0.719507 14:-0.0986878 15:0.311793 16:0.244716 17:0.193653 18:-0.300683 19:0.0743226 20:-0.694621 21:0.218103 22:0.184625 23:0.211111 24:0.582422 25:-0.598354 26:-0.973984 27:-0.999097 28:-0.999158 29:-0.974728 30:-0.948147 31:0.950955 
0.8617021073754513 0.9437321190668511 0.893746945279735 0.7140111793196227 1.073856298551105 0.7833522415417419 0.8965060867494841 0.8770033750699789 0.9647751648163547 1:-0.394212 2:-0.36564 3:-0.363538 4:-0.330773 5:-0.367303 6:-0.335114 7:-0.294188 8:-0.33865 9:-0.359883 10:-0.314956 11:0.216477 12:0.51668 13:-0.186901 14:-0.0181931 15:0.733555 16:0.152821 17:0.330462 18:0.441657 19:0.162272 20:-0.346414 21:0.217467 22:0.417642 23:0.165502 24:0.669725 25:0.0172405 26:-0.997544 27:-0.953573 28:-0.986592 29:-0.974895 30:-0.947912 31:0.950985 
0.8234595649026942 0.8984319856831402 0.8555970719049067 0.6829212313014575 1.027541607664263 0.7493692677860464 0.8574378122958242 0.8391233740373844 0.9228460587441627 1:-0.458917 2:-0.548834 3:-0.37099 4:-0.587015 5:-0.514026 6:-0.321848 7:-0.620814 8:-0.569469 9:-0.497834 10:-0.297729 11:0.0546809 12:0.362817 13:-0.432964 14:-0.210708 15:0.65006 16:0.201493 17:0.300101 18:0.487926 19:0.00178353 20:-0.485843 21:0.0954508 22:0.417775 23:0.183871 24:0.66578 25:-0.0765119 26:-0.940099 27:-0.958911 28:-0.987293 29:-0.974865 30:-0.948705 31:0.951223 
0.06814429168062366 0.4716233881701311 0.00880637491675681 0.0687199642845967 0.06341305650772729 0.06078154245539357 0.06915993302900023 0.07567115571929317 0.07199142350295505 1:-0.436052 2:-0.538256 3:-0.366643 4:-0.605075 5:-0.511416 6:-0.320386 7:-0.664245 8:-0.595205 9:-0.492763 10:-0.291873 11:-0.266876 12:0.443586 13:-0.311663 14:-0.141946 15:0.470919 16:0.184868 17:0.294912 18:-0.0452339 19:0.0893217 20:-0.390275 21:0.145395 22:0.28368 23:0.176661 24:0.656486 25:-0.235219 26:-0.940421 27:-0.994232 28:-0.994928 29:-0.974739 30:-0.947337 31:0.950999 
0 0 0.008794654217180212 0 0 0.04901550081117634 0 0 0 1:-0.365467 2:-0.454025 3:-0.288982 4:-0.514946 5:-0.436748 6:-0.232433 7:-0.569446 8:-0.527815 9:-0.420638 10:-0.194652 11:-0.151489 12:0.19462 13:-0.208343 14:-0.0687484 15:0.260787 16:0.264589 17:0.239952 18:-0.0815848 19:-0.0848584 20:-0.426176 21:0.179513 22:0.153365 23:0.214331 24:0.612456 25:-0.28082 26:-0.858249 27:-0.99803 28:-0.999499 29:-0.974728 30:-0.948254 31:0.950953 
0.2796752743763556 0.2425650282747537 0.2732468867149448 0.2312305846347778 0.333515934770973 0.2472059550640297 0.2880716867558427 0.2807472632837285 0.3102993540921557 1:-0.342586 2:-0.480037 3:-0.276144 4:-0.562089 5:-0.472912 6:-0.219082 7:-0.629121 8:-0.581652 9:-0.459632 10:-0.174496 11:-0.130829 12:0.159312 13:-0.116718 14:-0.117901 15:0.319402 16:0.225384 17:0.274896 18:-0.111895 19:-0.0951487 20:-0.385252 21:0.148836 22:0.182949 23:0.198508 24:0.629163 25:-0.260745 26:-0.830482 27:-0.99901 28:-0.999196 29:-0.974728 30:-0.948111 31:0.950956 
0.6303083528127258 0.6996404407272414 0.6567844349375707 0.5220209599813801 0.7966332000872727 0.5608514467027392 0.6549280164353722 0.6417426983319238 0.705144419401238 1:-0.333817 2:-0.384054 3:-0.329105 4:-0.418357 5:-0.432558 6:-0.310353 7:-0.451309 8:-0.495858 9:-0.44919 10:-0.299562 11:-0.00519542 12:0.0885486 13:-0.0677236 14:-0.0827834 15:0.242672 16:0.255529 17:0.240611 18:0.00117981 19:-0.139842 20:-0.358777 21:0.165889 22:0.146852 23:0.209792 24:0.610803 25:-0.188751 26:-0.807533 27:-0.99747 28:-0.999711 29:-0.974728 30:-0.948205 31:0.950953 
0.1353183360216681 0 0 0 0.1027181064362322 0 0 0 0 1:-0.537627 2:-0.559113 3:-0.554758 4:-0.602057 5:-0.603905 6:-0.587966 7:-0.656503 8:-0.654752 9:-0.650384 10:-0.634263 11:-0.611799 12:0.464669 13:-0.609137 14:-0.118518 15:0.319289 16:0.225042 17:0.221482 18:-0.332501 19:0.076291 20:-0.570459 21:0.185553 22:0.190533 23:0.195422 24:0.611514 25:-0.510695 26:-0.944324 27:-0.998855 28:-0.999428 29:-0.974728 30:-0.948171 31:0.950953 
0.3953134551994945 2.31768881883947 0.2254167191859578 0.3158890471025544 0.3946258286406947 0.317930784175593 0.3078996251172169 0.3572719347750862 0.3313838848186663 1:-0.482417 2:-0.564187 3:-0.335225 4:-0.632388 5:-0.481758 6:-0.243936 7:-0.696585 8:-0.584885 9:-0.431197 10:-0.192248 11:-0.488447 12:0.414143 13:-0.544576 14:-0.098935 15:0.295694 16:0.21124 17:0.239099 18:-0.250717 19:0.0422588 20:-0.58222 21:0.187664 22:0.16967 23:0.188227 24:0.622111 25:-0.483977 26:-0.947167 27:-0.996841 28:-0.99943 29:-0.974728 30:-0.948174 31:0.950954 
0 0.2424695903832198 0 0 0 0 0 0 0 1:-0.434537 2:-0.499832 3:-0.352898 4:-0.554553 5:-0.474338 6:-0.304474 7:-0.608742 8:-0.556429 9:-0.462063 10:-0.282817 11:-0.320832 12:0.275262 13:-0.374156 14:-0.0958445 15:0.330846 16:0.227129 17:0.20976 18:-0.122781 19:-0.0663594 20:-0.464829 21:0.177825 22:0.193063 23:0.198386 24:0.596855 25:-0.330831 26:-0.876099 27:-0.999046 28:-0.99969 29:-0.974728 30:-0.948199 31:0.950953 
0 0.4024162037043472 0 0 0 0 0 0 0 1:-0.514541 2:-0.599949 3:-0.441589 4:-0.670368 5:-0.576847 6:-0.408844 7:-0.735829 8:-0.669779 9:-0.572522 10:-0.406415 11:-0.557204 12:0.374672 13:-0.520767 14:-0.127171 15:0.341025 16:0.219435 17:0.204076 18:-0.288531 19:-0.0198347 20:-0.486884 21:0.170942 22:0.207789 23:0.192127 24:0.593624 25:-0.422616 26:-0.881739 27:-0.99773 28:-0.999754 29:-0.974728 30:-0.948167 31:0.950953 
0 0.3449054690172865 0 0 0 0 0 0 0 1:-0.65878 2:-0.7526 3:-0.590627 4:-0.81647 5:-0.729011 6:-0.577257 7:-0.871004 8:-0.812079 9:-0.732842 10:-0.599958 11:-0.745227 12:0.476368 13:-0.783215 14:-0.215737 15:0.320564 16:0.217672 17:0.209531 18:-0.328821 19:0.0317479 20:-0.649995 21:0.0691322 22:0.203415 23:0.181958 24:0.605451 25:-0.574275 26:-0.948305 27:-0.999511 28:-0.999462 29:-0.974728 30:-0.948036 31:0.950954 
1.304205695935644 0.7297442004003607 6.564391509635102 12.34738269953972 9.257241807893456 7.564535546799355 14.82683212709224 8.136094487230448 12.56336485697509 1:-0.738393 2:-0.788624 3:-0.744349 4:-0.841008 5:-0.807943 6:-0.78079 7:-0.892261 8:-0.860609 9:-0.842245 10:-0.83038 11:-0.916692 12:0.590565 13:-0.90755 14:-0.198523 15:0.304886 16:0.24008 17:0.202137 18:-0.711076 19:0.267253 20:-0.839303 21:0.0937382 22:0.180599 23:0.214579 24:0.593878 25:-0.89947 26:-0.976492 27:-0.999471 28:-0.999988 29:-0.974728 30:-0.948116 31:0.950954 
0.6385865475409728 2.603970273808169 0.7050926980789539 1.851274363649773 6.610849979178584 0 6.555870705404865 0 1.385483648670178 1:-0.829977 2:-0.938769 3:-0.796044 4:-0.968599 5:-0.925114 6:-0.804192 7:-0.984789 8:-0.965814 9:-0.927996 10:-0.836232 11:-0.935405 12:0.556207 13:-0.932396 14:-0.192833 15:0.297478 16:0.227311 17:0.204866 18:-0.623204 19:0.1589 20:-0.754452 21:0.108278 22:0.15325 23:0.181228 24:0.609162 25:-0.790824 26:-0.9697 27:-0.997595 28:-0.999917 29:-0.974728 30:-0.948114 31:0.950954 
3.028710173830848 0.7469860279294274 0.8995786650893933 0.3425843714381016 1.296346225957835 2.050410877506323 11.64115168741998 2.312278231806744 4.466557838780949 1:-0.793509 2:-0.949859 3:-0.855265 4:-0.980208 5:-0.966691 6:-0.900679 7:-0.991976 8:-0.987444 9:-0.978893 10:-0.937354 11:-0.933894 12:0.524539 13:-0.93149 14:-0.196987 15:0.309496 16:0.221474 17:0.206594 18:-0.693447 19:0.0568464 20:-0.831049 21:0.0931673 22:0.198392 23:0.170133 24:0.611361 25:-0.884861 26:-0.954763 27:-0.998606 28:-0.999428 29:-0.974728 30:-0.948031 31:0.950954 
0 0 0 0 0 0 2.701665426839465 0 0 1:-0.869646 2:-0.874769 3:-0.866914 4:-0.897603 5:-0.893582 6:-0.888258 7:-0.929387 8:-0.918928 9:-0.920453 10:-0.920119 11:-0.953528 12:0.543686 13:-0.9739 14:-0.196363 15:0.310906 16:0.228846 17:0.200819 18:-0.649105 19:0.0785414 20:-0.909019 21:0.0851846 22:0.224086 23:0.181161 24:0.590104 25:-0.929077 26:-0.978039 27:-0.996559 28:-0.999696 29:-0.974728 30:-0.948085 31:0.950954 
0.725309247416404 0.4961551596211433 1.235741380875674 2.113483412183508 1.400521983602307 0.6629311186199156 0.9701888521066876 1.170887712944866 0.9347270242290726 1:-0.42538 2:-0.593642 3:-0.443369 4:-0.712081 5:-0.614255 6:-0.510148 7:-0.803478 8:-0.731345 9:-0.664306 10:-0.597059 11:-0.725595 12:0.593314 13:-0.779083 14:-0.200183 15:0.311356 16:0.221535 17:0.207447 18:-0.682899 19:0.228094 20:-0.933118 21:0.104174 22:0.180359 23:0.195707 24:0.595107 25:-0.963866 26:-0.997438 27:-0.999966 28:-0.999973 29:-0.974728 30:-0.948117 31:0.950954 
0 0 1.150180799132156 2.91950709490333 6.542112556153747 0 0.817619962244824 0 0.9993657570927682 1:-0.674553 2:-0.700041 3:-0.69426 4:-0.746394 5:-0.736992 6:-0.740383 7:-0.802394 8:-0.783429 9:-0.786667 10:-0.797367 11:-0.822895 12:0.57425 13:-0.863556 14:-0.196345 15:0.325601 16:0.229751 17:0.199819 18:-0.513577 19:0.219147 20:-0.815166 21:0.102341 22:0.214318 23:0.196785 24:0.588672 25:-0.791861 26:-0.995267 27:-0.997883 28:-0.99991 29:-0.974728 30:-0.948114 31:0.950954 
2.259322472999749 6.16168449251974 8.114668809315804 0 0 0 0.3632508976558055 10.27226393124087 0.8308985745863898 1:-0.721899 2:-0.741368 3:-0.73159 4:-0.785476 5:-0.772274 6:-0.769229 7:-0.839822 8:-0.818324 9:-0.815452 10:-0.818855 11:-0.904549 12:0.549035 13:-0.884216 14:-0.207352 15:0.311236 16:0.233736 17:0.21153 18:-0.691413 19:0.160128 20:-0.793995 21:0.0738642 22:0.193984 23:0.202392 24:0.615856 25:-0.853574 26:-0.970525 27:-0.99983 28:-0.999479 29:-0.974728 30:-0.948056 31:0.950954 
0 2.034449353267116 0 0 3.275261086403243 0 2.179983134068963 0.5708892008105303 1.454179667599888 1:-0.719526 2:-0.795528 3:-0.741411 4:-0.852307 5:-0.827968 6:-0.783302 7:-0.901401 8:-0.882259 9:-0.865823 10:-0.832949 11:-0.855778 12:0.490295 13:-0.874751 14:-0.193271 15:0.330082 16:0.206009 17:0.21304 18:-0.520157 19:0.0169314 20:-0.769732 21:0.107784 22:0.234442 23:0.154779 24:0.619061 25:-0.757532 26:-0.944715 27:-0.994494 28:-0.998614 29:-0.974727 30:-0.94788 31:0.950962 
0.8357731402511235 0.9154075710298939 0.8635130668071905 0.6918391264431571 1.04266113889983 0.7582443676886097 0.8695235176016343 0.8582823676648013 0.9560281000645268 1:-0.0673446 2:-0.267757 3:-0.10824 4:-0.408475 5:-0.3218 6:-0.173938 7:-0.526276 8:-0.466376 9:-0.386265 10:-0.252951 11:-0.168941 12:0.351324 13:-0.301067 14:-0.391912 15:0.309591 16:0.21779 17:0.254154 18:-0.544248 19:0.114666 20:-0.832692 21:0.0577713 22:0.176498 23:0.198613 24:0.604263 25:-0.819869 26:-0.985698 27:-0.99971 28:-0.999742 29:-0.974728 30:-0.948104 31:0.950954 
-0.7593863461419514 0.561690622933377 0.5181699359475073 0.4570963557726554 0.7440237252526691 0.4481237449116919 0.4473925116513292 0.4807613315484296 0.5970248403021089 1:-0.668404 2:-0.788985 3:-0.582777 4:-0.850842 5:-0.769555 6:-0.554718 7:-0.900673 8:-0.854741 9:-0.773794 10:-0.567444 11:-0.694604 12:0.270672 13:-0.782291 14:-0.346265 15:0.341594 16:0.287328 17:0.184932 18:-0.154195 19:-0.381752 20:-0.626788 21:-0.170749 22:0.239631 23:0.272752 24:0.562019 25:-0.477599 26:-0.569456 27:-0.953991 28:-0.998052 29:-0.97472 30:-0.948284 31:0.950924 
-0.61238151840071 0.3470495206356113 0.4974649399004633 0.2844582611201533 0.4823874947305019 0.3100510574657787 0.5374503940690137 0.695198990783748 0.468545271290278 1:-0.602529 2:-0.613478 3:-0.560135 4:-0.652999 5:-0.626245 6:-0.565637 7:-0.709908 8:-0.689316 9:-0.661514 10:-0.602482 11:-0.723622 12:0.233899 13:-0.738103 14:-0.311465 15:0.38403 16:0.22387 17:0.184254 18:-0.414676 19:-0.31199 20:-0.666213 21:-0.0503839 22:0.274445 23:0.192418 24:0.568655 25:-0.625749 26:-0.647358 27:-0.980989 28:-0.998192 29:-0.974723 30:-0.947875 31:0.950941 
-1.000044201246125 0.792684388338006 0.8334026474841497 0.6337301325857475 0.8497163940024454 0.8195492468051739 0.8115489238813972 0.8781990225221568 0.847447453077867 1:-0.406591 2:-0.492928 3:-0.44645 4:-0.566951 5:-0.575802 6:-0.505411 7:-0.643137 8:-0.664719 9:-0.649019 10:-0.576578 11:-0.426158 12:0.0596256 13:-0.590847 14:-0.471773 15:0.324469 16:0.367382 17:0.187834 18:-0.322232 19:-0.23286 20:-0.746562 21:-0.0706824 22:0.187715 23:0.264009 24:0.582391 25:-0.650526 26:-0.761398 27:-0.978527 28:-0.999464 29:-0.974727 30:-0.948168 31:0.950952 
-0.6141550022120952 0.5848856156198726 0.6099395873195127 0.4786542896326788 0.6432028836730995 0.5461211447887987 0.5762169385394093 0.5969005417017222 0.6382844971762098 1:-0.602357 2:-0.646236 3:-0.577532 4:-0.688809 5:-0.668952 6:-0.590425 7:-0.74165 8:-0.731119 9:-0.701181 10:-0.627323 11:-0.532971 12:0.263446 13:-0.703847 14:-0.490199 15:0.290175 16:0.403134 17:0.216163 18:0.018304 19:-0.265905 20:-0.6013 21:-0.290312 22:0.159805 23:0.366354 24:0.610856 25:-0.379999 26:-0.725934 27:-0.87149 28:-0.998069 29:-0.974717 30:-0.947828 31:0.951012 
-0.6158176289489212 0.5095947890741641 0.5788119656412849 0.4433470151559947 0.6916538707570576 0.8607863156363302 0.5542209927066188 1.099013241788488 0.592011068745491 1:-0.576073 2:-0.558329 3:-0.541558 4:-0.576775 5:-0.588254 6:-0.540317 7:-0.617089 8:-0.642354 9:-0.621932 10:-0.566357 11:-0.630343 12:0.0948224 13:-0.610359 14:-0.208 15:0.195693 16:0.414845 17:0.157343 18:-0.275817 19:-0.464524 20:-0.489635 21:0.0908838 22:0.0582745 23:0.35906 24:0.539194 25:-0.419219 26:-0.391799 27:-0.945574 28:-0.993851 29:-0.974672 30:-0.944558 31:0.95098 
-0 0 0 0 0.185796577256651 0 0 0 0 1:-0.729228 2:-0.723127 3:-0.706723 4:-0.749569 5:-0.746354 6:-0.719883 7:-0.794322 8:-0.790001 9:-0.781161 10:-0.755316 11:-0.819572 12:0.348497 13:-0.818501 14:-0.237805 15:0.30295 16:0.262863 17:0.201378 18:-0.361178 19:-0.353265 20:-0.574445 21:-0.00396543 22:0.175896 23:0.255187 24:0.591843 25:-0.526716 26:-0.574704 27:-0.987797 28:-0.9999 29:-0.974728 30:-0.948122 31:0.950954 
-0.6681189135355067 0.6128684643393075 0.8231896883165789 0.4959497214336243 0.8710350491264686 0.5450576952468509 0.5810300591090666 0.6025880527295323 0.6435665612654962 1:-0.472713 2:-0.505928 3:-0.473637 4:-0.536951 5:-0.575317 6:-0.493945 7:-0.580245 8:-0.640437 9:-0.631 10:-0.532303 11:-0.258224 12:-0.113401 13:-0.508858 14:-0.552867 15:0.300211 16:0.390019 17:0.197078 18:0.0755804 19:-0.497227 20:-0.553824 21:-0.181468 22:0.17316 23:0.292944 24:0.587647 25:-0.315599 26:-0.388489 27:-0.951062 28:-0.998372 29:-0.974721 30:-0.948261 31:0.950946 
-0.6352693031186311 0.5702516514596558 0.6638770135644078 0.4645001591451361 0.6258226378698492 0.5041429670048504 0.5335184935880364 0.5337315677475742 0.6038746743935038 1:-0.492259 2:-0.614034 3:-0.456858 4:-0.687978 5:-0.63797 6:-0.465918 7:-0.756755 8:-0.731654 9:-0.674524 10:-0.50471 11:-0.387653 12:0.0625272 13:-0.627679 14:-0.558081 15:0.411831 16:0.320209 17:0.187652 18:-0.0661593 19:-0.345971 20:-0.675792 21:-0.207202 22:0.260913 23:0.255931 24:0.579388 25:-0.478636 26:-0.624428 27:-0.956228 28:-0.996393 29:-0.974706 30:-0.947288 31:0.950984 
-0.8051550147918758 0.7384772624536079 0.774032583918421 0.5990334369781484 0.7323787510975859 0.66449422846335 0.7262408628161496 0.7192748528315537 0.7792553674795136 1:-0.441127 2:-0.466011 3:-0.486859 4:-0.492183 5:-0.576468 6:-0.527276 7:-0.534854 8:-0.632776 9:-0.64746 10:-0.57839 11:-0.219552 12:-0.151093 13:-0.442858 14:-0.738276 15:0.454978 16:0.392337 17:0.146315 18:0.0343009 19:-0.473867 20:-0.531373 21:-0.285359 22:0.275087 23:0.28465 24:0.551818 25:-0.315549 26:-0.425394 27:-0.918099 28:-0.995427 29:-0.974689 30:-0.948249 31:0.950833 
-0.638588028599181 0.5959737761612045 1.057498401371977 0.4430175952915118 0.5828462365036469 0.4565035274719623 0.6055521382228898 0.7252189305381509 0.7567311470465814 1:-0.547286 2:-0.678459 3:-0.578633 4:-0.761834 5:-0.741279 6:-0.610673 7:-0.831795 8:-0.826684 9:-0.78382 10:-0.653643 11:-0.630206 12:0.117027 13:-0.548723 14:-0.390397 15:0.382849 16:0.296176 17:0.183031 18:-0.345051 19:-0.376097 20:-0.455254 21:-0.101907 22:0.252851 23:0.250078 24:0.571893 25:-0.421813 26:-0.499179 27:-0.970428 28:-0.998715 29:-0.974724 30:-0.948087 31:0.950955 
-0.01034428069872816 0 0 0.04786671517098056 0.5883855788044453 0.1917540110400765 0.04210271466149248 0.09011104142488113 1.339109484732174 1:-0.890224 2:-0.846055 3:-0.876622 4:-0.846806 5:-0.870385 6:-0.889707 7:-0.872849 8:-0.88165 9:-0.90178 10:-0.917024 11:-0.930767 12:0.497367 13:-0.963229 14:-0.212205 15:0.306437 16:0.244753 17:0.196393 18:-0.380844 19:-0.228809 20:-0.784227 21:-0.0406026 22:0.202344 23:0.265218 24:0.556656 25:-0.70747 26:-0.766177 27:-0.977559 28:-0.999538 29:-0.974729 30:-0.948284 31:0.950952 
-2.029256271924789 0 0 0 0 0 2.925182448937925 0 0 1:-0.893698 2:-0.956368 3:-0.868608 4:-0.973658 5:-0.949911 6:-0.878159 7:-0.986423 8:-0.974878 9:-0.955747 10:-0.905863 11:-0.95448 12:0.529858 13:-0.976734 14:-0.203112 15:0.300356 16:0.241154 17:0.202627 18:-0.586404 19:-0.0320328 20:-0.879996 21:0.0264713 22:0.159599 23:0.24669 24:0.604008 25:-0.877399 26:-0.928735 27:-0.991267 28:-0.99995 29:-0.974728 30:-0.948107 31:0.950954 
-0.2733758489253372 0.1618591338431885 0.2642504608128365 0.2093567974945398 0.285918127707239 0.4050005719832688 0.3683586470999592 0.2942082293460812 2.926259731725973 1:-0.954465 2:-0.940224 3:-0.905783 4:-0.945594 5:-0.930431 6:-0.895656 7:-0.963131 8:-0.949172 9:-0.935889 10:-0.909928 11:-0.976125 12:0.520602 13:-0.972043 14:-0.190656 15:0.301241 16:0.231481 17:0.204298 18:-0.62502 19:-0.274883 20:-0.622297 21:0.137475 22:0.158569 23:0.18332 24:0.638821 25:-0.683269 26:-0.639381 27:-0.99495 28:-0.999272 29:-0.974727 30:-0.947988 31:0.950956 
