svm_type c_svc
kernel_type rbf
gamma 4
nr_class 10
total_sv 1552
rho 0.122253 0.131701 0.126062 0.0853631 0.121437 -0.018143 -0.0846442 0.0468549 0.184719 0.00429842 0.000903528 -0.0385549 0.00645172 -0.145228 -0.235606 -0.0748414 0.0724629 -0.00198517 -0.0395571 0.00152812 -0.15361 -0.21644 -0.0823924 0.0596601 -0.0372319 -0.0180062 -0.147109 -0.196261 -0.0742916 0.0866886 0.0420235 -0.107522 -0.142976 -0.0273406 0.0946437 -0.168548 -0.185258 -0.111328 0.0653984 -0.0545442 0.0915196 0.200721 0.159087 0.239682 0.125258
label 1 2 3 4 5 6 7 8 9 10
nr_sv 131 142 159 175 142 168 131 159 170 175
SV
0.2444011493570469 0.1087771807244805 0.4398464420905733 0.2648834344642284 0.5444977345138923 0.3300907597620785 0.7705915093270171 0.5930046463767482 1.072627808859633 1:-0.393728 2:-0.387031 3:-0.373888 4:-0.397994 5:-0.426004 6:-0.408739 7:-0.373127 8:-0.488468 9:-0.468854 10:-0.403312 11:-0.25159 12:-0.489795 13:-0.251095 14:0.00382667 15:0.143117 16:-0.121698 17:0.0841916 18:-0.234284 19:-0.136822 20:-0.609163 21:-0.367474 22:0.163743 23:0.208605 24:-0.153891 25:-0.423547 26:-0.889164 27:-0.995234 28:-0.959794 29:-0.267467 30:-0.0653444 31:0.253914 
0.6834150619314323 0.868671394417571 1.029274708859509 0.7489212314045158 0.7520115194915866 0.5992591590084805 1.003842587129365 2.513362860046561 0.9704085613505016 1:0.0655148 2:-0.0872762 3:-0.0374013 4:-0.171985 5:-0.251535 6:-0.137376 7:-0.186718 8:-0.387109 9:-0.344396 10:-0.173492 11:0.0960365 12:-0.686047 13:0.085121 14:0.15336 15:0.0374255 16:-0.170298 17:0.21057 18:-0.599502 19:-0.0226028 20:-0.799585 21:-0.296838 22:0.083443 23:0.239156 24:-0.175632 25:-0.713544 26:-0.950463 27:-0.998905 28:-0.993257 29:-0.267744 30:-0.0787741 31:0.25378 
1.898821538113293 0.86815564906154 0.5975970519192055 0.6905415861710659 0.9133722249058273 0.5224794497962654 2.011709042939373 3.506332377016411 0.8437757212203902 1:-0.349792 2:-0.423052 3:-0.374982 4:-0.476079 5:-0.534441 6:-0.44275 7:-0.474322 8:-0.639575 9:-0.613744 10:-0.461192 11:-0.299072 12:-0.664391 13:-0.275687 14:0.220485 15:-0.0370411 16:-0.113324 17:0.141218 18:-0.369717 19:-0.215392 20:-0.668258 21:-0.271033 22:0.0825863 23:0.219028 24:-0.139118 25:-0.522338 26:-0.832794 27:-0.995591 28:-0.985471 29:-0.267698 30:-0.0780794 31:0.253806 
1.090152902421336 0.9943207938844685 1.012462517934181 0.9578473122033345 1.035458841530519 0.8644005385618724 0.8901064650006537 1.116891438558522 1.316027333502087 1:-0.786409 2:-0.701017 3:-0.787403 4:-0.679992 5:-0.722126 6:-0.824444 7:-0.6301 8:-0.742407 9:-0.757293 10:-0.82253 11:-0.614116 12:-0.280815 13:-0.603053 14:0.206225 15:-0.0663392 16:-0.162851 17:0.153023 18:0.3752 19:-0.316117 20:-0.29911 21:-0.230718 22:0.0985885 23:-0.00646774 24:0.0988423 25:0.0545392 26:-0.743792 27:-0.904563 28:-0.816264 29:-0.249778 30:-0.0212565 31:0.255726 
0.28967050293807 0.6153804056324342 0.293469207970445 0.2348962480450751 0.3499974488499653 0.2594330106664013 0 0.2061971049268209 0.4640966518236189 1:-0.611213 2:-0.568145 3:-0.601774 4:-0.544092 5:-0.591402 6:-0.622824 7:-0.496958 8:-0.608376 9:-0.610296 10:-0.611072 11:-0.345293 12:-0.357172 13:-0.385209 14:-0.00267729 15:0.0833255 16:-0.0910427 17:0.085035 18:0.230948 19:-0.200116 20:-0.409633 21:-0.428721 22:0.197713 23:0.183148 24:-0.0963594 25:-0.08682 26:-0.84406 27:-0.99504 28:-0.896725 29:-0.266532 30:-0.0358354 31:0.254349 
1.055405012292091 0.862984611287913 0.9569279013178613 0.9363752564633993 0.8906570438020684 0.7361787725699503 2.425140146906211 1.107734551301988 1.056493337126934 1:-0.601633 2:-0.547681 3:-0.587976 4:-0.54037 5:-0.609404 6:-0.634997 7:-0.505869 8:-0.654577 9:-0.676373 10:-0.643858 11:-0.447513 12:-0.523863 13:-0.480186 14:0.0307431 15:0.158719 16:-0.175045 17:0.0827195 18:0.0142729 19:-0.35994 20:-0.520077 21:-0.398642 22:0.250752 23:0.112439 24:-0.101703 25:-0.256952 26:-0.698605 27:-0.975451 28:-0.871861 29:-0.263017 30:-0.00426761 31:0.254987 
1.040471985707768 1.053801261409881 1.047287649274357 1.005388610272449 1.038708433428778 0.9094136487678768 0.8478009652765636 1.077778649338275 1.094071360287382 1:0.649647 2:0.490582 3:0.66907 4:0.377211 5:0.418699 6:0.61958 7:0.344065 8:0.225688 9:0.367353 10:0.615572 11:0.528102 12:-0.796524 13:0.627034 14:-0.119381 15:0.378418 16:-0.14054 17:-0.0897298 18:-0.820436 19:0.069183 20:-0.895453 21:-0.318449 22:0.0973156 23:0.262907 24:-0.227361 25:-0.874297 26:-0.981898 27:-0.99869 28:-0.998195 29:-0.267755 30:-0.0795762 31:0.253777 
0 0 0 0 0.7926602817716294 0 0 0 0 1:-0.112184 2:-0.230577 3:-0.0837455 4:-0.270818 5:-0.228847 6:-0.079206 7:-0.247439 8:-0.313776 9:-0.210749 10:-0.0474222 11:0.0934887 12:-0.409157 13:0.139288 14:0.279071 15:0.0405487 16:-0.0208395 17:-0.089778 18:-0.396347 19:0.0255876 20:-0.670003 21:-0.265517 22:0.0927253 23:0.267331 24:-0.227516 25:-0.534262 26:-0.968792 27:-0.998523 28:-0.998899 29:-0.267757 30:-0.0800628 31:0.253777 
0.4923849828207532 0.6650587981561538 0.4767422308026406 0.4745015219318473 0.4603085880377533 0.4151061971142831 0.3956192691212918 2.620592520350816 0.5484953796295983 1:0.458143 2:0.176278 3:0.383969 4:0.0441111 5:0.117563 6:0.299607 7:0.00897693 8:-0.033486 9:0.0899538 10:0.283894 11:0.455115 12:-0.421643 13:0.471089 14:0.275347 15:0.287184 16:-0.016776 17:0.199528 18:-0.740032 19:0.115537 20:-0.865469 21:-0.283386 22:0.0982229 23:0.273454 24:-0.199283 25:-0.819522 26:-0.992025 27:-0.999422 28:-0.99622 29:-0.267761 30:-0.0799345 31:0.253777 
0 0 0 0 0 0 0 0.2993679905278072 0 1:-0.0626876 2:-0.179295 3:-0.10915 4:-0.236252 5:-0.272591 6:-0.149503 7:-0.230928 8:-0.372947 9:-0.311051 10:-0.142973 11:0.0531979 12:-0.55836 13:0.122547 14:0.16838 15:0.126279 16:-0.149732 17:0.12903 18:-0.488178 19:-0.0184391 20:-0.711981 21:-0.293744 22:0.108897 23:0.235113 24:-0.180435 25:-0.602698 26:-0.951884 27:-0.998032 28:-0.991078 29:-0.267748 30:-0.078483 31:0.253789 
0.7285900676869733 0.750941215523221 0.8221869869627103 0.704918587849156 0.7337284641431419 0.642785280408165 0.5940999168338951 1.225379972261681 0.8326275626513221 1:0.453177 2:0.222673 3:0.512552 4:0.138784 5:0.380757 6:0.530076 7:0.131421 8:0.302385 9:0.503448 10:0.592076 11:0.631285 12:0.0342394 13:0.63678 14:0.032942 15:0.463296 16:0.0287974 17:-0.0669878 18:-0.674365 19:0.20735 20:-0.831349 21:-0.308842 22:0.116212 23:0.278744 24:-0.225156 25:-0.767467 26:-0.999967 27:-0.997102 28:-0.99794 29:-0.26776 30:-0.0798298 31:0.253778 
0.9256966910635891 0.9427667890029147 0.9040246050222176 0.8742822823580696 0.9030539412421187 0.7987185815707596 0.7349307033342943 2.07943204494316 0.9517939618472233 1:0.400359 2:0.268958 3:0.452343 4:0.187185 5:0.199246 6:0.404455 7:0.181038 8:0.0114093 9:0.148974 10:0.385905 11:0.405845 12:-0.857758 13:0.354879 14:0.00491475 15:0.0393928 16:0.146704 17:-0.204109 18:-0.721511 19:0.016309 20:-0.869488 21:-0.312996 22:0.0744879 23:0.293617 24:-0.239382 25:-0.815199 26:-0.965782 27:-0.999082 28:-0.999949 29:-0.267757 30:-0.0798518 31:0.253777 
0.05337892837432641 0.141177545838613 0.3252654157660275 0.02555558714744437 0.4401565819714983 0.1190937722494327 0.02454563070772918 3.287620334127545 0.2180520386085589 1:0.148766 2:-0.0143115 3:0.165781 4:-0.106375 5:0.0116995 6:0.114348 7:-0.124568 8:-0.109083 9:0.0091995 10:0.11729 11:0.160254 12:-0.313836 13:0.178286 14:0.147127 15:0.217777 16:-0.00120536 17:0.108812 18:-0.640636 19:0.107402 20:-0.812488 21:-0.297656 22:0.108585 23:0.274317 24:-0.197448 25:-0.73972 26:-0.990556 27:-0.998996 28:-0.995013 29:-0.267765 30:-0.0797402 31:0.253778 
0 0 0 0 0 0 0 1.520560368398843 0 1:-0.00912934 2:-0.157371 3:-0.0156906 4:-0.208128 5:-0.173875 6:-0.0322823 7:-0.194403 8:-0.260354 9:-0.178125 10:-0.00778577 11:0.19226 12:-0.38848 13:0.205879 14:0.215588 15:0.105879 16:-0.183614 17:0.0456057 18:-0.462976 19:0.0579404 20:-0.717769 21:-0.283927 22:0.100383 23:0.230977 24:-0.200983 25:-0.597062 26:-0.978992 27:-0.99725 28:-0.995977 29:-0.267753 30:-0.0794253 31:0.253781 
0 0.3524105977434641 0 0 0 0 0.0551568112176709 0 0 1:0.127094 2:-0.0582689 3:0.121095 4:-0.140523 5:-0.0834991 6:0.087984 7:-0.144627 8:-0.198385 9:-0.0950419 10:0.0962783 11:0.224461 12:-0.447343 13:0.265085 14:0.275966 15:0.209891 16:-0.0875591 17:-0.000427506 18:-0.588527 19:0.0653046 20:-0.777525 21:-0.276051 22:0.108996 23:0.258141 24:-0.213481 25:-0.692422 26:-0.980933 27:-0.997743 28:-0.997249 29:-0.267762 30:-0.0799154 31:0.253777 
0.5823835662748931 0.5629828973771934 0.5786446853340667 0.5647676555232168 0.5059873528482135 0.503653144131654 0.4993918315033834 0.2674171031773996 0.5954550240936696 1:0.0861618 2:-0.198178 3:-0.0403362 4:-0.280064 5:-0.293976 6:-0.0913343 7:-0.274451 8:-0.408388 9:-0.323679 10:-0.0879756 11:0.291205 12:-0.399252 13:0.317259 14:0.620685 15:-0.246165 16:-0.257947 17:0.256796 18:-0.512466 19:0.0725616 20:-0.740037 21:-0.212791 22:0.0339221 23:0.222978 24:-0.169635 25:-0.633675 26:-0.982844 27:-0.989882 28:-0.995541 29:-0.267779 30:-0.0805017 31:0.253776 
0.7377656318203801 0.7367039056850022 0.740701892669493 0.8296163725591887 0.83619111917139 0.6973551375586018 0.6107857768685139 0.7134960034864914 0.7796824163166576 1:-0.672125 2:-0.692138 3:-0.393933 4:-0.695628 5:-0.456876 6:-0.334647 7:-0.656631 8:-0.514168 9:-0.40591 10:-0.309324 11:-0.468089 12:-0.127395 13:-0.716146 14:0.379537 15:-0.089116 16:-0.131595 17:-0.390822 18:0.22321 19:0.0106223 20:-0.670328 21:-0.0821514 22:0.0646976 23:0.119876 24:-0.501636 25:-0.287888 26:-0.932092 27:-0.92438 28:-0.88766 29:-0.270984 30:-0.083083 31:0.250585 
0.8718306863241616 0.8824671328989473 0.8758933108370326 0.8440669121052239 0.8785607838305064 0.7669989574857459 0.7116434672928439 0.8138688427726127 0.9211334714988962 1:-0.652575 2:-0.673368 3:-0.362584 4:-0.674466 5:-0.409221 6:-0.230027 7:-0.636276 8:-0.459037 9:-0.27432 10:-0.155566 11:-0.430847 12:-0.0537483 13:-0.455866 14:0.326133 15:-0.0516601 16:-0.0465023 17:-0.993497 18:0.223539 19:0.104554 20:-0.406198 21:-0.144053 22:0.0973809 23:0.215925 24:-0.999924 25:-0.0871606 26:-0.989614 27:-0.797364 28:-0.22015 29:-0.0796319 30:-0.0760586 31:0.190613 
1.021239104557315 1.029275456235966 1.023952494908187 0.9863108473872083 1.020012501186649 0.8930010073479929 0.8321818690593804 0.9519386086075864 1.077212433737873 1:-0.790155 2:-0.78718 3:-0.416294 4:-0.772414 5:-0.456033 6:-0.255435 7:-0.725596 8:-0.496071 9:-0.289852 10:-0.156692 11:-0.53723 12:0.0190992 13:-0.809957 14:0.356413 15:-0.0876655 16:-0.032521 17:-0.653833 18:0.619987 19:0.17906 20:-0.623715 21:-0.00850367 22:0.0690825 23:0.202025 24:-1 25:-0.0945446 26:-0.924334 27:-0.797788 28:-0.139352 29:-0.173007 30:-0.299274 31:0.139976 
0.5258469217213093 0.5895136618998985 0.5412881054059647 0.50854226320014 0.5938038053621625 0.5857252803220067 0.436178966649036 0.4848744848256615 0.5597052359998302 1:-0.582985 2:-0.623898 3:-0.394752 4:-0.623917 5:-0.449904 6:-0.331918 7:-0.585305 8:-0.490187 9:-0.38765 10:-0.29843 11:-0.320537 12:-0.126128 13:-0.369087 14:0.302823 15:-0.0489298 16:-0.138904 17:-0.648634 18:0.173907 19:0.0501363 20:-0.443773 21:-0.189888 22:0.0923198 23:0.150987 24:-0.61555 25:-0.135454 26:-0.976027 27:-0.921605 28:-0.814348 29:-0.255232 30:-0.0826269 31:0.248646 
1.029515983464748 1.037446445305426 1.03230108387975 1.024507544882601 1.039123503956424 0.9076207351765373 0.8385915279855446 0.958132089073545 1.086216906743743 1:-0.74521 2:-0.737954 3:-0.362859 4:-0.735962 5:-0.411911 6:-0.257628 7:-0.70276 8:-0.473675 9:-0.306547 10:-0.207775 11:-0.55466 12:-0.0650939 13:-1 14:0.231302 15:-0.0854368 16:-0.0346593 17:-0.0690755 18:0.336249 19:0.0591853 20:-0.961932 21:-0.208325 22:0.0703866 23:0.210384 24:-0.204361 25:-0.464352 26:-0.830234 27:-0.990516 28:-0.997039 29:-0.267763 30:-0.0800526 31:0.253772 
0.5904428325253452 0.5760243031212211 0.579294605656037 0.5597550757385015 0.5364549997683499 0.4777471302363945 0.4725949706266276 0.5418991145314767 0.6133739660149858 1:-0.664238 2:-0.661563 3:-0.450339 4:-0.649016 5:-0.451352 6:-0.366063 7:-0.605445 8:-0.480479 9:-0.352542 10:-0.318304 11:-0.398458 12:-0.0569858 13:-0.426311 14:0.216241 15:-0.084846 16:-0.0463769 17:-0.736514 18:0.336756 19:0.097661 20:-0.34933 21:-0.243301 22:0.0684806 23:0.21378 24:-0.801096 25:0.00109581 26:-0.988177 27:-0.901739 28:-0.557853 29:-0.200738 30:-0.0896441 31:0.244646 
0 0 0.01930660776132201 0.2434099706500681 0.1410689896729911 0 0 0 0.2218526374509716 1:-0.162635 2:-0.272514 3:-0.173312 4:-0.286996 5:-0.176919 6:-0.222799 7:-0.240766 8:-0.224642 9:-0.131202 10:-0.236199 11:0.165215 12:0.102014 13:-0.0526081 14:0.343499 15:-0.334658 16:0.134009 17:-0.00826573 18:-0.266729 19:0.236789 20:-0.711185 21:-0.244538 22:-0.00417473 23:0.314206 24:-0.206415 25:-0.513944 26:-0.996754 27:-0.994558 28:-0.993737 29:-0.267738 30:-0.0796572 31:0.253768 
0 0 0 0 0 0.02100873342187566 0 0 0 1:-0.137375 2:-0.260032 3:-0.133401 4:-0.271964 5:-0.208795 6:-0.160045 7:-0.220713 8:-0.271107 9:-0.16274 10:-0.15294 11:0.224908 12:-0.129088 13:0.0359269 14:0.394308 15:-0.344868 16:0.211153 17:-0.0205271 18:-0.262442 19:0.137518 20:-0.692694 21:-0.23342 22:-0.00373551 23:0.335153 24:-0.210429 25:-0.498192 26:-0.993799 27:-0.994433 28:-0.989059 29:-0.267728 30:-0.0789893 31:0.253751 
0.1196662587689724 0.03988776149331014 0.08205326270257157 0 0.1212495747748602 0.06248890911879081 0.06726689172945584 0.08258493053347815 0 1:-0.241754 2:-0.301961 3:-0.271082 4:-0.29984 5:-0.219863 6:-0.289638 7:-0.240132 8:-0.246461 9:-0.146266 10:-0.269782 11:0.09267 12:0.129079 13:0.0172653 14:0.317207 15:-0.323601 16:0.183122 17:0.104352 18:-0.187839 19:0.254264 20:-0.613756 21:-0.244447 22:-0.011718 23:0.338359 24:-0.168659 25:-0.408547 26:-0.997718 27:-0.989022 28:-0.991259 29:-0.267805 30:-0.0795402 31:0.253757 
0.2639613388630248 0.2826118241086093 0.3784176137285403 0.2312425461063441 0.5483028114968332 0.1592320603049199 0.1966745953275551 0 0.4961657903526637 1:-0.207716 2:-0.305955 3:-0.19143 4:-0.299713 5:-0.231579 6:-0.176346 7:-0.247288 8:-0.235763 9:-0.184476 10:-0.13025 11:0.210941 12:-0.0622251 13:0.112483 14:0.193891 15:0.196663 16:-0.242017 17:-0.000805141 18:-0.150682 19:0.161064 20:-0.600707 21:-0.285476 22:0.144905 23:0.190696 24:-0.202363 25:-0.38385 26:-0.997561 27:-0.988643 28:-0.989316 29:-0.267696 30:-0.079528 31:0.253806 
0 0 0 0 0 0 0 1.776899232661806 0 1:0.0421654 2:-0.0941292 3:0.0446035 4:-0.124589 5:-0.0372146 6:0.0510453 7:-0.0958218 8:-0.104237 9:0.0316192 10:0.0937408 11:0.33734 12:-0.124269 13:0.326052 14:0.120342 15:-0.10648 16:0.0306764 17:-0.00685649 18:-0.43731 19:0.15495 20:-0.710829 21:-0.30328 22:0.0577716 23:0.28064 24:-0.21259 25:-0.581575 26:-0.997385 27:-0.999858 28:-0.999733 29:-0.267757 30:-0.0798313 31:0.253777 
0.8442600792938667 1.320527159491353 1.091570253646039 0.8759807457709684 1.448798729524478 0.7289068136615765 0.8612578352389562 1.014504169688481 2.112009228286071 1:-0.159562 2:-0.231966 3:-0.280035 4:-0.285441 5:-0.224637 6:-0.309764 7:-0.269223 8:-0.297479 9:-0.19109 10:-0.2904 11:-0.101841 12:0.115712 13:0.153207 14:0.340947 15:-0.376891 16:-0.128083 17:0.326583 18:-0.47779 19:0.242672 20:-0.625869 21:-0.245546 22:-0.0150049 23:0.233488 24:-0.120279 25:-0.533166 26:-0.994408 27:-0.980011 28:-0.994679 29:-0.267746 30:-0.079392 31:0.253795 
0.8519285614597383 0.9182997860471894 0.8707092622690457 0.8213101926691213 0.862299222059969 0.7476167779914105 0.7942245333763887 0.9700500498900897 1.025740837749856 1:0.493284 2:0.181716 3:0.297888 4:0.0255766 5:0.120565 6:0.183294 7:-0.00958354 8:-0.0623649 9:0.0855523 10:0.150224 11:0.405403 12:-0.0666051 13:0.539959 14:0.577631 15:-0.41081 16:-0.271004 17:0.373486 18:-0.77792 19:0.187783 20:-0.863866 21:-0.253688 22:0.0297762 23:0.245479 24:-0.184384 25:-0.833384 26:-0.999274 27:-0.995217 28:-0.998806 29:-0.267759 30:-0.0798594 31:0.253777 
0.3349222502480447 0.3287834164352182 0.4397866006935873 0.3258833233505179 0.3143782997937206 0.2254809196672207 0.2990395600762019 0.004784160679889675 0.4356758600485157 1:0.0929179 2:-0.13006 3:0.0756346 4:-0.177806 5:-0.0842311 6:0.0604214 7:-0.153102 8:-0.165852 9:-0.0602173 10:0.0776563 11:0.421967 12:-0.127647 13:0.319492 14:0.407372 15:-0.146994 16:-0.268132 17:-0.0591708 18:-0.448904 19:0.157319 20:-0.743226 21:-0.251611 22:0.0510672 23:0.221561 24:-0.222398 25:-0.610797 26:-0.997484 27:-0.995196 28:-0.999962 29:-0.267757 30:-0.0798409 31:0.253777 
0.9335557518875017 0.9976242629869082 0.8959010265057946 0.8875416330705411 0.9846715027578828 0.9152750044239694 0.7402946279211643 0.8001322545589925 0.921178727929732 1:-0.0931976 2:-0.132789 3:0.0135109 4:-0.116687 5:-0.0858893 6:0.0510318 7:-0.0625676 8:-0.151166 9:-0.0295564 10:0.101528 11:0.275293 12:-0.490257 13:0.142391 14:-0.174117 15:-0.117616 16:0.231863 17:-0.295471 18:-0.295161 19:-0.00161449 20:-0.683008 21:-0.377547 22:0.0545492 23:0.336157 24:-0.27427 25:-0.503862 26:-0.958503 27:-0.991764 28:-0.994718 29:-0.267783 30:-0.0810403 31:0.253776 
0.6181166644503112 0.6947221084952457 0.6584510187930994 0.6141794164257621 0.8924857116906855 0.5355334342555849 0.5124217374184494 0.7108716090781225 0.7588440611335705 1:0.295945 2:0.0772556 3:0.201147 4:0.0162544 5:0.162051 6:0.182284 7:0.0333941 8:0.0877631 9:0.255547 10:0.2162 11:0.570289 12:0.255748 13:0.599124 14:0.244629 15:-0.257873 16:-0.0206508 17:0.198316 18:-0.577865 19:0.260538 20:-0.774168 21:-0.28445 22:0.0396046 23:0.272026 24:-0.192481 25:-0.685629 26:-0.997305 27:-0.998493 28:-0.999288 29:-0.267757 30:-0.079813 31:0.253777 
0.2301551010952414 0 0.06215544620275144 0.200876001084743 0.2782976675668973 0.171072946696711 0.1103306679440501 0 0.1012077759293715 1:0.0695341 2:-0.10943 3:0.114402 4:-0.158868 5:-0.0610987 6:0.101631 7:-0.132188 8:-0.136161 9:-0.0393792 10:0.126433 11:0.329309 12:-0.301884 13:0.208009 14:0.38944 15:0.242317 16:-0.0506397 17:-0.0432899 18:-0.473397 19:0.100483 20:-0.763868 21:-0.253228 22:0.119476 23:0.263859 24:-0.219486 25:-0.63622 26:-0.988984 27:-0.996225 28:-0.996116 29:-0.267761 30:-0.0802868 31:0.253772 
0.4896565128631007 1.10518530804875 0.4411177754543182 0.4689233078441963 0.3811703318005093 0.2695242874784467 0.729041037651452 1.319762741569344 0.427121572561188 1:-0.107837 2:-0.292777 3:-0.162457 4:-0.374258 5:-0.380853 6:-0.215937 7:-0.371054 8:-0.501571 9:-0.431612 10:-0.222803 11:-0.0386253 12:-0.533049 13:0.0411095 14:0.542375 15:-0.112569 16:-0.192672 17:0.120653 18:-0.496579 19:-0.0235824 20:-0.711915 21:-0.199496 22:0.0556128 23:0.219558 24:-0.178363 25:-0.605991 26:-0.94958 27:-0.990461 28:-0.993819 29:-0.267787 30:-0.081419 31:0.253768 
0.7033484147818998 0.8445012560587629 0.6536989471933524 0.6462203583902871 0.5159823749747358 0.6588854406220713 0.5496331274098761 1.979450657638012 0.6943249200800674 1:0.263809 2:-0.00884316 3:0.24339 4:-0.12556 5:-0.108272 6:0.183011 7:-0.143819 8:-0.291974 9:-0.163154 10:0.159931 11:0.307396 12:-0.731615 13:0.306822 14:0.476278 15:-0.188112 16:0.00758292 17:-0.0905504 18:-0.664819 19:0.01614 20:-0.829348 21:-0.252246 22:0.0477615 23:0.276067 24:-0.22751 25:-0.762149 26:-0.965709 27:-0.999472 28:-0.998115 29:-0.267755 30:-0.0796842 31:0.253777 
0.03572152562614729 0.01200622593121109 0.02014949868877336 0.04139160848690396 0 0.02249636103580771 0.06629214073305444 1.138035405218661 0.03860168206065346 1:0.327591 2:0.0705932 3:0.337466 4:-0.0482611 5:0.043325 6:0.295996 7:-0.0627374 8:-0.11953 9:0.0212909 10:0.290151 11:0.348285 12:-0.538726 13:0.387435 14:0.506279 15:0.137511 16:-0.0712145 17:-0.119664 18:-0.694615 19:0.0743639 20:-0.836082 21:-0.252247 22:0.087725 23:0.265254 24:-0.230866 25:-0.779125 26:-0.983302 27:-0.99832 28:-0.998506 29:-0.267755 30:-0.0800187 31:0.253777 
0.642729630288713 0.6592468348456658 0.7730638592525113 0.6614839070106197 0.9644171251176451 0.69568993891598 0.5414853687712784 0.8501096371096653 0.691208055667027 1:0.334847 2:0.0668206 3:0.395193 4:-0.060744 5:0.201457 6:0.333945 7:-0.0826842 8:0.0634527 9:0.226191 10:0.312478 11:0.324197 12:-0.0416648 13:0.231131 14:0.499153 15:0.277854 16:-0.117598 17:-0.0763123 18:-0.709453 19:0.189827 20:-0.873701 21:-0.253562 22:0.104038 23:0.259027 24:-0.225856 25:-0.813601 26:-0.999632 27:-0.997073 28:-0.99797 29:-0.267757 30:-0.0798844 31:0.253775 
0.193161257549339 0.3540346606433515 0.207079880325684 0.1923952256117388 0.1972034681005447 0.1083353938977085 0.1488287577439424 0 0.1944326399546532 1:0.414164 2:0.101517 3:0.355762 4:-0.00715121 5:0.0263194 6:0.300011 7:-0.0184582 8:-0.13304 9:0.00383279 10:0.291748 11:0.572309 12:-0.54022 13:0.517108 14:0.441584 15:-0.115844 16:-0.0334268 17:0.0120106 18:-0.668734 19:0.0861251 20:-0.840967 21:-0.264235 22:0.0577559 23:0.271201 24:-0.21691 25:-0.77253 26:-0.986188 27:-0.999591 28:-0.999156 29:-0.267757 30:-0.0799168 31:0.253777 
0 0 0 0 0 0 0 1.683745604048726 0 1:0.501262 2:0.231413 3:0.495593 4:0.113848 5:0.229168 6:0.434523 7:0.0962432 8:0.0518689 9:0.229948 10:0.407602 11:0.562845 12:-0.413031 13:0.493505 14:0.328258 15:-0.147782 16:0.0864649 17:-0.178145 18:-0.729134 19:0.121219 20:-0.87512 21:-0.278793 22:0.0549815 23:0.284952 24:-0.235497 25:-0.822512 26:-0.993001 27:-1 28:-0.999348 29:-0.267757 30:-0.0797857 31:0.253777 
0.8997438031605993 0.9076531571506963 0.9025206919169499 0.8695974664870413 0.9003921819932229 0.7878822920161853 0.7320065647883199 0.9790008860116624 0.9456706287499699 1:0.799021 2:0.352479 3:0.653536 4:0.211131 5:0.312126 6:0.572834 7:0.191941 8:0.133761 9:0.330797 10:0.556336 11:1 12:-0.199603 13:0.895641 14:0.624839 15:-0.279282 16:0.0202589 17:0.142392 18:-0.764985 19:0.173544 20:-0.894545 21:-0.263113 22:0.0477653 23:0.277477 24:-0.212388 25:-0.851535 26:-0.998897 27:-0.999429 28:-0.998876 29:-0.267757 30:-0.0798588 31:0.253777 
0.506844151794938 0.4551897021940062 0.5631831768261663 0.5271683438616471 1.280326125169361 0.8352165134523863 0.4472164140661119 0.3041278666994795 0.5264265706613749 1:0.0660743 2:-0.167646 3:0.0625566 4:-0.265824 5:-0.124327 6:-0.000385957 7:-0.265365 8:-0.266279 9:-0.102304 10:-0.0303295 11:0.131022 12:-0.178574 13:0.0929257 14:0.64223 15:-0.290414 16:0.241978 17:-0.104021 18:-0.580462 19:0.139292 20:-0.797461 21:-0.206038 22:0.0251904 23:0.323925 24:-0.229911 25:-0.704353 26:-0.995615 27:-0.998942 28:-0.984568 29:-0.267729 30:-0.0792711 31:0.25376 
0.2144420767769407 0.4347469768896591 0.2207127153093998 0.2116436766643208 0.2769857820696413 0.2823147780196427 0.1793600237983933 0 0.2388028455105285 1:0.318804 2:0.0554926 3:0.359888 4:-0.0713566 5:0.0674725 6:0.366277 7:-0.0934451 8:-0.127809 9:0.121367 10:0.38894 11:0.303922 12:-0.475827 13:0.508433 14:0.493559 15:-0.238361 16:0.295047 17:-0.321648 18:-0.706597 19:0.0877753 20:-0.8052 21:-0.25332 22:0.0426174 23:0.316356 24:-0.254615 25:-0.760438 26:-0.985572 27:-0.99972 28:-0.99331 29:-0.267755 30:-0.0791306 31:0.253774 
0.7763786652575357 0.7477136874835215 0.7776357238300524 0.7524998691180036 0.7220584309805304 0.7071927313356969 0.6292217441039668 0.5491128087844602 0.8232298890151353 1:0.298338 2:-0.0676102 3:0.372524 4:-0.190691 5:0.0428686 6:0.367826 7:-0.194593 8:-0.128669 9:0.111734 10:0.376735 11:0.405247 12:-0.16836 13:0.388377 14:0.89569 15:-0.237848 16:0.153536 17:-0.353788 18:-0.649392 19:0.158689 20:-0.824198 21:-0.199739 22:0.0421672 23:0.297134 24:-0.259303 25:-0.752096 26:-0.997748 27:-0.999417 28:-0.985528 29:-0.267747 30:-0.0792726 31:0.253791 
0.2022113113734604 0.2799225199159421 0.1674258604286082 0.1831514850066668 0.5225819386285698 0.3772155566537804 0.15554701300351 0 0.1901104143220288 1:0.196884 2:-0.0358036 3:0.224958 4:-0.111206 5:0.0751688 6:0.214292 7:-0.0936621 8:-0.0122402 9:0.172411 10:0.239252 11:0.40383 12:-0.0165103 13:0.357742 14:0.550294 15:0.1621 16:0.30222 17:-0.0851022 18:-0.564424 19:0.1935 20:-0.786813 21:-0.236568 22:0.0970819 23:0.325239 24:-0.226769 25:-0.68988 26:-0.999808 27:-0.998443 28:-0.990911 29:-0.267746 30:-0.0799055 31:0.253787 
0.5577069765378326 0.570962615916454 0.5604212653746488 0.5467815151497037 0.5486959010518343 0.4858921535222593 0.4703038765460563 0.7328560340303811 0.5904734589803211 1:0.634826 2:0.243985 3:0.565969 4:0.0819501 5:0.346383 6:0.461789 7:0.0427026 8:0.172386 9:0.387215 10:0.410623 11:0.632944 12:0.173971 13:0.548465 14:0.570819 15:-0.110588 16:0.0545446 17:-0.0253198 18:-0.782182 19:0.231001 20:-0.904201 21:-0.26095 22:0.0587403 23:0.28077 24:-0.222346 25:-0.865716 26:-0.999483 27:-0.999849 28:-0.998619 29:-0.267756 30:-0.0798273 31:0.253777 
0.1388498952019303 0.1501656660724082 0.1368984339342129 0.1258618886874411 0.1351488189608875 0.07639108718221303 0.1355692603287578 0 0.155433759177581 1:0.514395 2:0.189341 3:0.45281 4:0.0464816 5:0.206523 6:0.370978 7:0.0238121 8:0.0265843 9:0.245641 10:0.33929 11:0.518137 12:-0.168597 13:0.513564 14:0.615198 15:-0.2048 16:0.368098 17:-0.0101918 18:-0.751985 19:0.168826 20:-0.87552 21:-0.251137 22:0.0497583 23:0.315154 24:-0.220188 25:-0.831913 26:-0.998572 27:-0.999604 28:-0.995124 29:-0.267761 30:-0.0798678 31:0.253775 
0.1394415560705103 0.1160436448252939 0.05443689688551032 0.147832773340361 0.1825942645375568 0.2074261387950629 0.07177827445810912 0 0.213041202860824 1:-0.100152 2:-0.198178 3:-0.0783178 4:-0.192226 5:-0.108373 6:-0.0989605 7:-0.132631 8:-0.119844 9:-0.0490153 10:-0.0844056 11:0.322683 12:-0.0307567 13:0.0648309 14:0.188903 15:0.0958846 16:0.131695 17:-0.0212643 18:-0.251122 19:0.180832 20:-0.708019 21:-0.288544 22:0.105134 23:0.309421 24:-0.211734 25:-0.505325 26:-0.996559 27:-0.998059 28:-0.996558 29:-0.267753 30:-0.0800371 31:0.253774 
0.3349964653029824 0 0.2904647252734303 0.3110606092086741 0.009310795127958224 0.01302077527294731 0.3597581291955486 0.1852997060825903 0.216163384422239 1:-0.321511 2:-0.37285 3:-0.25617 4:-0.368015 5:-0.374799 6:-0.262145 7:-0.319246 8:-0.438685 9:-0.379213 10:-0.247513 11:0.0100361 12:-0.508141 13:-0.148472 14:0.16768 15:-0.139565 16:0.113483 17:-0.138323 18:-0.105272 19:-0.104812 20:-0.622927 21:-0.292988 22:0.0431975 23:0.319873 24:-0.245101 25:-0.382645 26:-0.906549 27:-0.998573 28:-0.997931 29:-0.267754 30:-0.0791392 31:0.253776 
0.7667085729896512 0.777309247455419 0.7863460373408628 1.01135812720844 0.7627069556082104 0.6587680239316993 0.6246328258360266 0.7110377279984148 0.8155099580730093 1:-0.326365 2:-0.411458 3:-0.292763 4:-0.398068 5:-0.190936 6:-0.301367 7:-0.332625 8:-0.173113 9:-0.0777493 10:-0.278998 11:0.100669 12:0.49022 13:-0.111 14:0.417977 15:-0.071788 16:0.033677 17:-0.0107433 18:-0.00259397 19:0.47064 20:-0.597095 21:-0.194885 22:0.0684138 23:0.285731 24:-0.198894 25:-0.322154 26:-0.931391 27:-0.998633 28:-0.987145 29:-0.267744 30:-0.0767168 31:0.25376 
0 0 0 0 0.2323837615232714 0 0 0 0 1:-0.360429 2:-0.421443 3:-0.310829 4:-0.391168 5:-0.295669 6:-0.298622 7:-0.322092 8:-0.286113 9:-0.221805 10:-0.263617 11:0.120513 12:0.0639132 13:-0.0877651 14:0.228685 15:-0.0524992 16:-0.00893176 17:-0.0875944 18:0.102537 19:0.224779 20:-0.546209 21:-0.26697 22:0.0768835 23:0.266483 24:-0.226808 25:-0.24166 26:-0.995299 27:-0.99927 28:-0.999385 29:-0.267757 30:-0.0798102 31:0.253777 
0.1234401451560726 0.04054949560546793 0.0559379295681268 0.1008554415341281 0 0.1060415928344856 0.1104305612387058 0.2027717110594157 0.06237222557743983 1:-0.251092 2:-0.32916 3:-0.233552 4:-0.301524 5:-0.244227 6:-0.244953 7:-0.229656 8:-0.2256 9:-0.196275 10:-0.220338 11:0.249266 12:-0.0149976 13:-0.0292607 14:0.220755 15:0.185732 16:-0.0188202 17:0.0353391 18:-0.0302072 19:0.181669 20:-0.62781 21:-0.275613 22:0.149276 23:0.265054 24:-0.18887 25:-0.356473 26:-0.993932 27:-0.995185 28:-0.987673 29:-0.267829 30:-0.0809259 31:0.253776 
0 0 0 0 0.07686905418251548 0 0 0.3313154766418034 0 1:-0.131695 2:-0.233258 3:-0.102865 4:-0.263896 5:-0.204486 6:-0.0915956 7:-0.240598 8:-0.275113 9:-0.174426 10:-0.0477149 11:0.0984981 12:-0.296579 13:0.14678 14:0.141612 15:0.0203378 16:-0.112249 17:-0.0241028 18:-0.365026 19:0.0675831 20:-0.651711 21:-0.300581 22:0.0888571 23:0.240354 24:-0.211483 25:-0.507903 26:-0.981393 27:-0.998701 28:-0.997538 29:-0.267754 30:-0.0794646 31:0.253777 
0 0.1617641089689709 0.03535937377054159 0 0.8457153300086224 0 0.07240040738695014 1.200618647637507 0 1:0.162321 2:-0.0713327 3:0.124668 4:-0.19079 5:-0.0581421 6:0.0662949 7:-0.206903 8:-0.215286 9:-0.0504085 10:0.056756 11:0.128614 12:-0.206159 13:0.24821 14:0.567988 15:-0.212072 16:0.0165497 17:0.063534 18:-0.667732 19:0.139429 20:-0.799593 21:-0.230561 22:0.0420878 23:0.277502 24:-0.204764 25:-0.740711 26:-0.995127 27:-0.998375 28:-0.995591 29:-0.267755 30:-0.0800755 31:0.253773 
0.4601657160605482 0.5292035195578644 0.4249552691514895 0.4257189311189994 0.2261874626876654 0.35540239587301 0.3640506362539754 0.3910614926101757 0.5064363208367673 1:0.0725291 2:-0.178151 3:0.0447631 4:-0.243112 5:-0.208468 6:0.0205635 7:-0.230545 8:-0.338261 9:-0.18654 10:0.0336806 11:0.335137 12:-0.40845 13:0.282184 14:0.491214 15:-0.480671 16:0.196414 17:-0.00182135 18:-0.473508 19:0.0672293 20:-0.742824 21:-0.234731 22:-0.00788001 23:0.314164 24:-0.212451 25:-0.620284 26:-0.98155 27:-0.994561 28:-0.991617 29:-0.267721 30:-0.0789541 31:0.253767 
0.2747479645158692 0.2561297884116163 0.3187419763607552 0.3161521721021204 0.3262658037172898 0.1875965600695306 0.220992856854616 0.2209127316179016 0.3927930120809059 1:0.150719 2:0.00466213 3:0.106997 4:-0.0428598 5:0.0425207 6:0.03577 7:-0.00532067 8:-0.0344275 9:0.0802103 10:0.0177788 11:0.373666 12:-0.0651549 13:0.197398 14:0.414102 15:-0.108961 16:0.308198 17:0.0990314 18:-0.535152 19:0.178757 20:-0.808096 21:-0.254345 22:0.0577554 23:0.32986 24:-0.19901 25:-0.694394 26:-0.998659 27:-0.99888 28:-0.993161 29:-0.267768 30:-0.0798643 31:0.253781 
0.4035936967937505 0.3969115966885929 0.4154021135305702 0.41766568855555 0.390002282924516 0.3380234793116957 0.3351841695711144 0.2479303626470035 0.4403744603492694 1:0.317358 2:0.0986172 3:0.278829 4:0.0215157 5:0.170761 6:0.194435 7:0.0397318 8:0.0738026 9:0.230475 10:0.154937 11:0.506524 12:0.0227732 13:0.291218 14:0.457795 15:-0.0573143 16:0.472646 17:-0.0388422 18:-0.622104 19:0.204593 20:-0.853923 21:-0.257765 22:0.0645192 23:0.341338 24:-0.221413 25:-0.76381 26:-0.999428 27:-0.998346 28:-0.993366 29:-0.267772 30:-0.0796742 31:0.25378 
0.1093508130338882 0.1104132067543341 0.07957729265397573 0.07971249995385324 0 0.07206883802415219 0.08517813921412683 0.1130459175938139 0.04811715782938802 1:0.229529 2:0.0151573 3:0.207189 4:-0.0530222 5:0.064876 6:0.132655 7:-0.0258522 8:-0.0449833 9:0.108714 10:0.0970704 11:0.45365 12:-0.108855 13:0.225001 14:0.555795 15:-0.242392 16:0.420563 17:-0.0790474 18:-0.570931 19:0.170056 20:-0.835394 21:-0.238581 22:0.0396569 23:0.341774 24:-0.225986 25:-0.729368 26:-0.997852 27:-0.99852 28:-0.989757 29:-0.267774 30:-0.0794082 31:0.253766 
0.3719582339825858 0.297755555847423 0.3742802211025286 0.3590272421870951 0.3698129794704145 0.3938279952968718 0.2934567943170164 0 0.3957454453771089 1:0.407288 2:0.119226 3:0.505675 4:0.0261968 5:0.196051 6:0.499294 7:0.0359877 8:0.0427365 9:0.253238 10:0.506163 11:0.61784 12:-0.404362 13:0.431794 14:0.557907 15:-0.0791473 16:0.32358 17:-0.378022 18:-0.646882 19:0.114102 20:-0.855989 21:-0.250925 22:0.0616632 23:0.315374 24:-0.257341 25:-0.77524 26:-0.991515 27:-0.999498 28:-0.99392 29:-0.267764 30:-0.0792775 31:0.253775 
0.3670037699293411 0.3708168944401224 0.3622141950384994 0.3597826280499206 0.3694677594704851 0.3507366999843975 0.294489602644447 0.3036208264943958 0.3648615736663359 1:0.553478 2:0.275079 3:0.599112 4:0.180284 5:0.380886 6:0.536273 7:0.192714 8:0.24601 9:0.442417 10:0.5009 11:0.754264 12:-0.147911 13:0.444797 14:0.479978 15:-0.0297106 16:0.370933 17:-0.256115 18:-0.698342 19:0.174107 20:-0.899519 21:-0.265784 22:0.0657693 23:0.313612 24:-0.24168 25:-0.828784 26:-0.99821 27:-0.999451 28:-0.996911 29:-0.26776 30:-0.0797061 31:0.253777 
0.01123376601670965 0 0 0.01762459807308542 0 0 0 0 0 1:0.305292 2:0.0740047 3:0.326193 4:0.0242963 5:0.191299 6:0.293208 7:0.0521715 8:0.118295 9:0.255228 10:0.295132 11:0.659979 12:0.0162646 13:0.381453 14:0.28571 15:-0.012385 16:0.00341015 17:-0.122225 18:-0.548324 19:0.203001 20:-0.82862 21:-0.279299 22:0.0701339 23:0.275523 24:-0.231287 25:-0.715225 26:-0.998976 27:-0.999792 28:-0.999771 29:-0.267757 30:-0.0798347 31:0.253777 
0.1231025415787977 0.09132611075489432 0.1016912365075776 0.102718096980408 0 0.1062217885646217 0.08605940122392244 0 0.06680782104920878 1:0.34372 2:0.129491 3:0.268305 4:0.0882516 5:0.189909 6:0.215222 7:0.129233 8:0.126049 9:0.257904 10:0.213219 11:0.720377 12:0.0922926 13:0.48716 14:0.309266 15:-0.177551 16:0.172889 17:0.0851297 18:-0.557027 19:0.220526 20:-0.820277 21:-0.277262 22:0.0503168 23:0.298499 24:-0.207576 25:-0.712351 26:-0.999272 27:-0.999491 28:-0.998694 29:-0.267758 30:-0.0798056 31:0.253777 
0 0 0 0.02137925198693321 0.1126181274907675 0 0.01111149439875037 0.1619976345965717 0.1116952114873256 1:0.231457 2:0.0823627 3:0.237815 4:0.0371094 5:0.167543 6:0.19457 7:0.0656957 8:0.0850581 9:0.223077 10:0.187307 11:0.472847 12:-0.0498131 13:0.30062 14:0.166071 15:-0.154819 16:0.141575 17:-0.094713 18:-0.563915 19:0.185447 20:-0.817214 21:-0.294656 22:0.0517304 23:0.297297 24:-0.228075 25:-0.712766 26:-0.999134 27:-0.999625 28:-0.99975 29:-0.267757 30:-0.0798336 31:0.253777 
0 0.08118736840617138 0 0.1171556478026569 0.7685724181675875 0.1739828145989763 0.04264824233525206 0.07421658777997402 0.2190323980612431 1:-0.306639 2:-0.35755 3:-0.229609 4:-0.359299 5:-0.25584 6:-0.223715 7:-0.317661 8:-0.301344 9:-0.206205 10:-0.199501 11:-0.0106318 12:-0.129025 13:-0.110585 14:0.126627 15:-0.156637 16:0.0176501 17:-0.168541 18:-0.157 19:0.1153 20:-0.616831 21:-0.308465 22:0.037613 23:0.278704 24:-0.255053 25:-0.39861 26:-0.991252 27:-0.99989 28:-0.997463 29:-0.267758 30:-0.0800325 31:0.253777 
0 0 0 0 0 0 0 0.07600262348881451 0 1:-0.146911 2:-0.280183 3:-0.13182 4:-0.310181 5:-0.259621 6:-0.151915 7:-0.286049 8:-0.344678 9:-0.246911 10:-0.1446 11:0.131754 12:-0.288827 13:0.0353994 14:0.216628 15:-0.286732 16:-0.00395697 17:-0.0870824 18:-0.317358 19:0.0676406 20:-0.685738 21:-0.280416 22:0.0101547 23:0.27174 24:-0.226853 25:-0.514771 26:-0.981323 27:-0.997515 28:-0.99857 29:-0.267758 30:-0.0797409 31:0.253778 
0 0 0 0 0.3191338002951348 0 0 0 0 1:-0.112863 2:-0.260909 3:-0.0774705 4:-0.298731 5:-0.181969 6:-0.0988527 7:-0.274159 8:-0.256633 9:-0.150997 10:-0.0928788 11:0.147283 12:-0.121406 13:0.0288494 14:0.318752 15:-0.139866 16:-0.0356039 17:-0.108679 18:-0.356733 19:0.143208 20:-0.713241 21:-0.2554 22:0.04894 23:0.263169 24:-0.231972 25:-0.551332 26:-0.995591 27:-0.999043 28:-0.99888 29:-0.267756 30:-0.0797634 31:0.253777 
0.2566162047619511 0.2687058139968113 0.2741175631072356 0.1960478714486157 0.03483292135960509 0.181235798223497 0.2270705211033129 0.1101078576745171 0.09763827346408915 1:-0.156817 2:-0.288785 3:-0.108942 4:-0.268789 5:-0.179049 6:-0.108132 7:-0.203691 8:-0.206341 9:-0.113858 10:-0.0859402 11:0.388172 12:-0.0284204 13:0.0533594 14:0.265104 15:-0.341658 16:0.0309078 17:-0.157986 18:-0.104895 19:0.17945 20:-0.670515 21:-0.266748 22:-0.00530566 23:0.282292 24:-0.245014 25:-0.418637 26:-0.993503 27:-0.996999 28:-0.994249 29:-0.267764 30:-0.0800228 31:0.253784 
0.3805828255936967 0.3567906265806034 0.3553652848086161 0.382136898983245 0.3955399135633303 0.3317591049553168 0.3011275640300625 0.4229301565689891 0.3855866236398206 1:-0.171603 2:-0.320648 3:-0.158082 4:-0.313246 5:-0.185751 6:-0.165821 7:-0.25451 8:-0.214625 9:-0.120764 10:-0.14795 11:0.324854 12:0.178546 13:0.0625058 14:0.394157 15:-0.384664 16:-0.154077 17:-0.0867605 18:-0.126369 19:0.271465 20:-0.654677 21:-0.229253 22:-0.0188907 23:0.224289 24:-0.226747 25:-0.415156 26:-0.992645 27:-0.988356 28:-0.995779 29:-0.267774 30:-0.0802472 31:0.253783 
0.2284388921235634 0.2845141645310088 0.2435699100208858 0.178524027486711 0.1036720659672609 0.1832167065407953 0.1880757298874278 0.2234876971830836 0.5409000125362554 1:-0.239706 2:-0.301167 3:-0.23807 4:-0.266248 5:-0.205118 6:-0.227249 7:-0.189678 8:-0.202006 9:-0.122409 10:-0.185069 11:0.273526 12:0.0836759 13:0.0888595 14:0.131038 15:-0.253832 16:0.0232822 17:0.0294537 18:-0.033103 19:0.231433 20:-0.581069 21:-0.305285 22:0.0103115 23:0.280502 24:-0.191543 25:-0.322128 26:-0.997449 27:-0.995507 28:-0.999918 29:-0.267757 30:-0.0798426 31:0.253777 
0 0 0 0 0 0.007347573095114697 0 0.4777584746262735 0 1:0.238962 2:0.069329 3:0.325836 4:-0.000679663 5:0.108734 6:0.315759 7:0.00925043 8:-0.0251056 9:0.133525 10:0.328146 11:0.383222 12:-0.501913 13:0.291797 14:0.233655 15:0.0588395 16:0.198054 17:-0.2444 18:-0.611082 19:0.0694889 20:-0.82264 21:-0.285074 22:0.0808133 23:0.305939 24:-0.247779 25:-0.735663 26:-0.98208 27:-0.99861 28:-0.999046 29:-0.267758 30:-0.0797555 31:0.253777 
0.296409469847164 0.1083045321661421 0.2998466779760621 0.2819535784772501 0.1837485075066755 0.2411164672799983 0.2263418545525011 0 0.3100125071242297 1:0.221095 2:0.0181373 3:0.301166 4:-0.0488012 5:0.055639 6:0.301035 7:-0.0282949 8:-0.085895 9:0.104372 10:0.312451 11:0.434366 12:-0.48124 13:0.326692 14:0.420797 15:-0.208825 16:0.369585 17:-0.359912 18:-0.572194 19:0.0719485 20:-0.806057 21:-0.257534 22:0.044076 23:0.334374 24:-0.26395 25:-0.70759 26:-0.982666 27:-0.998808 28:-0.991187 29:-0.267753 30:-0.078563 31:0.253768 
0.6103689635126854 0.6215533695121676 0.6137569457524457 0.5892873698240234 0.610969116006813 0.5347632626758548 0.4994668777449077 0.5858423330929184 0.64832891062488 1:0.665422 2:0.33494 3:0.669832 4:0.210821 5:0.354234 6:0.615418 7:0.20207 8:0.16391 9:0.395675 10:0.596923 11:0.794291 12:-0.384697 13:0.648159 14:0.500431 15:-0.254426 16:0.373258 17:-0.193185 18:-0.751314 19:0.138751 20:-0.896361 21:-0.26787 22:0.0476577 23:0.30917 24:-0.235129 25:-0.847475 26:-0.99548 27:-0.999663 28:-0.99726 29:-0.267757 30:-0.0796855 31:0.253776 
0 0.02206123548995024 0 0 0.3435132134897662 0.1982853188268608 0 0 0 1:0.0616505 2:-0.0695467 3:0.132183 4:-0.112266 5:-0.0464351 6:0.129651 7:-0.0910025 8:-0.156133 9:-0.0215459 10:0.151003 11:0.283039 12:-0.485459 13:0.194504 14:0.142718 15:-0.0590188 16:0.183178 17:-0.192179 18:-0.490553 19:0.0405191 20:-0.763693 21:-0.298839 22:0.0663365 23:0.312095 24:-0.245238 25:-0.642919 26:-0.973769 27:-0.998692 28:-0.999333 29:-0.267757 30:-0.0797197 31:0.253777 
0 0 0 0 0 0.09634706476501882 0 0 0 1:0.326619 2:0.0834062 3:0.436822 4:-0.0123525 5:0.150797 6:0.413764 7:-0.0123657 8:-0.0161656 9:0.181875 10:0.408542 11:0.452422 12:-0.47055 13:0.27421 14:0.431923 15:-0.128288 16:0.338584 17:-0.294653 18:-0.651459 19:0.0900508 20:-0.861154 21:-0.261487 22:0.0559729 23:0.321951 24:-0.251183 25:-0.780985 26:-0.98671 27:-0.999302 28:-0.994941 29:-0.267761 30:-0.079262 31:0.253774 
0.07891514099784414 0.0834930254212987 0.08388065345132467 0.07277333564064699 0.07212797728312424 0 0.05856651518119345 1.379334765797783 0.09249392705831408 1:0.407993 2:0.196526 3:0.426531 4:0.121029 5:0.231707 6:0.394136 7:0.132015 8:0.0988351 9:0.287162 10:0.396042 11:0.598121 12:-0.32258 13:0.479042 14:0.229875 15:-0.124086 16:0.351525 17:-0.15064 18:-0.654749 19:0.131543 20:-0.846524 21:-0.287655 22:0.0568551 23:0.318796 24:-0.233708 25:-0.771187 26:-0.994494 27:-0.998858 28:-0.998628 29:-0.267758 30:-0.0797707 31:0.253777 
0.0841263417020108 0.2530830431456325 0.07521833004533458 0.08231025934864367 0.09311424790087802 0.195346628608974 0.09345811329080871 2.953836649065166 0.07042464065673738 1:0.314423 2:0.105239 3:0.393634 4:0.00881261 5:0.190531 6:0.395106 7:3.62155e-05 8:0.0326835 9:0.256699 10:0.412234 11:0.384358 12:-0.301401 13:0.41662 14:0.27214 15:-0.153941 16:0.185007 17:-0.338212 18:-0.670275 19:0.128251 20:-0.824253 21:-0.28123 22:0.0527808 23:0.301109 24:-0.256741 25:-0.76045 26:-0.994022 27:-0.999702 28:-0.997503 29:-0.267756 30:-0.079625 31:0.253776 
0 0 0 0 0.1200815636065891 0 0.1884304279862304 0 0.0915991345617348 1:-0.332803 2:-0.429737 3:-0.358411 4:-0.483835 5:-0.485438 6:-0.408899 7:-0.475945 8:-0.567578 9:-0.530452 10:-0.410313 11:-0.254935 12:-0.447629 13:-0.193594 14:0.339867 15:0.0713788 16:-0.144607 17:0.17152 18:-0.353067 19:-0.0756943 20:-0.637178 21:-0.224486 22:0.122958 23:0.207436 24:-0.13124 25:-0.492106 26:-0.92455 27:-0.991242 28:-0.9743 29:-0.267916 30:-0.0816242 31:0.253886 
0 0.235142668412462 0 0.03633596905645477 0.1349780603169073 0 0 0 0 1:-0.487246 2:-0.522591 3:-0.493275 4:-0.539574 5:-0.56922 6:-0.517076 7:-0.51141 8:-0.620196 9:-0.594306 10:-0.505291 11:-0.309156 12:-0.440484 13:-0.260687 14:0.248668 15:0.076119 16:-0.0979373 17:0.0976596 18:-0.0925978 19:-0.167863 20:-0.500178 21:-0.245252 22:0.153773 23:0.205996 24:-0.127635 25:-0.284373 26:-0.867833 27:-0.991211 28:-0.965645 29:-0.267964 30:-0.0793574 31:0.253957 
0.06020459686646643 0.1364186531874835 0.005533360047116856 0.08557904810889601 0.1185074186357505 0.1438753501468714 0 0 0.03374666267423324 1:-0.135068 2:-0.314663 3:-0.135549 4:-0.382117 5:-0.364051 6:-0.154177 7:-0.3729 8:-0.471045 9:-0.382916 10:-0.142641 11:-0.00133477 12:-0.534223 13:0.0750886 14:0.491823 15:-0.0152512 16:-0.0488545 17:-0.0458139 18:-0.434295 19:-0.0337285 20:-0.678365 21:-0.207865 22:0.0800277 23:0.258698 24:-0.216719 25:-0.555718 26:-0.945079 27:-0.996817 28:-0.993622 29:-0.267741 30:-0.0810423 31:0.25377 
0 0 0 0 0.07807681237193179 0 0 0 0 1:-0.317681 2:-0.435413 3:-0.292395 4:-0.480422 5:-0.423504 6:-0.31347 7:-0.463315 8:-0.4948 9:-0.439045 10:-0.297077 11:-0.164329 12:-0.334723 13:-0.137866 14:0.397675 15:0.0807629 16:-0.164054 17:0.0502443 18:-0.288053 19:-0.00381237 20:-0.620837 21:-0.204596 22:0.124336 23:0.201454 24:-0.177673 25:-0.453816 26:-0.958102 27:-0.987213 28:-0.987338 29:-0.267878 30:-0.0816792 31:0.253785 
0.03236785356287409 0.4258703770586156 0.2237982319719213 0.239960346732587 0.2146426546734443 0.2245623301034369 0.324097421091447 0.04104488347057142 0.04167233746136483 1:-0.282059 2:-0.444322 3:-0.303391 4:-0.504926 5:-0.50131 6:-0.344525 7:-0.497444 8:-0.583103 9:-0.540178 10:-0.349288 11:-0.162116 12:-0.49067 13:-0.116234 14:0.455278 15:0.0758281 16:-0.117544 17:0.0414845 18:-0.348084 19:-0.0747559 20:-0.643239 21:-0.190831 22:0.117884 23:0.225376 24:-0.184252 25:-0.494726 26:-0.925238 27:-0.990432 28:-0.986522 29:-0.267845 30:-0.0837913 31:0.253743 
0.06109604317038744 0 0.01831379171027787 0.09753655670930085 0.05963313213638267 0 0 0 0 1:-0.244276 2:-0.430027 3:-0.244685 4:-0.483109 5:-0.40989 6:-0.282747 7:-0.468751 8:-0.483795 9:-0.421207 10:-0.273747 11:-0.0548117 12:-0.246737 13:-0.0982072 14:0.508234 15:-0.00654828 16:-0.127618 17:0.133092 18:-0.313381 19:0.0653579 20:-0.667623 21:-0.181389 22:0.087578 23:0.225645 24:-0.159585 25:-0.499434 26:-0.980987 27:-0.990779 28:-0.983817 29:-0.267897 30:-0.0823476 31:0.253753 
0.1136384837961848 0.9482883556933306 0.06238496226817752 0.05496740590842905 0.04817597409384302 0.169372232029552 0 0.04939876534657722 0 1:-0.212707 2:-0.270836 3:-0.22092 4:-0.280575 5:-0.331171 6:-0.217188 7:-0.242613 8:-0.394017 9:-0.327625 10:-0.18034 11:0.0548192 12:-0.518691 13:0.100479 14:0.0997438 15:0.0788657 16:-0.0482917 17:0.0453452 18:-0.27222 19:-0.0574606 20:-0.601574 21:-0.314395 22:0.111039 23:0.255901 24:-0.188909 25:-0.432884 26:-0.934044 27:-0.999016 28:-0.99212 29:-0.267758 30:-0.0781355 31:0.253784 
0.1007606057524263 0.1750219026798998 0.2081510385607312 0.08993408948825864 0.3131046738608483 0.115823838449496 0.04715841333885796 0.6187616650283881 0.2231445448390091 1:0.0632255 2:-0.187783 3:-0.0701517 4:-0.287628 5:-0.303017 6:-0.155053 7:-0.297791 8:-0.433647 9:-0.339633 10:-0.173851 11:0.136273 12:-0.441375 13:0.173543 14:0.512346 15:-0.201935 16:0.0119681 17:0.302865 18:-0.574716 19:0.0549689 20:-0.771053 21:-0.229855 22:0.0408161 23:0.27665 24:-0.159452 25:-0.68201 26:-0.978095 27:-0.996288 28:-0.991495 29:-0.267792 30:-0.0812693 31:0.253782 
0.5678402488948044 0.6777964079040655 0.5896323085652654 0.5623114711704637 0.5289014282349016 0.517053880755003 0.4884387833720979 0.5290028905857533 0.5988040781621427 1:-0.630484 2:-0.670221 3:-0.598663 4:-0.655564 5:-0.64288 6:-0.576342 7:-0.608852 8:-0.669468 9:-0.628513 10:-0.536277 11:-0.300386 12:-0.249908 13:-0.26695 14:0.315826 15:-0.235482 16:-0.185111 17:-0.0227389 18:0.390243 19:-0.102965 20:-0.248762 21:-0.16285 22:-0.0562016 23:0.0880741 24:-0.17456 25:0.0987647 26:-0.909454 27:-0.929393 28:-0.999413 29:-0.26776 30:-0.0797416 31:0.253777 
0.01387091815779589 0.9738694233605278 0.1503047418673467 0.06958750397638627 0.1128059434965397 0 0 1.084888277984728 0 1:-0.503616 2:-0.521235 3:-0.444731 4:-0.528472 5:-0.551218 6:-0.436343 7:-0.499208 8:-0.624263 9:-0.561395 10:-0.407325 11:-0.300236 12:-0.572522 13:-0.245334 14:0.129954 15:-0.108817 16:0.0758562 17:-0.0843482 18:-0.0370141 19:-0.288549 20:-0.464367 21:-0.314402 22:0.0515886 23:0.318459 24:-0.224794 25:-0.235054 26:-0.769419 27:-0.997861 28:-0.999916 29:-0.267757 30:-0.0798124 31:0.253777 
0.5429973536582863 0.314742627343713 0.505720432508848 0.6065935919449232 0.4737510244407129 0.6494759662910023 0.4090307594735358 1.179760051298782 0.572069963165696 1:-0.471178 2:-0.549883 3:-0.413405 4:-0.571723 5:-0.57836 6:-0.412197 7:-0.547017 8:-0.661797 9:-0.591013 10:-0.39054 11:-0.264416 12:-0.573237 13:-0.241841 14:0.30604 15:-0.255643 16:0.128208 17:-0.0978446 18:-0.0726941 19:-0.256881 20:-0.508403 21:-0.215572 22:-0.0253112 23:0.347129 24:-0.231917 25:-0.2827 26:-0.798366 27:-0.992803 28:-0.979249 29:-0.267581 30:-0.0711594 31:0.253742 
0.02863427635392945 0 0 0 0 0 0 0 0.1323961973367183 1:-0.0657859 2:-0.308733 3:-0.0777529 4:-0.357543 5:-0.244056 6:-0.118415 7:-0.332073 8:-0.324198 9:-0.224245 10:-0.102308 11:0.241983 12:-0.0582192 13:0.071007 14:0.636036 15:-0.221607 16:-0.0816454 17:0.201141 18:-0.357786 19:0.171655 20:-0.72894 21:-0.184759 22:0.0316432 23:0.252436 24:-0.164577 25:-0.563675 26:-0.997773 27:-0.991466 28:-0.988398 29:-0.267811 30:-0.080013 31:0.253746 
0 0.61122745968198 0 0 0 0 0 0 0 1:-0.427999 2:-0.492058 3:-0.403914 4:-0.513415 5:-0.533798 6:-0.397493 7:-0.489355 8:-0.611602 9:-0.543317 10:-0.366895 11:-0.228229 12:-0.527142 13:-0.131495 14:0.2309 15:-0.160541 16:-0.0514796 17:-0.0289354 18:-0.131484 19:-0.186348 20:-0.489248 21:-0.26098 22:0.0285205 23:0.24131 24:-0.199709 25:-0.291559 26:-0.853406 27:-0.995813 28:-0.999815 29:-0.267757 30:-0.0799245 31:0.253777 
0.3555384886496333 0.5821625703470347 0.3621019629448581 0.2957099881725936 0 0.2483903696780211 0.254995095364231 0.406158228615748 0.24758478286967 1:-0.382927 2:-0.414606 3:-0.282218 4:-0.408384 5:-0.332005 6:-0.242486 7:-0.356724 8:-0.37954 9:-0.25769 10:-0.195637 11:-0.0785714 12:-0.271185 13:-0.0926814 14:0.220566 15:-0.129343 16:0.258289 17:-0.286918 18:-0.0611957 19:0.0104115 20:-0.52225 21:-0.269079 22:0.045031 23:0.397702 24:-0.309227 25:-0.288644 26:-0.963644 27:-0.990087 28:-0.977043 29:-0.267631 30:-0.0748679 31:0.253674 
0 0 0 0 0.07838294268953892 0 0 0 0 1:-0.547001 2:-0.580394 3:-0.428754 4:-0.579723 5:-0.462577 6:-0.363519 7:-0.534984 8:-0.49516 9:-0.368748 10:-0.288343 11:-0.283597 12:-0.152974 13:-0.173939 14:0.345151 15:-0.00459039 16:0.188322 17:-0.24613 18:0.115352 19:0.0383642 20:-0.332157 21:-0.171445 22:0.117852 23:0.40765 24:-0.32589 25:-0.0739906 26:-0.970017 27:-0.984826 28:-0.949823 29:-0.268809 30:-0.0766426 31:0.253802 
0.4545179672736132 0.4528459454575738 0.4575662642385769 0.43662382875365 0.4854576392864992 0.3710252497008008 0.3591013797362028 0.420543532615627 0.4835950036229684 1:-0.724327 2:-0.723667 3:-0.660815 4:-0.719861 5:-0.63303 6:-0.649648 7:-0.676311 8:-0.658198 9:-0.578847 10:-0.622945 11:-0.512937 12:-0.0707841 13:-0.440236 14:0.374549 15:-0.134172 16:0.193093 17:-0.0822414 18:0.343808 19:0.059699 20:-0.225103 21:-0.0477709 22:0.0154453 23:0.508231 24:-0.220182 25:0.0982482 26:-0.977135 27:-0.988513 28:-0.836805 29:-0.272085 30:-0.0856594 31:0.252361 
0.5035178588631591 0.6401606395543553 0.5476431445618226 0.6222370305961663 2.271327531866993 0.3225492127618027 0.4191585562477252 0.47212406421522 0.5695778151451002 1:-0.649428 2:-0.603595 3:-0.5402 4:-0.597024 5:-0.44708 6:-0.492541 7:-0.553601 8:-0.462527 9:-0.337328 10:-0.433699 11:-0.482406 12:0.0414731 13:-0.313358 14:0.225888 15:-0.020618 16:0.197025 17:-0.188706 18:0.108479 19:0.213672 20:-0.25537 21:-0.236869 22:0.124067 23:0.462073 24:-0.311762 25:-0.0184103 26:-0.989092 27:-0.969654 28:-0.963844 29:-0.268654 30:-0.0836138 31:0.253706 
0.09745747997606602 0.1820063727178489 0.09180787177221778 0.1499709624522668 0.08495015750023971 1.501528173107925 0.05548284999081943 0.159558902636924 0.1730665504668739 1:-0.398135 2:-0.476666 3:-0.260983 4:-0.491203 5:-0.377956 6:-0.218091 7:-0.455083 8:-0.445035 9:-0.313034 10:-0.168947 11:-0.139385 12:-0.309993 13:-0.166519 14:0.344578 15:-0.118995 16:0.280445 17:-0.305308 18:-0.0950329 19:-0.0209477 20:-0.550295 21:-0.210849 22:0.0490541 23:0.413422 24:-0.320093 25:-0.323408 26:-0.951118 27:-0.991571 28:-0.955331 29:-0.267909 30:-0.0693717 31:0.253492 
0.9107698694256852 0.9086029180822728 0.9138724272374212 0.8809233568293213 0.806192907914195 0.8028250059613323 0.7435041582231042 0.8467759094881117 0.9596577405084514 1:-0.7433 2:-0.726792 3:-0.660944 4:-0.705991 5:-0.554744 6:-0.630399 7:-0.652017 8:-0.552941 9:-0.451822 10:-0.58193 11:-0.461523 12:0.20599 13:-0.413513 14:0.330983 15:-0.156705 16:0.163257 17:-0.0617715 18:0.565701 19:0.455168 20:-0.135593 21:-0.0850532 22:-0.0143666 23:0.482955 24:-0.196092 25:0.254555 26:-0.94177 27:-0.984062 28:-0.877923 29:-0.270208 30:-0.0878511 31:0.252319 
0.5656403823913344 0.5808573672935818 0.5750117208321301 0.8112288342162238 0.8379675018335087 1.962563417007233 0.4769542059316049 0.533859139021804 0.5812387020890404 1:-0.462976 2:-0.537587 3:-0.311185 4:-0.558464 5:-0.340581 6:-0.272389 7:-0.522004 8:-0.391155 9:-0.216939 10:-0.223098 11:-0.253729 12:0.0572509 13:-0.27031 14:0.472323 15:-0.0498202 16:0.356704 17:-0.2364 18:-0.0792848 19:0.223487 20:-0.540183 21:-0.127227 22:0.0829634 23:0.482516 24:-0.301414 25:-0.309459 26:-0.99973 27:-0.984584 28:-0.901221 29:-0.270649 30:-0.0799338 31:0.253563 
0 0 0 0 0 0.5135374181597075 0 0 0 1:-0.612236 2:-0.584085 3:-0.471097 4:-0.572795 5:-0.444699 6:-0.426271 7:-0.522782 8:-0.4767 9:-0.355871 10:-0.375515 11:-0.388062 12:-0.137773 13:-0.355741 14:0.248964 15:-0.0844708 16:0.291135 17:-0.26345 18:0.156701 19:0.0268901 20:-0.378114 21:-0.224327 22:0.0675327 23:0.527054 24:-0.359199 25:-0.0924375 26:-0.969195 27:-0.957953 28:-0.920637 29:-0.268709 30:-0.0663624 31:0.252286 
0.1998109615044971 0.1891896823908285 0.1849410333975193 0.2375382109716661 0.6568753792586464 0.6683041632604896 0.181129461651492 0.2283748393782949 0.1824679131506738 1:-0.526836 2:-0.591501 3:-0.388372 4:-0.607029 5:-0.508235 6:-0.348104 7:-0.572323 8:-0.572897 9:-0.464651 10:-0.302598 11:-0.311951 12:-0.351325 13:-0.292341 14:0.415055 15:-0.100873 16:0.236331 17:-0.284088 18:0.010719 19:-0.124249 20:-0.466915 21:-0.133387 22:0.0559041 23:0.434616 24:-0.343135 25:-0.217988 26:-0.897023 27:-0.992192 28:-0.908963 29:-0.269106 30:-0.0533205 31:0.253217 
0.4541180759136877 0.4547925119089868 0.4464208482717363 0.43894871949738 0.4521030226120893 0.3960950977529096 0.372976847978703 1.009095073883512 0.6882498899937888 1:0.715676 2:0.399918 3:0.631052 4:0.236867 5:0.426169 6:0.481821 7:0.175455 8:0.26388 9:0.397433 10:0.410019 11:0.616725 12:-0.0780354 13:0.473768 14:0.108954 15:0.290591 16:0.0021943 17:0.168977 18:-0.826366 19:0.189881 20:-0.935867 21:-0.299302 22:0.0881367 23:0.276004 24:-0.209033 25:-0.907351 26:-0.999625 27:-0.999683 28:-0.998222 29:-0.267758 30:-0.0798519 31:0.253777 
0.07814112031504072 0 0.06131696514549809 0.09945696786539988 0.1811777972234083 0 0.0792307571939217 0 0.08147708910008732 1:-0.477185 2:-0.570542 3:-0.461343 4:-0.566966 5:-0.55844 6:-0.491063 7:-0.515098 8:-0.594587 9:-0.559839 10:-0.486542 11:-0.121033 12:-0.288594 13:-0.302225 14:0.512793 15:-0.202507 16:0.0747582 17:0.0479056 18:0.137023 19:-0.0429484 20:-0.545189 21:-0.0983409 22:0.0018807 23:0.315027 24:-0.15609 25:-0.227157 26:-0.935444 27:-0.988552 28:-0.948779 29:-0.267779 30:-0.0806337 31:0.253358 
0.6364786749752891 0.6402852421132829 0.6390315207926932 0.5667336309020695 0.5126913020786508 0.3012284186806031 0.5137579674509128 0.6012111357810703 0.6798599920694539 1:-0.397575 2:-0.568455 3:-0.30423 4:-0.574601 5:-0.444961 6:-0.308563 7:-0.519499 8:-0.47298 9:-0.389438 10:-0.292476 11:-0.0178335 12:-0.0699145 13:-0.25934 14:0.825299 15:0.00905958 16:0.208583 17:-0.126703 18:0.0444529 19:0.137698 20:-0.610247 21:0.0107706 22:0.105555 23:0.37656 24:-0.243507 25:-0.313415 26:-0.987932 27:-0.99511 28:-0.860485 29:-0.265694 30:-0.0669961 31:0.2546 
0.1350523502163608 0.07566564518427439 0.1198764076308142 0.09239362591978388 0 0 0.1007562103304066 0.09354680539179216 0.1288120251567421 1:-0.487702 2:-0.556574 3:-0.445894 4:-0.519544 5:-0.477749 6:-0.428814 7:-0.443322 8:-0.469807 9:-0.415246 10:-0.384778 11:0.0225058 12:-0.0885273 13:-0.171297 14:0.467699 15:-0.0844745 16:0.137981 17:0.00477829 18:0.367754 19:0.10934 20:-0.431311 21:-0.118936 22:0.0653525 23:0.3564 24:-0.177212 25:-0.0488258 26:-0.984415 27:-0.999524 28:-0.943254 29:-0.267857 30:-0.078445 31:0.253688 
0 0 0 0 0.2868400231983574 0 0 0 0 1:-0.558456 2:-0.598471 3:-0.512502 4:-0.573656 5:-0.492045 6:-0.501985 7:-0.515747 8:-0.490639 9:-0.439951 10:-0.469045 11:-0.158835 12:0.0226208 13:-0.266412 14:0.300661 15:-0.0923805 16:-0.0477794 17:-0.0347844 18:0.353557 19:0.195224 20:-0.392439 21:-0.198462 22:0.0611886 23:0.229732 24:-0.192325 25:-0.0249522 26:-0.997004 27:-0.992568 28:-0.994025 29:-0.267767 30:-0.0797653 31:0.253764 
0.459715763101966 0.4771019895189741 0.4911017374984131 0.4786337626781486 0.8901705436650981 0.3714260760542033 0.3812935944618804 0.4310272886861463 0.5074584016040706 1:-0.446202 2:-0.545339 3:-0.433779 4:-0.538276 5:-0.39666 6:-0.419823 7:-0.485172 8:-0.391409 9:-0.310903 10:-0.380896 11:-0.0584476 12:0.270607 13:-0.103077 14:0.47914 15:0.0404489 16:-0.0390295 17:0.0140602 18:0.128157 19:0.377652 20:-0.44403 21:-0.130593 22:0.12682 23:0.246828 24:-0.177738 25:-0.15386 26:-0.972868 27:-0.988617 28:-0.967677 29:-0.26774 30:-0.0739278 31:0.253568 
0.5084169010495649 0.5634444148521434 0.6067767804874835 0.5521191438910861 2.013052777483342 0.6049498518840195 0.4427760545238286 0.4461319127561151 0.6012024426489 1:-0.177455 2:-0.375101 3:-0.141485 4:-0.422157 5:-0.229513 6:-0.157208 7:-0.400371 8:-0.277957 9:-0.174815 10:-0.132805 11:0.0727454 12:0.1496 13:-0.00828428 14:0.542887 15:0.166941 16:-0.15939 17:0.0433358 18:-0.315356 19:0.25897 20:-0.680785 21:-0.185752 22:0.131798 23:0.221994 24:-0.19204 25:-0.510213 26:-0.997284 27:-0.987952 28:-0.985915 29:-0.267845 30:-0.0791417 31:0.253729 
0 0 0 0 0.6183667331297307 0 0 0 0 1:-0.461556 2:-0.5424 3:-0.439518 4:-0.547462 5:-0.461343 6:-0.437115 7:-0.505121 8:-0.489684 9:-0.42248 10:-0.401568 11:-0.160263 12:-0.0254065 13:-0.174421 14:0.400704 15:-0.0980649 16:-0.100016 17:0.0726492 18:0.0398366 19:0.161647 20:-0.472621 21:-0.166443 22:0.058003 23:0.209258 24:-0.146476 25:-0.210731 26:-0.998005 27:-0.984458 28:-0.984405 29:-0.267935 30:-0.0806335 31:0.253756 
0.3201277764562275 0.4536677101610415 0.3190752126378979 0.3020127323816763 0.3362006239746486 0.2933864837080781 0.2521366376586308 0.3050475514312235 0.3537736598627199 1:-0.563741 2:-0.641352 3:-0.546951 4:-0.629282 5:-0.598757 6:-0.538065 7:-0.579941 8:-0.627471 9:-0.574795 10:-0.504303 11:-0.198291 12:-0.159508 13:-0.236484 14:0.430398 15:-0.314415 16:-0.096314 17:0.0353002 18:0.30919 19:0.0258627 20:-0.356116 21:-0.105227 22:-0.0890296 23:0.191029 24:-0.14578 25:-0.0150308 26:-0.968792 27:-0.939671 28:-0.982284 29:-0.267379 30:-0.07874 31:0.253676 
0 0.07170908967426234 0.07975844302801817 0 0.6857204507545506 0 0 0 0 1:-0.414229 2:-0.506037 3:-0.420637 4:-0.523462 5:-0.467679 6:-0.417751 7:-0.495506 8:-0.494944 9:-0.440415 10:-0.379015 11:-0.158598 12:-0.11955 13:-0.0907046 14:0.288102 15:0.120032 16:-0.143066 17:0.132643 18:-0.0796327 19:0.101629 20:-0.480599 21:-0.23465 22:0.158333 23:0.193837 24:-0.128637 25:-0.264347 26:-0.988641 27:-0.987928 28:-0.964816 29:-0.268018 30:-0.078888 31:0.253993 
0 0 0 0 0.6366275631897013 0 0 0 0.2765401414316028 1:-0.279003 2:-0.402221 3:-0.325404 4:-0.437478 5:-0.389694 6:-0.347471 7:-0.415903 8:-0.43983 9:-0.374504 10:-0.324501 11:-0.0600689 12:-0.120927 13:-0.00999476 14:0.337318 15:0.00430386 16:-0.123521 17:0.203563 18:-0.2576 19:0.123917 20:-0.591201 21:-0.233214 22:0.0933253 23:0.223372 24:-0.131346 25:-0.419187 26:-0.993086 27:-0.994099 28:-0.980659 29:-0.267809 30:-0.080113 31:0.253843 
0.3845634963294349 0.2859275636347232 0.34601769283712 0.346533649722781 0 0.3117499911443972 0.2939043666133898 0.3618626235372813 0.2976800807510699 1:-0.356427 2:-0.4898 3:-0.388612 4:-0.495374 5:-0.451043 6:-0.399251 7:-0.448017 8:-0.485517 9:-0.424499 10:-0.376296 11:0.0159558 12:-0.059709 13:-0.0563005 14:0.52658 15:-0.219251 16:-0.119437 17:0.108254 18:-0.0200532 19:0.14909 20:-0.532224 21:-0.142339 22:0.00987522 23:0.215312 24:-0.150606 25:-0.279837 26:-0.996384 27:-0.977346 28:-0.984767 29:-0.267837 30:-0.0803806 31:0.253688 
0.07605294012518683 0.02033070765457038 0.04378450039344054 0.06801322131720022 0.7028537383118458 0 0.1600151264934317 0.2152155722529189 0.03655977015106904 1:-0.710059 2:-0.648599 3:-0.566508 4:-0.63084 5:-0.529219 6:-0.541411 7:-0.581638 8:-0.559267 9:-0.492711 10:-0.506857 11:-0.511191 12:-0.213976 13:-0.521944 14:0.194208 15:-0.0485231 16:0.0812723 17:-0.176462 18:0.284482 19:-0.125184 20:-0.366681 21:-0.259346 22:0.108337 23:0.360157 24:-0.317443 25:-0.0328939 26:-0.896249 27:-0.987952 28:-0.986657 29:-0.267833 30:-0.0750729 31:0.253731 
1.013462826375632 1.010553315999274 1.029357986477431 0.977844669598539 1.020943382786659 0.8855031573972815 0.8298777566357882 0.9439094480986597 1.130150219897955 1:-0.812923 2:-0.672202 3:-0.766899 4:-0.619183 5:-0.635791 6:-0.76931 7:-0.552282 8:-0.610787 9:-0.627637 10:-0.754362 11:-0.59431 12:-0.186379 13:-0.54818 14:-0.0219562 15:0.221168 16:-0.0605494 17:-0.0359198 18:0.581073 19:-0.191152 20:-0.129374 21:-0.590706 22:0.544768 23:0.145327 24:-0.148342 25:0.265397 26:-0.850434 27:-0.815734 28:-0.651517 29:-0.234133 30:0.0728929 31:0.279612 
0 0 0 0 1.532261600001722 0.402433034484284 0 0 0 1:-0.479578 2:-0.484346 3:-0.39117 4:-0.479306 5:-0.387084 6:-0.384839 7:-0.43521 8:-0.419904 9:-0.33492 10:-0.357148 11:-0.229705 12:-0.156383 13:-0.282201 14:0.163992 15:-0.0413797 16:0.188068 17:-0.100079 18:-0.0037598 19:0.0583517 20:-0.52703 21:-0.294029 22:0.0885077 23:0.386043 24:-0.233188 25:-0.269403 26:-0.978675 27:-0.98979 28:-0.99424 29:-0.267779 30:-0.0800495 31:0.253788 
0.5751489565048273 0.554949933838901 0.5659897421431238 0.5647880807226224 0.38988815420025 0.7201557261023526 0.4339904172469271 0.5371772109219366 0.5986070820042417 1:-0.670215 2:-0.64691 3:-0.522831 4:-0.632084 5:-0.527159 6:-0.486802 7:-0.581445 8:-0.569561 9:-0.463927 10:-0.446343 11:-0.421679 12:-0.22272 13:-0.453638 14:0.269271 15:-0.22885 16:0.306216 17:-0.25211 18:0.313336 19:-0.102676 20:-0.368278 21:-0.190716 22:-0.0653294 23:0.592135 24:-0.374723 25:-0.0226206 26:-0.909338 27:-0.943258 28:-0.829787 29:-0.259465 30:-0.0218531 31:0.249489 
0.3525559125987618 0.4061292213489961 0.3451917393775613 0.3132162944200205 0.2374577559027847 0.2294718941162148 0.2946397711610855 0.3409063700592634 0.3863752769294586 1:-0.671185 2:-0.623595 3:-0.60649 4:-0.594514 5:-0.567003 6:-0.586294 7:-0.541873 8:-0.582796 9:-0.524067 10:-0.544922 11:-0.386118 12:-0.211096 13:-0.359895 14:0.0650227 15:-0.115596 16:0.111752 17:-0.0312861 18:0.392415 19:-0.0894789 20:-0.257238 21:-0.389703 22:0.0399721 23:0.383123 24:-0.175177 25:0.093192 26:-0.917309 27:-0.97941 28:-0.997338 29:-0.26777 30:-0.0791196 31:0.253774 
0.6643612009599055 0.6749373415877313 0.6710038596361719 0.6304170928285567 0.9732593959376449 0.5477002826625393 0.4694280703045118 0.6293291556127487 0.8495118611045319 1:-0.458217 2:-0.441033 3:-0.43776 4:-0.416899 5:-0.388187 6:-0.414152 7:-0.359934 8:-0.375239 9:-0.323686 10:-0.35151 11:-0.145655 12:-0.110194 13:-0.0885281 14:0.0405683 15:0.26146 16:0.0442814 17:0.165594 18:0.0497367 19:0.0989925 20:-0.415645 21:-0.360091 22:0.241869 23:0.295207 24:-0.101025 25:-0.163519 26:-0.988208 27:-0.985632 28:-0.918192 29:-0.269859 30:-0.0739377 31:0.253939 
0.5267936699704131 0.5327853615808319 0.5295115736548264 0.5511774332903013 0.6851216579260138 0.5082190934582337 0.4247885108074695 0.4972897897486143 0.5579816031186947 1:-0.516835 2:-0.567509 3:-0.516013 4:-0.539014 5:-0.503765 6:-0.56286 7:-0.463892 8:-0.476424 9:-0.482638 10:-0.574952 11:-0.0781136 12:-0.0193975 13:-0.384394 14:0.520015 15:0.232317 16:0.173963 17:0.0412895 18:0.326536 19:0.161085 20:-0.556804 21:-0.0723567 22:0.254299 23:0.387496 24:-0.152141 25:-0.16054 26:-0.977634 27:-0.977635 28:-0.858415 29:-0.262192 30:-0.0811437 31:0.252711 
0.2298235096046445 1.376959580615888 0.4384467956063761 0.2372288724576229 0.4334324742123193 0.04290394630896684 0.3133794559986469 0.3516221990296101 0.6227572745385974 1:-0.426054 2:-0.457657 3:-0.453386 4:-0.469595 5:-0.477671 6:-0.461341 7:-0.440779 8:-0.533516 9:-0.45914 10:-0.4363 11:-0.221561 12:-0.266853 13:-0.117499 14:0.138644 15:-0.196164 16:0.00576958 17:0.121407 18:-0.127836 19:-0.00347675 20:-0.482423 21:-0.306703 22:0.0118442 23:0.272765 24:-0.130925 25:-0.28492 26:-0.956499 27:-0.990724 28:-0.993827 29:-0.267727 30:-0.079049 31:0.253769 
0.3250025254169676 0.2954422511259315 0.3333468984547679 0.2956325603131665 0.4305032720047171 0.4287848564844959 0.2567502959889145 0.181402592751382 0.2865911171705583 1:-0.175106 2:-0.35345 3:-0.099234 4:-0.38162 5:-0.282636 6:-0.086587 7:-0.342108 8:-0.34839 9:-0.234823 10:-0.0518662 11:0.160329 12:-0.268205 13:0.0334534 14:0.580283 15:-0.0509813 16:0.145838 17:-0.159839 18:-0.249844 19:0.07068 20:-0.664444 21:-0.175557 22:0.0718522 23:0.318865 24:-0.246146 25:-0.471724 26:-0.981726 27:-0.999315 28:-0.977925 29:-0.267734 30:-0.0785766 31:0.253804 
0.898619805127764 0.9097809288089426 0.9016734193561834 0.8687470692221912 0.8935607011704311 0.7864037510439357 0.7318728943665861 0.8378559070606445 0.9487730633941708 1:-0.706783 2:-0.691078 3:-0.667704 4:-0.628905 5:-0.609764 6:-0.689294 7:-0.541375 8:-0.538593 9:-0.591841 10:-0.678469 11:-0.196077 12:-0.0322027 13:-0.513868 14:0.328831 15:0.440548 16:0.00982442 17:0.0716009 18:1 19:0.11745 20:-0.363513 21:-0.112161 22:0.620533 23:0.272577 24:-0.0640635 25:0.254338 26:-0.936012 27:-0.782071 28:-0.604605 29:-0.335822 30:-0.1905 31:0.228797 
0.64874169220684 0.6430950608253375 0.6530158673633558 0.6300947808038972 0.6633173938334513 0.5667025304152929 0.533753927647479 0.6064372610366346 0.6829437059555777 1:-0.635376 2:-0.614677 3:-0.672093 4:-0.559431 5:-0.621724 6:-0.699138 7:-0.48055 8:-0.563472 9:-0.617304 10:-0.693125 11:-0.162999 12:-0.150221 13:-0.383391 14:0.151338 15:0.448198 16:-0.0118117 17:0.146327 18:0.675834 19:0.00284307 20:-0.361404 21:-0.304395 22:0.512579 23:0.252577 24:-0.0368426 25:0.126905 26:-0.942503 27:-0.883745 28:-0.691351 29:-0.31143 30:-0.120706 31:0.257501 
0.5349263406968846 0.5222630875496949 0.5236985570606595 0.5126723058257938 0.3399748183070527 0.487441127687243 0.4504889269689315 0.4896806204394659 0.5351678716852678 1:-0.481187 2:-0.524034 3:-0.518637 4:-0.477567 5:-0.513595 6:-0.53707 7:-0.398173 8:-0.466562 9:-0.496045 10:-0.521664 11:0.0494974 12:-0.11516 13:-0.198849 14:0.291638 15:0.355829 16:-0.043432 17:0.139205 18:0.382026 19:0.0899314 20:-0.46209 21:-0.22167 22:0.303947 23:0.241285 24:-0.107323 25:-0.0665205 26:-0.976305 27:-0.965411 28:-0.895543 29:-0.272503 30:-0.0956609 31:0.253542 
0.3409749251845003 0.2138865765191857 0.4261636787783519 0.3271356272444169 0.3238553766235334 0.2809802924058162 0.2983182271299188 0.296863445429109 0.7079382182568006 1:-0.183058 2:-0.221526 3:-0.187516 4:-0.211112 5:-0.230212 6:-0.194424 7:-0.161121 8:-0.260959 9:-0.214004 10:-0.167733 11:0.156241 12:-0.320715 13:0.0817922 14:-0.0616144 15:0.102311 16:-0.0768024 17:0.0219527 18:-0.239614 19:0.0450214 20:-0.636611 21:-0.360182 22:0.114632 23:0.24794 24:-0.197417 25:-0.446515 26:-0.97509 27:-0.998586 28:-0.987244 29:-0.267725 30:-0.077555 31:0.253789 
0.9167309463061767 0.9210638571068434 0.9144715198574105 0.8907324526338349 0.9129233571704349 0.799878910304531 0.7457716897267797 0.8753758815308806 1.270669234630435 1:0.572911 2:0.435798 3:0.4527 4:0.379101 5:0.520407 6:0.336114 7:0.386703 8:0.488488 9:0.57033 10:0.271139 11:0.714345 12:0.33968 13:0.517134 14:-0.310323 15:0.124193 16:0.193922 17:-0.0246282 18:-0.722871 19:0.262144 20:-0.892371 21:-0.337979 22:0.0789482 23:0.29502 24:-0.221901 25:-0.833122 26:-0.997009 27:-0.998546 28:-0.998662 29:-0.267756 30:-0.0799066 31:0.253778 
0.6109096073600856 0.6354255546531723 0.6310200647791858 0.5867569361338772 0.5684184628341905 0.5415196753399669 0.5306643190442525 0.5547944998350641 0.6489293614027163 1:0.302822 2:0.0913729 3:0.18495 4:0.0471918 5:0.0626891 6:0.116988 7:0.0722975 8:-0.0280507 9:0.056496 10:0.100897 11:0.657043 12:-0.12735 13:0.448003 14:0.1281 15:-0.363711 16:-0.228651 17:0.123422 18:-0.547367 19:0.168723 20:-0.812257 21:-0.299628 22:0.0267128 23:0.242304 24:-0.201812 25:-0.702414 26:-0.998083 27:-0.997105 28:-0.999211 29:-0.267758 30:-0.0798108 31:0.253777 
0.8567313981489874 0.8543327638561121 0.8825333732978036 0.829194701778813 0.8438347061338244 0.7484811422427098 0.8829890689176927 1.067878405548144 0.9545617076259834 1:0.364281 2:0.202094 3:0.232976 4:0.118269 5:0.0302624 6:0.101428 7:0.0994215 8:-0.0959674 9:-0.0997411 10:0.045893 11:0.421078 12:-0.647487 13:0.280177 14:-0.138293 15:0.320105 16:-0.444021 17:0.242345 18:-0.691347 19:0.055468 20:-0.873044 21:-0.330886 22:0.107076 23:0.216872 24:-0.19081 25:-0.805895 26:-0.978168 27:-0.997865 28:-0.988263 29:-0.267713 30:-0.0778822 31:0.253774 
0.9636586119880669 0.8731502873797706 1.136670475853876 0.8316177609445644 0.8509440944902054 0.7547467482890391 0.7342068901594554 2.666205720960755 0.9007576232667763 1:0.275884 2:0.149829 3:0.301596 4:0.0400401 5:0.136867 6:0.202734 7:-0.00656558 8:-0.00404768 9:0.0465146 10:0.145592 11:0.125312 12:-0.517052 13:0.0967563 14:-0.132974 15:0.569183 16:-0.293924 17:-0.0661107 18:-0.752668 19:0.0716026 20:-0.884291 21:-0.334897 22:0.145336 23:0.231229 24:-0.224457 25:-0.838844 26:-0.982695 27:-0.992876 28:-0.990701 29:-0.267704 30:-0.0784538 31:0.253787 
0.5688670833086886 0.5735556587319696 0.5873534975030085 0.5574808296913004 0.5684521739834896 0.4968889146774927 0.4633054291546044 1.110407879458809 0.6634409193215792 1:0.687291 2:0.41266 3:0.647667 4:0.284179 5:0.538164 6:0.557127 7:0.249631 8:0.41039 9:0.584796 10:0.526718 11:0.70654 12:0.188017 13:0.602601 14:0.0666114 15:0.102244 16:-0.0895904 17:0.0454646 18:-0.787724 19:0.232132 20:-0.909258 21:-0.302776 22:0.0748714 23:0.267962 24:-0.217462 25:-0.87176 26:-0.999422 27:-0.999892 28:-0.99932 29:-0.267757 30:-0.0798601 31:0.253777 
0.6547831443758829 1.088683174450424 1.322119200885965 0.7909715813182073 3.416710648477682 0.8238552632633552 0.7268621563568654 2.162534057078521 0.8624083721992771 1:0.0497133 2:-0.160391 3:0.0471577 4:-0.263604 5:-0.061555 6:0.00517775 7:-0.297615 8:-0.16396 9:-0.0177838 10:-0.00342902 11:0.0579434 12:0.0486167 13:0.156408 14:0.125833 15:0.199572 16:-0.0170564 17:-0.0778107 18:-0.605942 19:0.211781 20:-0.769023 21:-0.302132 22:0.113653 23:0.270514 24:-0.225341 25:-0.692897 26:-0.999519 27:-0.9974 28:-0.998146 29:-0.267759 30:-0.0798067 31:0.253778 
0.99646212800789 1.000338975642826 1.002559743757852 0.9585207545306039 0.9909621618001064 0.8673481754983936 0.807450684527531 1.036997021675063 1.445785494336332 1:0.447471 2:0.361258 3:0.349991 4:0.336331 5:0.325106 6:0.274752 7:0.357627 8:0.282515 9:0.332897 10:0.274053 11:0.655497 12:-0.198311 13:0.528313 14:-0.516729 15:0.342737 16:0.00677639 17:0.294161 18:-0.661794 19:0.159985 20:-0.85062 21:-0.36728 22:0.104399 23:0.276171 24:-0.189566 25:-0.7771 26:-0.997782 27:-0.998485 28:-0.988858 29:-0.267764 30:-0.079265 31:0.253792 
0.789505824658318 1.177693758414978 1.040397697349091 1.202675863415532 1.090045867194 0.6731268906405696 1.626795944109452 2.131902284928618 1.868669647110482 1:-0.136678 2:-0.286666 3:-0.189598 4:-0.382824 5:-0.359703 6:-0.271235 7:-0.419207 8:-0.469881 9:-0.440958 10:-0.296584 11:-0.191456 12:-0.463103 13:-0.0949757 14:0.0601144 15:0.245006 16:-0.354897 17:0.169471 18:-0.573748 19:-0.00414314 20:-0.746973 21:-0.322281 22:0.146209 23:0.168675 24:-0.163604 25:-0.663335 26:-0.957476 27:-0.990333 28:-0.971061 29:-0.267398 30:-0.0731909 31:0.253814 
1.05878186271945 0.9995522477284631 1.469924777671734 0.959828216834486 1.274646301507691 0.7618779143231157 1.052849386893765 1.636592529482911 1.790266846475092 1:0.0367261 2:0.0553923 3:-0.02576 4:0.0251765 5:0.0246386 6:-0.111056 7:0.0347805 8:-0.0494503 9:-0.00205175 10:-0.1458 11:0.00719202 12:-0.215872 13:0.0645902 14:-0.232864 15:-0.0228675 16:-0.00919133 17:0.079634 18:-0.622877 19:0.12421 20:-0.791234 21:-0.372232 22:0.073344 23:0.272071 24:-0.196801 25:-0.716508 26:-0.993297 27:-0.99912 28:-0.991495 29:-0.267758 30:-0.0792416 31:0.253785 
-0.3025968414646241 0.1695794929205934 0.2797656405481359 0.1612210438177054 0.3770353553324963 0.1037935365889361 0.7121428403324139 0.878656473828564 0.4902574707242515 1:-0.489338 2:-0.36718 3:-0.39304 4:-0.362613 5:-0.370308 6:-0.4383 7:-0.34983 8:-0.454027 9:-0.444158 10:-0.47044 11:-0.532285 12:-0.594997 13:-0.501311 14:-0.255792 15:0.230699 16:-0.000181882 17:-0.172618 18:-0.397234 19:-0.29175 20:-0.681514 21:-0.537003 22:0.239857 23:0.268232 24:-0.272312 25:-0.54336 26:-0.767018 27:-0.951306 28:-0.932323 29:-0.264848 30:-0.0588219 31:0.253545 
-0 0 0 0 0 0 0.1134911259600879 0 0 1:-0.555401 2:-0.430367 3:-0.496402 4:-0.426402 5:-0.435031 6:-0.569445 7:-0.41241 8:-0.513338 9:-0.497876 10:-0.62207 11:-0.598609 12:-0.446534 13:-0.601466 14:-0.175394 15:-0.0382989 16:0.177902 17:-0.131557 18:-0.361923 19:-0.232516 20:-0.693533 21:-0.528341 22:0.0969289 23:0.402755 24:-0.254706 25:-0.538431 26:-0.818965 27:-0.9516 28:-0.977899 29:-0.267236 30:-0.0803216 31:0.253698 
-0.5072467780876448 0.5726906397768439 0.5620113370745079 0.5507943498111293 0.559393660143552 0.4869380828956285 0.3875418908593668 0.5255788879655051 0.5948022183678047 1:-0.814981 2:-0.645906 3:-0.770356 4:-0.60562 5:-0.622522 6:-0.837198 7:-0.56587 8:-0.640367 9:-0.661775 10:-0.877662 11:-0.74648 12:-0.223589 13:-0.793238 14:-0.161666 15:-0.0998853 16:0.202469 17:-0.0616637 18:0.111629 19:-0.260821 20:-0.550275 21:-0.819529 22:0.0510429 23:0.615998 24:-0.186432 25:-0.241128 26:-0.789883 27:-0.716325 28:-0.910384 29:-0.258065 30:-0.0602505 31:0.255963 
-0.2351250094176847 0.2658468041855125 0.2826685519191554 0.7248566274100025 0.2416415461296284 0.2205908459307003 0 0.1357282222281913 0.2615514743827961 1:-0.782718 2:-0.689976 3:-0.693847 4:-0.695908 5:-0.658366 6:-0.74107 7:-0.6763 8:-0.737102 9:-0.695814 10:-0.778132 11:-0.770626 12:-0.373174 13:-0.755158 14:0.134737 15:-0.252219 16:0.208433 17:-0.165338 18:-0.0924474 19:-0.461289 20:-0.549363 21:-0.334045 22:-0.156675 23:0.586177 24:-0.329056 25:-0.321671 26:-0.5821 27:-0.890114 28:-0.894003 29:-0.259836 30:-0.0111408 31:0.255378 
-0.07619960234851816 0 0 0 0 0 0.7498351272799523 0.0263269996196851 0 1:-0.648113 2:-0.532965 3:-0.592482 4:-0.531673 5:-0.545606 6:-0.654636 7:-0.514711 8:-0.622637 9:-0.60646 10:-0.694131 11:-0.664127 12:-0.45201 13:-0.638236 14:-0.0511305 15:-0.0710971 16:0.108314 17:-0.0924765 18:-0.25792 19:-0.345846 20:-0.614899 21:-0.488496 22:0.0799981 23:0.372234 24:-0.230367 25:-0.437312 26:-0.71389 27:-0.970783 28:-0.983175 29:-0.267475 30:-0.078199 31:0.253794 
-0 0.1586419743845276 0.1412876729249925 0.0006970284873425586 0.2157117359624719 0.1402612365840676 0 0.3634155192661604 0.1400174124092088 1:-0.854814 2:-0.69759 3:-0.776504 4:-0.670267 5:-0.662402 6:-0.819019 7:-0.636467 8:-0.701128 9:-0.699355 10:-0.84409 11:-0.813638 12:-0.30233 13:-0.78456 14:-0.0188575 15:-0.0875931 16:0.102408 17:-0.0900196 18:0.0672147 19:-0.486678 20:-0.446198 21:-0.639178 22:0.0718468 23:0.464391 24:-0.229401 25:-0.179762 26:-0.549832 27:-0.898851 28:-0.952424 29:-0.265249 30:-0.0779927 31:0.253828 
-0.3714172388840233 0.3297686332885053 0.1648932751150803 0.1942089112593722 0.2603532639587361 0.2491922352720102 0 0.3882280101100206 0.1720352747789597 1:-0.674275 2:-0.523013 3:-0.592545 4:-0.492853 5:-0.505036 6:-0.636201 7:-0.459066 8:-0.550399 9:-0.549969 10:-0.66336 11:-0.63229 12:-0.418409 13:-0.633094 14:-0.206088 15:0.0768144 16:0.112862 17:-0.120276 18:-0.11739 19:-0.342922 20:-0.570144 21:-0.657827 22:0.221118 23:0.385388 24:-0.256059 25:-0.347383 26:-0.716776 27:-0.905341 28:-0.908834 29:-0.261537 30:-0.0491187 31:0.254522 
-0 0 0 0.0771613325459783 0 0.01930418305903204 0.05487960975025769 0.02929702886175004 0.03780805112347915 1:-0.801654 2:-0.625851 3:-0.686012 4:-0.581853 5:-0.56553 6:-0.705962 7:-0.538112 8:-0.596 9:-0.590632 10:-0.71776 11:-0.736926 12:-0.355888 13:-0.716607 14:-0.157566 15:0.0367159 16:0.108216 17:-0.151779 18:0.0825397 19:-0.470782 20:-0.447514 21:-0.786852 22:0.25258 23:0.438402 24:-0.317231 25:-0.174665 26:-0.570213 27:-0.816391 28:-0.851781 29:-0.249946 30:-0.0589032 31:0.251397 
-0 0.02062083396167958 0.27273863885604 0 0.1169057966391155 0 0.5498333719829491 0.02624950909817425 0.1918394273605483 1:-0.713643 2:-0.537337 3:-0.624751 4:-0.501103 5:-0.508781 6:-0.662877 7:-0.464395 8:-0.552051 9:-0.551588 10:-0.685611 11:-0.710068 12:-0.395404 13:-0.659268 14:-0.166954 15:0.0553481 16:0.079292 17:-0.117847 18:-0.16895 19:-0.372137 20:-0.537319 21:-0.664059 22:0.220357 23:0.35871 24:-0.257508 25:-0.342978 26:-0.685557 27:-0.915615 28:-0.894606 29:-0.260271 30:-0.0493396 31:0.254248 
-0.3332163865765512 0.4632778789561735 0.3223464705806069 0.4465595442910963 0.4065426849335931 0.5010750884222862 0.289854838617294 1.439161870681205 0.4474210637581975 1:-0.409581 2:-0.322068 3:-0.241554 4:-0.340123 5:-0.262316 6:-0.25245 7:-0.341364 8:-0.385911 9:-0.296465 10:-0.2674 11:-0.491062 12:-0.620243 13:-0.448209 14:-0.205011 15:0.0458087 16:0.22416 17:-0.299093 18:-0.484721 19:-0.235421 20:-0.720414 21:-0.469363 22:0.123554 23:0.387629 24:-0.319918 25:-0.607728 26:-0.816498 27:-0.957494 28:-0.986245 29:-0.26791 30:-0.0859204 31:0.253687 
-0.2288356279505409 0.226501446950204 0.2668515982074947 0.4166357604024061 0.233589395505622 0.1704675202459572 0.2798894469667494 0.2716947363593825 0.290566312655146 1:-0.153787 2:-0.0993065 3:-0.198455 4:-0.153784 5:-0.188488 6:-0.35382 7:-0.184464 8:-0.323571 9:-0.296481 10:-0.454519 11:-0.38093 12:-0.47956 13:-0.401514 14:-0.255426 15:-0.143396 16:0.281341 17:0.00753914 18:-0.698734 19:-0.0169233 20:-0.86467 21:-0.409787 22:0.0471169 23:0.358326 24:-0.202742 25:-0.802474 26:-0.952838 27:-0.984323 28:-0.996053 29:-0.267747 30:-0.0792522 31:0.253787 
-1.776193570911302 0.9429317931427984 0.7373502914531262 0.7842558418775398 0.9307430800402455 0.6314893445806421 1.318410273642812 2.091829777466065 0.9043926490337084 1:-0.249345 2:-0.376179 3:-0.280582 4:-0.466342 5:-0.535404 6:-0.387678 7:-0.486244 8:-0.686786 9:-0.661573 10:-0.441286 11:-0.316934 12:-0.86412 13:-0.323928 14:0.294602 15:-0.147613 16:-0.0928005 17:0.097038 18:-0.538368 19:-0.249112 20:-0.774138 21:-0.251153 22:0.0430548 23:0.237902 24:-0.169987 25:-0.669884 26:-0.805152 27:-0.994962 28:-0.996712 29:-0.267759 30:-0.0808271 31:0.253781 
-0.5567611415254099 0.672163889272855 0.6515190885685553 1.079100233431084 0.6948948507841599 0.6851881433154644 0.6923638514933342 0.7040645406516375 0.6777106974241091 1:-0.318266 2:-0.341952 3:-0.292185 4:-0.434402 5:-0.375743 6:-0.405151 7:-0.469628 8:-0.554969 9:-0.450531 10:-0.479306 11:-0.558506 12:-0.505432 13:-0.488928 14:0.182951 15:-0.43409 16:0.310701 17:-0.0274809 18:-0.682057 19:-0.101483 20:-0.814231 21:-0.287127 22:-0.0650954 23:0.403568 24:-0.205376 25:-0.75753 26:-0.910391 27:-0.970586 28:-0.986904 29:-0.267577 30:-0.0757342 31:0.253743 
-0.8847092896341981 0.9778488123128846 0.9577153326920086 0.9194265702275699 0.9742446834657555 1.026865394113893 0.7356661955375239 1.068061763336221 1.027072444846906 1:0.0730025 2:-0.0583191 3:0.210136 4:-0.173601 5:-0.107961 6:0.153347 7:-0.211775 8:-0.36182 9:-0.199533 10:0.100843 11:-0.0958835 12:-1 13:-0.131346 14:0.190588 15:-0.384065 16:0.390855 17:-0.319686 18:-0.713013 19:-0.119496 20:-0.869498 21:-0.289982 22:0.00913832 23:0.353647 24:-0.266639 25:-0.811827 26:-0.900008 27:-0.994829 28:-0.989812 29:-0.267702 30:-0.0764534 31:0.253782 
-0.52673049360496 0.622160203823675 0.5764249366861305 0.6275816267926497 0.6280715930107392 0.7912713111615325 0.4522166219512055 0.8484684317455029 0.6605252407548159 1:0.151287 2:0.161859 3:0.28605 4:0.0734381 5:0.191462 6:0.219169 7:0.0178988 8:-0.0160701 9:0.14705 10:0.158065 11:-0.186457 12:-0.720391 13:-0.0960614 14:-0.334957 15:0.0488684 16:0.453487 17:-0.31456 18:-0.816723 19:-0.00845833 20:-0.889526 21:-0.375772 22:0.082218 23:0.355868 24:-0.261245 25:-0.868317 26:-0.956115 27:-0.987355 28:-0.9987 29:-0.26776 30:-0.0801514 31:0.253776 
-0.5822204530066827 0.5673852195053232 0.6745364391250651 0.5161706035866441 0.5617703547443125 0.4130203926942689 0.4729758431183421 0.8450120637336808 0.6114759630655512 1:0.22316 2:0.228352 3:0.232104 4:0.128211 5:0.131311 6:0.0966461 7:0.0675442 8:-0.0835004 9:0.012044 10:-0.00281142 11:-0.173799 12:-0.779876 13:-0.0615241 14:-0.259764 15:0.0242929 16:0.220432 17:-0.14668 18:-0.853571 19:-0.00589575 20:-0.905352 21:-0.356501 22:0.0765067 23:0.310224 24:-0.235091 25:-0.895005 26:-0.957075 27:-0.996411 28:-0.998483 29:-0.267754 30:-0.0798186 31:0.253777 
-0.1050079483545523 0.005773478155129902 0.02285642568975942 0.1166739947640338 0.1155817069152919 0.1483866746666205 0.05460881664737161 0.07814929229979878 0.2472821612859304 1:-0.220264 2:-0.074995 3:-0.0575526 4:-0.0536924 5:0.00597627 6:-0.0940461 7:-0.0324729 8:-0.066541 9:-0.0312684 10:-0.127693 11:-0.295727 12:-0.576095 13:-0.366711 14:-0.554899 15:0.355445 16:0.215108 17:-0.243833 18:-0.557019 19:-0.0884878 20:-0.813198 21:-0.519563 22:0.194599 23:0.346795 24:-0.272316 25:-0.706972 26:-0.917684 27:-0.950593 28:-0.966386 29:-0.266715 30:-0.0738572 31:0.253777 
-0.3820801570523136 0.6277416145579708 0.6140387719433774 0.6131934033645191 0.5854982848460839 0.5157787045456679 0.4174223662022618 1.062805113139885 0.6366386031807283 1:-0.0564307 2:-0.3254 3:-0.116217 4:-0.457471 5:-0.505326 6:-0.256332 7:-0.489494 8:-0.692581 9:-0.637043 10:-0.334038 11:-0.176422 12:-0.921862 13:-0.233831 14:0.546254 15:-0.440459 16:0.0454103 17:0.109767 18:-0.64764 19:-0.15346 20:-0.846227 21:-0.207173 22:-0.0158424 23:0.285061 24:-0.185055 25:-0.768129 26:-0.878076 27:-0.989924 28:-0.991202 29:-0.267725 30:-0.0792601 31:0.253753 
-0.7871732590386886 0.8643643920141539 0.8556561322495007 0.8191450248012055 1.104014097718597 0.8232832771849622 0.6665770711034862 1.126421698555885 0.9215758644567142 1:0.0640173 2:-0.277629 3:0.0253118 4:-0.460858 5:-0.417588 6:-0.0935086 7:-0.519085 8:-0.669379 9:-0.499835 10:-0.155275 11:-0.24908 12:-0.842932 13:-0.0697487 14:0.601271 15:-0.740897 16:0.359693 17:0.0850209 18:-0.791691 19:-0.0731898 20:-0.84673 21:-0.213368 22:-0.0552144 23:0.34836 24:-0.197221 25:-0.825854 26:-0.925211 27:-0.983079 28:-0.980659 29:-0.267552 30:-0.0764219 31:0.253702 
-0.2869093918539557 0.2318943824221468 0.2277457464762494 0.1700109513202733 0.2415268517293825 0.181845535974926 0.05203531626910781 0.3118041631592012 0.3021035361636868 1:-0.379415 2:-0.270998 3:-0.433112 4:-0.272255 5:-0.362556 6:-0.546863 7:-0.261818 8:-0.429399 9:-0.437828 10:-0.612228 11:-0.432974 12:-0.401205 13:-0.446115 14:-0.291336 15:0.0121501 16:0.208141 17:0.0292359 18:-0.466222 19:-0.0712131 20:-0.7447 21:-0.49556 22:0.104964 23:0.37219 24:-0.178856 25:-0.61881 26:-0.927298 27:-0.969823 28:-0.973382 29:-0.267795 30:-0.0722699 31:0.254031 
-0 0.02495322152461572 0.01703094958932622 0 0.1209469709052287 0 0 0.004811643208527766 0.02280707830176619 1:-0.332975 2:-0.217724 3:-0.405044 4:-0.231349 5:-0.28632 6:-0.515547 7:-0.234772 8:-0.361809 9:-0.329999 10:-0.562126 11:-0.481167 12:-0.240521 13:-0.370034 14:-0.285156 15:-0.253963 16:0.349757 17:0.203691 18:-0.585508 19:0.0455739 20:-0.737078 21:-0.472999 22:-0.000740606 23:0.424947 24:-0.11933 25:-0.660501 26:-0.974275 27:-0.942956 28:-0.987215 29:-0.268013 30:-0.0775465 31:0.253803 
-0 0 0 0.002148129115526934 0 0 1.075774497997832 0.01060561577214573 0.06180403067549811 1:-0.187594 2:-0.101755 3:-0.291123 4:-0.145944 5:-0.213848 6:-0.427531 7:-0.16658 8:-0.330391 9:-0.291261 10:-0.49159 11:-0.440252 12:-0.331931 13:-0.295854 14:-0.164032 15:-0.319917 16:0.247632 17:0.221073 18:-0.71265 19:0.038704 20:-0.800517 21:-0.39079 22:-0.003254 23:0.35293 24:-0.142969 25:-0.759293 26:-0.972017 27:-0.97704 28:-0.99531 29:-0.267793 30:-0.0789515 31:0.253773 
-0.8901291763674917 1.004623819665587 1.00092607046532 0.9666540916502812 1.0073827400181 0.8546131277023276 0.7798767534227414 0.9247102796721985 1.072063642661879 1:-0.78686 2:-0.64152 3:-0.552896 4:-0.620921 5:-0.386982 6:-0.517921 7:-0.593485 8:-0.419425 9:-0.321754 10:-0.523504 11:-0.759556 12:-0.0166407 13:-0.784047 14:-0.0720232 15:-0.199306 16:-0.121896 17:-0.486683 18:-0.0449305 19:0.120216 20:-0.587732 21:-0.63556 22:-0.0864098 23:0.0590101 24:-0.76471 25:-0.3319 26:-0.990792 27:-0.979988 28:-0.220948 29:-0.2581 30:-0.164434 31:0.28637 
-0.1666711773398306 0.1953715259604407 0.2146907049309827 0.1992837239367723 0.2000384740983691 0.1655287553853529 0 0.1716827866997147 0.7712178939143409 1:-0.394124 2:-0.202874 3:-0.539226 4:-0.138173 5:-0.293232 6:-0.654196 7:-0.0761484 8:-0.262683 9:-0.333879 10:-0.696795 11:-0.356314 12:0.0275096 13:-0.393274 14:-0.527749 15:-0.232838 16:0.343647 17:0.307872 18:-0.353988 19:0.202015 20:-0.698941 21:-0.610741 22:-0.000651508 23:0.444131 24:-0.0588403 25:-0.539378 26:-0.999741 27:-0.896295 28:-0.935476 29:-0.270716 30:-0.0791397 31:0.254983 
-0.03415226945471281 0.02699703046626743 0.04610803235839722 0.1333261744203316 0.03802646896007107 0.02971828045976098 0 0.2558329066677659 0.0401448122395929 1:-0.308308 2:-0.0771021 3:-0.265609 4:-0.0419595 5:-0.0281041 6:-0.358591 7:-0.0229852 8:-0.0587468 9:-0.0550813 10:-0.416362 11:-0.598307 12:-0.199297 13:-0.429906 14:-0.392181 15:-0.0445927 16:0.376536 17:-0.0328458 18:-0.732395 19:0.0756082 20:-0.78856 21:-0.503891 22:0.0778831 23:0.428269 24:-0.207725 25:-0.758069 26:-0.98126 27:-0.948795 28:-0.987269 29:-0.267611 30:-0.0792954 31:0.253866 
-0 0 0 0 0 0 1.319441617386109 0 0 1:-0.378744 2:-0.209045 3:-0.462248 4:-0.182024 5:-0.285905 6:-0.572844 7:-0.15142 8:-0.322366 9:-0.342603 10:-0.622372 11:-0.472032 12:-0.189436 13:-0.404577 14:-0.320053 15:-0.244485 16:0.218886 17:0.175974 18:-0.510965 19:0.0640088 20:-0.719641 21:-0.507921 22:-0.00341965 23:0.377289 24:-0.118826 25:-0.617586 26:-0.980254 27:-0.952862 28:-0.972457 29:-0.268128 30:-0.0765197 31:0.254069 
-0 0 0 0 0 0 0.03678926955459175 0 0 1:-0.394451 2:-0.247788 3:-0.377565 4:-0.267414 5:-0.253085 6:-0.47197 7:-0.282925 8:-0.354679 9:-0.300196 10:-0.524401 11:-0.659912 12:-0.309782 13:-0.473907 14:-0.192802 15:-0.255475 16:0.306101 17:0.0246802 18:-0.702999 19:-0.01922 20:-0.749832 21:-0.457624 22:-0.0106097 23:0.425236 24:-0.179056 25:-0.716958 26:-0.94791 27:-0.950041 28:-0.996051 29:-0.267723 30:-0.079982 31:0.253788 
-0.1784033966443479 0.2260804097559217 0.200306066148807 0.1765040779754203 0.2032634008013964 0.1932659211484457 0.500431484650531 0.1849871016463422 0.1941604976547484 1:-0.224688 2:-0.0188467 3:-0.307046 4:0.00816245 5:-0.0776012 6:-0.43578 7:0.0230953 8:-0.121664 9:-0.138763 10:-0.492771 11:-0.480063 12:-0.129181 13:-0.323969 14:-0.491591 15:-0.415712 16:0.279374 17:0.234914 18:-0.709171 19:0.12714 20:-0.790373 21:-0.501598 22:-0.0370695 23:0.369883 24:-0.132406 25:-0.750202 26:-0.992247 27:-0.949525 28:-0.977711 29:-0.267714 30:-0.0797258 31:0.254029 
-0.506703100255751 0.5875146580931131 0.6108681554422867 1.005105740231574 0.6139173421306964 0.4960667933310288 0.8258666090110334 0.54924731376622 0.6455739141443183 1:-0.547784 2:-0.377295 3:-0.489753 4:-0.379999 5:-0.314078 6:-0.552606 7:-0.387521 8:-0.387422 9:-0.318543 10:-0.584061 11:-0.76868 12:-0.163945 13:-0.554366 14:-0.200003 15:-0.336139 16:0.340668 17:-0.0104377 18:-0.645775 19:0.0282332 20:-0.660837 21:-0.540132 22:-0.0966145 23:0.52203 24:-0.178051 25:-0.626594 26:-0.960258 27:-0.862754 28:-0.990278 29:-0.267702 30:-0.082006 31:0.253659 
-0.4152999647140614 0.4889184391007667 0.4852157130826882 0.4674856800019376 0.4890449760648869 0.4159417851912189 0.3721084712741479 0.4318667580431128 0.5277180020712643 1:0.114503 2:0.333886 3:0.167107 4:0.41633 5:0.331111 6:0.0899508 7:0.501452 8:0.353326 9:0.277768 10:0.0413952 11:0.0321745 12:-0.541155 13:-0.0103174 14:-0.788571 15:0.949595 16:0.0850834 17:-0.15504 18:-0.677695 19:0.0349292 20:-0.850781 21:-0.458472 22:0.231464 23:0.290569 24:-0.237845 25:-0.783552 26:-0.972097 27:-0.963539 28:-0.963359 29:-0.267039 30:-0.0731467 31:0.254098 
-0 0 0 0 0 0 0 0 0.06065466185715659 1:-0.151274 2:-0.00261226 3:-0.0911379 4:0.0225359 5:-0.0183837 6:-0.157591 7:0.0528317 8:-0.0709155 9:-0.0785807 10:-0.194959 11:-0.231316 12:-0.570904 13:-0.218335 14:-0.522629 15:0.526793 16:0.101511 17:-0.0960344 18:-0.587176 19:-0.055691 20:-0.788967 21:-0.482224 22:0.222252 23:0.303577 24:-0.229119 25:-0.700573 26:-0.935197 27:-0.963783 28:-0.957711 29:-0.266911 30:-0.0684672 31:0.254191 
-0.172980239310122 0.2209482639828012 0.1738497016031169 0.1450163637593665 0.192163166122685 0.1310424738225368 0.125682275505577 0.1372638990245624 0.0692987173059775 1:-0.175889 2:-0.0344791 3:-0.0422396 4:-0.0322672 5:0.0310004 6:-0.104275 7:-0.0279837 8:-0.0651803 9:-0.0101009 10:-0.162611 11:-0.350556 12:-0.531099 13:-0.362819 14:-0.477773 15:0.181456 16:0.320437 17:-0.268392 18:-0.652836 19:-0.0479929 20:-0.8367 21:-0.478503 22:0.135555 23:0.374284 24:-0.27504 25:-0.762961 26:-0.938928 27:-0.96254 28:-0.986109 29:-0.26755 30:-0.079807 31:0.253722 
-0.3579186684772711 0.3568437626538608 0.4460843254188939 0.4074433586436753 0.4020577531669233 0.3492678718391684 0.3238108167394055 0.3218716793529051 0.3735291432154109 1:-0.229292 2:0.0122074 3:-0.0587314 4:0.0902821 5:0.115674 6:-0.0784947 7:0.159253 8:0.106025 9:0.0879653 10:-0.0958245 11:-0.346031 12:-0.548654 13:-0.328558 14:-0.588557 15:0.614887 16:0.0484038 17:-0.258152 18:-0.589006 19:-0.0794006 20:-0.789601 21:-0.534448 22:0.27618 23:0.289288 24:-0.277387 25:-0.701785 26:-0.923009 27:-0.931176 28:-0.936608 29:-0.264593 30:-0.0654675 31:0.253939 
-0.4456322956654119 0.5124395144761207 0.5389320089047026 0.4918778775098421 0.5137933319757151 0.4393979247390385 0.3876486396298465 0.4319709926132902 0.5950906149817513 1:-0.359113 2:-0.0905371 3:-0.284996 4:0.00895264 5:-0.107579 6:-0.338598 7:0.101289 8:-0.102186 9:-0.205538 10:-0.370116 11:-0.443753 12:-0.590592 13:-0.378075 14:-0.466029 15:0.714078 16:-0.296031 17:-0.121607 18:-0.509415 19:-0.177295 20:-0.720338 21:-0.560089 22:0.38606 23:0.132506 24:-0.240125 25:-0.6175 26:-0.861179 27:-0.895863 28:-0.818512 29:-0.24881 30:-0.0130416 31:0.254256 
-0.6931041556388823 0.7496344417131038 0.7602339200694707 0.7244381541322765 0.7448683859519029 0.645890482326311 0.5787305521868781 0.6738190241973291 0.8715547475024709 1:-0.491782 2:-0.338043 3:-0.488616 4:-0.276262 5:-0.427117 6:-0.57597 7:-0.206394 8:-0.435164 9:-0.542293 10:-0.626025 11:-0.322185 12:-0.575187 13:-0.518026 14:-0.380999 15:0.542658 16:-0.206967 17:-0.0138035 18:-0.0991509 19:-0.278541 20:-0.691828 21:-0.611484 22:0.414801 23:0.13487 24:-0.186726 25:-0.432536 26:-0.771098 27:-0.895585 28:-0.735458 29:-0.23689 30:0.0632724 31:0.259495 
-0.5877147476303861 0.6828169586761389 0.668836955048833 0.6538622865642719 0.6840790196380003 0.5810273282282532 0.522408253845477 0.6097562603428263 0.7696128677233184 1:-0.101047 2:0.00343803 3:-0.136145 4:0.048152 5:-0.158891 6:-0.281589 7:0.120302 8:-0.194315 9:-0.352924 10:-0.373492 11:0.0547869 12:-0.803361 13:-0.327385 14:-0.393543 15:0.799671 16:-0.388744 17:0.0203868 18:-0.438908 19:-0.130006 20:-0.860106 21:-0.433274 22:0.272466 23:0.166357 24:-0.202102 25:-0.69558 26:-0.886373 27:-0.961405 28:-0.920474 29:-0.264657 30:-0.0495941 31:0.254343 
-0.5910867260668955 0.5904476665283486 0.68398616328997 0.5524657177698666 0.5775877848890384 0.4917636384858105 0.4512915221590066 0.6188980380420188 0.7131911551705148 1:0.0793627 2:0.141351 3:0.059548 4:0.12388 5:-0.0109465 6:-0.0781794 7:0.134005 8:-0.119748 9:-0.187618 10:-0.17049 11:-0.00632803 12:-0.862505 13:-0.154796 14:-0.408914 15:0.634203 16:-0.262343 17:-0.0555076 18:-0.66884 19:-0.0737248 20:-0.879198 21:-0.398987 22:0.186638 23:0.221493 24:-0.221672 25:-0.80161 26:-0.925452 27:-0.985646 28:-0.970196 29:-0.267302 30:-0.070891 31:0.253827 
-0.2861727419937536 0.3727526554621797 0.3515547235128044 0.3568331948358872 0.3738392378793609 0.3175904014825977 0.2815593932343858 0.2886373926090568 0.3680451488299175 1:0.0101922 2:0.163053 3:0.0589709 4:0.223784 5:0.086171 6:-0.023635 7:0.303266 8:0.0606761 9:-0.0453694 10:-0.0797857 11:0.0740382 12:-0.804299 13:-0.116859 14:-0.578624 15:0.979309 16:-0.280517 17:-0.162472 18:-0.556876 19:-0.0809575 20:-0.837247 21:-0.446288 22:0.269435 23:0.210607 24:-0.241233 25:-0.72518 26:-0.921022 27:-0.955821 28:-0.942803 29:-0.265668 30:-0.0620379 31:0.254066 
-0.4210455648285927 0.3413537431448968 0.3971781265134586 0.3307240670715262 0.3480721383739227 0.2934964433321848 0.263148471801077 0.4982724641962883 0.3463611968739003 1:0.0662808 2:0.149709 3:0.132122 4:0.148976 5:0.144072 6:0.0517727 7:0.170796 8:0.101039 9:0.0610947 10:-0.00341693 11:0.0100846 12:-0.5944 13:-0.0887125 14:-0.483067 15:0.986099 16:-0.0983773 17:-0.172157 18:-0.648308 19:0.00682749 20:-0.853576 21:-0.415 22:0.251861 23:0.25398 24:-0.241652 25:-0.773975 26:-0.962076 27:-0.961615 28:-0.966325 29:-0.267129 30:-0.0723908 31:0.254077 
-0.2549476372626022 0.3338397518727255 0.3689667511958752 0.318293533462896 0.3324699255415894 0.2857838272778696 0.2535015925011537 0.2620819848751949 0.4381676352377352 1:-0.0900821 2:0.102992 3:-0.0424361 4:0.179443 5:0.103473 6:-0.111238 7:0.266551 8:0.141998 9:0.0417186 10:-0.149797 11:-0.0615986 12:-0.465001 13:-0.151529 14:-0.589734 15:1 16:-0.104746 17:-0.10243 18:-0.533987 19:0.00933858 20:-0.797895 21:-0.478298 22:0.314881 23:0.245104 24:-0.230367 25:-0.686183 26:-0.962929 27:-0.935514 28:-0.924483 29:-0.265052 30:-0.0633237 31:0.255091 
-0.02347783053263668 0.02926181148307483 0.01404728510003023 0.03308473426298707 0.03334249487273593 0.02845581134834856 0.02221010208271699 0.02721623701065532 0.005191770018596562 1:-0.0710359 2:0.0625362 3:-0.0626119 4:0.117839 5:-0.0154031 6:-0.175936 7:0.195958 8:-0.0139082 9:-0.15224 10:-0.250765 11:0.044488 12:-0.632107 13:-0.240458 14:-0.477259 15:0.971172 16:-0.252321 17:-0.0690143 18:-0.483919 19:-0.0495741 20:-0.841553 21:-0.445604 22:0.299715 23:0.207772 24:-0.222966 25:-0.699409 26:-0.934655 27:-0.94708 28:-0.92844 29:-0.265151 30:-0.0592922 31:0.254712 
-0.02171301218789863 0.04441300604333878 0.0810606126480302 0.038425873980237 0.04255869956220831 0.02594738374415203 0.03065231977917053 0.04008029030849163 0.07349612438747923 1:-0.126642 2:0.0850618 3:-0.12107 4:0.171602 5:0.0655086 6:-0.218092 7:0.255601 8:0.102699 9:0.0189114 10:-0.279782 11:-0.104787 12:-0.359609 13:-0.224296 14:-0.766964 15:0.610927 16:0.278434 17:-0.0813353 18:-0.521482 19:0.0423056 20:-0.80585 21:-0.537358 22:0.235804 23:0.35339 24:-0.225479 25:-0.687246 26:-0.973743 27:-0.940893 28:-0.946388 29:-0.266586 30:-0.0701722 31:0.254654 
-0.5347591393837647 0.5996831930180382 0.5974685476003476 0.5742083996121012 0.6012091833030753 0.5101716041271331 0.4556795594063723 0.5673908059514062 0.6441025543916812 1:0.195034 2:0.351676 3:0.27867 4:0.404727 5:0.390489 6:0.229232 7:0.472658 8:0.397483 9:0.37183 10:0.207298 11:0.165447 12:-0.516051 13:0.109595 14:-0.722241 15:0.976213 16:0.0654359 17:-0.166542 18:-0.676056 19:0.058196 20:-0.850966 21:-0.429219 22:0.215155 23:0.285672 24:-0.238221 25:-0.783039 26:-0.979093 27:-0.971245 28:-0.973357 29:-0.267381 30:-0.075551 31:0.253962 
-0.05832372262880874 0.04256417051446024 0.002527628226916798 0.0359542055298389 0.04150390404717082 0.03242470587569783 0.03021350661631018 0.05477636554191481 0.0223010958128938 1:-0.199608 2:0.0176356 3:-0.107142 4:0.12278 5:0.0494549 6:-0.15787 7:0.236031 8:0.0945546 9:0.00735012 10:-0.18762 11:-0.0826059 12:-0.504536 13:-0.259581 14:-0.645196 15:0.821781 16:0.0837064 17:-0.147768 18:-0.407004 19:-0.045328 20:-0.776732 21:-0.537557 22:0.323029 23:0.3003 24:-0.243716 25:-0.619562 26:-0.938196 27:-0.914467 28:-0.918364 29:-0.264303 30:-0.0568586 31:0.255497 
-0.3291845382973519 0.3493741316740939 0.3919278760983812 0.337751711295782 0.3582528579006634 0.2952171178736506 0.2861203851767541 0.4698420876062733 0.5238031117134019 1:-0.315753 2:-0.173224 3:-0.315596 4:-0.141493 5:-0.243354 6:-0.417697 7:-0.0981607 8:-0.255987 9:-0.370942 10:-0.482523 11:-0.307023 12:-0.520873 13:-0.407783 14:-0.354456 15:0.792448 16:-0.322437 17:-0.0506684 18:-0.433962 19:-0.108893 20:-0.771222 21:-0.49288 22:0.384587 23:0.134686 24:-0.213735 25:-0.626108 26:-0.9053 27:-0.903907 28:-0.849316 29:-0.255297 30:-0.0271908 31:0.256405 
-0.1999546113242964 0.250922470802443 0.2148876970284656 0.2401154648060757 0.2469383546671908 0.2180795081699056 0.1700116212906485 0.1835652566024687 0.1921018056550551 1:-0.360042 2:-0.204559 3:-0.347886 4:-0.150736 5:-0.291197 6:-0.451649 7:-0.0878525 8:-0.304868 9:-0.438045 10:-0.518112 11:-0.265428 12:-0.624155 13:-0.471388 14:-0.424146 15:0.733229 16:-0.339733 17:-0.04256 18:-0.315393 19:-0.198598 20:-0.775123 21:-0.542946 22:0.394492 23:0.111758 24:-0.20914 25:-0.581875 26:-0.840615 27:-0.899534 28:-0.79998 29:-0.246746 30:0.0103336 31:0.255939 
-0.1381156402394959 0.3029475958343551 0.2991427581517411 0.1582975664079621 0.1595592914083007 0.1204378534818981 0.1666778928751708 0.2357840362649982 0.5325220634653079 1:-0.254191 2:-0.102016 3:-0.120688 4:-0.0855 5:-0.0520062 6:-0.169528 7:-0.0644067 8:-0.124011 9:-0.112703 10:-0.214305 11:-0.371165 12:-0.578983 13:-0.381163 14:-0.408381 15:0.430956 16:0.0780073 17:-0.261115 18:-0.580694 19:-0.106958 20:-0.799168 21:-0.486594 22:0.228545 23:0.300931 24:-0.28095 25:-0.705741 26:-0.907526 27:-0.95244 28:-0.965553 29:-0.266698 30:-0.0723323 31:0.253748 
-0.009915026139448981 0.09207859911863443 0.2968340139336186 0 0.03670423120115172 0.001648485121898338 0 0.07942916428346684 0 1:-0.148744 2:0.0373016 3:-0.0118593 4:0.0683469 5:0.103875 6:-0.0587213 7:0.0998459 8:0.0508708 9:0.0547259 10:-0.0989246 11:-0.326672 12:-0.555934 13:-0.287998 14:-0.471912 15:0.562433 16:0.0638162 17:-0.254709 18:-0.662391 19:-0.0482026 20:-0.819632 21:-0.467534 22:0.230734 23:0.292109 24:-0.269145 25:-0.753803 26:-0.93876 27:-0.957093 28:-0.96787 29:-0.266866 30:-0.0730955 31:0.253855 
-0 0.02905036186139981 0 0 0 0.008217345118057089 0 0 0 1:-0.187533 2:-0.0293319 3:-0.0353997 4:-0.0029402 5:0.0489247 6:-0.0754623 7:0.0271979 8:-0.00163663 9:0.00657515 10:-0.117148 11:-0.285234 12:-0.555593 13:-0.328517 14:-0.49075 15:0.591163 16:0.114009 17:-0.314404 18:-0.587759 19:-0.0639627 20:-0.815068 21:-0.486549 22:0.252156 23:0.309577 24:-0.288663 25:-0.720629 26:-0.930951 27:-0.939797 28:-0.966491 29:-0.266615 30:-0.0725313 31:0.253814 
-0.7593359538900507 0.8677504820821754 0.8653837009404494 0.831127451557491 0.8703777226011946 0.7388102762496667 0.6607647504262616 0.7997602019246984 0.9496419741630652 1:0.493335 2:0.683258 3:0.263958 4:0.732886 5:0.616618 6:0.053551 7:0.783678 8:0.685221 9:0.582437 10:-0.0539191 11:0.261574 12:0.303672 13:0.210375 14:-1 15:-0.0633109 16:0.756912 17:0.348078 18:-0.826981 19:0.259687 20:-0.925826 21:-0.411437 22:0.063007 23:0.359216 24:-0.186745 25:-0.899971 26:-0.997478 27:-0.984258 28:-0.993837 29:-0.267784 30:-0.0801825 31:0.253794 
-0.7611217036511637 0.8740096330274415 0.8684610720158467 0.8341157406675996 0.8723805282510688 0.7412042697704087 0.6621810702450617 0.8023870255070407 0.977161740364458 1:0.37837 2:0.580313 3:0.141909 4:0.585221 5:0.531311 6:-0.0512204 7:0.585304 8:0.577619 9:0.500154 10:-0.141895 11:-0.113637 12:0.435081 13:0.169262 14:-0.667101 15:-0.19388 16:0.576814 17:0.401127 18:-0.906952 19:0.295227 20:-0.90133 21:-0.391768 22:0.0489533 23:0.349531 24:-0.174351 25:-0.913201 26:-0.99151 27:-0.987126 28:-0.994836 29:-0.267788 30:-0.0803093 31:0.253781 
-0.8780428888861935 1.00442745907938 1.001039195496789 0.9617464020170586 1.006364215072729 0.8548589395994169 0.7641850094632281 0.9353166217358753 1.07292403786088 1:0.98499 2:0.546479 3:0.787608 4:0.24673 5:0.730887 6:0.61011 7:0.0828604 8:0.510226 9:0.871865 10:0.514594 11:0.350704 12:0.860348 13:0.767247 14:0.0834197 15:0.289536 16:0.991925 17:0.156126 18:-0.988304 19:0.309774 20:-0.952172 21:-0.299733 22:0.0809603 23:0.338623 24:-0.214343 25:-0.984196 26:-0.989272 27:-0.996599 28:-0.997705 29:-0.267754 30:-0.0796053 31:0.253779 
-0.2247745589661879 0.2554844039989429 0.3040246015669253 0.3866850415413904 0.26828181915852 0.2018418383970858 0.08418693134247424 0.1845523380400199 0.5515899824604271 1:-0.0369111 2:0.0406127 3:-0.123729 4:-0.0374585 5:-0.0363833 6:-0.276321 7:-0.0948881 8:-0.185727 9:-0.111149 10:-0.35701 11:-0.473782 12:-0.278519 13:-0.2304 14:-0.225452 15:-0.375303 16:0.348501 17:0.175039 18:-0.857621 19:0.0923298 20:-0.85421 21:-0.380981 22:0.000536034 23:0.35902 24:-0.173085 25:-0.857778 26:-0.985125 27:-0.980448 28:-0.998683 29:-0.267761 30:-0.0797203 31:0.253779 
-0.8487022163045104 0.9708833195027484 0.9672335606683433 0.9293818221694752 0.97265821530855 0.8262769458109493 0.738966885856432 0.8944021566525984 1.038742666938566 1:0.781154 2:1 3:0.614499 4:1 5:1 6:0.426211 7:1 8:1 9:1 10:0.334148 11:0.110413 12:0.262525 13:0.497668 14:-0.732467 15:-0.267603 16:0.593074 17:0.301502 18:-0.986199 19:0.241111 20:-0.946698 21:-0.35862 22:0.0483093 23:0.322392 24:-0.201627 25:-0.979201 26:-0.997775 27:-0.994741 28:-0.99847 29:-0.267758 30:-0.0799178 31:0.253778 
-0.6559213992366952 0.7616892813472275 0.8665744346042878 0.7585734583292932 0.7687537617945187 0.6393314101604004 0.6199508546788118 0.7147529131957998 0.9033122868449586 1:0.0358224 2:0.103795 3:-0.0795335 4:0.0220558 5:0.255278 6:-0.203527 7:-0.0354248 8:0.263201 9:0.319197 10:-0.25263 11:-0.405714 12:0.74025 13:-0.0205444 14:-0.232564 15:0.0068774 16:0.491602 17:0.278016 18:-0.862532 19:0.441313 20:-0.818099 21:-0.372289 22:0.0789196 23:0.380295 24:-0.160794 25:-0.832306 26:-0.943851 27:-0.983958 28:-0.991555 29:-0.267766 30:-0.0795116 31:0.253744 
-0.4834409892788494 0.5489811690372435 0.5505887834646553 0.5572460624591201 0.5543151507336256 0.4689059364473814 0.4131867907526439 0.5120971628947359 0.9136209599283245 1:-0.200727 2:-0.0119536 3:-0.294344 4:0.00863257 5:0.0570773 6:-0.424332 7:0.0235292 8:0.126526 9:0.07608 10:-0.483579 11:-0.433513 12:0.42106 13:-0.294026 14:-0.460432 15:5.80924e-05 16:0.649577 17:0.221867 18:-0.694198 19:0.388153 20:-0.791641 21:-0.482499 22:0.087151 23:0.488772 24:-0.140521 25:-0.745206 26:-0.968354 27:-0.926508 28:-0.983263 29:-0.268131 30:-0.0814828 31:0.253669 
-0.4791999282611963 0.5580590524973227 0.5097283433023916 0.5585931430985048 0.5540771514053761 0.4649336609985977 0.4844927985521851 0.4969247516249083 0.7136908326880911 1:0.0441879 2:0.116256 3:-0.0745602 4:0.0160243 5:0.17729 6:-0.226508 7:-0.0652366 8:0.122038 9:0.194828 10:-0.299585 11:-0.510308 12:0.38815 13:-0.115081 14:-0.249343 15:-0.0211919 16:0.657976 17:0.246878 18:-0.92793 19:0.323201 20:-0.852176 21:-0.37445 22:0.0734877 23:0.414315 24:-0.167284 25:-0.884219 26:-0.982311 27:-0.975094 28:-0.993426 29:-0.267721 30:-0.0790619 31:0.253754 
