svm_type c_svc
kernel_type rbf
gamma 0.25
nr_class 10
total_sv 961
rho 1.32214 0.575194 0.422722 0.480335 0.284131 0.229604 -0.0391105 0.214002 0.799286 -0.639747 -0.564619 -1.26431 -0.466089 -0.535474 -1.51917 -1.44177 -1.09479 -0.156924 -0.0440119 -0.417562 -0.325314 -0.686343 -0.43907 -0.115319 -0.021268 -0.127035 -0.0662147 0.0202725 -0.313449 -0.615954 -0.199467 -0.898862 0.389977 0.0522806 -0.209084 -0.440304 0.212319 -0.32845 -0.111388 -0.103094 0.202431 0.190419 0.210609 0.202103 -0.000125184
label 1 2 3 4 5 6 7 8 9 10
nr_sv 74 76 86 99 74 117 60 114 147 114
SV
4 0 4 0 0 0 4 4 4 1:-0.393728 2:-0.387031 3:-0.373888 4:-0.397994 5:-0.426004 6:-0.408739 7:-0.373127 8:-0.488468 9:-0.468854 10:-0.403312 11:-0.25159 12:-0.489795 13:-0.251095 14:0.00382667 15:0.143117 16:-0.121698 17:0.0841916 18:-0.234284 19:-0.136822 20:-0.609163 21:-0.367474 22:0.163743 23:0.208605 24:-0.153891 25:-0.423547 26:-0.889164 27:-0.995234 28:-0.959794 29:-0.267467 30:-0.0653444 31:0.253914 
0.9150841388667468 0 0 0 0 0 3.99743489539475 4 2.216500234696222 1:0.0655148 2:-0.0872762 3:-0.0374013 4:-0.171985 5:-0.251535 6:-0.137376 7:-0.186718 8:-0.387109 9:-0.344396 10:-0.173492 11:0.0960365 12:-0.686047 13:0.085121 14:0.15336 15:0.0374255 16:-0.170298 17:0.21057 18:-0.599502 19:-0.0226028 20:-0.799585 21:-0.296838 22:0.083443 23:0.239156 24:-0.175632 25:-0.713544 26:-0.950463 27:-0.998905 28:-0.993257 29:-0.267744 30:-0.0787741 31:0.25378 
4 4 0.844464393920483 4 3.694398707342984 3.025042754373772 4 4 4 1:-0.349792 2:-0.423052 3:-0.374982 4:-0.476079 5:-0.534441 6:-0.44275 7:-0.474322 8:-0.639575 9:-0.613744 10:-0.461192 11:-0.299072 12:-0.664391 13:-0.275687 14:0.220485 15:-0.0370411 16:-0.113324 17:0.141218 18:-0.369717 19:-0.215392 20:-0.668258 21:-0.271033 22:0.0825863 23:0.219028 24:-0.139118 25:-0.522338 26:-0.832794 27:-0.995591 28:-0.985471 29:-0.267698 30:-0.0780794 31:0.253806 
0 0 0 0 0 0 0.680318387065133 0 0 1:-0.353518 2:-0.417603 3:-0.352916 4:-0.444947 5:-0.484777 6:-0.405838 7:-0.421336 8:-0.566029 9:-0.54059 10:-0.413018 11:-0.177823 12:-0.56322 13:-0.256093 14:0.23997 15:-0.0485441 16:-0.0480231 17:0.118324 18:-0.233795 19:-0.15675 20:-0.653233 21:-0.262712 22:0.078196 23:0.24863 24:-0.147219 25:-0.456822 26:-0.875327 27:-0.997884 28:-0.988382 29:-0.26775 30:-0.0813252 31:0.253796 
0 0 0 0 0 0 0 2.669150995675393 0 1:-0.333267 2:-0.419663 3:-0.317842 4:-0.461619 5:-0.460916 6:-0.363432 7:-0.448067 8:-0.545962 9:-0.504892 10:-0.36671 11:-0.203387 12:-0.512077 13:-0.230554 14:0.273442 15:0.0236934 16:-0.02957 17:0.0824341 18:-0.299213 19:-0.113709 20:-0.657703 21:-0.250845 22:0.104876 23:0.258018 24:-0.164043 25:-0.486257 26:-0.903475 27:-0.99856 28:-0.987577 29:-0.267793 30:-0.0823257 31:0.253784 
4 3.72048499485924 1.762763080594617 1.192148492328311 3.055454186505578 0 4 3.885173595952859 4 1:-0.786409 2:-0.701017 3:-0.787403 4:-0.679992 5:-0.722126 6:-0.824444 7:-0.6301 8:-0.742407 9:-0.757293 10:-0.82253 11:-0.614116 12:-0.280815 13:-0.603053 14:0.206225 15:-0.0663392 16:-0.162851 17:0.153023 18:0.3752 19:-0.316117 20:-0.29911 21:-0.230718 22:0.0985885 23:-0.00646774 24:0.0988423 25:0.0545392 26:-0.743792 27:-0.904563 28:-0.816264 29:-0.249778 30:-0.0212565 31:0.255726 
4 0 3.376701388081086 1.294426321273551 0 0 4 4 4 1:-0.601633 2:-0.547681 3:-0.587976 4:-0.54037 5:-0.609404 6:-0.634997 7:-0.505869 8:-0.654577 9:-0.676373 10:-0.643858 11:-0.447513 12:-0.523863 13:-0.480186 14:0.0307431 15:0.158719 16:-0.175045 17:0.0827195 18:0.0142729 19:-0.35994 20:-0.520077 21:-0.398642 22:0.250752 23:0.112439 24:-0.101703 25:-0.256952 26:-0.698605 27:-0.975451 28:-0.871861 29:-0.263017 30:-0.00426761 31:0.254987 
0.1165849808531868 2.962267553926715 1.040796250781182 0 0 0 0.3479568271991104 4 0 1:0.649647 2:0.490582 3:0.66907 4:0.377211 5:0.418699 6:0.61958 7:0.344065 8:0.225688 9:0.367353 10:0.615572 11:0.528102 12:-0.796524 13:0.627034 14:-0.119381 15:0.378418 16:-0.14054 17:-0.0897298 18:-0.820436 19:0.069183 20:-0.895453 21:-0.318449 22:0.0973156 23:0.262907 24:-0.227361 25:-0.874297 26:-0.981898 27:-0.99869 28:-0.998195 29:-0.267755 30:-0.0795762 31:0.253777 
0 0 0 0 0 0 0 4 0 1:0.458143 2:0.176278 3:0.383969 4:0.0441111 5:0.117563 6:0.299607 7:0.00897693 8:-0.033486 9:0.0899538 10:0.283894 11:0.455115 12:-0.421643 13:0.471089 14:0.275347 15:0.287184 16:-0.016776 17:0.199528 18:-0.740032 19:0.115537 20:-0.865469 21:-0.283386 22:0.0982229 23:0.273454 24:-0.199283 25:-0.819522 26:-0.992025 27:-0.999422 28:-0.99622 29:-0.267761 30:-0.0799345 31:0.253777 
0 0 0 0 0 0 0 3.799923023349571 0 1:-0.0626876 2:-0.179295 3:-0.10915 4:-0.236252 5:-0.272591 6:-0.149503 7:-0.230928 8:-0.372947 9:-0.311051 10:-0.142973 11:0.0531979 12:-0.55836 13:0.122547 14:0.16838 15:0.126279 16:-0.149732 17:0.12903 18:-0.488178 19:-0.0184391 20:-0.711981 21:-0.293744 22:0.108897 23:0.235113 24:-0.180435 25:-0.602698 26:-0.951884 27:-0.998032 28:-0.991078 29:-0.267748 30:-0.078483 31:0.253789 
0 1.122355422408224 0 0 0 0 0 4 0 1:0.453177 2:0.222673 3:0.512552 4:0.138784 5:0.380757 6:0.530076 7:0.131421 8:0.302385 9:0.503448 10:0.592076 11:0.631285 12:0.0342394 13:0.63678 14:0.032942 15:0.463296 16:0.0287974 17:-0.0669878 18:-0.674365 19:0.20735 20:-0.831349 21:-0.308842 22:0.116212 23:0.278744 24:-0.225156 25:-0.767467 26:-0.999967 27:-0.997102 28:-0.99794 29:-0.26776 30:-0.0798298 31:0.253778 
2.500265830605387 0.2522576660670412 0 0 0 0 0 4 0 1:0.400359 2:0.268958 3:0.452343 4:0.187185 5:0.199246 6:0.404455 7:0.181038 8:0.0114093 9:0.148974 10:0.385905 11:0.405845 12:-0.857758 13:0.354879 14:0.00491475 15:0.0393928 16:0.146704 17:-0.204109 18:-0.721511 19:0.016309 20:-0.869488 21:-0.312996 22:0.0744879 23:0.293617 24:-0.239382 25:-0.815199 26:-0.965782 27:-0.999082 28:-0.999949 29:-0.267757 30:-0.0798518 31:0.253777 
0 0 0 0 4 0 0 4 0 1:0.148766 2:-0.0143115 3:0.165781 4:-0.106375 5:0.0116995 6:0.114348 7:-0.124568 8:-0.109083 9:0.0091995 10:0.11729 11:0.160254 12:-0.313836 13:0.178286 14:0.147127 15:0.217777 16:-0.00120536 17:0.108812 18:-0.640636 19:0.107402 20:-0.812488 21:-0.297656 22:0.108585 23:0.274317 24:-0.197448 25:-0.73972 26:-0.990556 27:-0.998996 28:-0.995013 29:-0.267765 30:-0.0797402 31:0.253778 
0 0 0 4 0 0 1.769308792076581 0 0 1:-0.672125 2:-0.692138 3:-0.393933 4:-0.695628 5:-0.456876 6:-0.334647 7:-0.656631 8:-0.514168 9:-0.40591 10:-0.309324 11:-0.468089 12:-0.127395 13:-0.716146 14:0.379537 15:-0.089116 16:-0.131595 17:-0.390822 18:0.22321 19:0.0106223 20:-0.670328 21:-0.0821514 22:0.0646976 23:0.119876 24:-0.501636 25:-0.287888 26:-0.932092 27:-0.92438 28:-0.88766 29:-0.270984 30:-0.083083 31:0.250585 
1.020136160531153 2.201868980925338 1.642266722178405 2.277416983440369 1.311982019369192 3.123356680335132 0.6407076493490613 1.257942017991156 1.132320728981476 1:-0.652575 2:-0.673368 3:-0.362584 4:-0.674466 5:-0.409221 6:-0.230027 7:-0.636276 8:-0.459037 9:-0.27432 10:-0.155566 11:-0.430847 12:-0.0537483 13:-0.455866 14:0.326133 15:-0.0516601 16:-0.0465023 17:-0.993497 18:0.223539 19:0.104554 20:-0.406198 21:-0.144053 22:0.0973809 23:0.215925 24:-0.999924 25:-0.0871606 26:-0.989614 27:-0.797364 28:-0.22015 29:-0.0796319 30:-0.0760586 31:0.190613 
0.7669446310505186 0 0 0 0 0 0 0 0 1:-0.790155 2:-0.78718 3:-0.416294 4:-0.772414 5:-0.456033 6:-0.255435 7:-0.725596 8:-0.496071 9:-0.289852 10:-0.156692 11:-0.53723 12:0.0190992 13:-0.809957 14:0.356413 15:-0.0876655 16:-0.032521 17:-0.653833 18:0.619987 19:0.17906 20:-0.623715 21:-0.00850367 22:0.0690825 23:0.202025 24:-1 25:-0.0945446 26:-0.924334 27:-0.797788 28:-0.139352 29:-0.173007 30:-0.299274 31:0.139976 
0 0 0 0 1.169957299217405 0 1.411540472787973 0 0 1:-0.582985 2:-0.623898 3:-0.394752 4:-0.623917 5:-0.449904 6:-0.331918 7:-0.585305 8:-0.490187 9:-0.38765 10:-0.29843 11:-0.320537 12:-0.126128 13:-0.369087 14:0.302823 15:-0.0489298 16:-0.138904 17:-0.648634 18:0.173907 19:0.0501363 20:-0.443773 21:-0.189888 22:0.0923198 23:0.150987 24:-0.61555 25:-0.135454 26:-0.976027 27:-0.921605 28:-0.814348 29:-0.255232 30:-0.0826269 31:0.248646 
1.494351659948587 0 0 4 0.2503548654291053 2.919326049696997 0 0 1.200073252433373 1:-0.74521 2:-0.737954 3:-0.362859 4:-0.735962 5:-0.411911 6:-0.257628 7:-0.70276 8:-0.473675 9:-0.306547 10:-0.207775 11:-0.55466 12:-0.0650939 13:-1 14:0.231302 15:-0.0854368 16:-0.0346593 17:-0.0690755 18:0.336249 19:0.0591853 20:-0.961932 21:-0.208325 22:0.0703866 23:0.210384 24:-0.204361 25:-0.464352 26:-0.830234 27:-0.990516 28:-0.997039 29:-0.267763 30:-0.0800526 31:0.253772 
0 0 0 0.7266880307788049 0 0 0 0 0 1:-0.162635 2:-0.272514 3:-0.173312 4:-0.286996 5:-0.176919 6:-0.222799 7:-0.240766 8:-0.224642 9:-0.131202 10:-0.236199 11:0.165215 12:0.102014 13:-0.0526081 14:0.343499 15:-0.334658 16:0.134009 17:-0.00826573 18:-0.266729 19:0.236789 20:-0.711185 21:-0.244538 22:-0.00417473 23:0.314206 24:-0.206415 25:-0.513944 26:-0.996754 27:-0.994558 28:-0.993737 29:-0.267738 30:-0.0796572 31:0.253768 
0 0 0 0 0 0 0 0 2.867008916593525 1:-0.241754 2:-0.301961 3:-0.271082 4:-0.29984 5:-0.219863 6:-0.289638 7:-0.240132 8:-0.246461 9:-0.146266 10:-0.269782 11:0.09267 12:0.129079 13:0.0172653 14:0.317207 15:-0.323601 16:0.183122 17:0.104352 18:-0.187839 19:0.254264 20:-0.613756 21:-0.244447 22:-0.011718 23:0.338359 24:-0.168659 25:-0.408547 26:-0.997718 27:-0.989022 28:-0.991259 29:-0.267805 30:-0.0795402 31:0.253757 
0 4 4 0 4 0 2.530793822331788 4 4 1:-0.159562 2:-0.231966 3:-0.280035 4:-0.285441 5:-0.224637 6:-0.309764 7:-0.269223 8:-0.297479 9:-0.19109 10:-0.2904 11:-0.101841 12:0.115712 13:0.153207 14:0.340947 15:-0.376891 16:-0.128083 17:0.326583 18:-0.47779 19:0.242672 20:-0.625869 21:-0.245546 22:-0.0150049 23:0.233488 24:-0.120279 25:-0.533166 26:-0.994408 27:-0.980011 28:-0.994679 29:-0.267746 30:-0.079392 31:0.253795 
0 2.257543759897641 3.242207790435535 0 0 0 4 4 4 1:0.493284 2:0.181716 3:0.297888 4:0.0255766 5:0.120565 6:0.183294 7:-0.00958354 8:-0.0623649 9:0.0855523 10:0.150224 11:0.405403 12:-0.0666051 13:0.539959 14:0.577631 15:-0.41081 16:-0.271004 17:0.373486 18:-0.77792 19:0.187783 20:-0.863866 21:-0.253688 22:0.0297762 23:0.245479 24:-0.184384 25:-0.833384 26:-0.999274 27:-0.995217 28:-0.998806 29:-0.267759 30:-0.0798594 31:0.253777 
0 1.136072768749768 0 0 0 0 0 0 0 1:-0.0931976 2:-0.132789 3:0.0135109 4:-0.116687 5:-0.0858893 6:0.0510318 7:-0.0625676 8:-0.151166 9:-0.0295564 10:0.101528 11:0.275293 12:-0.490257 13:0.142391 14:-0.174117 15:-0.117616 16:0.231863 17:-0.295471 18:-0.295161 19:-0.00161449 20:-0.683008 21:-0.377547 22:0.0545492 23:0.336157 24:-0.27427 25:-0.503862 26:-0.958503 27:-0.991764 28:-0.994718 29:-0.267783 30:-0.0810403 31:0.253776 
0 0 0 0 4 0 0 0 0.8554522517543794 1:0.295945 2:0.0772556 3:0.201147 4:0.0162544 5:0.162051 6:0.182284 7:0.0333941 8:0.0877631 9:0.255547 10:0.2162 11:0.570289 12:0.255748 13:0.599124 14:0.244629 15:-0.257873 16:-0.0206508 17:0.198316 18:-0.577865 19:0.260538 20:-0.774168 21:-0.28445 22:0.0396046 23:0.272026 24:-0.192481 25:-0.685629 26:-0.997305 27:-0.998493 28:-0.999288 29:-0.267757 30:-0.079813 31:0.253777 
0 4 0 0 0 0 1.858819729441061 2.862404103249126 0 1:-0.107837 2:-0.292777 3:-0.162457 4:-0.374258 5:-0.380853 6:-0.215937 7:-0.371054 8:-0.501571 9:-0.431612 10:-0.222803 11:-0.0386253 12:-0.533049 13:0.0411095 14:0.542375 15:-0.112569 16:-0.192672 17:0.120653 18:-0.496579 19:-0.0235824 20:-0.711915 21:-0.199496 22:0.0556128 23:0.219558 24:-0.178363 25:-0.605991 26:-0.94958 27:-0.990461 28:-0.993819 29:-0.267787 30:-0.081419 31:0.253768 
0 0 0 0 0 0 0 4 0 1:0.263809 2:-0.00884316 3:0.24339 4:-0.12556 5:-0.108272 6:0.183011 7:-0.143819 8:-0.291974 9:-0.163154 10:0.159931 11:0.307396 12:-0.731615 13:0.306822 14:0.476278 15:-0.188112 16:0.00758292 17:-0.0905504 18:-0.664819 19:0.01614 20:-0.829348 21:-0.252246 22:0.0477615 23:0.276067 24:-0.22751 25:-0.762149 26:-0.965709 27:-0.999472 28:-0.998115 29:-0.267755 30:-0.0796842 31:0.253777 
0 0 1.039067643048188 1.167193742727813 2.896853694875098 0 0 2.115689329239117 0 1:0.334847 2:0.0668206 3:0.395193 4:-0.060744 5:0.201457 6:0.333945 7:-0.0826842 8:0.0634527 9:0.226191 10:0.312478 11:0.324197 12:-0.0416648 13:0.231131 14:0.499153 15:0.277854 16:-0.117598 17:-0.0763123 18:-0.709453 19:0.189827 20:-0.873701 21:-0.253562 22:0.104038 23:0.259027 24:-0.225856 25:-0.813601 26:-0.999632 27:-0.997073 28:-0.99797 29:-0.267757 30:-0.0798844 31:0.253775 
0 0 0 0 0 0 0 4 0 1:0.501262 2:0.231413 3:0.495593 4:0.113848 5:0.229168 6:0.434523 7:0.0962432 8:0.0518689 9:0.229948 10:0.407602 11:0.562845 12:-0.413031 13:0.493505 14:0.328258 15:-0.147782 16:0.0864649 17:-0.178145 18:-0.729134 19:0.121219 20:-0.87512 21:-0.278793 22:0.0549815 23:0.284952 24:-0.235497 25:-0.822512 26:-0.993001 27:-1 28:-0.999348 29:-0.267757 30:-0.0797857 31:0.253777 
0 0 0 3.684529599873922 4 4 0 0 0 1:0.0660743 2:-0.167646 3:0.0625566 4:-0.265824 5:-0.124327 6:-0.000385957 7:-0.265365 8:-0.266279 9:-0.102304 10:-0.0303295 11:0.131022 12:-0.178574 13:0.0929257 14:0.64223 15:-0.290414 16:0.241978 17:-0.104021 18:-0.580462 19:0.139292 20:-0.797461 21:-0.206038 22:0.0251904 23:0.323925 24:-0.229911 25:-0.704353 26:-0.995615 27:-0.998942 28:-0.984568 29:-0.267729 30:-0.0792711 31:0.25376 
0 4 0 0 0 3.38757212360398 0.5617560924764611 4 0 1:0.318804 2:0.0554926 3:0.359888 4:-0.0713566 5:0.0674725 6:0.366277 7:-0.0934451 8:-0.127809 9:0.121367 10:0.38894 11:0.303922 12:-0.475827 13:0.508433 14:0.493559 15:-0.238361 16:0.295047 17:-0.321648 18:-0.706597 19:0.0877753 20:-0.8052 21:-0.25332 22:0.0426174 23:0.316356 24:-0.254615 25:-0.760438 26:-0.985572 27:-0.99972 28:-0.99331 29:-0.267755 30:-0.0791306 31:0.253774 
0 0 0 0 0 1.05088214036934 0 0 0 1:0.298338 2:-0.0676102 3:0.372524 4:-0.190691 5:0.0428686 6:0.367826 7:-0.194593 8:-0.128669 9:0.111734 10:0.376735 11:0.405247 12:-0.16836 13:0.388377 14:0.89569 15:-0.237848 16:0.153536 17:-0.353788 18:-0.649392 19:0.158689 20:-0.824198 21:-0.199739 22:0.0421672 23:0.297134 24:-0.259303 25:-0.752096 26:-0.997748 27:-0.999417 28:-0.985528 29:-0.267747 30:-0.0792726 31:0.253791 
0 0 0 0 0 0 0.6767518290066421 0 0 1:0.634826 2:0.243985 3:0.565969 4:0.0819501 5:0.346383 6:0.461789 7:0.0427026 8:0.172386 9:0.387215 10:0.410623 11:0.632944 12:0.173971 13:0.548465 14:0.570819 15:-0.110588 16:0.0545446 17:-0.0253198 18:-0.782182 19:0.231001 20:-0.904201 21:-0.26095 22:0.0587403 23:0.28077 24:-0.222346 25:-0.865716 26:-0.999483 27:-0.999849 28:-0.998619 29:-0.267756 30:-0.0798273 31:0.253777 
0 0 0 0 0 0 0 4 0 1:0.514395 2:0.189341 3:0.45281 4:0.0464816 5:0.206523 6:0.370978 7:0.0238121 8:0.0265843 9:0.245641 10:0.33929 11:0.518137 12:-0.168597 13:0.513564 14:0.615198 15:-0.2048 16:0.368098 17:-0.0101918 18:-0.751985 19:0.168826 20:-0.87552 21:-0.251137 22:0.0497583 23:0.315154 24:-0.220188 25:-0.831913 26:-0.998572 27:-0.999604 28:-0.995124 29:-0.267761 30:-0.0798678 31:0.253775 
0 0 0 4 1.898617233226112 0 0 0 0 1:-0.326365 2:-0.411458 3:-0.292763 4:-0.398068 5:-0.190936 6:-0.301367 7:-0.332625 8:-0.173113 9:-0.0777493 10:-0.278998 11:0.100669 12:0.49022 13:-0.111 14:0.417977 15:-0.071788 16:0.033677 17:-0.0107433 18:-0.00259397 19:0.47064 20:-0.597095 21:-0.194885 22:0.0684138 23:0.285731 24:-0.198894 25:-0.322154 26:-0.931391 27:-0.998633 28:-0.987145 29:-0.267744 30:-0.0767168 31:0.25376 
0 0 0 0 0.7635655620572315 0 0 0 0 1:-0.131695 2:-0.233258 3:-0.102865 4:-0.263896 5:-0.204486 6:-0.0915956 7:-0.240598 8:-0.275113 9:-0.174426 10:-0.0477149 11:0.0984981 12:-0.296579 13:0.14678 14:0.141612 15:0.0203378 16:-0.112249 17:-0.0241028 18:-0.365026 19:0.0675831 20:-0.651711 21:-0.300581 22:0.0888571 23:0.240354 24:-0.211483 25:-0.507903 26:-0.981393 27:-0.998701 28:-0.997538 29:-0.267754 30:-0.0794646 31:0.253777 
0 1.900915159092101 0 0 4 0 0 4 0 1:0.162321 2:-0.0713327 3:0.124668 4:-0.19079 5:-0.0581421 6:0.0662949 7:-0.206903 8:-0.215286 9:-0.0504085 10:0.056756 11:0.128614 12:-0.206159 13:0.24821 14:0.567988 15:-0.212072 16:0.0165497 17:0.063534 18:-0.667732 19:0.139429 20:-0.799593 21:-0.230561 22:0.0420878 23:0.277502 24:-0.204764 25:-0.740711 26:-0.995127 27:-0.998375 28:-0.995591 29:-0.267755 30:-0.0800755 31:0.253773 
0 0 0 1.534076320448514 0 0 0 0 0 1:0.553478 2:0.275079 3:0.599112 4:0.180284 5:0.380886 6:0.536273 7:0.192714 8:0.24601 9:0.442417 10:0.5009 11:0.754264 12:-0.147911 13:0.444797 14:0.479978 15:-0.0297106 16:0.370933 17:-0.256115 18:-0.698342 19:0.174107 20:-0.899519 21:-0.265784 22:0.0657693 23:0.313612 24:-0.24168 25:-0.828784 26:-0.99821 27:-0.999451 28:-0.996911 29:-0.26776 30:-0.0797061 31:0.253777 
0 0 0 0 4 0 0 0 0 1:-0.306639 2:-0.35755 3:-0.229609 4:-0.359299 5:-0.25584 6:-0.223715 7:-0.317661 8:-0.301344 9:-0.206205 10:-0.199501 11:-0.0106318 12:-0.129025 13:-0.110585 14:0.126627 15:-0.156637 16:0.0176501 17:-0.168541 18:-0.157 19:0.1153 20:-0.616831 21:-0.308465 22:0.037613 23:0.278704 24:-0.255053 25:-0.39861 26:-0.991252 27:-0.99989 28:-0.997463 29:-0.267758 30:-0.0800325 31:0.253777 
0 0 0 0 0 0 0 2.330491555489232 0 1:0.238962 2:0.069329 3:0.325836 4:-0.000679663 5:0.108734 6:0.315759 7:0.00925043 8:-0.0251056 9:0.133525 10:0.328146 11:0.383222 12:-0.501913 13:0.291797 14:0.233655 15:0.0588395 16:0.198054 17:-0.2444 18:-0.611082 19:0.0694889 20:-0.82264 21:-0.285074 22:0.0808133 23:0.305939 24:-0.247779 25:-0.735663 26:-0.98208 27:-0.99861 28:-0.999046 29:-0.267758 30:-0.0797555 31:0.253777 
0.1997285770537814 0 0 0 0 0 0 0 0 1:0.665422 2:0.33494 3:0.669832 4:0.210821 5:0.354234 6:0.615418 7:0.20207 8:0.16391 9:0.395675 10:0.596923 11:0.794291 12:-0.384697 13:0.648159 14:0.500431 15:-0.254426 16:0.373258 17:-0.193185 18:-0.751314 19:0.138751 20:-0.896361 21:-0.26787 22:0.0476577 23:0.30917 24:-0.235129 25:-0.847475 26:-0.99548 27:-0.999663 28:-0.99726 29:-0.267757 30:-0.0796855 31:0.253776 
0 0 0 0 0 4 0 0 0 1:0.326619 2:0.0834062 3:0.436822 4:-0.0123525 5:0.150797 6:0.413764 7:-0.0123657 8:-0.0161656 9:0.181875 10:0.408542 11:0.452422 12:-0.47055 13:0.27421 14:0.431923 15:-0.128288 16:0.338584 17:-0.294653 18:-0.651459 19:0.0900508 20:-0.861154 21:-0.261487 22:0.0559729 23:0.321951 24:-0.251183 25:-0.780985 26:-0.98671 27:-0.999302 28:-0.994941 29:-0.267761 30:-0.079262 31:0.253774 
0 0.4996628966445305 0 0 0 0 0 4 0 1:0.314423 2:0.105239 3:0.393634 4:0.00881261 5:0.190531 6:0.395106 7:3.62155e-05 8:0.0326835 9:0.256699 10:0.412234 11:0.384358 12:-0.301401 13:0.41662 14:0.27214 15:-0.153941 16:0.185007 17:-0.338212 18:-0.670275 19:0.128251 20:-0.824253 21:-0.28123 22:0.0527808 23:0.301109 24:-0.256741 25:-0.76045 26:-0.994022 27:-0.999702 28:-0.997503 29:-0.267756 30:-0.079625 31:0.253776 
0 3.661657687153026 0 0 4 0 4 4 4 1:-0.332803 2:-0.429737 3:-0.358411 4:-0.483835 5:-0.485438 6:-0.408899 7:-0.475945 8:-0.567578 9:-0.530452 10:-0.410313 11:-0.254935 12:-0.447629 13:-0.193594 14:0.339867 15:0.0713788 16:-0.144607 17:0.17152 18:-0.353067 19:-0.0756943 20:-0.637178 21:-0.224486 22:0.122958 23:0.207436 24:-0.13124 25:-0.492106 26:-0.92455 27:-0.991242 28:-0.9743 29:-0.267916 30:-0.0816242 31:0.253886 
0 2.535847989031266 0 0 0 0 0 0 0 1:-0.135068 2:-0.314663 3:-0.135549 4:-0.382117 5:-0.364051 6:-0.154177 7:-0.3729 8:-0.471045 9:-0.382916 10:-0.142641 11:-0.00133477 12:-0.534223 13:0.0750886 14:0.491823 15:-0.0152512 16:-0.0488545 17:-0.0458139 18:-0.434295 19:-0.0337285 20:-0.678365 21:-0.207865 22:0.0800277 23:0.258698 24:-0.216719 25:-0.555718 26:-0.945079 27:-0.996817 28:-0.993622 29:-0.267741 30:-0.0810423 31:0.25377 
0 0 0 0 0.2442858438431326 0 0 0 0 1:-0.317681 2:-0.435413 3:-0.292395 4:-0.480422 5:-0.423504 6:-0.31347 7:-0.463315 8:-0.4948 9:-0.439045 10:-0.297077 11:-0.164329 12:-0.334723 13:-0.137866 14:0.397675 15:0.0807629 16:-0.164054 17:0.0502443 18:-0.288053 19:-0.00381237 20:-0.620837 21:-0.204596 22:0.124336 23:0.201454 24:-0.177673 25:-0.453816 26:-0.958102 27:-0.987213 28:-0.987338 29:-0.267878 30:-0.0816792 31:0.253785 
0 4 0 0 0 0 2.019762179618298 4 0 1:-0.503616 2:-0.521235 3:-0.444731 4:-0.528472 5:-0.551218 6:-0.436343 7:-0.499208 8:-0.624263 9:-0.561395 10:-0.407325 11:-0.300236 12:-0.572522 13:-0.245334 14:0.129954 15:-0.108817 16:0.0758562 17:-0.0843482 18:-0.0370141 19:-0.288549 20:-0.464367 21:-0.314402 22:0.0515886 23:0.318459 24:-0.224794 25:-0.235054 26:-0.769419 27:-0.997861 28:-0.999916 29:-0.267757 30:-0.0798124 31:0.253777 
1.297464909690978 4 0 0 0 4 0 4 0 1:-0.471178 2:-0.549883 3:-0.413405 4:-0.571723 5:-0.57836 6:-0.412197 7:-0.547017 8:-0.661797 9:-0.591013 10:-0.39054 11:-0.264416 12:-0.573237 13:-0.241841 14:0.30604 15:-0.255643 16:0.128208 17:-0.0978446 18:-0.0726941 19:-0.256881 20:-0.508403 21:-0.215572 22:-0.0253112 23:0.347129 24:-0.231917 25:-0.2827 26:-0.798366 27:-0.992803 28:-0.979249 29:-0.267581 30:-0.0711594 31:0.253742 
0 4 0 0 0 0 0 4 0 1:-0.427999 2:-0.492058 3:-0.403914 4:-0.513415 5:-0.533798 6:-0.397493 7:-0.489355 8:-0.611602 9:-0.543317 10:-0.366895 11:-0.228229 12:-0.527142 13:-0.131495 14:0.2309 15:-0.160541 16:-0.0514796 17:-0.0289354 18:-0.131484 19:-0.186348 20:-0.489248 21:-0.26098 22:0.0285205 23:0.24131 24:-0.199709 25:-0.291559 26:-0.853406 27:-0.995813 28:-0.999815 29:-0.267757 30:-0.0799245 31:0.253777 
0 0 0 0 0 4 0 0 0 1:-0.382927 2:-0.414606 3:-0.282218 4:-0.408384 5:-0.332005 6:-0.242486 7:-0.356724 8:-0.37954 9:-0.25769 10:-0.195637 11:-0.0785714 12:-0.271185 13:-0.0926814 14:0.220566 15:-0.129343 16:0.258289 17:-0.286918 18:-0.0611957 19:0.0104115 20:-0.52225 21:-0.269079 22:0.045031 23:0.397702 24:-0.309227 25:-0.288644 26:-0.963644 27:-0.990087 28:-0.977043 29:-0.267631 30:-0.0748679 31:0.253674 
0 4 3.434545054697686 0.4564283761711176 4 1.097691243506935 0 0 0 1:-0.649428 2:-0.603595 3:-0.5402 4:-0.597024 5:-0.44708 6:-0.492541 7:-0.553601 8:-0.462527 9:-0.337328 10:-0.433699 11:-0.482406 12:0.0414731 13:-0.313358 14:0.225888 15:-0.020618 16:0.197025 17:-0.188706 18:0.108479 19:0.213672 20:-0.25537 21:-0.236869 22:0.124067 23:0.462073 24:-0.311762 25:-0.0184103 26:-0.989092 27:-0.969654 28:-0.963844 29:-0.268654 30:-0.0836138 31:0.253706 
0 0 0 0 0 4 0 0 0 1:-0.398135 2:-0.476666 3:-0.260983 4:-0.491203 5:-0.377956 6:-0.218091 7:-0.455083 8:-0.445035 9:-0.313034 10:-0.168947 11:-0.139385 12:-0.309993 13:-0.166519 14:0.344578 15:-0.118995 16:0.280445 17:-0.305308 18:-0.0950329 19:-0.0209477 20:-0.550295 21:-0.210849 22:0.0490541 23:0.413422 24:-0.320093 25:-0.323408 26:-0.951118 27:-0.991571 28:-0.955331 29:-0.267909 30:-0.0693717 31:0.253492 
0 0 0 1.52066255908879 0 0 0 0 0 1:-0.7433 2:-0.726792 3:-0.660944 4:-0.705991 5:-0.554744 6:-0.630399 7:-0.652017 8:-0.552941 9:-0.451822 10:-0.58193 11:-0.461523 12:0.20599 13:-0.413513 14:0.330983 15:-0.156705 16:0.163257 17:-0.0617715 18:0.565701 19:0.455168 20:-0.135593 21:-0.0850532 22:-0.0143666 23:0.482955 24:-0.196092 25:0.254555 26:-0.94177 27:-0.984062 28:-0.877923 29:-0.270208 30:-0.0878511 31:0.252319 
0 0 0 4 4 4 0 0 0 1:-0.462976 2:-0.537587 3:-0.311185 4:-0.558464 5:-0.340581 6:-0.272389 7:-0.522004 8:-0.391155 9:-0.216939 10:-0.223098 11:-0.253729 12:0.0572509 13:-0.27031 14:0.472323 15:-0.0498202 16:0.356704 17:-0.2364 18:-0.0792848 19:0.223487 20:-0.540183 21:-0.127227 22:0.0829634 23:0.482516 24:-0.301414 25:-0.309459 26:-0.99973 27:-0.984584 28:-0.901221 29:-0.270649 30:-0.0799338 31:0.253563 
0 0 0 0 1.85114856235643 4 0 0 0 1:-0.612236 2:-0.584085 3:-0.471097 4:-0.572795 5:-0.444699 6:-0.426271 7:-0.522782 8:-0.4767 9:-0.355871 10:-0.375515 11:-0.388062 12:-0.137773 13:-0.355741 14:0.248964 15:-0.0844708 16:0.291135 17:-0.26345 18:0.156701 19:0.0268901 20:-0.378114 21:-0.224327 22:0.0675327 23:0.527054 24:-0.359199 25:-0.0924375 26:-0.969195 27:-0.957953 28:-0.920637 29:-0.268709 30:-0.0663624 31:0.252286 
0 0 0 0 0 4 0 0 0 1:-0.526836 2:-0.591501 3:-0.388372 4:-0.607029 5:-0.508235 6:-0.348104 7:-0.572323 8:-0.572897 9:-0.464651 10:-0.302598 11:-0.311951 12:-0.351325 13:-0.292341 14:0.415055 15:-0.100873 16:0.236331 17:-0.284088 18:0.010719 19:-0.124249 20:-0.466915 21:-0.133387 22:0.0559041 23:0.434616 24:-0.343135 25:-0.217988 26:-0.897023 27:-0.992192 28:-0.908963 29:-0.269106 30:-0.0533205 31:0.253217 
0 0 0 0 0 0 0 4 0 1:0.715676 2:0.399918 3:0.631052 4:0.236867 5:0.426169 6:0.481821 7:0.175455 8:0.26388 9:0.397433 10:0.410019 11:0.616725 12:-0.0780354 13:0.473768 14:0.108954 15:0.290591 16:0.0021943 17:0.168977 18:-0.826366 19:0.189881 20:-0.935867 21:-0.299302 22:0.0881367 23:0.276004 24:-0.209033 25:-0.907351 26:-0.999625 27:-0.999683 28:-0.998222 29:-0.267758 30:-0.0798519 31:0.253777 
0 0 0 0 0 0.2127735571496891 0 0 0 1:-0.397575 2:-0.568455 3:-0.30423 4:-0.574601 5:-0.444961 6:-0.308563 7:-0.519499 8:-0.47298 9:-0.389438 10:-0.292476 11:-0.0178335 12:-0.0699145 13:-0.25934 14:0.825299 15:0.00905958 16:0.208583 17:-0.126703 18:0.0444529 19:0.137698 20:-0.610247 21:0.0107706 22:0.105555 23:0.37656 24:-0.243507 25:-0.313415 26:-0.987932 27:-0.99511 28:-0.860485 29:-0.265694 30:-0.0669961 31:0.2546 
0 0 0.2292285140184011 0 4 0 0 0 0 1:-0.177455 2:-0.375101 3:-0.141485 4:-0.422157 5:-0.229513 6:-0.157208 7:-0.400371 8:-0.277957 9:-0.174815 10:-0.132805 11:0.0727454 12:0.1496 13:-0.00828428 14:0.542887 15:0.166941 16:-0.15939 17:0.0433358 18:-0.315356 19:0.25897 20:-0.680785 21:-0.185752 22:0.131798 23:0.221994 24:-0.19204 25:-0.510213 26:-0.997284 27:-0.987952 28:-0.985915 29:-0.267845 30:-0.0791417 31:0.253729 
0 0 0 0 2.375095617235406 0 0 0 0 1:-0.414229 2:-0.506037 3:-0.420637 4:-0.523462 5:-0.467679 6:-0.417751 7:-0.495506 8:-0.494944 9:-0.440415 10:-0.379015 11:-0.158598 12:-0.11955 13:-0.0907046 14:0.288102 15:0.120032 16:-0.143066 17:0.132643 18:-0.0796327 19:0.101629 20:-0.480599 21:-0.23465 22:0.158333 23:0.193837 24:-0.128637 25:-0.264347 26:-0.988641 27:-0.987928 28:-0.964816 29:-0.268018 30:-0.078888 31:0.253993 
0 0 0 0 4 0 0 0 0 1:-0.279003 2:-0.402221 3:-0.325404 4:-0.437478 5:-0.389694 6:-0.347471 7:-0.415903 8:-0.43983 9:-0.374504 10:-0.324501 11:-0.0600689 12:-0.120927 13:-0.00999476 14:0.337318 15:0.00430386 16:-0.123521 17:0.203563 18:-0.2576 19:0.123917 20:-0.591201 21:-0.233214 22:0.0933253 23:0.223372 24:-0.131346 25:-0.419187 26:-0.993086 27:-0.994099 28:-0.980659 29:-0.267809 30:-0.080113 31:0.253843 
0 0 0 0 0 0 0 0.9857770825135939 0 1:-0.710059 2:-0.648599 3:-0.566508 4:-0.63084 5:-0.529219 6:-0.541411 7:-0.581638 8:-0.559267 9:-0.492711 10:-0.506857 11:-0.511191 12:-0.213976 13:-0.521944 14:0.194208 15:-0.0485231 16:0.0812723 17:-0.176462 18:0.284482 19:-0.125184 20:-0.366681 21:-0.259346 22:0.108337 23:0.360157 24:-0.317443 25:-0.0328939 26:-0.896249 27:-0.987952 28:-0.986657 29:-0.267833 30:-0.0750729 31:0.253731 
0.9231754497253132 0 2.045446129524029 0 0 0 0.1745036540387035 0 4 1:-0.812923 2:-0.672202 3:-0.766899 4:-0.619183 5:-0.635791 6:-0.76931 7:-0.552282 8:-0.610787 9:-0.627637 10:-0.754362 11:-0.59431 12:-0.186379 13:-0.54818 14:-0.0219562 15:0.221168 16:-0.0605494 17:-0.0359198 18:0.581073 19:-0.191152 20:-0.129374 21:-0.590706 22:0.544768 23:0.145327 24:-0.148342 25:0.265397 26:-0.850434 27:-0.815734 28:-0.651517 29:-0.234133 30:0.0728929 31:0.279612 
0 0 0 0 0.9736216279704771 0.9279419830885658 0 0 0 1:-0.479578 2:-0.484346 3:-0.39117 4:-0.479306 5:-0.387084 6:-0.384839 7:-0.43521 8:-0.419904 9:-0.33492 10:-0.357148 11:-0.229705 12:-0.156383 13:-0.282201 14:0.163992 15:-0.0413797 16:0.188068 17:-0.100079 18:-0.0037598 19:0.0583517 20:-0.52703 21:-0.294029 22:0.0885077 23:0.386043 24:-0.233188 25:-0.269403 26:-0.978675 27:-0.98979 28:-0.99424 29:-0.267779 30:-0.0800495 31:0.253788 
0 0 0 0 0 3.936158847630222 0 0 0 1:-0.670215 2:-0.64691 3:-0.522831 4:-0.632084 5:-0.527159 6:-0.486802 7:-0.581445 8:-0.569561 9:-0.463927 10:-0.446343 11:-0.421679 12:-0.22272 13:-0.453638 14:0.269271 15:-0.22885 16:0.306216 17:-0.25211 18:0.313336 19:-0.102676 20:-0.368278 21:-0.190716 22:-0.0653294 23:0.592135 24:-0.374723 25:-0.0226206 26:-0.909338 27:-0.943258 28:-0.829787 29:-0.259465 30:-0.0218531 31:0.249489 
0 4 0 0 4 0 0 0 4 1:-0.426054 2:-0.457657 3:-0.453386 4:-0.469595 5:-0.477671 6:-0.461341 7:-0.440779 8:-0.533516 9:-0.45914 10:-0.4363 11:-0.221561 12:-0.266853 13:-0.117499 14:0.138644 15:-0.196164 16:0.00576958 17:0.121407 18:-0.127836 19:-0.00347675 20:-0.482423 21:-0.306703 22:0.0118442 23:0.272765 24:-0.130925 25:-0.28492 26:-0.956499 27:-0.990724 28:-0.993827 29:-0.267727 30:-0.079049 31:0.253769 
0 0 0 0 0 0 0 0 1.523956263542662 1:-0.183058 2:-0.221526 3:-0.187516 4:-0.211112 5:-0.230212 6:-0.194424 7:-0.161121 8:-0.260959 9:-0.214004 10:-0.167733 11:0.156241 12:-0.320715 13:0.0817922 14:-0.0616144 15:0.102311 16:-0.0768024 17:0.0219527 18:-0.239614 19:0.0450214 20:-0.636611 21:-0.360182 22:0.114632 23:0.24794 24:-0.197417 25:-0.446515 26:-0.97509 27:-0.998586 28:-0.987244 29:-0.267725 30:-0.077555 31:0.253789 
2.963828449449275 0 0.01650354467505457 2.835262835840882 0.1880333869235097 0 0 3.585633592199728 4 1:0.572911 2:0.435798 3:0.4527 4:0.379101 5:0.520407 6:0.336114 7:0.386703 8:0.488488 9:0.57033 10:0.271139 11:0.714345 12:0.33968 13:0.517134 14:-0.310323 15:0.124193 16:0.193922 17:-0.0246282 18:-0.722871 19:0.262144 20:-0.892371 21:-0.337979 22:0.0789482 23:0.29502 24:-0.221901 25:-0.833122 26:-0.997009 27:-0.998546 28:-0.998662 29:-0.267756 30:-0.0799066 31:0.253778 
0 0 0.3897445234531827 0 0 0 0 1.154544854109899 0 1:0.364281 2:0.202094 3:0.232976 4:0.118269 5:0.0302624 6:0.101428 7:0.0994215 8:-0.0959674 9:-0.0997411 10:0.045893 11:0.421078 12:-0.647487 13:0.280177 14:-0.138293 15:0.320105 16:-0.444021 17:0.242345 18:-0.691347 19:0.055468 20:-0.873044 21:-0.330886 22:0.107076 23:0.216872 24:-0.19081 25:-0.805895 26:-0.978168 27:-0.997865 28:-0.988263 29:-0.267713 30:-0.0778822 31:0.253774 
4 0 4 0 0.3367696344307237 1.570587678510796 1.409695372160157 4 4 1:0.275884 2:0.149829 3:0.301596 4:0.0400401 5:0.136867 6:0.202734 7:-0.00656558 8:-0.00404768 9:0.0465146 10:0.145592 11:0.125312 12:-0.517052 13:0.0967563 14:-0.132974 15:0.569183 16:-0.293924 17:-0.0661107 18:-0.752668 19:0.0716026 20:-0.884291 21:-0.334897 22:0.145336 23:0.231229 24:-0.224457 25:-0.838844 26:-0.982695 27:-0.992876 28:-0.990701 29:-0.267704 30:-0.0784538 31:0.253787 
0 0 4 0 0 0 0.8056986668198687 4 2.785009144148487 1:0.687291 2:0.41266 3:0.647667 4:0.284179 5:0.538164 6:0.557127 7:0.249631 8:0.41039 9:0.584796 10:0.526718 11:0.70654 12:0.188017 13:0.602601 14:0.0666114 15:0.102244 16:-0.0895904 17:0.0454646 18:-0.787724 19:0.232132 20:-0.909258 21:-0.302776 22:0.0748714 23:0.267962 24:-0.217462 25:-0.87176 26:-0.999422 27:-0.999892 28:-0.99932 29:-0.267757 30:-0.0798601 31:0.253777 
0 4 4 2.684920636466587 4 4 0 4 3.712705277684696 1:0.0497133 2:-0.160391 3:0.0471577 4:-0.263604 5:-0.061555 6:0.00517775 7:-0.297615 8:-0.16396 9:-0.0177838 10:-0.00342902 11:0.0579434 12:0.0486167 13:0.156408 14:0.125833 15:0.199572 16:-0.0170564 17:-0.0778107 18:-0.605942 19:0.211781 20:-0.769023 21:-0.302132 22:0.113653 23:0.270514 24:-0.225341 25:-0.692897 26:-0.999519 27:-0.9974 28:-0.998146 29:-0.267759 30:-0.0798067 31:0.253778 
0 0 0 0 0 0 0 2.509894691272858 4 1:0.447471 2:0.361258 3:0.349991 4:0.336331 5:0.325106 6:0.274752 7:0.357627 8:0.282515 9:0.332897 10:0.274053 11:0.655497 12:-0.198311 13:0.528313 14:-0.516729 15:0.342737 16:0.00677639 17:0.294161 18:-0.661794 19:0.159985 20:-0.85062 21:-0.36728 22:0.104399 23:0.276171 24:-0.189566 25:-0.7771 26:-0.997782 27:-0.998485 28:-0.988858 29:-0.267764 30:-0.079265 31:0.253792 
2.94744155575662 4 4 2.326505340658525 4 0.1599747169715177 4 4 4 1:-0.136678 2:-0.286666 3:-0.189598 4:-0.382824 5:-0.359703 6:-0.271235 7:-0.419207 8:-0.469881 9:-0.440958 10:-0.296584 11:-0.191456 12:-0.463103 13:-0.0949757 14:0.0601144 15:0.245006 16:-0.354897 17:0.169471 18:-0.573748 19:-0.00414314 20:-0.746973 21:-0.322281 22:0.146209 23:0.168675 24:-0.163604 25:-0.663335 26:-0.957476 27:-0.990333 28:-0.971061 29:-0.267398 30:-0.0731909 31:0.253814 
4 0.7624427185054119 4 2.751996218338091 4 0 4 4 4 1:0.0367261 2:0.0553923 3:-0.02576 4:0.0251765 5:0.0246386 6:-0.111056 7:0.0347805 8:-0.0494503 9:-0.00205175 10:-0.1458 11:0.00719202 12:-0.215872 13:0.0645902 14:-0.232864 15:-0.0228675 16:-0.00919133 17:0.079634 18:-0.622877 19:0.12421 20:-0.791234 21:-0.372232 22:0.073344 23:0.272071 24:-0.196801 25:-0.716508 26:-0.993297 27:-0.99912 28:-0.991495 29:-0.267758 30:-0.0792416 31:0.253785 
-0 0 0 0 0 0 0.8893845761735159 0 0 1:-0.489338 2:-0.36718 3:-0.39304 4:-0.362613 5:-0.370308 6:-0.4383 7:-0.34983 8:-0.454027 9:-0.444158 10:-0.47044 11:-0.532285 12:-0.594997 13:-0.501311 14:-0.255792 15:0.230699 16:-0.000181882 17:-0.172618 18:-0.397234 19:-0.29175 20:-0.681514 21:-0.537003 22:0.239857 23:0.268232 24:-0.272312 25:-0.54336 26:-0.767018 27:-0.951306 28:-0.932323 29:-0.264848 30:-0.0588219 31:0.253545 
-0 0 0 1.546432735454317 0 0 0 0 0 1:-0.782718 2:-0.689976 3:-0.693847 4:-0.695908 5:-0.658366 6:-0.74107 7:-0.6763 8:-0.737102 9:-0.695814 10:-0.778132 11:-0.770626 12:-0.373174 13:-0.755158 14:0.134737 15:-0.252219 16:0.208433 17:-0.165338 18:-0.0924474 19:-0.461289 20:-0.549363 21:-0.334045 22:-0.156675 23:0.586177 24:-0.329056 25:-0.321671 26:-0.5821 27:-0.890114 28:-0.894003 29:-0.259836 30:-0.0111408 31:0.255378 
-0 0 0 0 0 0 4 0 0 1:-0.648113 2:-0.532965 3:-0.592482 4:-0.531673 5:-0.545606 6:-0.654636 7:-0.514711 8:-0.622637 9:-0.60646 10:-0.694131 11:-0.664127 12:-0.45201 13:-0.638236 14:-0.0511305 15:-0.0710971 16:0.108314 17:-0.0924765 18:-0.25792 19:-0.345846 20:-0.614899 21:-0.488496 22:0.0799981 23:0.372234 24:-0.230367 25:-0.437312 26:-0.71389 27:-0.970783 28:-0.983175 29:-0.267475 30:-0.078199 31:0.253794 
-0 0 0 0 0 3.462406579527778 0 1.927735884117822 0 1:-0.409581 2:-0.322068 3:-0.241554 4:-0.340123 5:-0.262316 6:-0.25245 7:-0.341364 8:-0.385911 9:-0.296465 10:-0.2674 11:-0.491062 12:-0.620243 13:-0.448209 14:-0.205011 15:0.0458087 16:0.22416 17:-0.299093 18:-0.484721 19:-0.235421 20:-0.720414 21:-0.469363 22:0.123554 23:0.387629 24:-0.319918 25:-0.607728 26:-0.816498 27:-0.957494 28:-0.986245 29:-0.26791 30:-0.0859204 31:0.253687 
-4 2.844879817358474 0 0 1.947021293605934 0 4 4 4 1:-0.249345 2:-0.376179 3:-0.280582 4:-0.466342 5:-0.535404 6:-0.387678 7:-0.486244 8:-0.686786 9:-0.661573 10:-0.441286 11:-0.316934 12:-0.86412 13:-0.323928 14:0.294602 15:-0.147613 16:-0.0928005 17:0.097038 18:-0.538368 19:-0.249112 20:-0.774138 21:-0.251153 22:0.0430548 23:0.237902 24:-0.169987 25:-0.669884 26:-0.805152 27:-0.994962 28:-0.996712 29:-0.267759 30:-0.0808271 31:0.253781 
-0 0 0 4 0 0 1.437847489358712 0 0 1:-0.318266 2:-0.341952 3:-0.292185 4:-0.434402 5:-0.375743 6:-0.405151 7:-0.469628 8:-0.554969 9:-0.450531 10:-0.479306 11:-0.558506 12:-0.505432 13:-0.488928 14:0.182951 15:-0.43409 16:0.310701 17:-0.0274809 18:-0.682057 19:-0.101483 20:-0.814231 21:-0.287127 22:-0.0650954 23:0.403568 24:-0.205376 25:-0.75753 26:-0.910391 27:-0.970586 28:-0.986904 29:-0.267577 30:-0.0757342 31:0.253743 
-1.721625663446884 2.062811919845543 0.4663765977174867 0.6534846145414549 0.04332042907802711 4 0 4 0 1:0.0730025 2:-0.0583191 3:0.210136 4:-0.173601 5:-0.107961 6:0.153347 7:-0.211775 8:-0.36182 9:-0.199533 10:0.100843 11:-0.0958835 12:-1 13:-0.131346 14:0.190588 15:-0.384065 16:0.390855 17:-0.319686 18:-0.713013 19:-0.119496 20:-0.869498 21:-0.289982 22:0.00913832 23:0.353647 24:-0.266639 25:-0.811827 26:-0.900008 27:-0.994829 28:-0.989812 29:-0.267702 30:-0.0764534 31:0.253782 
-0 0 0 0 0 0.376341623350416 0 0 0 1:0.151287 2:0.161859 3:0.28605 4:0.0734381 5:0.191462 6:0.219169 7:0.0178988 8:-0.0160701 9:0.14705 10:0.158065 11:-0.186457 12:-0.720391 13:-0.0960614 14:-0.334957 15:0.0488684 16:0.453487 17:-0.31456 18:-0.816723 19:-0.00845833 20:-0.889526 21:-0.375772 22:0.082218 23:0.355868 24:-0.261245 25:-0.868317 26:-0.956115 27:-0.987355 28:-0.9987 29:-0.26776 30:-0.0801514 31:0.253776 
-0 0 1.231524445222637 0 0 0 0 1.554732725831041 1.49243216249202 1:0.22316 2:0.228352 3:0.232104 4:0.128211 5:0.131311 6:0.0966461 7:0.0675442 8:-0.0835004 9:0.012044 10:-0.00281142 11:-0.173799 12:-0.779876 13:-0.0615241 14:-0.259764 15:0.0242929 16:0.220432 17:-0.14668 18:-0.853571 19:-0.00589575 20:-0.905352 21:-0.356501 22:0.0765067 23:0.310224 24:-0.235091 25:-0.895005 26:-0.957075 27:-0.996411 28:-0.998483 29:-0.267754 30:-0.0798186 31:0.253777 
-1.832205998741883 0 0 1.888344258220923 2.392068717751517 0.6494101738554118 4 4 2.749779102533227 1:-0.0564307 2:-0.3254 3:-0.116217 4:-0.457471 5:-0.505326 6:-0.256332 7:-0.489494 8:-0.692581 9:-0.637043 10:-0.334038 11:-0.176422 12:-0.921862 13:-0.233831 14:0.546254 15:-0.440459 16:0.0454103 17:0.109767 18:-0.64764 19:-0.15346 20:-0.846227 21:-0.207173 22:-0.0158424 23:0.285061 24:-0.185055 25:-0.768129 26:-0.878076 27:-0.989924 28:-0.991202 29:-0.267725 30:-0.0792601 31:0.253753 
-0 2.013343258274279 1.597679428717921 0.8047690601468153 4 4 0 4 0 1:0.0640173 2:-0.277629 3:0.0253118 4:-0.460858 5:-0.417588 6:-0.0935086 7:-0.519085 8:-0.669379 9:-0.499835 10:-0.155275 11:-0.24908 12:-0.842932 13:-0.0697487 14:0.601271 15:-0.740897 16:0.359693 17:0.0850209 18:-0.791691 19:-0.0731898 20:-0.84673 21:-0.213368 22:-0.0552144 23:0.34836 24:-0.197221 25:-0.825854 26:-0.925211 27:-0.983079 28:-0.980659 29:-0.267552 30:-0.0764219 31:0.253702 
-0 0 0 0 0 0 0 0 4 1:-0.187594 2:-0.101755 3:-0.291123 4:-0.145944 5:-0.213848 6:-0.427531 7:-0.16658 8:-0.330391 9:-0.291261 10:-0.49159 11:-0.440252 12:-0.331931 13:-0.295854 14:-0.164032 15:-0.319917 16:0.247632 17:0.221073 18:-0.71265 19:0.038704 20:-0.800517 21:-0.39079 22:-0.003254 23:0.35293 24:-0.142969 25:-0.759293 26:-0.972017 27:-0.97704 28:-0.99531 29:-0.267793 30:-0.0789515 31:0.253773 
-1.730507800798762 0.6956411021658346 2.848042619647367 4 1.80417408464627 1.353088327116326 4 0 2.438823678466925 1:-0.78686 2:-0.64152 3:-0.552896 4:-0.620921 5:-0.386982 6:-0.517921 7:-0.593485 8:-0.419425 9:-0.321754 10:-0.523504 11:-0.759556 12:-0.0166407 13:-0.784047 14:-0.0720232 15:-0.199306 16:-0.121896 17:-0.486683 18:-0.0449305 19:0.120216 20:-0.587732 21:-0.63556 22:-0.0864098 23:0.0590101 24:-0.76471 25:-0.3319 26:-0.990792 27:-0.979988 28:-0.220948 29:-0.2581 30:-0.164434 31:0.28637 
-0 0 0 0 0 0 0 0 2.23219908929608 1:-0.394124 2:-0.202874 3:-0.539226 4:-0.138173 5:-0.293232 6:-0.654196 7:-0.0761484 8:-0.262683 9:-0.333879 10:-0.696795 11:-0.356314 12:0.0275096 13:-0.393274 14:-0.527749 15:-0.232838 16:0.343647 17:0.307872 18:-0.353988 19:0.202015 20:-0.698941 21:-0.610741 22:-0.000651508 23:0.444131 24:-0.0588403 25:-0.539378 26:-0.999741 27:-0.896295 28:-0.935476 29:-0.270716 30:-0.0791397 31:0.254983 
-0 0 0 1.099235463491785 0 0 0 0 0 1:-0.547784 2:-0.377295 3:-0.489753 4:-0.379999 5:-0.314078 6:-0.552606 7:-0.387521 8:-0.387422 9:-0.318543 10:-0.584061 11:-0.76868 12:-0.163945 13:-0.554366 14:-0.200003 15:-0.336139 16:0.340668 17:-0.0104377 18:-0.645775 19:0.0282332 20:-0.660837 21:-0.540132 22:-0.0966145 23:0.52203 24:-0.178051 25:-0.626594 26:-0.960258 27:-0.862754 28:-0.990278 29:-0.267702 30:-0.082006 31:0.253659 
-0 0 0 0 0 0 4 0 0 1:-0.503418 2:-0.330034 3:-0.385655 4:-0.311992 5:-0.287214 6:-0.420863 7:-0.296519 8:-0.355524 9:-0.338872 10:-0.450787 11:-0.631477 12:-0.496504 13:-0.516495 14:-0.276636 15:0.267603 16:0.0247361 17:-0.230568 18:-0.511439 19:-0.226401 20:-0.678533 21:-0.558575 22:0.267785 23:0.284465 24:-0.3063 25:-0.586557 26:-0.821936 27:-0.926446 28:-0.929608 29:-0.264233 30:-0.0683329 31:0.253085 
-0 0 2.085283836197203 0 0 0 0 0 4 1:-0.286078 2:-0.112461 3:-0.273566 4:-0.0552227 5:-0.181993 6:-0.367477 7:0.019653 8:-0.192967 9:-0.302096 10:-0.426449 11:-0.2497 12:-0.56623 13:-0.367167 14:-0.297856 15:0.683241 16:-0.249861 17:-0.0607344 18:-0.424357 19:-0.117493 20:-0.770633 21:-0.460251 22:0.326879 23:0.172377 24:-0.217933 25:-0.621837 26:-0.899965 27:-0.935214 28:-0.901788 29:-0.262563 30:-0.0445538 31:0.255075 
-0 0 0.2044081287742872 0 0 0 0 0 0 1:-0.359113 2:-0.0905371 3:-0.284996 4:0.00895264 5:-0.107579 6:-0.338598 7:0.101289 8:-0.102186 9:-0.205538 10:-0.370116 11:-0.443753 12:-0.590592 13:-0.378075 14:-0.466029 15:0.714078 16:-0.296031 17:-0.121607 18:-0.509415 19:-0.177295 20:-0.720338 21:-0.560089 22:0.38606 23:0.132506 24:-0.240125 25:-0.6175 26:-0.861179 27:-0.895863 28:-0.818512 29:-0.24881 30:-0.0130416 31:0.254256 
-3.789990722853972 0 0 0 0 0 0 0 0.9746880112163591 1:-0.491782 2:-0.338043 3:-0.488616 4:-0.276262 5:-0.427117 6:-0.57597 7:-0.206394 8:-0.435164 9:-0.542293 10:-0.626025 11:-0.322185 12:-0.575187 13:-0.518026 14:-0.380999 15:0.542658 16:-0.206967 17:-0.0138035 18:-0.0991509 19:-0.278541 20:-0.691828 21:-0.611484 22:0.414801 23:0.13487 24:-0.186726 25:-0.432536 26:-0.771098 27:-0.895585 28:-0.735458 29:-0.23689 30:0.0632724 31:0.259495 
-3.194565369647222 0 1.149410913723814 0 0 0 0 0 3.849348405884396 1:0.0793627 2:0.141351 3:0.059548 4:0.12388 5:-0.0109465 6:-0.0781794 7:0.134005 8:-0.119748 9:-0.187618 10:-0.17049 11:-0.00632803 12:-0.862505 13:-0.154796 14:-0.408914 15:0.634203 16:-0.262343 17:-0.0555076 18:-0.66884 19:-0.0737248 20:-0.879198 21:-0.398987 22:0.186638 23:0.221493 24:-0.221672 25:-0.80161 26:-0.925452 27:-0.985646 28:-0.970196 29:-0.267302 30:-0.070891 31:0.253827 
-2.760753497421559 1.425839253028799 1.066033703669926 0.04953138056803522 1.194538933804999 0.03623206657099075 0 2.877639432279208 0 1:0.0662808 2:0.149709 3:0.132122 4:0.148976 5:0.144072 6:0.0517727 7:0.170796 8:0.101039 9:0.0610947 10:-0.00341693 11:0.0100846 12:-0.5944 13:-0.0887125 14:-0.483067 15:0.986099 16:-0.0983773 17:-0.172157 18:-0.648308 19:0.00682749 20:-0.853576 21:-0.415 22:0.251861 23:0.25398 24:-0.241652 25:-0.773975 26:-0.962076 27:-0.961615 28:-0.966325 29:-0.267129 30:-0.0723908 31:0.254077 
-0.4270919911496439 0 0 0 0 0 0 0.4945239703861845 1.643411649007987 1:0.195034 2:0.351676 3:0.27867 4:0.404727 5:0.390489 6:0.229232 7:0.472658 8:0.397483 9:0.37183 10:0.207298 11:0.165447 12:-0.516051 13:0.109595 14:-0.722241 15:0.976213 16:0.0654359 17:-0.166542 18:-0.676056 19:0.058196 20:-0.850966 21:-0.429219 22:0.215155 23:0.285672 24:-0.238221 25:-0.783039 26:-0.979093 27:-0.971245 28:-0.973357 29:-0.267381 30:-0.075551 31:0.253962 
-0 0 0 0 0 0 0 0 0.3547564270048892 1:-0.32683 2:-0.162438 3:-0.296722 4:-0.111576 5:-0.211265 6:-0.384435 7:-0.0499582 8:-0.215924 9:-0.328053 10:-0.440094 11:-0.284626 12:-0.547872 13:-0.406758 14:-0.379378 15:0.789295 16:-0.269012 17:-0.0699864 18:-0.393565 19:-0.130794 20:-0.762525 21:-0.507545 22:0.391433 23:0.154356 24:-0.220433 25:-0.603424 26:-0.891359 27:-0.898915 28:-0.849886 29:-0.255401 30:-0.0236622 31:0.256763 
-0 0 0 0.43064085843433 1.053215985383994 0 0.8695066724723065 0 4 1:-0.315753 2:-0.173224 3:-0.315596 4:-0.141493 5:-0.243354 6:-0.417697 7:-0.0981607 8:-0.255987 9:-0.370942 10:-0.482523 11:-0.307023 12:-0.520873 13:-0.407783 14:-0.354456 15:0.792448 16:-0.322437 17:-0.0506684 18:-0.433962 19:-0.108893 20:-0.771222 21:-0.49288 22:0.384587 23:0.134686 24:-0.213735 25:-0.626108 26:-0.9053 27:-0.903907 28:-0.849316 29:-0.255297 30:-0.0271908 31:0.256405 
-0 0 0 0 0 0 0 0 1.129006549791519 1:0.493335 2:0.683258 3:0.263958 4:0.732886 5:0.616618 6:0.053551 7:0.783678 8:0.685221 9:0.582437 10:-0.0539191 11:0.261574 12:0.303672 13:0.210375 14:-1 15:-0.0633109 16:0.756912 17:0.348078 18:-0.826981 19:0.259687 20:-0.925826 21:-0.411437 22:0.063007 23:0.359216 24:-0.186745 25:-0.899971 26:-0.997478 27:-0.984258 28:-0.993837 29:-0.267784 30:-0.0801825 31:0.253794 
-0 0 0 0 0 0 0 0 2.706370501623035 1:0.37837 2:0.580313 3:0.141909 4:0.585221 5:0.531311 6:-0.0512204 7:0.585304 8:0.577619 9:0.500154 10:-0.141895 11:-0.113637 12:0.435081 13:0.169262 14:-0.667101 15:-0.19388 16:0.576814 17:0.401127 18:-0.906952 19:0.295227 20:-0.90133 21:-0.391768 22:0.0489533 23:0.349531 24:-0.174351 25:-0.913201 26:-0.99151 27:-0.987126 28:-0.994836 29:-0.267788 30:-0.0803093 31:0.253781 
-0.9434990799380693 0.5668815214085455 0.4671424782841433 0.8606201051939975 0.1880138025877126 1.295731441026333 0 2.307359912840625 1.672517474889091 1:0.98499 2:0.546479 3:0.787608 4:0.24673 5:0.730887 6:0.61011 7:0.0828604 8:0.510226 9:0.871865 10:0.514594 11:0.350704 12:0.860348 13:0.767247 14:0.0834197 15:0.289536 16:0.991925 17:0.156126 18:-0.988304 19:0.309774 20:-0.952172 21:-0.299733 22:0.0809603 23:0.338623 24:-0.214343 25:-0.984196 26:-0.989272 27:-0.996599 28:-0.997705 29:-0.267754 30:-0.0796053 31:0.253779 
-0 0 0 0 0 0 0 0 1.172282253516444 1:0.781154 2:1 3:0.614499 4:1 5:1 6:0.426211 7:1 8:1 9:1 10:0.334148 11:0.110413 12:0.262525 13:0.497668 14:-0.732467 15:-0.267603 16:0.593074 17:0.301502 18:-0.986199 19:0.241111 20:-0.946698 21:-0.35862 22:0.0483093 23:0.322392 24:-0.201627 25:-0.979201 26:-0.997775 27:-0.994741 28:-0.99847 29:-0.267758 30:-0.0799178 31:0.253778 
-0 1.452440424411604 3.026460742525979 4 1.825411844195228 0 1.987755249054225 0.8293347202712699 4 1:0.0358224 2:0.103795 3:-0.0795335 4:0.0220558 5:0.255278 6:-0.203527 7:-0.0354248 8:0.263201 9:0.319197 10:-0.25263 11:-0.405714 12:0.74025 13:-0.0205444 14:-0.232564 15:0.0068774 16:0.491602 17:0.278016 18:-0.862532 19:0.441313 20:-0.818099 21:-0.372289 22:0.0789196 23:0.380295 24:-0.160794 25:-0.832306 26:-0.943851 27:-0.983958 28:-0.991555 29:-0.267766 30:-0.0795116 31:0.253744 
-0 0 0 1.001233413428141 0 0 0 0 0.6270272601114516 1:0.0441879 2:0.116256 3:-0.0745602 4:0.0160243 5:0.17729 6:-0.226508 7:-0.0652366 8:0.122038 9:0.194828 10:-0.299585 11:-0.510308 12:0.38815 13:-0.115081 14:-0.249343 15:-0.0211919 16:0.657976 17:0.246878 18:-0.92793 19:0.323201 20:-0.852176 21:-0.37445 22:0.0734877 23:0.414315 24:-0.167284 25:-0.884219 26:-0.982311 27:-0.975094 28:-0.993426 29:-0.267721 30:-0.0790619 31:0.253754 
-3.320997902797309 2.83686880425749 4 2.273004230466093 1.876159507032011 0 4 4 4 1:0.497768 2:0.415239 3:0.256185 4:0.257782 5:0.261992 6:0.0383471 7:0.160431 8:0.0616489 9:0.168697 10:-0.0756398 11:-0.0219488 12:-0.159348 13:0.198115 14:-0.227608 15:-0.497896 16:0.353356 17:0.337443 18:-0.925465 19:0.169947 20:-0.929284 21:-0.333985 22:0.0216693 23:0.314351 24:-0.187956 25:-0.9418 26:-0.997996 27:-0.994176 28:-0.999503 29:-0.267757 30:-0.0798181 31:0.253777 
-0.9185645846855089 0.6291982481541848 0 2.391436772492748 0 3.2019008289538 0 4 0.03184512319623234 1:0.637864 2:0.561239 3:0.700458 4:0.379041 5:0.574266 6:0.567257 7:0.257836 8:0.280898 9:0.533725 10:0.4565 11:-0.0461125 12:-0.607623 13:0.220735 14:-0.231923 15:-0.117144 16:0.640016 17:-0.297702 18:-0.984382 19:0.0994063 20:-0.958388 21:-0.328185 22:0.0582209 23:0.33492 24:-0.243499 25:-0.987355 26:-0.988315 27:-0.995608 28:-0.999555 29:-0.267756 30:-0.0798013 31:0.253777 
-0.07316926764368964 0.4773647594348653 0.5020270149432111 0 0.2881370864355697 0.2687708488101229 0 1.656731135866169 0 1:0.746177 2:0.827421 3:0.908171 4:0.765544 5:0.941186 6:0.867576 7:0.739286 8:0.804669 9:0.957042 10:0.832711 11:0.235891 12:-0.630255 13:0.469517 14:-0.486001 15:0.893226 16:0.22066 17:-0.447029 18:-0.941816 19:0.106369 20:-0.943284 21:-0.343006 22:0.129644 23:0.293851 24:-0.251791 25:-0.958941 26:-0.989891 27:-0.992299 28:-0.998176 29:-0.267752 30:-0.0796815 31:0.253778 
-0.5832452542492058 0 0 0 0 0 0 0 0.07230669483677364 1:0.631306 2:0.728861 3:0.555236 4:0.70579 5:0.727257 6:0.346945 7:0.71303 8:0.711898 9:0.65351 10:0.196437 11:0.30006 12:-0.123028 13:0.160177 14:-0.608267 15:0.768976 16:0.449829 17:-0.0936751 18:-0.879314 19:0.180786 20:-0.966901 21:-0.360156 22:0.129612 23:0.317644 24:-0.227671 25:-0.951997 26:-0.999206 27:-0.991248 28:-0.996031 29:-0.267764 30:-0.0797436 31:0.253784 
-0 0 0 2.35703960914598 0 0.01049600667011202 0 0 0 1:-0.268736 2:-0.078286 3:0.156019 4:-0.031397 5:0.411635 6:0.214804 7:0.0181346 8:0.416079 9:0.565996 10:0.194463 11:-0.351132 12:-0.0135769 13:-0.795691 14:-0.426792 15:0.0181847 16:-0.000251141 17:-0.268979 18:-0.543874 19:0.181631 20:-1 21:-0.498885 22:0.097202 23:0.271715 24:-0.285136 25:-0.843609 26:-0.981177 27:-0.988456 28:-0.955412 29:-0.267504 30:-0.0739896 31:0.253454 
-0 0 0 0 0.4426937217294118 0 4 3.561599283417814 2.286579707804568 1:-0.394176 2:-0.319195 3:-0.497063 4:-0.365685 5:-0.437292 6:-0.597203 7:-0.381886 8:-0.549031 9:-0.498507 10:-0.632306 11:-0.59821 12:-0.343358 13:-0.364314 14:0.0191238 15:-0.360634 16:0.0802105 17:0.264681 18:-0.632307 19:-0.0411128 20:-0.680519 21:-0.36055 22:-0.0565797 23:0.310765 24:-0.0771636 25:-0.636179 26:-0.935395 27:-0.960347 28:-0.990105 29:-0.267765 30:-0.0771629 31:0.253711 
-0 4 0.03085558780191573 4 4 1.846788738498993 4 4 4 1:-0.72188 2:-0.804809 3:-0.724482 4:-0.87235 5:-0.756645 6:-0.803174 7:-0.863198 8:-0.825921 9:-0.778763 10:-0.843644 11:-0.849085 12:-0.092142 13:-0.696549 14:0.498205 15:-0.076794 16:0.0419606 17:0.0145218 18:-0.478067 19:0.0313459 20:-0.572288 21:0.0928181 22:0.079119 23:0.313372 24:-0.116636 25:-0.492585 26:-0.961216 27:-0.979338 28:-0.809005 29:-0.265086 30:-0.119569 31:0.249899 
-0 0 0 4 0 4 0 0 0 1:-0.215436 2:-0.152284 3:-0.0625996 4:-0.214218 5:-0.0916382 6:-0.090883 7:-0.252387 8:-0.268037 9:-0.105705 10:-0.126381 11:-0.49675 12:-0.595942 13:-0.309784 14:-0.183056 15:-0.096923 16:0.427819 17:-0.381783 18:-0.732408 19:-0.0957096 20:-0.789621 21:-0.402145 22:0.0592188 23:0.419067 24:-0.31156 25:-0.758881 26:-0.911657 27:-0.968189 28:-0.99004 29:-0.26777 30:-0.0800539 31:0.253837 
-0 0 0 0 0 0 4 0 1.521788882380118 1:-0.0582811 2:-0.00308384 3:-0.159915 4:-0.0836195 5:-0.12051 6:-0.32418 7:-0.133311 8:-0.282494 9:-0.225183 10:-0.410611 11:-0.442008 12:-0.393399 13:-0.278601 14:-0.132384 15:-0.392128 16:0.239475 17:0.204155 18:-0.822097 19:0.0453419 20:-0.861712 21:-0.362903 22:-0.00546826 23:0.334461 24:-0.164773 25:-0.849335 26:-0.97423 27:-0.984315 28:-0.998539 29:-0.267762 30:-0.079592 31:0.253777 
-0 0 0 0 3.751446374117341 0 3.916619313349227 0 0.7163234074774758 1:-0.883658 2:-0.842991 3:-0.876713 4:-0.869641 5:-0.826688 6:-0.944033 7:-0.857741 8:-0.869205 9:-0.860136 10:-0.974147 11:-0.910327 12:-0.185179 13:-0.822204 14:0.230869 15:-0.125165 16:0.0318986 17:0.0233803 18:-0.172608 19:-0.293513 20:-0.452313 21:-0.146514 22:-0.00398753 23:0.320962 24:-0.00300997 25:-0.279875 26:-0.759846 27:-0.967813 28:-0.92182 29:-0.269571 30:-0.120884 31:0.254829 
-3.982622294459731 0 0 0 0 0 1.207921943183296 0 0 1:-0.761565 2:-0.63663 3:-0.723658 4:-0.618592 5:-0.660044 6:-0.778958 7:-0.588047 8:-0.707531 9:-0.714521 10:-0.808522 11:-0.697186 12:-0.410919 13:-0.691161 14:-0.0406758 15:-0.0130922 16:0.0494639 17:-0.0509358 18:0.0313843 19:-0.479003 20:-0.492333 21:-0.563759 22:0.162751 23:0.329827 24:-0.180657 25:-0.229062 26:-0.559585 27:-0.967031 28:-0.928788 29:-0.266559 30:-0.0336506 31:0.254815 
-0 0 0 0 0 0 3.221922593554819 4 2.207132798089098 1:-0.750616 2:-0.682108 3:-0.773662 4:-0.690689 5:-0.739612 6:-0.847472 7:-0.670367 8:-0.798898 9:-0.793449 10:-0.877021 11:-0.706306 12:-0.366003 13:-0.688393 14:0.140018 15:-0.225681 16:0.0216283 17:0.092017 18:-0.0343534 19:-0.390944 20:-0.509664 21:-0.323037 22:-0.100426 23:0.288518 24:-0.0132727 25:-0.268393 26:-0.665399 27:-0.928938 28:-0.982061 29:-0.267337 30:-0.0764035 31:0.253667 
-2.158354510189676 0 0 0 2.810846694160674 0 0 2.977294914345511 4 1:-0.76177 2:-0.679863 3:-0.799356 4:-0.680825 5:-0.748516 6:-0.87236 7:-0.655011 8:-0.80095 9:-0.79912 10:-0.8977 11:-0.701836 12:-0.351747 13:-0.686525 14:0.133507 15:-0.228008 16:0.0238341 17:0.133951 18:0.0196508 19:-0.388487 20:-0.485025 21:-0.33281 22:-0.109922 23:0.292229 24:0.0471023 25:-0.22819 26:-0.668126 27:-0.905528 28:-0.96081 29:-0.266176 30:-0.0730282 31:0.253381 
-0 0 0 0 0 0 4 0 0 1:-0.63808 2:-0.555919 3:-0.718335 4:-0.566577 5:-0.663678 6:-0.823813 7:-0.550311 8:-0.728411 9:-0.741106 10:-0.869057 11:-0.638894 12:-0.36345 13:-0.65377 14:0.0678617 15:-0.219206 16:0.0129922 17:0.154503 18:-0.235008 19:-0.234363 20:-0.645403 21:-0.377917 22:-0.045231 23:0.276525 24:-0.0285851 25:-0.451358 26:-0.817117 27:-0.956981 28:-0.96907 29:-0.267824 30:-0.0677494 31:0.253397 
-1.210168938917129 1.94292784967604 2.216878921294581 2.897772598766956 4 0 1.016383741166985 0.06295413706835498 4 1:-0.862613 2:-0.887357 3:-0.886464 4:-0.922533 5:-0.83439 6:-0.950792 7:-0.897656 8:-0.864971 9:-0.849219 10:-0.971588 11:-0.896366 12:-0.00234694 13:-0.768528 14:0.460526 15:-0.0648831 16:-0.0099589 17:0.107666 18:-0.201593 19:0.126445 20:-0.393982 21:0.292358 22:0.114961 23:0.226037 24:0.131452 25:-0.247109 26:-0.979789 27:-0.890402 28:-0.481893 29:-0.342258 30:-0.138115 31:0.228377 
-0 0 0 0 0 0 4 0 4 1:-0.590998 2:-0.471475 3:-0.696267 4:-0.459588 5:-0.585345 6:-0.786745 7:-0.427804 8:-0.629982 9:-0.651512 10:-0.818492 11:-0.570297 12:-0.265095 13:-0.533272 14:-0.028192 15:-0.241918 16:-0.0663314 17:0.230482 18:-0.231661 19:-0.0901998 20:-0.587101 21:-0.440556 22:-0.048063 23:0.209455 24:-0.000657326 25:-0.405747 26:-0.916955 27:-0.950978 28:-0.929138 29:-0.270132 30:-0.0567021 31:0.25284 
-0 0 0 0 0 0 4 0 4 1:-0.420176 2:-0.285966 3:-0.565542 4:-0.275265 5:-0.425487 6:-0.676801 7:-0.251491 8:-0.475176 9:-0.50114 10:-0.715499 11:-0.478474 12:-0.218069 13:-0.407163 14:-0.203062 15:-0.315486 16:-0.0112518 17:0.324763 18:-0.45217 19:0.0325284 20:-0.68352 21:-0.472911 22:-0.0430312 23:0.263654 24:-0.0403927 25:-0.566751 26:-0.970736 27:-0.957155 28:-0.944733 29:-0.269799 30:-0.069983 31:0.25372 
-0 0 4 0 0 0 4 0 4 1:-0.57332 2:-0.391954 3:-0.686875 4:-0.356306 5:-0.496104 6:-0.764771 7:-0.316995 8:-0.5203 9:-0.550342 10:-0.782696 11:-0.619013 12:-0.136403 13:-0.462354 14:-0.182195 15:-0.361582 16:-0.0969552 17:0.315993 18:-0.356329 19:0.0438225 20:-0.545598 21:-0.545322 22:-0.125904 23:0.188158 24:0.0458321 25:-0.423857 26:-0.969044 27:-0.896163 28:-0.870497 29:-0.279153 30:-0.0648946 31:0.254126 
-4 4 4 1.633144309999836 4 0 4 4 4 1:-0.421303 2:-0.334407 3:-0.55356 4:-0.339269 5:-0.478302 6:-0.637738 7:-0.316114 8:-0.549212 9:-0.554293 10:-0.659696 11:-0.428412 12:-0.327797 13:-0.312344 14:-0.0420826 15:-0.318244 16:-0.299191 17:0.33071 18:-0.38958 19:-0.0436172 20:-0.619063 21:-0.394804 22:-0.0446002 23:0.10806 24:-0.0371889 25:-0.492885 26:-0.939137 27:-0.949047 28:-0.933382 29:-0.269986 30:-0.0639217 31:0.252917 
-0 0 0 0 0 0 0.2570636905430302 0 0 1:-0.469259 2:-0.340545 3:-0.569216 4:-0.331633 5:-0.456216 6:-0.688251 7:-0.309227 8:-0.510241 9:-0.537707 10:-0.742355 11:-0.511563 12:-0.296792 13:-0.515415 14:-0.176243 15:-0.184298 16:0.102987 17:0.181651 18:-0.407072 19:-0.0451511 20:-0.712098 21:-0.481132 22:0.0126197 23:0.331441 24:-0.0892631 25:-0.570501 26:-0.940251 27:-0.969365 28:-0.961681 29:-0.268711 30:-0.0693007 31:0.253908 
-0 0 4 0 0 0 4 0 4 1:-0.531053 2:-0.327829 3:-0.678302 4:-0.280266 5:-0.443288 6:-0.754511 7:-0.234812 8:-0.448392 9:-0.490903 10:-0.769011 11:-0.599066 12:-0.0283028 13:-0.396352 14:-0.265343 15:-0.458351 16:-0.0935086 17:0.386824 18:-0.412785 19:0.151937 20:-0.547377 21:-0.571426 22:-0.165171 23:0.200443 24:0.0581335 25:-0.447679 26:-0.988419 27:-0.863826 28:-0.864183 29:-0.281208 30:-0.0814443 31:0.255579 
-0 0 0 0 4 0 4 0 4 1:-0.432096 2:-0.36668 3:-0.608234 4:-0.401015 5:-0.525831 6:-0.71474 7:-0.404753 8:-0.609507 9:-0.597352 10:-0.748937 11:-0.542083 12:-0.2491 13:-0.390166 14:0.000809163 15:-0.431153 16:-0.0906327 17:0.371193 18:-0.510423 19:0.00653488 20:-0.660206 21:-0.375956 22:-0.101506 23:0.219236 24:-0.013296 25:-0.572234 26:-0.959009 27:-0.928646 28:-0.968382 29:-0.268385 30:-0.0726949 31:0.253353 
-0 0 0 0 0 0 4 0 0 1:-0.562304 2:-0.468387 3:-0.644039 4:-0.49483 5:-0.556765 6:-0.743787 7:-0.498285 8:-0.638 9:-0.620712 10:-0.779117 11:-0.684603 12:-0.273526 13:-0.551079 14:0.00757824 15:-0.321906 16:0.0596957 17:0.238587 18:-0.486765 19:-0.0791395 20:-0.640766 21:-0.403942 22:-0.093477 23:0.313029 24:-0.0131506 25:-0.54805 26:-0.919482 27:-0.926565 28:-0.973908 29:-0.268078 30:-0.0717004 31:0.253418 
-0 0 0 0.3034875954478783 0 0 0 0 0 1:-0.462804 2:-0.362901 3:-0.475336 4:-0.406968 5:-0.388551 6:-0.587013 7:-0.43537 8:-0.498666 9:-0.445893 10:-0.655722 11:-0.70968 12:-0.282674 13:-0.563917 14:-0.10319 15:-0.288728 16:0.323339 17:-0.010902 18:-0.679679 19:-0.0312895 20:-0.753386 21:-0.438607 22:-0.0406342 23:0.462457 24:-0.188169 25:-0.710374 26:-0.943757 27:-0.934259 28:-0.998862 29:-0.267763 30:-0.0800905 31:0.253775 
-0 0 0 1.680329946523394 0 0 0 0 0 1:-0.568853 2:-0.435471 3:-0.578149 4:-0.382119 5:-0.410504 6:-0.709792 7:-0.328236 8:-0.402285 9:-0.461838 10:-0.790222 11:-0.367874 12:-0.0609613 13:-0.743696 14:-0.446327 15:-0.229153 16:0.464317 17:0.0232684 18:0.0482888 19:0.116374 20:-0.807937 21:-0.731763 22:-0.0326627 23:0.63508 24:-0.152615 25:-0.462024 26:-0.950129 27:-0.723357 28:-0.961271 29:-0.265141 30:-0.0702317 31:0.254474 
-0.03957599980334125 0 0.3669854057005576 0 0 0 0 0 1.50627415980755 1:-0.715086 2:-0.513624 3:-0.561444 4:-0.441539 5:-0.429856 6:-0.547893 7:-0.376419 8:-0.433323 9:-0.439033 10:-0.528262 11:-0.604625 12:-0.439909 13:-0.592442 14:-0.374115 15:0.335551 16:0.0375331 17:-0.181706 18:0.0852287 19:-0.434421 20:-0.447568 21:-0.899393 22:0.523216 23:0.307018 24:-0.32447 25:-0.173636 26:-0.615035 27:-0.66558 28:-0.607345 29:-0.159788 30:0.107523 31:0.257084 
-0 1.341042265808694 0.391260156928088 0 0 0.741972682987511 0 0 0 1:0.149729 2:0.317471 3:0.436146 4:0.284469 5:0.602491 6:0.465507 7:0.254705 8:0.487205 9:0.707605 10:0.474799 11:-0.372398 12:-0.346619 13:-0.0866077 14:-0.353632 15:0.32718 16:0.324295 17:-0.455195 18:-0.909201 19:0.0981359 20:-0.886337 21:-0.379001 22:0.12551 23:0.332836 24:-0.282532 25:-0.902707 26:-0.986635 27:-0.98409 28:-0.997596 29:-0.26776 30:-0.0801241 31:0.253772 
-0 0 0 0 0 0 0 0 0.9094564463650187 1:-0.708402 2:-0.508197 3:-0.750599 4:-0.412918 5:-0.500755 6:-0.823249 7:-0.321981 8:-0.408999 9:-0.504318 10:-0.852893 11:-0.469974 12:0.0617744 13:-0.626585 14:-0.477596 15:0.209069 16:0.379999 17:0.0938875 18:0.373179 19:0.241534 20:-0.504455 21:-1 22:0.379588 23:0.724044 24:-0.0403776 25:-0.102217 26:-0.983055 27:-0.454383 28:-0.631051 29:-0.345216 30:-0.0994188 31:0.297881 
-0 0 0 0 0 0 0 1.809815350721815 0 1:-0.339137 2:-0.140906 3:-0.250241 4:-0.0560729 5:-0.11409 6:-0.262162 7:0.0321398 8:-0.0910617 9:-0.113027 10:-0.252007 11:-0.230098 12:-0.479189 13:-0.228459 14:-0.562709 15:0.666578 16:0.143896 17:-0.120911 18:-0.316155 19:-0.097621 20:-0.650957 21:-0.587366 22:0.35334 23:0.335158 24:-0.239298 25:-0.487881 26:-0.912946 27:-0.883199 28:-0.895411 29:-0.263007 30:-0.0457238 31:0.257065 
-0 1.005082526984723 0 0 0 0 0 2.016829144687953 0 1:-0.408609 2:-0.263882 3:-0.205301 4:-0.246269 5:-0.153842 6:-0.177371 7:-0.229166 8:-0.232004 9:-0.147966 10:-0.154988 11:-0.464636 12:-0.577496 13:-0.383053 14:-0.421926 15:0.318672 16:0.179599 17:-0.32951 18:-0.455012 19:-0.205799 20:-0.678774 21:-0.571675 22:0.246972 23:0.364024 24:-0.333072 25:-0.564281 26:-0.839551 27:-0.904933 28:-0.952292 29:-0.265862 30:-0.0786844 31:0.253091 
-0 2.193513373189581 3.727806625930242 0 2.990248165940303 0 4 4 0 1:-0.812977 2:-0.656523 3:-0.637117 4:-0.632227 5:-0.554265 6:-0.602438 7:-0.605329 8:-0.613182 9:-0.544495 10:-0.573091 11:-0.793071 12:-0.412478 13:-0.65114 14:-0.10007 15:0.0325796 16:0.13161 17:-0.286611 18:-0.0439151 19:-0.596372 20:-0.307768 21:-0.716387 22:0.254833 23:0.487257 24:-0.522506 25:-0.118871 26:-0.381854 27:-0.745539 28:-0.880747 29:-0.281443 30:-0.184912 31:0.250268 
-0 3.868671949372078 4 0 1.28620488683312 0 0 4 2.967550080082987 1:-0.490956 2:-0.332764 3:-0.368165 4:-0.30083 5:-0.321979 6:-0.346936 7:-0.274716 8:-0.389503 9:-0.340507 10:-0.313868 11:-0.496546 12:-0.646281 13:-0.300996 14:-0.466535 15:0.343632 16:-0.00805315 17:-0.205552 18:-0.344295 19:-0.334145 20:-0.525897 21:-0.660527 22:0.303395 23:0.263132 24:-0.290271 25:-0.404101 26:-0.718726 27:-0.906019 28:-0.848508 29:-0.25442 30:-0.0454593 31:0.252292 
-0 0.3573047658173463 0 0 0 2.954347443176733 0 0.3226664138441818 0 1:-0.774227 2:-0.652819 3:-0.580859 4:-0.634042 5:-0.534068 6:-0.545681 7:-0.609257 8:-0.595887 9:-0.510292 10:-0.524042 11:-0.695348 12:-0.401108 13:-0.658767 14:-0.146014 15:-0.0423186 16:0.3036 17:-0.348046 18:0.0875415 19:-0.489192 20:-0.416419 21:-0.722719 22:0.128786 23:0.722852 24:-0.5614 25:-0.149058 26:-0.546351 27:-0.60204 28:-0.86789 29:-0.282422 30:-0.14465 31:0.261673 
-0 0 0.6456302119346014 0 0 0 0 1.501806988497685 0 1:-0.545684 2:-0.354739 3:-0.358637 4:-0.322236 5:-0.22608 6:-0.333994 7:-0.296623 8:-0.278106 9:-0.199334 10:-0.316677 11:-0.647491 12:-0.428656 13:-0.478143 14:-0.308067 15:0.245397 16:0.205717 17:-0.334129 18:-0.459031 19:-0.207189 20:-0.597405 21:-0.61143 22:0.278507 23:0.420128 24:-0.380491 25:-0.504082 26:-0.83322 27:-0.844711 28:-0.951229 29:-0.266247 30:-0.0878557 31:0.252509 
-0 0 0 1.54519850495957 0 0 0.3592907097850789 0 0 1:-0.6513 2:-0.521347 3:-0.539937 4:-0.530126 5:-0.458946 6:-0.572231 7:-0.530493 8:-0.541963 9:-0.475434 10:-0.598288 11:-0.761183 12:-0.355855 13:-0.623016 14:-0.0982888 15:-0.0408859 16:0.242981 17:-0.200834 18:-0.444156 19:-0.240365 20:-0.593552 21:-0.53364 22:0.106676 23:0.509761 24:-0.322573 25:-0.495231 26:-0.806849 27:-0.894025 28:-0.987333 29:-0.268052 30:-0.0861282 31:0.253691 
-0 0.4982973326269953 0 4 1.016340031252142 4 0 4 0 1:-0.739261 2:-0.655434 3:-0.636458 4:-0.677108 5:-0.622701 6:-0.660427 7:-0.670233 8:-0.721679 9:-0.645885 10:-0.678631 11:-0.795768 12:-0.424073 13:-0.652844 14:0.140343 15:-0.214383 16:0.220337 17:-0.201618 18:-0.301432 19:-0.455776 20:-0.481279 21:-0.321549 22:-0.080892 23:0.557432 24:-0.355537 25:-0.353154 26:-0.57947 27:-0.927115 28:-0.909386 29:-0.2622 30:-0.0156796 31:0.25409 
-2.30846021253334 4 4 4 4 4 4 4 4 1:-0.197491 2:-0.174689 3:-0.0680518 4:-0.269817 5:0.0151771 6:-0.0904344 7:-0.337354 8:-0.103163 9:0.0964548 10:-0.0917779 11:-0.558188 12:0.0186515 13:-0.222386 14:-0.216943 15:0.135288 16:0.299173 17:-0.128911 18:-0.799534 19:0.199542 20:-0.76131 21:-0.408501 22:0.125641 23:0.371486 24:-0.238415 25:-0.764102 26:-0.992462 27:-0.977308 28:-0.996298 29:-0.267752 30:-0.079932 31:0.253788 
-0 0 0 4 4 0 4 3.666899567398765 0 1:-0.548456 2:-0.525807 3:-0.549324 4:-0.586806 5:-0.571344 6:-0.639133 7:-0.60137 8:-0.698397 9:-0.633855 10:-0.683669 11:-0.703247 12:-0.425989 13:-0.575245 14:0.203604 15:-0.348622 16:0.148501 17:0.0654667 18:-0.541619 19:-0.207336 20:-0.678218 21:-0.266922 22:-0.104996 23:0.378296 24:-0.130193 25:-0.598331 26:-0.836077 27:-0.949937 28:-0.990626 29:-0.267775 30:-0.0797542 31:0.253709 
-0 0 0 0.2197644384859677 0 0 4 0 0 1:-0.528575 2:-0.47143 3:-0.52533 4:-0.518747 5:-0.515648 6:-0.618624 7:-0.530369 8:-0.635056 9:-0.58326 10:-0.669914 11:-0.679918 12:-0.423325 13:-0.574948 14:0.11251 15:-0.280787 16:0.159078 17:0.025364 18:-0.539712 19:-0.187406 20:-0.699402 21:-0.326921 22:-0.0546133 23:0.380458 24:-0.159227 25:-0.61366 26:-0.85244 27:-0.967444 28:-0.998543 29:-0.267759 30:-0.0797589 31:0.253774 
-0 0 0 0 0 0 4 0 0 1:-0.525494 2:-0.474779 3:-0.589814 4:-0.519503 5:-0.560048 6:-0.701147 7:-0.529781 8:-0.66322 9:-0.634383 10:-0.750213 11:-0.649107 12:-0.356935 13:-0.570437 14:0.0761806 15:-0.333948 16:0.0965927 17:0.172637 18:-0.498719 19:-0.128082 20:-0.698876 21:-0.349797 22:-0.0860429 23:0.335563 24:-0.072734 25:-0.596942 26:-0.893821 27:-0.945335 28:-0.994377 29:-0.267713 30:-0.0788465 31:0.25375 
-0 0 0 4 4 0 4 4 0 1:-0.473295 2:-0.485291 3:-0.476744 4:-0.556142 5:-0.546696 6:-0.57111 7:-0.571667 8:-0.687621 9:-0.6217 10:-0.615257 11:-0.619821 12:-0.500652 13:-0.519112 14:0.251405 15:-0.371676 16:0.0958434 17:0.105598 18:-0.545003 19:-0.203316 20:-0.710954 21:-0.245491 22:-0.0874146 23:0.327612 24:-0.127048 25:-0.624539 26:-0.840881 27:-0.961646 28:-0.992887 29:-0.267795 30:-0.080813 31:0.253741 
-0.1496072542546208 0 0.2595798141224411 0 4 0 4 4 4 1:-0.429204 2:-0.414175 3:-0.586684 4:-0.458876 5:-0.593127 6:-0.693001 7:-0.461275 8:-0.686649 9:-0.685185 10:-0.720457 11:-0.484006 12:-0.446053 13:-0.392793 14:0.102161 15:-0.258339 16:-0.272168 17:0.424472 18:-0.443536 19:-0.130421 20:-0.664942 21:-0.324948 22:-0.0181177 23:0.11967 24:0.00980335 25:-0.549206 26:-0.892163 27:-0.94488 28:-0.9333 29:-0.266327 30:-0.0566031 31:0.252567 
-0 0 4 0 0 0 4 0 4 1:-0.238561 2:-0.102106 3:-0.447872 4:-0.107625 5:-0.271485 6:-0.568839 7:-0.0999903 8:-0.331682 9:-0.350296 10:-0.605644 11:-0.426349 12:-0.107452 13:-0.216179 14:-0.244315 15:-0.503401 16:-0.0765115 17:0.472232 18:-0.648021 19:0.13612 20:-0.729371 21:-0.427201 22:-0.0671071 23:0.244619 24:-0.0581193 25:-0.679532 26:-0.991815 27:-0.954926 28:-0.965446 29:-0.268791 30:-0.0781585 31:0.25374 
-0 0 0 0 0 0 0 0 3.111442874568004 1:-0.186854 2:0.0746167 3:-0.385368 4:0.174642 5:-0.00132237 6:-0.503947 7:0.25843 8:0.099332 9:-0.0141995 10:-0.529155 11:-0.275576 12:0.332068 13:-0.155923 14:-0.788192 15:-0.416232 16:0.468282 17:0.571241 18:-0.580776 19:0.343414 20:-0.738851 21:-0.573365 22:-0.0301257 23:0.424296 24:-0.0479505 25:-0.659966 26:-0.981819 27:-0.903598 28:-0.94731 29:-0.270266 30:-0.0879133 31:0.254384 
-0 0 0.1349497494011488 0 0 0 0 0 0 1:-0.558654 2:-0.341803 3:-0.701968 4:-0.271675 5:-0.421315 6:-0.778293 7:-0.20932 8:-0.383743 9:-0.446173 10:-0.788902 11:-0.549877 12:0.120609 13:-0.429502 14:-0.414075 15:-0.445584 16:0.142657 17:0.421958 18:-0.276319 19:0.285225 20:-0.537083 21:-0.69695 22:-0.17442 23:0.376698 24:0.10339 25:-0.385538 26:-0.991178 27:-0.771695 28:-0.841848 29:-0.288339 30:-0.0963216 31:0.258195 
-0 0 0 0 0 0 4 0 0 1:-0.375456 2:-0.151421 3:-0.541746 4:-0.102044 5:-0.239107 6:-0.666287 7:-0.0659723 8:-0.205516 9:-0.292478 10:-0.713658 11:-0.54609 12:0.154055 13:-0.399061 14:-0.447964 15:-0.341354 16:0.28857 17:0.328168 18:-0.598229 19:0.282316 20:-0.719082 21:-0.562323 22:-0.0435087 23:0.410298 24:-0.0577851 25:-0.651897 26:-0.992424 27:-0.90915 28:-0.953559 29:-0.269568 30:-0.0843134 31:0.254403 
-4 -0 1.568799805070194 0 4 0 4 4 4 1:-0.196166 2:-0.268795 3:-0.231882 4:-0.351069 5:-0.384679 6:-0.240028 7:-0.365978 8:-0.528081 9:-0.421048 10:-0.207347 11:-0.293944 12:-0.659034 13:0.107367 14:0.263328 15:-0.0407824 16:-0.264667 17:0.145873 18:-0.584723 19:-0.115848 20:-0.613652 21:-0.264994 22:0.0752601 23:0.18519 24:-0.162337 25:-0.566455 26:-0.890734 27:-0.990665 28:-0.991427 29:-0.267702 30:-0.0770919 31:0.253786 
-2.391822675533331 -1.363829632370606 0 0.05896709263241481 0 4 0 4 0 1:-0.386972 2:-0.386449 3:-0.236937 4:-0.408124 5:-0.368161 6:-0.152367 7:-0.3927 8:-0.488473 9:-0.297753 10:-0.0602857 11:-0.29068 12:-0.700556 13:-0.0256246 14:0.00873605 15:-0.100964 16:0.585314 17:-0.351406 18:-0.292434 19:-0.268785 20:-0.475262 21:-0.364128 22:0.0570976 23:0.561654 24:-0.336933 25:-0.345002 26:-0.778313 27:-0.917009 28:-0.967965 29:-0.266956 30:-0.0628939 31:0.253347 
-4 -0 0 0 4 0 0 4 0 1:-0.575549 2:-0.530772 3:-0.470651 4:-0.53917 5:-0.507144 6:-0.400008 7:-0.517678 8:-0.57607 9:-0.450157 10:-0.31571 11:-0.488649 12:-0.495302 13:-0.152727 14:0.0416025 15:0.122313 16:0.198719 17:-0.186286 18:-0.133016 19:-0.299477 20:-0.256405 21:-0.383195 22:0.211441 23:0.426944 24:-0.293465 25:-0.115327 26:-0.727844 27:-0.9378 28:-0.998698 29:-0.267754 30:-0.08013 31:0.253773 
-2.2177515197205 -2.103918449750523 4 0 4 0 4 4 4 1:-0.611218 2:-0.550959 3:-0.517535 4:-0.555454 5:-0.552103 6:-0.465823 7:-0.530007 8:-0.629273 9:-0.535435 10:-0.40174 11:-0.533158 12:-0.551566 13:-0.235516 14:0.0762235 15:0.0310089 16:0.00241908 17:-0.169333 18:-0.11096 19:-0.401647 20:-0.259426 21:-0.364703 22:0.157119 23:0.267065 24:-0.287922 25:-0.108845 26:-0.624371 27:-0.983841 28:-0.994208 29:-0.267749 30:-0.0809267 31:0.253758 
-4 -4 0 1.695873285197946 2.866834431368323 4 2.562752894725188 4 0 1:-0.570944 2:-0.574789 3:-0.497632 4:-0.597377 5:-0.624977 6:-0.45658 7:-0.579066 8:-0.719719 9:-0.632611 10:-0.403389 11:-0.475845 12:-0.689892 13:-0.204968 14:0.191803 15:-0.0947826 16:0.0322794 17:-0.155707 18:-0.124188 19:-0.477948 20:-0.31378 21:-0.273603 22:0.05957 23:0.292012 24:-0.272113 25:-0.155391 26:-0.54092 27:-0.999476 28:-0.996206 29:-0.267756 30:-0.0770283 31:0.253775 
-0 -0 0 0 4 0 0 0 0 1:-0.508229 2:-0.562301 3:-0.411348 4:-0.612994 5:-0.467357 6:-0.330665 7:-0.618866 8:-0.545464 9:-0.38042 10:-0.239636 11:-0.490588 12:-0.185203 13:-0.0402814 14:0.135313 15:0.0733474 16:0.0016982 17:-0.229635 18:-0.299523 19:0.025438 20:-0.293956 21:-0.311377 22:0.157444 23:0.269055 24:-0.306782 25:-0.210129 26:-0.92555 27:-0.981707 28:-0.999084 29:-0.267759 30:-0.0800259 31:0.253778 
-0 -0.7792495614643619 0 0 1.412873667146057 0 0 4 4 1:0.324304 2:0.184586 3:0.215539 4:0.0280872 5:0.131773 6:0.209456 7:-0.0417531 8:-0.0712288 9:0.223035 10:0.276067 11:-0.0525117 12:-0.230016 13:0.691925 14:0.162405 15:-0.320692 16:0.372158 17:0.447329 18:-0.856132 19:0.145754 20:-0.766175 21:-0.295193 22:0.0328731 23:0.326759 24:-0.164854 25:-0.790326 26:-0.986172 27:-0.994629 28:-0.996062 29:-0.26775 30:-0.0798907 31:0.253782 
-0 -0 0 0 0 0.7638594843194074 0 1.47632858563948 0 1:0.323056 2:-0.00934484 3:0.30205 4:-0.198826 5:-0.00210103 6:0.344278 7:-0.276608 8:-0.207217 9:0.107197 10:0.425808 11:0.0502084 12:-0.313537 13:0.751023 14:0.349175 15:0.153333 16:0.376314 17:0.00658382 18:-0.81342 19:0.126192 20:-0.752251 21:-0.271718 22:0.0898037 23:0.327425 24:-0.216161 25:-0.762747 26:-0.984542 27:-0.998281 28:-0.995481 29:-0.267751 30:-0.0804298 31:0.25378 
-0 -0.4064897753996028 0.3303114431637479 0 0 0 0 0 4 1:-0.0265747 2:0.0240672 3:-0.133513 4:-0.0368983 5:0.0549055 6:-0.131257 7:-0.0662363 8:-0.0248937 9:0.172667 10:-0.0673465 11:-0.297402 12:0.220065 13:0.390538 14:-0.195776 15:-0.543437 16:0.243166 17:0.473499 18:-0.752455 19:0.274184 20:-0.641746 21:-0.372989 22:-0.0333414 23:0.332209 24:-0.113851 25:-0.654555 26:-0.975486 27:-0.970903 28:-0.994249 29:-0.26779 30:-0.0798226 31:0.253757 
-3.165795421894432 -0 0 0 3.000821383767776 0 0 4 0 1:0.252956 2:-0.0122947 3:0.150517 4:-0.154991 5:-0.13357 6:0.155867 7:-0.203356 8:-0.32915 9:-0.115306 10:0.222792 11:0.146098 12:-0.56782 13:0.661008 14:0.296721 15:-0.287986 16:-0.0745955 17:0.364917 18:-0.727959 19:0.05509 20:-0.738202 21:-0.276516 22:0.0342892 23:0.263413 24:-0.168756 25:-0.718062 26:-0.972174 27:-0.996554 28:-0.997458 29:-0.267753 30:-0.0797935 31:0.253779 
-0 -0 0 0 0 0 0 0 2.61114459075832 1:0.28437 2:0.114671 3:0.205826 4:-0.0679258 5:0.170343 6:0.234055 7:-0.162318 8:-0.0290205 9:0.305619 10:0.326482 11:-0.176772 12:0.101678 13:0.746025 14:0.115406 15:-0.285734 16:0.155895 17:0.373072 18:-0.887485 19:0.2237 20:-0.734065 21:-0.30143 22:0.0357239 23:0.297888 24:-0.170359 25:-0.778421 26:-0.982858 27:-0.996751 28:-0.997569 29:-0.267752 30:-0.0794874 31:0.253777 
-0 -4 4 2.268684007354437 0 0.01108229142084322 2.196418489190377 1.766418265345004 4 1:0.115355 2:0.21284 3:0.0520942 4:0.157858 5:0.281014 6:0.0466267 7:0.11967 8:0.199957 9:0.415794 10:0.109261 11:-0.285116 12:0.200746 13:0.441796 14:-0.363774 15:-0.534044 16:0.355258 17:0.386589 18:-0.84495 19:0.256937 20:-0.720304 21:-0.385401 22:-0.0120927 23:0.341822 24:-0.151619 25:-0.751037 26:-0.98213 27:-0.978691 28:-0.996576 29:-0.267778 30:-0.0801492 31:0.25378 
-0 -2.293073286585379 4 0 4 0 3.139878067686179 4 4 1:-0.425994 2:-0.392237 3:-0.339051 4:-0.466834 5:-0.281593 6:-0.307399 7:-0.507876 8:-0.369004 9:-0.19405 10:-0.266309 11:-0.680748 12:-0.107962 13:-0.135961 14:-0.0208773 15:0.327746 16:0.188735 17:-0.239997 18:-0.689702 19:0.107259 20:-0.494954 21:-0.385473 22:0.259259 23:0.372743 24:-0.296575 25:-0.518094 26:-0.946278 27:-0.932151 28:-0.995083 29:-0.267812 30:-0.0786126 31:0.253795 
-0 -0 0 0 0 0 0 4 0 1:-0.199195 2:-0.150157 3:-0.0945763 4:-0.221393 5:-0.0893112 6:-0.0392578 7:-0.26187 8:-0.212858 9:-0.00476417 10:0.0267863 11:-0.495948 12:-0.417311 13:0.1208 14:-0.10751 15:0.387815 16:0.23046 17:-0.303755 18:-0.747001 19:-0.00436547 20:-0.604822 21:-0.376057 22:0.19831 23:0.348997 24:-0.287134 25:-0.624345 26:-0.931412 27:-0.962955 28:-0.997963 29:-0.267753 30:-0.079377 31:0.253783 
-0 -0 4 0 0 0 0 0 0 1:-0.627981 2:-0.464859 3:-0.441166 4:-0.441647 5:-0.348265 6:-0.320101 7:-0.409054 8:-0.407351 9:-0.238029 10:-0.194801 11:-0.669085 12:-0.444279 13:-0.184412 14:-0.0736722 15:0.215392 16:0.14436 17:-0.435268 18:-0.318712 19:-0.310847 20:-0.168196 21:-0.496169 22:0.312562 23:0.400567 24:-0.501636 25:-0.122258 26:-0.665401 27:-0.811874 28:-0.967764 29:-0.269415 30:-0.0965577 31:0.254198 
-0 -0 0 0 0 0.2227302592676907 0 0 0 1:-0.395974 2:-0.29919 3:-0.216644 4:-0.291289 5:-0.203778 6:-0.115595 7:-0.262025 8:-0.278037 9:-0.116824 10:-0.0294648 11:-0.364825 12:-0.525028 13:-0.0365481 14:-0.1743 15:0.239806 16:0.15508 17:-0.623179 18:-0.360409 19:-0.161466 20:-0.470123 21:-0.449709 22:0.206785 23:0.34898 24:-0.455191 25:-0.368157 26:-0.857686 27:-0.915297 28:-0.963533 29:-0.26871 30:-0.0915509 31:0.254315 
-0 -0 4 0 0 0 0 0 0 1:-0.484501 2:-0.381178 3:-0.362715 4:-0.388887 5:-0.313013 6:-0.265438 7:-0.372576 8:-0.386691 9:-0.223984 10:-0.160697 11:-0.541539 12:-0.401691 13:-0.00420782 14:-0.0237324 15:0.176444 16:-0.035129 17:-0.317017 18:-0.4192 19:-0.135344 20:-0.309572 21:-0.401334 22:0.207959 23:0.246232 24:-0.348373 25:-0.269628 26:-0.834248 27:-0.957351 28:-0.982836 29:-0.267976 30:-0.0870199 31:0.253654 
-0 -0 0 0 0 2.957201256109165 0 0 0 1:-0.0567319 2:-0.311529 3:0.217897 4:-0.492037 5:-0.0292292 6:0.359393 7:-0.56827 8:-0.230917 9:0.165662 10:0.481606 11:-0.446855 12:0.0136319 13:0.18312 14:0.295266 15:0.616811 16:0.155221 17:-0.777811 18:-0.826424 19:0.199221 20:-0.693871 21:-0.264669 22:0.215931 23:0.312925 24:-0.373904 25:-0.723589 26:-0.981738 27:-0.948375 28:-0.993748 29:-0.267808 30:-0.0797458 31:0.253747 
-0 -0 4 0 0 0 4 4 0 1:-0.0196465 2:0.0127794 3:-0.012903 4:-0.0472908 5:0.127565 6:0.0263535 7:-0.0628506 8:0.0171952 9:0.204284 10:0.0810263 11:-0.237946 12:0.129257 13:0.388454 14:-0.0429899 15:-0.649958 16:-0.673952 17:-0.185317 18:-0.720612 19:0.241042 20:-0.64768 21:-0.339245 22:-0.0540928 23:0.113612 24:-0.246523 25:-0.646388 26:-0.982227 27:-0.974066 28:-0.965022 29:-0.26712 30:-0.0804664 31:0.253993 
-0 -0 0 0.9115882690613591 0 0 0 0 0 1:-0.552888 2:-0.72557 3:-0.301522 4:-0.807626 5:-0.437577 6:-0.178586 7:-0.807359 8:-0.547205 9:-0.267434 10:-0.0802167 11:-0.662905 12:0.239167 13:-0.279958 14:0.531708 15:0.357078 16:-0.0471622 17:-0.713486 18:-0.469665 19:0.391746 20:-0.414073 21:-0.041363 22:0.356209 23:0.230928 24:-0.625249 25:-0.369082 26:-0.932303 27:-0.734934 28:-0.888738 29:-0.279392 30:-0.0996599 31:0.249907 
-0 -0 2.756848579437821 0 0 0 0 0 0 1:-0.137702 2:-0.103782 3:-0.115862 4:-0.163337 5:0.0177872 6:-0.0653587 7:-0.186302 8:-0.0839748 9:0.130055 10:0.0134086 11:-0.341108 12:0.12062 13:0.301609 14:-0.103331 15:-0.512528 16:-0.288487 17:-0.0291754 18:-0.684248 19:0.243608 20:-0.583164 21:-0.365838 22:-0.046452 23:0.188026 24:-0.212555 25:-0.582915 26:-0.974348 27:-0.985431 28:-0.979273 29:-0.267541 30:-0.0815783 31:0.253852 
-0 -0 0 0 0 0 0 0.8989569828841156 0 1:0.268809 2:0.114149 3:0.291465 4:-0.0217947 5:0.14689 6:0.365603 7:-0.0809489 8:-0.0479493 9:0.238283 10:0.469697 11:0.0318944 12:-0.322149 13:0.753297 14:0.0369267 15:-0.145868 16:-0.250688 17:-0.128519 18:-0.788647 19:0.118837 20:-0.724181 21:-0.312229 22:0.0533375 23:0.237256 24:-0.232295 25:-0.731568 26:-0.981568 27:-0.999213 28:-0.99798 29:-0.267758 30:-0.080148 31:0.253778 
-0 -0 0 0 0 0 0 4 0 1:0.0331028 2:-0.10026 3:0.0439158 4:-0.211078 5:-0.167102 6:0.0677768 7:-0.246813 8:-0.354649 9:-0.154363 10:0.13461 11:-0.109614 12:-0.650583 13:0.370985 14:0.185579 15:-0.166594 16:-0.0214505 17:0.0698194 18:-0.687737 19:-0.0209459 20:-0.690581 21:-0.290603 22:0.0464573 23:0.269379 24:-0.198402 25:-0.665883 26:-0.9424 27:-0.999137 28:-0.999438 29:-0.267757 30:-0.0797768 31:0.253777 
-0 -0.0986202786802297 0 0 0 0 0.425517054406273 4 0.8156274628830884 1:0.31018 2:0.0443251 3:0.158904 4:-0.136722 5:-0.172714 6:0.131322 7:-0.210431 8:-0.408923 9:-0.22869 10:0.175707 11:0.00562456 12:-0.807785 13:0.647504 14:0.329979 15:-0.233181 16:-0.447476 17:0.478342 18:-0.82444 19:0.0080585 20:-0.769655 21:-0.273743 22:0.0430375 23:0.21167 24:-0.159913 25:-0.780352 26:-0.954805 27:-0.992835 28:-0.995109 29:-0.267735 30:-0.0787968 31:0.253776 
-0 -0 0 0 0 0 0 4 0 1:0.372862 2:0.155608 3:0.337036 4:-0.0138028 5:0.054035 6:0.396291 7:-0.085523 8:-0.18921 9:0.100715 10:0.483419 11:0.0655437 12:-0.694852 13:0.883391 14:0.214643 15:-0.136809 16:-0.12885 17:-0.0874179 18:-0.835015 19:0.0464451 20:-0.747125 21:-0.289071 22:0.0552712 23:0.258484 24:-0.227138 25:-0.767452 26:-0.964487 27:-0.999612 28:-0.999954 29:-0.267757 30:-0.0798528 31:0.253777 
-3.077860821332163 -2.945234229080665 0.3000003713933229 1.329042093026292 0 4 0 4 0 1:0.358162 2:0.245981 3:0.580238 4:0.114688 5:0.351927 6:0.71679 7:0.0515208 8:0.129272 9:0.495939 10:0.859671 11:0.0589776 12:-0.731536 13:0.666616 14:-0.0966781 15:0.426195 16:0.484853 17:-0.607709 18:-0.829611 19:0.0355914 20:-0.787079 21:-0.326206 22:0.119618 23:0.339392 24:-0.284935 25:-0.795644 26:-0.965847 27:-0.9876 28:-0.999321 29:-0.267756 30:-0.079703 31:0.253777 
-0 -0 4 0 4 0 4 4 0 1:0.0766258 2:-0.126136 3:0.0885653 4:-0.306316 5:-0.0517878 6:0.0815716 7:-0.403016 8:-0.237964 9:-0.00736034 10:0.103515 11:-0.334838 12:-0.096814 13:0.290916 14:0.0318922 15:0.216635 16:-0.153197 17:-0.112941 18:-0.847768 19:0.165931 20:-0.742518 21:-0.318983 22:0.114307 23:0.243293 24:-0.231377 25:-0.769031 26:-0.98568 27:-0.996635 28:-0.996626 29:-0.267748 30:-0.0798108 31:0.253777 
-0 -0 0 0 4 0 0 0 0 1:0.083425 2:-0.0600348 3:0.0806325 4:-0.217081 5:0.0199982 6:0.107666 7:-0.294356 8:-0.165279 9:0.169227 10:0.199914 11:-0.289743 12:-0.0200006 13:0.449493 14:0.1232 15:-0.176124 16:0.589819 17:0.311264 18:-0.827319 19:0.19023 20:-0.698586 21:-0.302237 22:0.0458983 23:0.392103 24:-0.160251 25:-0.727526 26:-0.982194 27:-0.986588 28:-0.990412 29:-0.267732 30:-0.0800784 31:0.253812 
-0 -0 0.7164693941725744 0 0 0 0 4 0 1:0.378688 2:0.109955 3:0.397821 4:-0.089921 5:0.251897 6:0.464308 7:-0.193525 8:0.0358749 9:0.415796 10:0.559383 11:-0.0153342 12:0.109239 13:0.827892 14:0.0607203 15:-0.0232865 16:0.0341293 17:-0.172984 18:-0.869261 19:0.223759 20:-0.761668 21:-0.307031 22:0.0679427 23:0.279618 24:-0.236381 25:-0.79213 26:-0.988107 27:-0.999792 28:-0.999881 29:-0.267757 30:-0.0798497 31:0.253777 
-0 -0 1.123026154483641 0 0 0 0 0 0 1:-0.251833 2:-0.321447 3:-0.218657 4:-0.459452 5:-0.0975738 6:-0.15312 7:-0.534791 8:-0.228187 9:0.0770557 10:-0.0648774 11:-0.656826 12:0.498267 13:0.23848 14:0.069663 15:-0.190382 16:-0.0667714 17:-0.0596878 18:-0.839154 19:0.443154 20:-0.495087 21:-0.326033 22:0.0293093 23:0.247318 24:-0.218261 25:-0.57769 26:-0.882281 27:-0.998651 28:-0.997287 29:-0.267755 30:-0.0802356 31:0.253779 
-3.046967004100672 -4 4 4 4 0.4462334561800534 4 2.016853531891498 4 1:-0.73713 2:-0.807283 3:-0.834162 4:-0.858493 5:-0.726476 6:-0.93935 7:-0.852189 8:-0.754227 9:-0.758161 10:-1 11:-0.785511 12:0.284782 13:-0.756882 14:0.335234 15:0.036672 16:-0.0180324 17:-0.0478158 18:-0.281716 19:0.563822 20:-0.629722 21:-0.0843782 22:0.212093 23:0.234616 24:-0.181009 25:-0.458038 26:-0.881648 27:-0.967738 28:-0.939207 29:-0.267517 30:-0.0562139 31:0.252873 
-1.004688906588819 -0 0 0 1.944487762378172 0 0 0 0 1:-0.201183 2:-0.271349 3:-0.173352 4:-0.338366 5:-0.290516 6:-0.115594 7:-0.342471 8:-0.403812 9:-0.223526 10:-0.0110496 11:-0.221119 12:-0.474338 13:0.26277 14:0.228342 15:0.115463 16:0.137818 17:0.181191 18:-0.518784 19:-0.0317966 20:-0.538517 21:-0.275227 22:0.120416 23:0.318408 24:-0.151811 25:-0.483143 26:-0.929168 27:-0.998832 28:-0.980127 29:-0.267727 30:-0.0809041 31:0.253748 
-0 -0 0 0 1.913888243632358 0 0 0 0 1:0.0304778 2:-0.313628 3:0.099347 4:-0.490533 5:-0.140084 6:0.156904 7:-0.55589 8:-0.320575 9:-0.0145817 10:0.246247 11:-0.261992 12:0.142003 13:0.398466 14:0.421663 15:0.250752 16:-0.0289501 17:-0.108244 18:-0.774876 19:0.243092 20:-0.679952 21:-0.244058 22:0.125051 23:0.26771 24:-0.230843 25:-0.692496 26:-0.98268 27:-0.994856 28:-0.996079 29:-0.267752 30:-0.0797087 31:0.253771 
-1.765506897264608 -0 0 0 4 4 0 0 0 1:-0.127013 2:-0.36272 3:-0.0481708 4:-0.498205 5:-0.235143 6:-0.00752043 7:-0.541617 8:-0.381207 9:-0.12093 10:0.0676271 11:-0.309964 12:-0.0521469 13:0.176995 14:0.38746 15:0.208844 16:0.326679 17:-0.0463649 18:-0.671665 19:0.170785 20:-0.643215 21:-0.236407 22:0.135628 23:0.36737 24:-0.217012 25:-0.623514 26:-0.985083 27:-0.992431 28:-0.981114 29:-0.267626 30:-0.0817956 31:0.253826 
-4 -4 0 3.084254350479026 4 2.014808493430668 4 4 4 1:-0.0855292 2:-0.231423 3:-0.248956 4:-0.324141 5:-0.361206 6:-0.316527 7:-0.337644 8:-0.510271 9:-0.397672 10:-0.313892 11:-0.120656 12:-0.349252 13:0.120094 14:0.364344 15:-0.633087 16:-0.19885 17:0.478164 18:-0.580013 19:0.056169 20:-0.697075 21:-0.246349 22:-0.0644349 23:0.220217 24:-0.10019 25:-0.627934 26:-0.975382 27:-0.960222 28:-0.996613 29:-0.267739 30:-0.0798455 31:0.253788 
-4 -0.05417249442139837 0 4 4 2.9200408585946 3.454129092784999 4 4 1:0.27016 2:-0.0389943 3:0.212936 4:-0.238873 5:0.0455751 6:0.175063 7:-0.331248 8:-0.160184 9:0.130395 10:0.197967 11:-0.0930826 12:0.114926 13:0.452295 14:0.237266 15:-0.0845633 16:0.250712 17:0.208351 18:-0.843843 19:0.227245 20:-0.797067 21:-0.285039 22:0.0612978 23:0.312545 24:-0.189903 25:-0.808897 26:-0.993402 27:-0.998941 28:-0.996844 29:-0.267754 30:-0.0797029 31:0.253779 
-0 -0 0 0 4 0 0 0 0 1:-0.18768 2:-0.454493 3:-0.145081 4:-0.60085 5:-0.353724 6:-0.109224 7:-0.651166 8:-0.504491 9:-0.260883 10:-0.0290647 11:-0.438005 12:-0.0550828 13:0.167854 14:0.353613 15:0.161388 16:0.207924 17:0.112095 18:-0.71076 19:0.16581 20:-0.59437 21:-0.239026 22:0.131697 23:0.340058 24:-0.172612 25:-0.601979 26:-0.973402 27:-0.997319 28:-0.976675 29:-0.267627 30:-0.0802137 31:0.253754 
-0 -0 4 0 0 0 0 0 0 1:0.140693 2:-0.0812961 3:0.351145 4:-0.277873 5:0.221294 6:0.50083 7:-0.377519 8:0.0102799 9:0.432525 10:0.660871 11:-0.326015 12:0.205918 13:0.551144 14:0.159638 15:0.394365 16:-0.393492 17:-0.555548 18:-0.880891 19:0.256884 20:-0.70423 21:-0.295625 22:0.137027 23:0.20276 24:-0.298664 25:-0.753137 26:-0.976523 27:-0.983296 28:-0.996751 29:-0.267773 30:-0.0799938 31:0.25378 
-0 -0 0 0.2801619089845631 0 0 0 0 0 1:0.120261 2:-0.256028 3:0.36189 4:-0.476069 5:0.0877886 6:0.544679 7:-0.556857 8:-0.142205 9:0.349677 10:0.726041 11:-0.354084 12:0.362238 13:0.583888 14:0.550784 15:0.64685 16:-0.126438 17:-0.75723 18:-0.883918 19:0.304615 20:-0.682318 21:-0.229079 22:0.180636 23:0.250615 24:-0.332855 25:-0.737699 26:-0.965758 27:-0.967953 28:-0.99643 29:-0.267786 30:-0.0804081 31:0.253777 
-0 -0 0 0 3.473074624145566 0 0 4 0 1:0.20704 2:-0.00899366 3:0.206771 4:-0.213845 5:0.120922 6:0.215545 7:-0.324613 8:-0.087478 9:0.252019 10:0.26448 11:-0.304534 12:0.148511 13:0.48719 14:0.0903742 15:0.0306964 16:0.263042 17:-0.00583081 18:-0.905625 19:0.237717 20:-0.758199 21:-0.305897 22:0.0778199 23:0.318053 24:-0.215829 25:-0.803971 26:-0.984441 27:-0.998178 28:-0.999016 29:-0.267756 30:-0.079756 31:0.253777 
-0 -0 0 1.077817948387782 0 0 0 0 0 1:-0.209497 2:-0.403629 3:-0.16473 4:-0.573374 5:-0.15855 6:-0.133379 7:-0.6506 8:-0.323397 9:0.00479446 10:-0.0685857 11:-0.631778 12:0.530926 13:0.127683 14:0.185957 15:0.0404188 16:0.129538 17:-0.00105266 18:-0.850765 19:0.44294 20:-0.592049 21:-0.287871 22:0.099451 23:0.316298 24:-0.202344 25:-0.655947 26:-0.90719 27:-0.998356 28:-0.995482 29:-0.267749 30:-0.0783126 31:0.253774 
-0 -0 4 0 0 0 0.192136265731711 2.21247847366427 0 1:0.200861 2:0.138491 3:0.277712 4:0.00396145 5:0.318438 6:0.366775 7:-0.0780818 8:0.148212 9:0.470402 10:0.481257 11:-0.213201 12:0.0981936 13:0.653916 14:-0.182788 15:-0.219268 16:-0.451077 17:-0.236588 18:-0.859372 19:0.224411 20:-0.711635 21:-0.347023 22:0.0420828 23:0.199751 24:-0.247889 25:-0.750195 26:-0.981627 27:-0.99786 28:-0.987856 29:-0.267775 30:-0.0811331 31:0.253796 
-0 -0 0 0 4 0.06871301385563551 0 4 0 1:-0.417207 2:-0.366315 3:-0.351962 4:-0.411732 5:-0.297301 6:-0.31003 7:-0.421813 8:-0.384237 9:-0.198859 10:-0.251693 11:-0.553917 12:-0.201313 13:-0.0512459 14:0.0448152 15:0.0258832 16:0.326695 17:-0.143806 18:-0.547897 19:0.0450093 20:-0.450391 21:-0.351818 22:0.115517 23:0.444525 24:-0.251959 25:-0.427806 26:-0.938109 27:-0.96543 28:-0.996712 29:-0.267771 30:-0.0807396 31:0.253787 
-4 -0 0 0 4 0 0 4 0 1:-0.20176 2:-0.164786 3:-0.167127 4:-0.199619 5:-0.116971 6:-0.129423 7:-0.19648 8:-0.208006 9:-0.0399904 10:-0.0705378 11:-0.271747 12:-0.213641 13:0.175238 14:-0.0683329 15:-0.148949 16:-0.0200832 17:-0.114415 18:-0.55979 19:0.0904046 20:-0.577713 21:-0.364658 22:0.0442396 23:0.26577 24:-0.234453 25:-0.529232 26:-0.972534 27:-0.99944 28:-0.993682 29:-0.267748 30:-0.0809969 31:0.253776 
-0 -0 0 0 4 0 0 4 0 1:-0.262789 2:-0.286367 3:-0.245558 4:-0.356027 5:-0.222586 6:-0.213214 7:-0.378537 8:-0.324638 9:-0.123954 10:-0.15381 11:-0.381485 12:-0.0879692 13:0.12693 14:0.0295824 15:-0.122387 16:0.208115 17:-0.00904262 18:-0.579306 19:0.143286 20:-0.538413 21:-0.340439 22:0.0508125 23:0.350554 24:-0.201993 25:-0.507155 26:-0.973534 27:-0.992254 28:-0.999466 29:-0.267756 30:-0.0797705 31:0.253777 
-0 -0 0 0 4 0 0 0 0 1:-0.461212 2:-0.498946 3:-0.470588 4:-0.591363 5:-0.380891 6:-0.433464 7:-0.631548 8:-0.4714 9:-0.25822 10:-0.375403 11:-0.683474 12:0.233978 13:-0.000607628 14:0.0971672 15:-0.123892 16:0.2247 17:0.0674573 18:-0.647376 19:0.355462 20:-0.347433 21:-0.330089 22:0.0446979 23:0.402907 24:-0.149143 25:-0.389213 26:-0.898473 27:-0.980798 28:-0.991098 29:-0.267679 30:-0.0772746 31:0.253796 
-0 -4 4 0 0 0 0 4 4 1:-0.19886 2:-0.0729381 3:-0.125905 4:-0.0958825 5:-0.0959818 6:-0.0944637 7:-0.0992641 8:-0.21212 9:-0.0908306 10:-0.0494885 11:-0.454908 12:-0.641924 13:0.0891155 14:-0.137472 15:0.371798 16:-0.159387 17:-0.243037 18:-0.713628 19:-0.109241 20:-0.619467 21:-0.384986 22:0.193627 23:0.219622 24:-0.2702 25:-0.622182 26:-0.885471 27:-0.976919 28:-0.98124 29:-0.267508 30:-0.0778843 31:0.253705 
-0 -0 2.26781040520448 0 0 0 0 0 0 1:0.214769 2:0.17404 3:0.256283 4:0.0625855 5:0.183785 6:0.344453 7:0.0139188 8:0.00957265 9:0.278969 10:0.473484 11:-0.126581 12:-0.467781 13:0.726421 14:0.0171697 15:0.202291 16:-0.210821 17:-0.0256483 18:-0.826894 19:0.0744766 20:-0.700895 21:-0.316541 22:0.101751 23:0.240453 24:-0.218667 25:-0.72911 26:-0.966293 27:-0.998177 28:-0.996247 29:-0.267749 30:-0.0793625 31:0.253777 
-0 -0 0 0 0 0 0 4 0 1:0.103134 2:0.0067692 3:0.107427 4:-0.114167 5:-0.0703055 6:0.141573 7:-0.160634 8:-0.267058 9:-0.0484975 10:0.228055 11:-0.160354 12:-0.675067 13:0.483206 14:0.15873 15:0.0257708 16:-0.068946 17:0.16482 18:-0.770861 19:-0.00827295 20:-0.700851 21:-0.295806 22:0.0801075 23:0.261011 24:-0.186122 25:-0.70677 26:-0.943566 27:-0.999804 28:-0.995926 29:-0.267755 30:-0.0790134 31:0.253778 
-4 -0 0 0 1.385790834319622 0 0 4 4 1:0.375951 2:0.154565 3:0.354252 4:0.0233361 5:0.140911 6:0.394863 7:-0.020618 8:-0.0462604 9:0.206383 10:0.487353 11:0.281057 12:-0.385834 13:0.793524 14:0.140097 15:-0.153046 16:-0.1537 17:0.122139 18:-0.753469 19:0.114942 20:-0.767723 21:-0.297804 22:0.0534778 23:0.25535 24:-0.204421 25:-0.750637 26:-0.987292 27:-0.999345 28:-0.999233 29:-0.267757 30:-0.0797512 31:0.253777 
-0 -0 0 0 0 0 0 3.292731693163756 0 1:0.343978 2:0.0446864 3:0.363413 4:-0.164332 5:0.0686594 6:0.410086 7:-0.26197 8:-0.161595 9:0.17663 10:0.511667 11:-0.0652291 12:-0.365547 13:0.721203 14:0.254658 15:0.257664 16:0.368926 17:0.106977 18:-0.871434 19:0.116232 20:-0.768783 21:-0.283934 22:0.101125 23:0.324971 24:-0.205108 25:-0.798399 26:-0.98128 27:-0.997779 28:-0.994953 29:-0.267744 30:-0.0801868 31:0.253776 
-0 -0 0 0 1.351503094947039 0 0 4 0 1:-0.290708 2:-0.308529 3:-0.187041 4:-0.370915 5:-0.252261 6:-0.126468 7:-0.381808 8:-0.371404 9:-0.196419 10:-0.059601 11:-0.38065 12:-0.406388 13:0.0621013 14:0.128278 15:0.0950947 16:-0.0269772 17:-0.330293 18:-0.54227 19:-0.0331094 20:-0.541267 21:-0.30742 22:0.125643 23:0.260743 24:-0.308536 25:-0.49458 26:-0.927056 27:-0.988822 28:-0.997276 29:-0.267754 30:-0.0801544 31:0.253782 
-0 -0 0 0 0 2.924674061500109 0 0 0 1:-0.329661 2:-0.323535 3:-0.172525 4:-0.35913 5:-0.226946 6:-0.0522133 7:-0.347891 8:-0.331758 9:-0.106115 10:0.0802342 11:-0.321814 12:-0.42287 13:0.145244 14:0.118412 15:0.0513801 16:0.199362 17:-0.372655 18:-0.426895 19:-0.0596906 20:-0.449189 21:-0.312394 22:0.11497 23:0.358167 24:-0.331277 25:-0.378723 26:-0.908945 27:-0.982273 28:-0.991989 29:-0.267699 30:-0.0771311 31:0.253757 
-0 -0 0 0 4 0 0 0 0 1:-0.567175 2:-0.625914 3:-0.438634 4:-0.686848 5:-0.495949 6:-0.356257 7:-0.698264 8:-0.582629 9:-0.405483 10:-0.263531 11:-0.611595 12:-0.125901 13:-0.147155 14:0.174568 15:0.099138 16:0.00553507 17:-0.263132 18:-0.357514 19:0.0559176 20:-0.268754 21:-0.286145 22:0.192061 23:0.27071 24:-0.342867 25:-0.214074 26:-0.920207 27:-0.964804 28:-0.998517 29:-0.267749 30:-0.0793847 31:0.253775 
-0 -0 0 0 3.981529150384588 0 0 0 0 1:-0.487074 2:-0.521094 3:-0.380454 4:-0.564212 5:-0.405505 6:-0.276243 7:-0.565001 8:-0.477989 9:-0.309392 10:-0.173729 11:-0.451569 12:-0.137218 13:0.0495032 14:0.111517 15:0.0618121 16:-0.249835 17:-0.389904 18:-0.289952 19:0.0711198 20:-0.263964 21:-0.324205 22:0.145857 23:0.109291 24:-0.388114 25:-0.183542 26:-0.932751 27:-0.953962 28:-0.964267 29:-0.268067 30:-0.0862874 31:0.254247 
-1.738964557483636 -0 0 0 0 0 0 0 0 1:-0.422043 2:-0.456078 3:-0.393153 4:-0.487399 5:-0.459806 6:-0.324001 7:-0.472877 8:-0.541886 9:-0.398433 10:-0.237371 11:-0.317903 12:-0.382632 13:0.105365 14:0.167288 15:-0.114382 16:-0.0522882 17:-0.0363967 18:-0.254084 19:-0.0818929 20:-0.338706 21:-0.292583 22:0.0505629 23:0.241384 24:-0.203492 25:-0.226027 26:-0.893575 27:-0.998467 28:-0.999118 29:-0.267757 30:-0.0795635 31:0.253777 
-0 -0 0 0 4 0 0 0 0 1:-0.425606 2:-0.493346 3:-0.360845 4:-0.590006 5:-0.373446 6:-0.292092 7:-0.62542 8:-0.487355 9:-0.251356 10:-0.195913 11:-0.626387 12:0.00108667 13:0.0440593 14:0.183138 15:0.0181438 16:0.162054 17:-0.0146489 18:-0.623733 19:0.183261 20:-0.374162 21:-0.284741 22:0.113004 23:0.358087 24:-0.193327 25:-0.4001 26:-0.930974 27:-0.994314 28:-0.989588 29:-0.267696 30:-0.0795417 31:0.253778 
-0 -0 0 0 4 0 0 0 0 1:-0.511568 2:-0.530618 3:-0.460071 4:-0.594204 5:-0.44167 6:-0.393633 7:-0.609984 8:-0.531036 9:-0.354104 10:-0.312015 11:-0.610066 12:-0.0669945 13:-0.0200681 14:0.14904 15:-0.0738508 16:-0.0993414 17:-0.0852351 18:-0.466141 19:0.122144 20:-0.27143 21:-0.303097 22:0.071928 23:0.200376 24:-0.225247 25:-0.259347 26:-0.918293 27:-0.995726 28:-0.996359 29:-0.267765 30:-0.0807748 31:0.253774 
-2.082609848960381 -0 0 0 4 0 0 0.3715921861277635 0 1:-0.479569 2:-0.496057 3:-0.467785 4:-0.531511 5:-0.480983 6:-0.41744 7:-0.51981 8:-0.568236 9:-0.412847 10:-0.339875 11:-0.428493 12:-0.241528 13:0.00543537 14:0.207107 15:-0.317348 16:0.0282966 17:0.109962 18:-0.27442 19:-0.00767744 20:-0.311134 21:-0.269692 22:-0.0604725 23:0.286238 24:-0.12314 25:-0.213183 26:-0.920438 27:-0.97096 28:-0.997882 29:-0.267765 30:-0.080323 31:0.253781 
-0 -0 0 0 0 0 0 0.2244183074235915 0 1:-0.527258 2:-0.445042 3:-0.364523 4:-0.432929 5:-0.40058 6:-0.24453 7:-0.398454 8:-0.47574 9:-0.306817 10:-0.106819 11:-0.417095 12:-0.633411 13:-0.0425348 14:-0.0930798 15:0.195669 16:0.376804 17:-0.285046 18:-0.146339 19:-0.366398 20:-0.258968 21:-0.45837 22:0.237377 23:0.534267 24:-0.343835 25:-0.122584 26:-0.659345 27:-0.856139 28:-0.999869 29:-0.267757 30:-0.0797784 31:0.253777 
-0.4837248550879047 -0 2.614299877472307 0 4 0 0 0 4 1:-0.588657 2:-0.553101 3:-0.589777 4:-0.557515 5:-0.585447 6:-0.536832 7:-0.524652 8:-0.654863 9:-0.550582 10:-0.455717 11:-0.462234 12:-0.363377 13:-0.0701328 14:0.174381 15:-0.321205 16:-0.242425 17:0.215611 18:-0.0510229 19:-0.18523 20:-0.149529 21:-0.285711 22:-0.104924 23:0.0619065 24:-0.012674 25:-0.0015277 26:-0.808834 27:-0.88887 28:-0.964892 29:-0.26812 30:-0.0650502 31:0.253054 
-0 -0 0 0 0 1.253856651926664 0 0 0 1:-0.605855 2:-0.522073 3:-0.447155 4:-0.499225 5:-0.470229 6:-0.318278 7:-0.454511 8:-0.527045 9:-0.359945 10:-0.185061 11:-0.433023 12:-0.57121 13:-0.0690318 14:-0.0489406 15:0.139756 16:0.423447 17:-0.424542 18:0.0536855 19:-0.414072 20:-0.106119 21:-0.463571 22:0.238649 23:0.639311 24:-0.476142 25:0.0731246 26:-0.59496 27:-0.75271 28:-0.968758 29:-0.265833 30:-0.0586493 31:0.253415 
-0 -0 0 0 4 0 0 0 0 1:-0.660661 2:-0.61988 3:-0.526025 4:-0.647431 5:-0.517505 6:-0.415465 7:-0.644343 8:-0.576227 9:-0.409321 10:-0.29603 11:-0.668406 12:-0.258654 13:-0.134726 14:0.0689855 15:0.251272 16:0.103913 17:-0.297823 18:-0.232676 19:-0.137285 20:-0.026652 21:-0.382863 22:0.371757 23:0.37145 24:-0.410367 25:0.0194866 26:-0.768932 27:-0.828017 28:-0.999207 29:-0.26775 30:-0.0797156 31:0.253778 
-0 -0 1.116245420055862 0 0 0 0 0 0 1:-0.460979 2:-0.408378 3:-0.424213 4:-0.391819 5:-0.424689 6:-0.3212 7:-0.34203 8:-0.480982 9:-0.362027 10:-0.200769 11:-0.263791 12:-0.43836 13:0.187114 14:0.0167429 15:-0.106751 16:-0.405216 17:-0.0064239 18:-0.0974868 19:-0.146667 20:-0.212148 21:-0.373372 22:0.0535333 23:0.0275096 24:-0.186111 25:-0.0675759 26:-0.845077 27:-0.964247 28:-0.937631 29:-0.269839 30:-0.0844668 31:0.25341 
-0 -0 0 0.6309316233932203 4 4 0 0 0 1:-0.395699 2:-0.496902 3:-0.232221 4:-0.595318 5:-0.322399 6:-0.170293 7:-0.630908 8:-0.447948 9:-0.209444 10:-0.112641 11:-0.562718 12:-0.0764298 13:-0.148912 14:0.167919 15:0.187195 16:0.248815 17:-0.439051 18:-0.58933 19:0.133662 20:-0.541996 21:-0.292457 22:0.183585 23:0.396565 24:-0.376564 25:-0.513869 26:-0.97199 27:-0.950378 28:-0.986033 29:-0.267835 30:-0.0786884 31:0.253658 
-0 -0 0 4 4 0.9877241499000216 4 2.574165683585467 0 1:-0.414211 2:-0.577658 3:-0.262652 4:-0.676386 5:-0.42826 6:-0.220062 7:-0.705698 8:-0.547624 9:-0.36082 10:-0.185648 11:-0.542982 12:-0.1194 13:-0.212461 14:0.24571 15:0.209971 16:0.0619103 17:-0.449503 18:-0.539303 19:0.101736 20:-0.560885 21:-0.254998 22:0.199607 23:0.302698 24:-0.38795 25:-0.5083 26:-0.97401 27:-0.952507 28:-0.989386 29:-0.26779 30:-0.0781336 31:0.253698 
-0 -0 0 0 4 0 0 0 0.7048993584527552 1:-0.508367 2:-0.689903 3:-0.472065 4:-0.778039 5:-0.601387 6:-0.426646 7:-0.793244 8:-0.684156 9:-0.506576 10:-0.345122 11:-0.6242 12:-0.0544625 13:-0.0740403 14:0.348749 15:0.204011 16:0.343406 17:0.148241 18:-0.492379 19:0.133043 20:-0.320606 21:-0.181518 22:0.233509 23:0.499125 24:-0.093413 25:-0.307135 26:-0.930992 27:-0.968503 28:-0.850078 29:-0.259945 30:-0.0888631 31:0.254053 
-0 -0 0 0 3.24367667061641 0 0.3032880380922433 0 0 1:-0.766019 2:-0.823082 3:-0.604708 4:-0.871324 5:-0.620047 6:-0.529918 7:-0.861198 8:-0.685937 9:-0.512221 10:-0.462604 11:-0.815145 12:0.12772 13:-0.422096 14:0.363981 15:0.184136 16:-0.00670687 17:-0.423752 18:-0.27316 19:0.350016 20:-0.0782322 21:-0.0227968 22:0.418606 23:0.246921 24:-0.646219 25:-0.0358018 26:-0.873341 27:-0.661591 28:-0.884893 29:-0.283871 30:-0.102318 31:0.251005 
-0 -1.402709121512302 0 4 3.391490985187951 3.126058731602786 2.078930103606237 0 0 1:-0.693195 2:-0.795555 3:-0.561288 4:-0.863502 5:-0.629269 6:-0.534934 7:-0.862968 8:-0.70529 9:-0.537133 10:-0.508021 11:-0.806348 12:0.0482528 13:-0.477759 14:0.368382 15:0.2599 16:0.349282 17:-0.281395 18:-0.445305 19:0.222996 20:-0.348049 21:-0.0787787 22:0.414801 23:0.666418 24:-0.414592 25:-0.309242 26:-0.950665 27:-0.743579 28:-0.769209 29:-0.278671 30:-0.136429 31:0.272121 
-0 -0 0 0 0 4 0 0 0 1:-0.498194 2:-0.489338 3:-0.278918 4:-0.549704 5:-0.32368 6:-0.176432 7:-0.576224 8:-0.435813 9:-0.206535 10:-0.0836027 11:-0.624593 12:-0.310914 13:-0.220434 14:-0.0374897 15:0.253822 16:0.367921 17:-0.536936 18:-0.510576 19:-0.0720782 20:-0.453062 21:-0.413324 22:0.257151 23:0.509329 24:-0.473672 25:-0.414976 26:-0.894652 27:-0.832344 28:-0.977973 29:-0.266743 30:-0.0725773 31:0.253733 
-4 -1.679553220399142 1.513709799889525 4 4 1.318213502388541 4 4 2.300190934933455 1:-0.462657 2:-0.640857 3:-0.423038 4:-0.712872 5:-0.587399 6:-0.462207 7:-0.698388 8:-0.688121 9:-0.63736 10:-0.479472 11:-0.465886 12:-0.206013 13:-0.359208 14:0.737791 15:-0.236027 16:-0.513976 17:-0.108083 18:-0.359178 19:0.0262225 20:-0.605063 21:0.0161813 22:-0.0133441 23:-0.038623 24:-0.236956 25:-0.470145 26:-0.967458 27:-0.821513 28:-0.985879 29:-0.267764 30:-0.0775294 31:0.254017 
-4 -0 4 4 4 2.083910672909156 0.8472782278739586 0 0 1:-0.338982 2:-0.446392 3:-0.145885 4:-0.522435 5:-0.200884 6:-0.0923204 7:-0.518966 8:-0.287383 9:-0.115626 10:-0.047343 11:-0.368014 12:0.109728 13:-0.198885 14:0.536 15:0.344012 16:-0.442359 17:-0.457858 18:-0.459854 19:0.251266 20:-0.634152 21:-0.144455 22:0.228913 23:0.0736782 24:-0.365335 25:-0.532316 26:-0.995071 27:-0.884012 28:-0.9984 29:-0.267762 30:-0.0798159 31:0.25377 
-0 -0 0 0 4 0 3.85573211220533 0.5754936267738222 0 1:-0.620562 2:-0.898425 3:-0.546761 4:-1 5:-0.720478 6:-0.50824 7:-1 8:-0.850033 9:-0.636775 10:-0.451337 11:-1 12:0.218765 13:-0.259601 14:0.238911 15:-0.00798749 16:0.0407838 17:-0.0770547 18:-0.952424 19:0.401209 20:-0.263324 21:-0.23093 22:0.128747 23:0.302206 24:-0.218176 25:-0.446762 26:-0.780342 27:-0.996139 28:-0.989652 29:-0.267712 30:-0.079142 31:0.253767 
-0 -0 0 0 0.5946469895975774 0 0 0 0.6850251029274217 1:-0.685016 2:-0.726958 3:-0.641152 4:-0.788866 5:-0.535821 6:-0.607103 7:-0.800898 8:-0.592045 9:-0.400436 10:-0.540378 11:-0.780459 12:0.380491 13:-0.28892 14:0.171257 15:0.0558917 16:0.342568 17:0.146797 18:-0.40733 19:0.636376 20:-0.138116 21:-0.285616 22:0.206384 23:0.648564 24:-0.00416004 25:-0.134691 26:-0.716637 27:-0.893216 28:-0.796887 29:-0.245407 30:0.0361066 31:0.25567 
-0 -0 4 0 2.417299582303376 0 2.597362087282478 4 1.81354335756345 1:-0.137469 2:-0.171469 3:0.00417822 4:-0.284436 5:-0.00756372 6:0.0380615 7:-0.34078 8:-0.12514 9:0.0434764 10:0.0601904 11:-0.473373 12:-0.128992 13:0.0189348 14:0.0786781 15:0.643046 16:-0.401599 17:-0.541221 18:-0.783127 19:0.137549 20:-0.699611 21:-0.317383 22:0.247612 23:0.154764 24:-0.339004 25:-0.710711 26:-0.981475 27:-0.933031 28:-0.989071 29:-0.267799 30:-0.081181 31:0.253679 
-4 -1.100853126711913 4 2.970161729836225 4 0.7210754761766514 1.117871472334963 4 4 1:-0.562785 2:-0.514647 3:-0.591505 4:-0.511448 5:-0.553566 6:-0.580015 7:-0.471729 8:-0.597222 9:-0.533654 10:-0.535823 11:-0.420769 12:-0.291989 13:-0.172982 14:0.150267 15:-0.119719 16:-0.119939 17:0.222447 18:-0.0564289 19:-0.0965663 20:-0.300914 21:-0.303405 22:0.0427539 23:0.172812 24:-0.0234325 25:-0.118646 26:-0.897016 27:-0.977302 28:-0.94295 29:-0.266301 30:-0.0615031 31:0.253526 
-0 -0 0 0 4 0 0 0 0 1:-0.498951 2:-0.498736 3:-0.467052 4:-0.567857 5:-0.40456 6:-0.404587 7:-0.591589 8:-0.499551 9:-0.299886 10:-0.321287 11:-0.657423 12:0.019425 13:0.00572728 14:0.118842 15:-0.203215 16:-0.0123943 17:0.0149866 18:-0.555806 19:0.194157 20:-0.27518 21:-0.320766 22:-0.00189341 23:0.259989 24:-0.170099 25:-0.297888 26:-0.910247 27:-0.991982 28:-0.998183 29:-0.267762 30:-0.0801265 31:0.253777 
-0 -0 4 0 4 0 0 1.26885464159536 4 1:-0.424797 2:-0.308213 3:-0.432596 4:-0.306902 5:-0.28256 6:-0.391142 7:-0.281735 8:-0.342372 9:-0.201439 10:-0.315837 11:-0.480316 12:-0.0922852 13:0.047849 14:-0.0490034 15:-0.453708 16:-0.0900432 17:0.191879 18:-0.446553 19:0.118391 20:-0.372876 21:-0.399059 22:-0.109278 23:0.220575 24:-0.0990139 25:-0.328591 26:-0.949582 27:-0.94704 28:-0.979243 29:-0.268033 30:-0.0837063 31:0.253975 
-2.037685089293856 -0 0 0 4 0 0 4 0 1:-0.379699 2:-0.471723 3:-0.398095 4:-0.52665 5:-0.584681 6:-0.37788 7:-0.519319 8:-0.700512 9:-0.604039 10:-0.3284 11:-0.31953 12:-0.697333 13:0.0224428 14:0.362209 15:-0.249973 16:-0.180518 17:0.108989 18:-0.338691 19:-0.260295 20:-0.455122 21:-0.206626 22:-0.00588158 23:0.182024 24:-0.146084 25:-0.34812 26:-0.779912 27:-0.97363 28:-0.99722 29:-0.267769 30:-0.0808105 31:0.253783 
-0 -0 4 0 4 0 0 4 4 1:-0.22251 2:-0.18992 3:-0.28221 4:-0.22886 5:-0.229529 6:-0.269809 7:-0.226152 8:-0.339316 9:-0.191734 10:-0.212902 11:-0.301415 12:-0.224045 13:0.189875 14:0.000868931 15:-0.511399 16:-0.191426 17:0.285378 18:-0.55906 19:0.0813646 20:-0.55028 21:-0.345862 22:-0.0654087 23:0.205683 24:-0.118101 25:-0.508109 26:-0.966336 27:-0.96672 28:-0.989023 29:-0.267909 30:-0.080184 31:0.253798 
