svm_type c_svc
kernel_type rbf
gamma 8
nr_class 10
total_sv 1826
rho 0.053764 0.12476 0.139978 0.0726102 0.126284 0.0195811 -0.0267848 0.0610586 0.18247 0.069193 0.0869471 0.01897 0.0726853 -0.0354515 -0.0871789 0.00561973 0.131622 0.0182163 -0.050164 0.00197111 -0.105012 -0.150057 -0.0664186 0.0594784 -0.0678629 -0.0204762 -0.121538 -0.165849 -0.0839805 0.0474488 0.0544952 -0.05286 -0.0974168 -0.0133553 0.109967 -0.110635 -0.152578 -0.0760293 0.0592506 -0.0447391 0.0431569 0.162018 0.0905616 0.203907 0.122726
label 1 2 3 4 5 6 7 8 9 10
nr_sv 167 178 189 195 174 187 178 179 182 197
SV
0.7026181896671523 0.7403393614619485 0.776291281718989 0.7108521696437037 0.8184296812771044 0.678560618476035 0.8487652151153642 0.9529190162979356 1.01728847871941 1:-0.393728 2:-0.387031 3:-0.373888 4:-0.397994 5:-0.426004 6:-0.408739 7:-0.373127 8:-0.488468 9:-0.468854 10:-0.403312 11:-0.25159 12:-0.489795 13:-0.251095 14:0.00382667 15:0.143117 16:-0.121698 17:0.0841916 18:-0.234284 19:-0.136822 20:-0.609163 21:-0.367474 22:0.163743 23:0.208605 24:-0.153891 25:-0.423547 26:-0.889164 27:-0.995234 28:-0.959794 29:-0.267467 30:-0.0653444 31:0.253914 
0.8474640075226211 0.913816412725838 0.9956347732849488 0.8711555762816526 0.9427714957386959 0.8215074597699465 0.8963981466825675 1.370345372852409 0.9940311851052162 1:0.0655148 2:-0.0872762 3:-0.0374013 4:-0.171985 5:-0.251535 6:-0.137376 7:-0.186718 8:-0.387109 9:-0.344396 10:-0.173492 11:0.0960365 12:-0.686047 13:0.085121 14:0.15336 15:0.0374255 16:-0.170298 17:0.21057 18:-0.599502 19:-0.0226028 20:-0.799585 21:-0.296838 22:0.083443 23:0.239156 24:-0.175632 25:-0.713544 26:-0.950463 27:-0.998905 28:-0.993257 29:-0.267744 30:-0.0787741 31:0.25378 
1.153368236618849 0.8686485549700013 0.8083052898438079 0.7651590174208517 0.8539744011141399 0.7225378985414536 1.256706481117755 1.933644911776927 0.8607630635356973 1:-0.349792 2:-0.423052 3:-0.374982 4:-0.476079 5:-0.534441 6:-0.44275 7:-0.474322 8:-0.639575 9:-0.613744 10:-0.461192 11:-0.299072 12:-0.664391 13:-0.275687 14:0.220485 15:-0.0370411 16:-0.113324 17:0.141218 18:-0.369717 19:-0.215392 20:-0.668258 21:-0.271033 22:0.0825863 23:0.219028 24:-0.139118 25:-0.522338 26:-0.832794 27:-0.995591 28:-0.985471 29:-0.267698 30:-0.0780794 31:0.253806 
1.057333072757225 1.115829009385697 1.131477894241887 1.064000744783511 1.119956207502895 1.011873109496444 0.9727614723029749 1.08309547089446 1.212714518429463 1:-0.786409 2:-0.701017 3:-0.787403 4:-0.679992 5:-0.722126 6:-0.824444 7:-0.6301 8:-0.742407 9:-0.757293 10:-0.82253 11:-0.614116 12:-0.280815 13:-0.603053 14:0.206225 15:-0.0663392 16:-0.162851 17:0.153023 18:0.3752 19:-0.316117 20:-0.29911 21:-0.230718 22:0.0985885 23:-0.00646774 24:0.0988423 25:0.0545392 26:-0.743792 27:-0.904563 28:-0.816264 29:-0.249778 30:-0.0212565 31:0.255726 
0.7203915979493319 0.8470193883901019 0.7790931999229073 0.7288035079013946 0.7700399913189643 0.6973089942537289 0.6160684185374682 0.7242353589939915 0.8395012760796725 1:-0.611213 2:-0.568145 3:-0.601774 4:-0.544092 5:-0.591402 6:-0.622824 7:-0.496958 8:-0.608376 9:-0.610296 10:-0.611072 11:-0.345293 12:-0.357172 13:-0.385209 14:-0.00267729 15:0.0833255 16:-0.0910427 17:0.085035 18:0.230948 19:-0.200116 20:-0.409633 21:-0.428721 22:0.197713 23:0.183148 24:-0.0963594 25:-0.08682 26:-0.84406 27:-0.99504 28:-0.896725 29:-0.266532 30:-0.0358354 31:0.254349 
0.9125720350678264 0.9395586793907932 0.9572750543762609 0.9071273907713184 0.9529250650016293 0.848259139720584 1.454541411312658 0.9309063695318358 1.008206446920044 1:-0.601633 2:-0.547681 3:-0.587976 4:-0.54037 5:-0.609404 6:-0.634997 7:-0.505869 8:-0.654577 9:-0.676373 10:-0.643858 11:-0.447513 12:-0.523863 13:-0.480186 14:0.0307431 15:0.158719 16:-0.175045 17:0.0827195 18:0.0142729 19:-0.35994 20:-0.520077 21:-0.398642 22:0.250752 23:0.112439 24:-0.101703 25:-0.256952 26:-0.698605 27:-0.975451 28:-0.871861 29:-0.263017 30:-0.00426761 31:0.254987 
1.050692304618803 1.121483047490627 1.136660203781815 1.069202839222289 1.123321520302572 1.017090737881356 0.9704791860365406 1.063646503550444 1.17891412530805 1:0.649647 2:0.490582 3:0.66907 4:0.377211 5:0.418699 6:0.61958 7:0.344065 8:0.225688 9:0.367353 10:0.615572 11:0.528102 12:-0.796524 13:0.627034 14:-0.119381 15:0.378418 16:-0.14054 17:-0.0897298 18:-0.820436 19:0.069183 20:-0.895453 21:-0.318449 22:0.0973156 23:0.262907 24:-0.227361 25:-0.874297 26:-0.981898 27:-0.99869 28:-0.998195 29:-0.267755 30:-0.0795762 31:0.253777 
0.1499475089303023 0.2256833686586613 0.1610740182270718 0.1527273188343553 0.3715431033421223 0.1799688427676386 0.1418839024196576 0.0723931429436343 0.1533045831519724 1:-0.112184 2:-0.230577 3:-0.0837455 4:-0.270818 5:-0.228847 6:-0.079206 7:-0.247439 8:-0.313776 9:-0.210749 10:-0.0474222 11:0.0934887 12:-0.409157 13:0.139288 14:0.279071 15:0.0405487 16:-0.0208395 17:-0.089778 18:-0.396347 19:0.0255876 20:-0.670003 21:-0.265517 22:0.0927253 23:0.267331 24:-0.227516 25:-0.534262 26:-0.968792 27:-0.998523 28:-0.998899 29:-0.267757 30:-0.0800628 31:0.253777 
0.8034146770635732 0.8780169192543197 0.8686449861407823 0.8177793444977214 0.8582550231170376 0.7771514633624015 0.7418890262653114 1.561705058562809 0.9028200416198274 1:0.458143 2:0.176278 3:0.383969 4:0.0441111 5:0.117563 6:0.299607 7:0.00897693 8:-0.033486 9:0.0899538 10:0.283894 11:0.455115 12:-0.421643 13:0.471089 14:0.275347 15:0.287184 16:-0.016776 17:0.199528 18:-0.740032 19:0.115537 20:-0.865469 21:-0.283386 22:0.0982229 23:0.273454 24:-0.199283 25:-0.819522 26:-0.992025 27:-0.999422 28:-0.99622 29:-0.267761 30:-0.0799345 31:0.253777 
0.1552516556829626 0.2309938593060231 0.1610991468055153 0.165213378381428 0.1223644380749648 0.1460363446968279 0.1243856645278662 0.7064597288379899 0.1852580265188965 1:-0.0626876 2:-0.179295 3:-0.10915 4:-0.236252 5:-0.272591 6:-0.149503 7:-0.230928 8:-0.372947 9:-0.311051 10:-0.142973 11:0.0531979 12:-0.55836 13:0.122547 14:0.16838 15:0.126279 16:-0.149732 17:0.12903 18:-0.488178 19:-0.0184391 20:-0.711981 21:-0.293744 22:0.108897 23:0.235113 24:-0.180435 25:-0.602698 26:-0.951884 27:-0.998032 28:-0.991078 29:-0.267748 30:-0.078483 31:0.253789 
0.9609849330079921 1.026701920539636 1.048844649108189 0.9784955518053214 1.027625175805384 0.930276835618265 0.8877484359116041 1.042969090568845 1.088865896292706 1:0.453177 2:0.222673 3:0.512552 4:0.138784 5:0.380757 6:0.530076 7:0.131421 8:0.302385 9:0.503448 10:0.592076 11:0.631285 12:0.0342394 13:0.63678 14:0.032942 15:0.463296 16:0.0287974 17:-0.0669878 18:-0.674365 19:0.20735 20:-0.831349 21:-0.308842 22:0.116212 23:0.278744 24:-0.225156 25:-0.767467 26:-0.999967 27:-0.997102 28:-0.99794 29:-0.26776 30:-0.0798298 31:0.253778 
1.001514861554771 1.069960973318448 1.082956660628973 1.018975944126313 1.070675162438876 0.9682230649693087 0.9248045592654411 1.332476930689608 1.123358089215604 1:0.400359 2:0.268958 3:0.452343 4:0.187185 5:0.199246 6:0.404455 7:0.181038 8:0.0114093 9:0.148974 10:0.385905 11:0.405845 12:-0.857758 13:0.354879 14:0.00491475 15:0.0393928 16:0.146704 17:-0.204109 18:-0.721511 19:0.016309 20:-0.869488 21:-0.312996 22:0.0744879 23:0.293617 24:-0.239382 25:-0.815199 26:-0.965782 27:-0.999082 28:-0.999949 29:-0.267757 30:-0.0798518 31:0.253777 
0.5850532330503595 0.6427310219901462 0.698068648520376 0.5941208817123418 0.7194375501088062 0.5691705501350575 0.5394155397712223 1.497840132843001 0.6932097916419566 1:0.148766 2:-0.0143115 3:0.165781 4:-0.106375 5:0.0116995 6:0.114348 7:-0.124568 8:-0.109083 9:0.0091995 10:0.11729 11:0.160254 12:-0.313836 13:0.178286 14:0.147127 15:0.217777 16:-0.00120536 17:0.108812 18:-0.640636 19:0.107402 20:-0.812488 21:-0.297656 22:0.108585 23:0.274317 24:-0.197448 25:-0.73972 26:-0.990556 27:-0.998996 28:-0.995013 29:-0.267765 30:-0.0797402 31:0.253778 
0.3547507661326214 0.3545062742066343 0.3908193736012143 0.3580335808017262 0.364089907488275 0.3313338300986193 0.329074195444011 1.016548475930779 0.418536136223834 1:-0.00912934 2:-0.157371 3:-0.0156906 4:-0.208128 5:-0.173875 6:-0.0322823 7:-0.194403 8:-0.260354 9:-0.178125 10:-0.00778577 11:0.19226 12:-0.38848 13:0.205879 14:0.215588 15:0.105879 16:-0.183614 17:0.0456057 18:-0.462976 19:0.0579404 20:-0.717769 21:-0.283927 22:0.100383 23:0.230977 24:-0.200983 25:-0.597062 26:-0.978992 27:-0.99725 28:-0.995977 29:-0.267753 30:-0.0794253 31:0.253781 
0.1981964519143502 0.2948853669272955 0.1922985094490464 0.2032747470021734 0.2030348481497346 0.1931458000558657 0.1879337375731957 0.5895576464940591 0.2028472197832822 1:0.127094 2:-0.0582689 3:0.121095 4:-0.140523 5:-0.0834991 6:0.087984 7:-0.144627 8:-0.198385 9:-0.0950419 10:0.0962783 11:0.224461 12:-0.447343 13:0.265085 14:0.275966 15:0.209891 16:-0.0875591 17:-0.000427506 18:-0.588527 19:0.0653046 20:-0.777525 21:-0.276051 22:0.108996 23:0.258141 24:-0.213481 25:-0.692422 26:-0.980933 27:-0.997743 28:-0.997249 29:-0.267762 30:-0.0799154 31:0.253777 
0 0.0822142379188165 0 0 0 0 0 0 0 1:-0.19793 2:-0.335833 3:-0.206697 4:-0.371656 5:-0.361165 6:-0.211847 7:-0.349194 8:-0.439628 9:-0.362559 10:-0.18344 11:0.0483608 12:-0.397283 13:0.0810036 14:0.317085 15:-0.100978 16:-0.150301 17:0.0337858 18:-0.302146 19:0.00540807 20:-0.623962 21:-0.248802 22:0.0580876 23:0.222737 24:-0.193239 25:-0.461799 26:-0.961605 27:-0.994919 28:-0.998431 29:-0.267758 30:-0.0799924 31:0.253778 
0.7223724073985056 0.7721730875445175 0.7799557315965089 0.7352163983036576 0.7686062718535738 0.6999455885392974 0.6677139852554471 0.692591893846829 0.8097227989607031 1:0.0861618 2:-0.198178 3:-0.0403362 4:-0.280064 5:-0.293976 6:-0.0913343 7:-0.274451 8:-0.408388 9:-0.323679 10:-0.0879756 11:0.291205 12:-0.399252 13:0.317259 14:0.620685 15:-0.246165 16:-0.257947 17:0.256796 18:-0.512466 19:0.0725616 20:-0.740037 21:-0.212791 22:0.0339221 23:0.222978 24:-0.169635 25:-0.633675 26:-0.982844 27:-0.989882 28:-0.995541 29:-0.267779 30:-0.0805017 31:0.253776 
0.08404792360398457 0 0.08866984587040062 0.08218562127669635 0.06545375902516655 0.07276643284487136 0.0686474518288438 0 0.08519653264316143 1:-0.113156 2:-0.308506 3:-0.122561 4:-0.351334 5:-0.338379 6:-0.155446 7:-0.327406 8:-0.431472 9:-0.355358 10:-0.148695 11:0.173639 12:-0.434117 13:0.0537589 14:0.470919 15:-0.24759 16:-0.0517213 17:0.0393882 18:-0.337356 19:0.0150986 20:-0.703157 21:-0.216704 22:0.0227503 23:0.258628 24:-0.197046 25:-0.535961 26:-0.96483 27:-0.99474 28:-0.995546 29:-0.26775 30:-0.0799531 31:0.25377 
0.9782488082601372 1.04410907013197 1.058414279883376 1.003102617761876 1.051674238689277 0.9499396051900126 0.9033609968542627 0.9861576628785655 1.098172169820789 1:-0.672125 2:-0.692138 3:-0.393933 4:-0.695628 5:-0.456876 6:-0.334647 7:-0.656631 8:-0.514168 9:-0.40591 10:-0.309324 11:-0.468089 12:-0.127395 13:-0.716146 14:0.379537 15:-0.089116 16:-0.131595 17:-0.390822 18:0.22321 19:0.0106223 20:-0.670328 21:-0.0821514 22:0.0646976 23:0.119876 24:-0.501636 25:-0.287888 26:-0.932092 27:-0.92438 28:-0.88766 29:-0.270984 30:-0.083083 31:0.250585 
0.9974439640828966 1.06431786520724 1.078873839589913 1.015070911773936 1.066049990681437 0.9654047884071624 0.9210333169337638 1.004135085296517 1.119098470334383 1:-0.652575 2:-0.673368 3:-0.362584 4:-0.674466 5:-0.409221 6:-0.230027 7:-0.636276 8:-0.459037 9:-0.27432 10:-0.155566 11:-0.430847 12:-0.0537483 13:-0.455866 14:0.326133 15:-0.0516601 16:-0.0465023 17:-0.993497 18:0.223539 19:0.104554 20:-0.406198 21:-0.144053 22:0.0973809 23:0.215925 24:-0.999924 25:-0.0871606 26:-0.989614 27:-0.797364 28:-0.22015 29:-0.0796319 30:-0.0760586 31:0.190613 
1.045665683983034 1.115921898738063 1.130850334935622 1.063737029378435 1.117286640936793 1.011952396887775 0.9653108915853811 1.052634365510445 1.173234043655349 1:-0.790155 2:-0.78718 3:-0.416294 4:-0.772414 5:-0.456033 6:-0.255435 7:-0.725596 8:-0.496071 9:-0.289852 10:-0.156692 11:-0.53723 12:0.0190992 13:-0.809957 14:0.356413 15:-0.0876655 16:-0.032521 17:-0.653833 18:0.619987 19:0.17906 20:-0.623715 21:-0.00850367 22:0.0690825 23:0.202025 24:-1 25:-0.0945446 26:-0.924334 27:-0.797788 28:-0.139352 29:-0.173007 30:-0.299274 31:0.139976 
0.8268637233482483 0.8863439583440611 0.8950314400381476 0.8421620462222476 0.8870064216111194 0.8129674350900741 0.7641703074803196 0.8329773647637195 0.9278812742739503 1:-0.582985 2:-0.623898 3:-0.394752 4:-0.623917 5:-0.449904 6:-0.331918 7:-0.585305 8:-0.490187 9:-0.38765 10:-0.29843 11:-0.320537 12:-0.126128 13:-0.369087 14:0.302823 15:-0.0489298 16:-0.138904 17:-0.648634 18:0.173907 19:0.0501363 20:-0.443773 21:-0.189888 22:0.0923198 23:0.150987 24:-0.61555 25:-0.135454 26:-0.976027 27:-0.921605 28:-0.814348 29:-0.255232 30:-0.0826269 31:0.248646 
1.040643906336154 1.11077610013043 1.125823431584006 1.060255804709041 1.11210943046143 1.006927671083001 0.9610864110150837 1.047896763318513 1.167481831074459 1:-0.74521 2:-0.737954 3:-0.362859 4:-0.735962 5:-0.411911 6:-0.257628 7:-0.70276 8:-0.473675 9:-0.306547 10:-0.207775 11:-0.55466 12:-0.0650939 13:-1 14:0.231302 15:-0.0854368 16:-0.0346593 17:-0.0690755 18:0.336249 19:0.0591853 20:-0.961932 21:-0.208325 22:0.0703866 23:0.210384 24:-0.204361 25:-0.464352 26:-0.830234 27:-0.990516 28:-0.997039 29:-0.267763 30:-0.0800526 31:0.253772 
0.8514896657748102 0.9085304893873116 0.9207865021725481 0.8665861125410854 0.9095263321947762 0.8219205530691449 0.7863588890847258 0.8571185809098921 0.9554375701013669 1:-0.664238 2:-0.661563 3:-0.450339 4:-0.649016 5:-0.451352 6:-0.366063 7:-0.605445 8:-0.480479 9:-0.352542 10:-0.318304 11:-0.398458 12:-0.0569858 13:-0.426311 14:0.216241 15:-0.084846 16:-0.0463769 17:-0.736514 18:0.336756 19:0.097661 20:-0.34933 21:-0.243301 22:0.0684806 23:0.21378 24:-0.801096 25:0.00109581 26:-0.988177 27:-0.901739 28:-0.557853 29:-0.200738 30:-0.0896441 31:0.244646 
0.173221894969887 0.1818528625529369 0.1916039651761988 0.2112146847485069 0.2188417961373136 0.1589312028756113 0.162286094528821 0.1731399924493038 0.2389963693436244 1:-0.162635 2:-0.272514 3:-0.173312 4:-0.286996 5:-0.176919 6:-0.222799 7:-0.240766 8:-0.224642 9:-0.131202 10:-0.236199 11:0.165215 12:0.102014 13:-0.0526081 14:0.343499 15:-0.334658 16:0.134009 17:-0.00826573 18:-0.266729 19:0.236789 20:-0.711185 21:-0.244538 22:-0.00417473 23:0.314206 24:-0.206415 25:-0.513944 26:-0.996754 27:-0.994558 28:-0.993737 29:-0.267738 30:-0.0796572 31:0.253768 
0.07007441922465645 0.07102079505877391 0.07511217456627139 0.05802890843693843 0.07524547816256574 0.09761849773278054 0.05944277799227436 0.07450097741859033 0.05274994475183947 1:-0.137375 2:-0.260032 3:-0.133401 4:-0.271964 5:-0.208795 6:-0.160045 7:-0.220713 8:-0.271107 9:-0.16274 10:-0.15294 11:0.224908 12:-0.129088 13:0.0359269 14:0.394308 15:-0.344868 16:0.211153 17:-0.0205271 18:-0.262442 19:0.137518 20:-0.692694 21:-0.23342 22:-0.00373551 23:0.335153 24:-0.210429 25:-0.498192 26:-0.993799 27:-0.994433 28:-0.989059 29:-0.267728 30:-0.0789893 31:0.253751 
0.1964426592578201 0.2126689489723556 0.2134346943787399 0.1990451722415258 0.2010756866222186 0.1928743353312869 0.1822861336368683 0.1970476609538843 0.2190177171767431 1:0.0179553 2:-0.200817 3:-0.00914541 4:-0.228492 5:-0.149098 6:-0.0283459 7:-0.188417 8:-0.210077 9:-0.111729 10:-0.0101541 11:0.437313 12:-0.0669068 13:0.250556 14:0.491603 15:-0.203561 16:-0.109879 17:0.0189545 18:-0.348206 19:0.172694 20:-0.720021 21:-0.228885 22:0.0389887 23:0.249487 24:-0.207156 25:-0.553087 26:-0.997984 27:-0.996179 28:-0.99764 29:-0.267754 30:-0.079797 31:0.253775 
0.04387291197722119 0.02939133972608398 0.04715290485015709 0.04786256704275277 0 0.02271933306924975 0.03882145044758295 0.02840591101781653 0.04754452443543403 1:-0.0858821 2:-0.238931 3:-0.0802826 4:-0.237264 5:-0.212775 6:-0.0975877 7:-0.176306 8:-0.256568 9:-0.186258 10:-0.0814049 11:0.396801 12:-0.246665 13:0.115505 14:0.404119 15:-0.166184 16:0.0369171 17:-0.0273711 18:-0.222212 19:0.0964499 20:-0.698571 21:-0.236705 22:0.0433976 23:0.283233 24:-0.213506 25:-0.486646 26:-0.985303 27:-0.999052 28:-0.996042 29:-0.267754 30:-0.0796516 31:0.253775 
0.223490683139022 0.2472102476102789 0.2424997578854485 0.2301313069387604 0.226740517813029 0.2135825673387541 0.209263070210623 0.2067464343226764 0.2649361017097567 1:-0.0653212 2:-0.246246 3:-0.101142 4:-0.278785 5:-0.245547 6:-0.163753 7:-0.241746 8:-0.322345 9:-0.240477 10:-0.178199 11:0.270661 12:-0.231122 13:0.0213776 14:0.484863 15:-0.265753 16:0.170477 17:0.0958159 18:-0.339208 19:0.105657 20:-0.747587 21:-0.22005 22:0.0218373 23:0.317415 24:-0.18739 25:-0.570441 26:-0.987902 27:-0.996678 28:-0.989155 29:-0.267784 30:-0.0797076 31:0.253759 
0.15164862812421 0.1567836120209146 0.1643593440786251 0.1571585356679072 0.1802203992504947 0.1421718337799636 0.1395494973258333 0.1553102865157526 0.2323863068521885 1:-0.108121 2:-0.274147 3:-0.0887311 4:-0.307535 5:-0.150482 6:-0.124365 7:-0.271064 8:-0.199895 9:-0.106732 10:-0.119226 11:0.198864 12:0.105969 13:0.00455452 14:0.492554 15:-0.0425191 16:-0.081947 17:0.0289437 18:-0.326732 19:0.236094 20:-0.726099 21:-0.211989 22:0.0724777 23:0.250378 24:-0.19977 25:-0.549154 26:-0.997669 27:-0.996366 28:-0.994014 29:-0.26776 30:-0.0795574 31:0.253768 
0.2642823313019623 0.2777698981374097 0.2851765971942449 0.2681874490220203 0.2645050569675138 0.2519677031988869 0.242147404393365 0.2621971354230648 0.2855022130340276 1:-0.248227 2:-0.374083 3:-0.255015 4:-0.366137 5:-0.326702 6:-0.261189 7:-0.309108 8:-0.362763 9:-0.281061 10:-0.23574 11:0.211523 12:-0.102164 13:0.0283322 14:0.379723 15:-0.314822 16:0.0446366 17:0.0235251 18:-0.0699112 19:0.137645 20:-0.602205 21:-0.223044 22:-0.0099024 23:0.288397 24:-0.192732 25:-0.352832 26:-0.993282 27:-0.992209 28:-0.993489 29:-0.267735 30:-0.0793781 31:0.253765 
0.462118665661322 0.4922417996785817 0.4960582230537715 0.4563489216152158 0.50352792665171 0.4459906240971233 0.425142676683097 0.4648543803369665 0.5161589866020089 1:-0.241754 2:-0.301961 3:-0.271082 4:-0.29984 5:-0.219863 6:-0.289638 7:-0.240132 8:-0.246461 9:-0.146266 10:-0.269782 11:0.09267 12:0.129079 13:0.0172653 14:0.317207 15:-0.323601 16:0.183122 17:0.104352 18:-0.187839 19:0.254264 20:-0.613756 21:-0.244447 22:-0.011718 23:0.338359 24:-0.168659 25:-0.408547 26:-0.997718 27:-0.989022 28:-0.991259 29:-0.267805 30:-0.0795402 31:0.253757 
0.5238899038274806 0.5521743963099971 0.5751235832559162 0.5335241146511438 0.6432642094243732 0.5039362869824788 0.4848738281423824 0.5115416747147027 0.6219175576351462 1:-0.207716 2:-0.305955 3:-0.19143 4:-0.299713 5:-0.231579 6:-0.176346 7:-0.247288 8:-0.235763 9:-0.184476 10:-0.13025 11:0.210941 12:-0.0622251 13:0.112483 14:0.193891 15:0.196663 16:-0.242017 17:-0.000805141 18:-0.150682 19:0.161064 20:-0.600707 21:-0.285476 22:0.144905 23:0.190696 24:-0.202363 25:-0.38385 26:-0.997561 27:-0.988643 28:-0.989316 29:-0.267696 30:-0.079528 31:0.253806 
0.3021748240164839 0.3299620348049945 0.3332299174576115 0.3070026650462668 0.394639520604068 0.2892332706297053 0.278036459330649 1.260694923208689 0.3550772081076732 1:0.0421654 2:-0.0941292 3:0.0446035 4:-0.124589 5:-0.0372146 6:0.0510453 7:-0.0958218 8:-0.104237 9:0.0316192 10:0.0937408 11:0.33734 12:-0.124269 13:0.326052 14:0.120342 15:-0.10648 16:0.0306764 17:-0.00685649 18:-0.43731 19:0.15495 20:-0.710829 21:-0.30328 22:0.0577716 23:0.28064 24:-0.21259 25:-0.581575 26:-0.997385 27:-0.999858 28:-0.999733 29:-0.267757 30:-0.0798313 31:0.253777 
0.9633747941589441 1.109493554422319 1.062619346178118 0.985902767978423 1.115724716257343 0.9324732110767796 0.90283206064585 0.9816444010688377 1.371478040803739 1:-0.159562 2:-0.231966 3:-0.280035 4:-0.285441 5:-0.224637 6:-0.309764 7:-0.269223 8:-0.297479 9:-0.19109 10:-0.2904 11:-0.101841 12:0.115712 13:0.153207 14:0.340947 15:-0.376891 16:-0.128083 17:0.326583 18:-0.47779 19:0.242672 20:-0.625869 21:-0.245546 22:-0.0150049 23:0.233488 24:-0.120279 25:-0.533166 26:-0.994408 27:-0.980011 28:-0.994679 29:-0.267746 30:-0.079392 31:0.253795 
1.007130432310368 1.078012970060615 1.089693536721836 1.024973746702018 1.077442109602955 0.9744070335889692 0.9368118603843946 1.037607008422651 1.139523331593413 1:0.493284 2:0.181716 3:0.297888 4:0.0255766 5:0.120565 6:0.183294 7:-0.00958354 8:-0.0623649 9:0.0855523 10:0.150224 11:0.405403 12:-0.0666051 13:0.539959 14:0.577631 15:-0.41081 16:-0.271004 17:0.373486 18:-0.77792 19:0.187783 20:-0.863866 21:-0.253688 22:0.0297762 23:0.245479 24:-0.184384 25:-0.833384 26:-0.999274 27:-0.995217 28:-0.998806 29:-0.267759 30:-0.0798594 31:0.253777 
0.5563607694064774 0.5939775690594936 0.6100408929666393 0.5670535098205559 0.5873889747148278 0.5385150193970458 0.5144306904973459 0.5690558979482311 0.6205452536301075 1:0.0929179 2:-0.13006 3:0.0756346 4:-0.177806 5:-0.0842311 6:0.0604214 7:-0.153102 8:-0.165852 9:-0.0602173 10:0.0776563 11:0.421967 12:-0.127647 13:0.319492 14:0.407372 15:-0.146994 16:-0.268132 17:-0.0591708 18:-0.448904 19:0.157319 20:-0.743226 21:-0.251611 22:0.0510672 23:0.221561 24:-0.222398 25:-0.610797 26:-0.997484 27:-0.995196 28:-0.999962 29:-0.267757 30:-0.0798409 31:0.253777 
0.9460927329407377 1.011757010580857 1.023676566071052 0.9627611388030378 1.015273009300806 0.9279286907958623 0.873692009246136 0.9486458001884094 1.061204348845378 1:-0.0931976 2:-0.132789 3:0.0135109 4:-0.116687 5:-0.0858893 6:0.0510318 7:-0.0625676 8:-0.151166 9:-0.0295564 10:0.101528 11:0.275293 12:-0.490257 13:0.142391 14:-0.174117 15:-0.117616 16:0.231863 17:-0.295471 18:-0.295161 19:-0.00161449 20:-0.683008 21:-0.377547 22:0.0545492 23:0.336157 24:-0.27427 25:-0.503862 26:-0.958503 27:-0.991764 28:-0.994718 29:-0.267783 30:-0.0810403 31:0.253776 
0.7922198015675097 0.8480803666568074 0.8579757558133033 0.8075771033407758 0.8677248249918085 0.7667282886496068 0.7320620767133048 0.8034063813380861 0.8944847975504352 1:0.295945 2:0.0772556 3:0.201147 4:0.0162544 5:0.162051 6:0.182284 7:0.0333941 8:0.0877631 9:0.255547 10:0.2162 11:0.570289 12:0.255748 13:0.599124 14:0.244629 15:-0.257873 16:-0.0206508 17:0.198316 18:-0.577865 19:0.260538 20:-0.774168 21:-0.28445 22:0.0396046 23:0.272026 24:-0.192481 25:-0.685629 26:-0.997305 27:-0.998493 28:-0.999288 29:-0.267757 30:-0.079813 31:0.253777 
0.1463589037746731 0.1551892516823489 0.1530330688543789 0.1485408522516664 0.1790960330059277 0.1405984049538033 0.1339196913216489 0.1327613353553268 0.1754612923462844 1:-0.00316504 2:-0.202352 3:-0.0221375 4:-0.23634 5:-0.16212 6:-0.00493526 7:-0.205242 8:-0.230673 9:-0.106355 10:0.0422639 11:0.356505 12:-0.131549 13:0.358065 14:0.387542 15:-0.166129 16:-0.141419 17:-0.0172948 18:-0.369181 19:0.149052 20:-0.670057 21:-0.248159 22:0.0456837 23:0.241192 24:-0.213436 25:-0.523491 26:-0.996739 27:-0.996802 28:-0.99944 29:-0.267757 30:-0.0798627 31:0.253777 
0.3848124883437805 0.3666531138564335 0.4135741621634416 0.3910260212768859 0.5024775205795261 0.3759915783766327 0.3520431926265404 0.05002164883282573 0.4285258733315851 1:0.0695341 2:-0.10943 3:0.114402 4:-0.158868 5:-0.0610987 6:0.101631 7:-0.132188 8:-0.136161 9:-0.0393792 10:0.126433 11:0.329309 12:-0.301884 13:0.208009 14:0.38944 15:0.242317 16:-0.0506397 17:-0.0432899 18:-0.473397 19:0.100483 20:-0.763868 21:-0.253228 22:0.119476 23:0.263859 24:-0.219486 25:-0.63622 26:-0.988984 27:-0.996225 28:-0.996116 29:-0.267761 30:-0.0802868 31:0.253772 
0.5714458553112105 0.8156243707192405 0.61430703361654 0.5938372214764909 0.6217011398586174 0.5437975591523916 0.6363559391846689 0.9734670017511643 0.6431368426164061 1:-0.107837 2:-0.292777 3:-0.162457 4:-0.374258 5:-0.380853 6:-0.215937 7:-0.371054 8:-0.501571 9:-0.431612 10:-0.222803 11:-0.0386253 12:-0.533049 13:0.0411095 14:0.542375 15:-0.112569 16:-0.192672 17:0.120653 18:-0.496579 19:-0.0235824 20:-0.711915 21:-0.199496 22:0.0556128 23:0.219558 24:-0.178363 25:-0.605991 26:-0.94958 27:-0.990461 28:-0.993819 29:-0.267787 30:-0.081419 31:0.253768 
0.7790763852294433 0.8645292952631612 0.8423082073978111 0.7920781201218039 0.8321621727977168 0.7603331665941032 0.7191594046960522 1.35591286100888 0.8736866614699427 1:0.263809 2:-0.00884316 3:0.24339 4:-0.12556 5:-0.108272 6:0.183011 7:-0.143819 8:-0.291974 9:-0.163154 10:0.159931 11:0.307396 12:-0.731615 13:0.306822 14:0.476278 15:-0.188112 16:0.00758292 17:-0.0905504 18:-0.664819 19:0.01614 20:-0.829348 21:-0.252246 22:0.0477615 23:0.276067 24:-0.22751 25:-0.762149 26:-0.965709 27:-0.999472 28:-0.998115 29:-0.267755 30:-0.0796842 31:0.253777 
0.4881711389782309 0.5242771256366896 0.5283418724305566 0.4971675423771037 0.5167829972823299 0.4706492008828994 0.4519189955639479 0.987399860558126 0.5483413104532622 1:0.327591 2:0.0705932 3:0.337466 4:-0.0482611 5:0.043325 6:0.295996 7:-0.0627374 8:-0.11953 9:0.0212909 10:0.290151 11:0.348285 12:-0.538726 13:0.387435 14:0.506279 15:0.137511 16:-0.0712145 17:-0.119664 18:-0.694615 19:0.0743639 20:-0.836082 21:-0.252247 22:0.087725 23:0.265254 24:-0.230866 25:-0.779125 26:-0.983302 27:-0.99832 28:-0.998506 29:-0.267755 30:-0.0800187 31:0.253777 
0.8581668154993279 0.9165981250558813 0.9371944502395518 0.8743923944004988 0.9918752340784479 0.8458742316565078 0.7927812866384301 0.9471447561697725 0.9633285335962217 1:0.334847 2:0.0668206 3:0.395193 4:-0.060744 5:0.201457 6:0.333945 7:-0.0826842 8:0.0634527 9:0.226191 10:0.312478 11:0.324197 12:-0.0416648 13:0.231131 14:0.499153 15:0.277854 16:-0.117598 17:-0.0763123 18:-0.709453 19:0.189827 20:-0.873701 21:-0.253562 22:0.104038 23:0.259027 24:-0.225856 25:-0.813601 26:-0.999632 27:-0.997073 28:-0.99797 29:-0.267757 30:-0.0798844 31:0.253775 
0.5655744180790353 0.6332490478719762 0.6120393045689854 0.5756610495488986 0.6066471046575062 0.5458042765657061 0.5221903572266615 0.7649281933191266 0.6347213551446563 1:0.414164 2:0.101517 3:0.355762 4:-0.00715121 5:0.0263194 6:0.300011 7:-0.0184582 8:-0.13304 9:0.00383279 10:0.291748 11:0.572309 12:-0.54022 13:0.517108 14:0.441584 15:-0.115844 16:-0.0334268 17:0.0120106 18:-0.668734 19:0.0861251 20:-0.840967 21:-0.264235 22:0.0577559 23:0.271201 24:-0.21691 25:-0.77253 26:-0.986188 27:-0.999591 28:-0.999156 29:-0.267757 30:-0.0799168 31:0.253777 
0.3504896859611422 0.3864315487972664 0.378681267854217 0.35672126480289 0.3739695679762604 0.3321812938041048 0.3245299254848408 1.097929203326934 0.3927249744473357 1:0.501262 2:0.231413 3:0.495593 4:0.113848 5:0.229168 6:0.434523 7:0.0962432 8:0.0518689 9:0.229948 10:0.407602 11:0.562845 12:-0.413031 13:0.493505 14:0.328258 15:-0.147782 16:0.0864649 17:-0.178145 18:-0.729134 19:0.121219 20:-0.87512 21:-0.278793 22:0.0549815 23:0.284952 24:-0.235497 25:-0.822512 26:-0.993001 27:-1 28:-0.999348 29:-0.267757 30:-0.0797857 31:0.253777 
0.988056128937983 1.054486345559214 1.068584447249665 1.005785400899426 1.055957835170913 0.9557239851423842 0.9125196935691197 1.01429748280858 1.10848237817422 1:0.799021 2:0.352479 3:0.653536 4:0.211131 5:0.312126 6:0.572834 7:0.191941 8:0.133761 9:0.330797 10:0.556336 11:1 12:-0.199603 13:0.895641 14:0.624839 15:-0.279282 16:0.0202589 17:0.142392 18:-0.764985 19:0.173544 20:-0.894545 21:-0.263113 22:0.0477653 23:0.277477 24:-0.212388 25:-0.851535 26:-0.998897 27:-0.999429 28:-0.998876 29:-0.267757 30:-0.0798588 31:0.253777 
0.314148279943547 0.3429775152738816 0.3403776640204015 0.320055145713636 0.3356102368043649 0.305775150114132 0.2901486831015826 0.234397331453538 0.3533844932045618 1:0.465777 2:0.179689 3:0.371382 4:0.0789894 5:0.16251 6:0.299661 7:0.0819644 8:0.0317853 9:0.175312 10:0.283035 11:0.638923 12:-0.191926 13:0.554339 14:0.490572 15:-0.0872505 16:0.0214912 17:0.0883042 18:-0.680202 19:0.162167 20:-0.851887 21:-0.261203 22:0.0607414 23:0.277877 24:-0.210257 25:-0.78539 26:-0.998041 27:-0.999734 28:-0.998383 29:-0.267757 30:-0.079909 31:0.253777 
0.3293907596541832 0.3500540959165446 0.3561450195076443 0.3350214987542358 0.3519611841274535 0.3181903442906009 0.3039491054385016 0.3262026738873564 0.3701868784892611 1:0.458118 2:0.155879 3:0.492204 4:0.0672066 5:0.273473 6:0.465198 7:0.0795312 8:0.158068 9:0.350346 10:0.474678 11:0.716978 12:-0.0482464 13:0.517134 14:0.525766 15:0.0193018 16:0.115159 17:-0.141719 18:-0.64742 19:0.190739 20:-0.856484 21:-0.257177 22:0.0714127 23:0.288734 24:-0.232429 25:-0.775831 26:-0.999429 27:-0.999775 28:-0.997879 29:-0.267756 30:-0.0798043 31:0.253777 
0.6081663397408807 0.642528693540691 0.662377210908105 0.6196600239630141 0.9312399237943971 0.6577934601356514 0.5613420010645365 0.5869748987997881 0.681393155768057 1:0.0660743 2:-0.167646 3:0.0625566 4:-0.265824 5:-0.124327 6:-0.000385957 7:-0.265365 8:-0.266279 9:-0.102304 10:-0.0303295 11:0.131022 12:-0.178574 13:0.0929257 14:0.64223 15:-0.290414 16:0.241978 17:-0.104021 18:-0.580462 19:0.139292 20:-0.797461 21:-0.206038 22:0.0251904 23:0.323925 24:-0.229911 25:-0.704353 26:-0.995615 27:-0.998942 28:-0.984568 29:-0.267729 30:-0.0792711 31:0.25376 
0.5103094547667955 0.5646442419459502 0.5519194433284977 0.5195399399586758 0.5478159347437953 0.4996205310184605 0.4709432241823016 0.6058694994656539 0.5724486086389792 1:0.318804 2:0.0554926 3:0.359888 4:-0.0713566 5:0.0674725 6:0.366277 7:-0.0934451 8:-0.127809 9:0.121367 10:0.38894 11:0.303922 12:-0.475827 13:0.508433 14:0.493559 15:-0.238361 16:0.295047 17:-0.321648 18:-0.706597 19:0.0877753 20:-0.8052 21:-0.25332 22:0.0426174 23:0.316356 24:-0.254615 25:-0.760438 26:-0.985572 27:-0.99972 28:-0.99331 29:-0.267755 30:-0.0791306 31:0.253774 
0.09942842230599137 0.1218164826638989 0.1077670115061744 0.1016712188662908 0.07909758584501331 0.124120455537943 0.09364897595769942 0.1192457607698157 0.1069738237959408 1:0.00526072 2:-0.185104 3:-0.0171764 4:-0.24062 5:-0.227663 6:-0.0562237 7:-0.222331 8:-0.336322 9:-0.227753 10:-0.0546145 11:0.239731 12:-0.454701 13:0.156843 14:0.408463 15:-0.192781 16:0.161922 17:0.0257837 18:-0.451081 19:0.0379807 20:-0.743303 21:-0.244532 22:0.0406477 23:0.310751 24:-0.205411 25:-0.611721 26:-0.972966 27:-0.999037 28:-0.994473 29:-0.267763 30:-0.0800848 31:0.253774 
0.9518700920228635 1.015181137630818 1.029974268739891 0.9689558498378168 1.019222412805716 0.9233576981669506 0.8793028790470264 0.949531381402265 1.068302595074588 1:0.298338 2:-0.0676102 3:0.372524 4:-0.190691 5:0.0428686 6:0.367826 7:-0.194593 8:-0.128669 9:0.111734 10:0.376735 11:0.405247 12:-0.16836 13:0.388377 14:0.89569 15:-0.237848 16:0.153536 17:-0.353788 18:-0.649392 19:0.158689 20:-0.824198 21:-0.199739 22:0.0421672 23:0.297134 24:-0.259303 25:-0.752096 26:-0.997748 27:-0.999417 28:-0.985528 29:-0.267747 30:-0.0792726 31:0.253791 
0.385688108100634 0.4183714738867185 0.4166477443721811 0.3923862565522986 0.3834167322008739 0.373742924469193 0.3541383374101453 0.3704877487288949 0.4329845784184841 1:0.260185 2:-0.0549377 3:0.21075 4:-0.166401 5:-0.0989579 6:0.156971 7:-0.177281 8:-0.262506 9:-0.096805 10:0.145941 11:0.37665 12:-0.428962 13:0.371677 14:0.598661 15:-0.327768 16:0.166094 17:-0.007411 18:-0.631553 19:0.0911739 20:-0.812123 21:-0.235186 22:0.029328 23:0.300187 24:-0.216899 25:-0.735824 26:-0.987297 27:-0.998732 28:-0.994158 29:-0.26775 30:-0.0796658 31:0.253772 
0.245840609127083 0.2594108036268787 0.2638592500205502 0.2508306897511449 0.1976168550930101 0.2335279871787315 0.2266324627693919 0.2280173134894787 0.2757837264420203 1:0.223074 2:-0.0409508 3:0.200459 4:-0.147705 5:-0.0155085 6:0.139728 7:-0.149597 8:-0.160366 9:0.0183812 10:0.117062 11:0.303604 12:-0.214163 13:0.272044 14:0.64065 15:-0.171658 16:0.32756 17:-0.0733724 18:-0.634077 19:0.142194 20:-0.820793 21:-0.225707 22:0.0492865 23:0.327449 24:-0.225208 25:-0.743414 26:-0.995989 27:-0.999666 28:-0.989246 29:-0.267767 30:-0.0797561 31:0.253772 
0.5679444177216723 0.6125984117819748 0.6139065478820679 0.5786308071431121 0.6650401537708739 0.5829242133175565 0.5244268350359155 0.5545906224659327 0.6369791645634453 1:0.196884 2:-0.0358036 3:0.224958 4:-0.111206 5:0.0751688 6:0.214292 7:-0.0936621 8:-0.0122402 9:0.172411 10:0.239252 11:0.40383 12:-0.0165103 13:0.357742 14:0.550294 15:0.1621 16:0.30222 17:-0.0851022 18:-0.564424 19:0.1935 20:-0.786813 21:-0.236568 22:0.0970819 23:0.325239 24:-0.226769 25:-0.68988 26:-0.999808 27:-0.998443 28:-0.990911 29:-0.267746 30:-0.0799055 31:0.253787 
0.8337709384035723 0.8903156984180604 0.9022520642921195 0.8484457201392992 0.8911227713683486 0.8065443416096437 0.770756857697823 0.8677412337194857 0.9352876687137688 1:0.634826 2:0.243985 3:0.565969 4:0.0819501 5:0.346383 6:0.461789 7:0.0427026 8:0.172386 9:0.387215 10:0.410623 11:0.632944 12:0.173971 13:0.548465 14:0.570819 15:-0.110588 16:0.0545446 17:-0.0253198 18:-0.782182 19:0.231001 20:-0.904201 21:-0.26095 22:0.0587403 23:0.28077 24:-0.222346 25:-0.865716 26:-0.999483 27:-0.999849 28:-0.998619 29:-0.267756 30:-0.0798273 31:0.253777 
0.5949256904696544 0.6339646361052509 0.6434055499759014 0.6055292316554931 0.6358739666086405 0.5741340915286964 0.5501204968155572 0.5315143927612958 0.6675782528554312 1:0.514395 2:0.189341 3:0.45281 4:0.0464816 5:0.206523 6:0.370978 7:0.0238121 8:0.0265843 9:0.245641 10:0.33929 11:0.518137 12:-0.168597 13:0.513564 14:0.615198 15:-0.2048 16:0.368098 17:-0.0101918 18:-0.751985 19:0.168826 20:-0.87552 21:-0.251137 22:0.0497583 23:0.315154 24:-0.220188 25:-0.831913 26:-0.998572 27:-0.999604 28:-0.995124 29:-0.267761 30:-0.0798678 31:0.253775 
0.0639915473839035 0.0685855492016825 0.07145732663354951 0.06300200638281969 0.12715963224069 0.05806311068087133 0.05825093761683255 0.06649931974635241 0.1112679002365816 1:-0.22165 2:-0.309818 3:-0.20483 4:-0.306635 5:-0.17955 6:-0.210226 7:-0.248814 8:-0.178453 9:-0.103686 10:-0.18028 11:0.164439 12:0.165571 13:0.0212496 14:0.311946 15:0.0923691 16:-0.0232225 17:0.0275719 18:-0.163572 19:0.270453 20:-0.630299 21:-0.248147 22:0.116021 23:0.264223 24:-0.193386 25:-0.411447 26:-0.995199 27:-0.997621 28:-0.991997 29:-0.267778 30:-0.0796058 31:0.25377 
0.6220756293115214 0.659577714515529 0.6690297961077425 0.6333103928114099 0.6863872444832868 0.6109630744701927 0.5732520757783593 0.5934598690882928 0.6992989794245907 1:-0.100152 2:-0.198178 3:-0.0783178 4:-0.192226 5:-0.108373 6:-0.0989605 7:-0.132631 8:-0.119844 9:-0.0490153 10:-0.0844056 11:0.322683 12:-0.0307567 13:0.0648309 14:0.188903 15:0.0958846 16:0.131695 17:-0.0212643 18:-0.251122 19:0.180832 20:-0.708019 21:-0.288544 22:0.105134 23:0.309421 24:-0.211734 25:-0.505325 26:-0.996559 27:-0.998059 28:-0.996558 29:-0.267753 30:-0.0800371 31:0.253774 
0.5331722360382275 0.5663144558147178 0.5775588375107216 0.5418018714681246 0.5323732226535729 0.5314646423335935 0.5005690824461877 0.546741844210356 0.5822755662556661 1:-0.321511 2:-0.37285 3:-0.25617 4:-0.368015 5:-0.374799 6:-0.262145 7:-0.319246 8:-0.438685 9:-0.379213 10:-0.247513 11:0.0100361 12:-0.508141 13:-0.148472 14:0.16768 15:-0.139565 16:0.113483 17:-0.138323 18:-0.105272 19:-0.104812 20:-0.622927 21:-0.292988 22:0.0431975 23:0.319873 24:-0.245101 25:-0.382645 26:-0.906549 27:-0.998573 28:-0.997931 29:-0.267754 30:-0.0791392 31:0.253776 
0.9415264134904887 1.004649118008894 1.018863806700468 0.9985071154675362 1.001462986489652 0.9112870425400478 0.8695075727395881 0.9479399316487621 1.054516696741215 1:-0.326365 2:-0.411458 3:-0.292763 4:-0.398068 5:-0.190936 6:-0.301367 7:-0.332625 8:-0.173113 9:-0.0777493 10:-0.278998 11:0.100669 12:0.49022 13:-0.111 14:0.417977 15:-0.071788 16:0.033677 17:-0.0107433 18:-0.00259397 19:0.47064 20:-0.597095 21:-0.194885 22:0.0684138 23:0.285731 24:-0.198894 25:-0.322154 26:-0.931391 27:-0.998633 28:-0.987145 29:-0.267744 30:-0.0767168 31:0.25376 
0.07323851775005408 0.06079334084968407 0.07938381609337927 0.06916659149632065 0.115056114387314 0.05257611611187901 0.06860598844167914 0.06066625609658483 0.1184723503575707 1:-0.370413 2:-0.415354 3:-0.328859 4:-0.393424 5:-0.329892 6:-0.323447 7:-0.333432 8:-0.328911 9:-0.272691 10:-0.287702 11:0.0405451 12:-0.0703667 13:-0.109704 14:0.156577 15:0.0687893 16:0.0637705 17:-0.00215717 18:0.0409178 19:0.140883 20:-0.547747 21:-0.297529 22:0.127485 23:0.301066 24:-0.19247 25:-0.267356 26:-0.993492 27:-0.997251 28:-0.991669 29:-0.267776 30:-0.0804632 31:0.253766 
0.4711421723302953 0.5041740159810414 0.5104238166430094 0.4802718830016948 0.6579166102648587 0.4641607080863158 0.4362484219179364 0.4800983588150329 0.5277248948536228 1:-0.360429 2:-0.421443 3:-0.310829 4:-0.391168 5:-0.295669 6:-0.298622 7:-0.322092 8:-0.286113 9:-0.221805 10:-0.263617 11:0.120513 12:0.0639132 13:-0.0877651 14:0.228685 15:-0.0524992 16:-0.00893176 17:-0.0875944 18:0.102537 19:0.224779 20:-0.546209 21:-0.26697 22:0.0768835 23:0.266483 24:-0.226808 25:-0.24166 26:-0.995299 27:-0.99927 28:-0.999385 29:-0.267757 30:-0.0798102 31:0.253777 
0.3532454747415667 0.3808705331677115 0.377903613121914 0.3604246161487127 0.3001709718879054 0.3453731507455435 0.3274830907311996 0.3664803158270621 0.3858015435407854 1:-0.251092 2:-0.32916 3:-0.233552 4:-0.301524 5:-0.244227 6:-0.244953 7:-0.229656 8:-0.2256 9:-0.196275 10:-0.220338 11:0.249266 12:-0.0149976 13:-0.0292607 14:0.220755 15:0.185732 16:-0.0188202 17:0.0353391 18:-0.0302072 19:0.181669 20:-0.62781 21:-0.275613 22:0.149276 23:0.265054 24:-0.18887 25:-0.356473 26:-0.993932 27:-0.995185 28:-0.987673 29:-0.267829 30:-0.0809259 31:0.253776 
0.02732178312371254 0 0.02742480798405715 0.02080682741767824 0.04760010633211149 0.0207404920754952 0.001178566619958496 0.001138648481598311 0.01907545499139492 1:-0.251721 2:-0.327901 3:-0.238737 4:-0.327185 5:-0.31916 6:-0.25429 7:-0.286145 8:-0.35017 9:-0.311058 10:-0.234313 11:0.10069 12:-0.308234 13:-0.038827 14:0.0772305 15:0.126362 16:-0.0345839 17:0.0302139 18:-0.16173 19:0.0322594 20:-0.631945 21:-0.3235 22:0.130438 23:0.259215 24:-0.190408 25:-0.411967 26:-0.970009 27:-0.997567 28:-0.989402 29:-0.267769 30:-0.0786696 31:0.253794 
0 0.04955808437157596 0 0 0.08844297038684558 0 0 0.03890097852925318 0 1:-0.131695 2:-0.233258 3:-0.102865 4:-0.263896 5:-0.204486 6:-0.0915956 7:-0.240598 8:-0.275113 9:-0.174426 10:-0.0477149 11:0.0984981 12:-0.296579 13:0.14678 14:0.141612 15:0.0203378 16:-0.112249 17:-0.0241028 18:-0.365026 19:0.0675831 20:-0.651711 21:-0.300581 22:0.0888571 23:0.240354 24:-0.211483 25:-0.507903 26:-0.981393 27:-0.998701 28:-0.997538 29:-0.267754 30:-0.0794646 31:0.253777 
0.3834258310790862 0.4117757967866517 0.4127275718015713 0.3891126239975597 0.4095797987997105 0.3620465797442276 0.3537935334282253 0.3564833792622502 0.4292724929390359 1:0.255142 2:0.02489 3:0.276447 4:-0.0389488 5:0.0935841 6:0.278888 7:-0.0185714 8:0.0130594 9:0.160507 10:0.319513 11:0.527628 12:-0.1745 13:0.470782 14:0.394182 15:0.245366 16:0.0255598 17:-0.0630047 18:-0.560631 19:0.15463 20:-0.785752 21:-0.263072 22:0.105041 23:0.278812 24:-0.223971 25:-0.687564 26:-0.997361 27:-0.99809 28:-0.997522 29:-0.267755 30:-0.0799868 31:0.253775 
0.4268744042863948 0.4808183415465817 0.4715479707012598 0.4355568903358786 0.7600947946176533 0.4046978955075196 0.4032524085634339 0.7787259864660099 0.4825912843639542 1:0.162321 2:-0.0713327 3:0.124668 4:-0.19079 5:-0.0581421 6:0.0662949 7:-0.206903 8:-0.215286 9:-0.0504085 10:0.056756 11:0.128614 12:-0.206159 13:0.24821 14:0.567988 15:-0.212072 16:0.0165497 17:0.063534 18:-0.667732 19:0.139429 20:-0.799593 21:-0.230561 22:0.0420878 23:0.277502 24:-0.204764 25:-0.740711 26:-0.995127 27:-0.998375 28:-0.995591 29:-0.267755 30:-0.0800755 31:0.253773 
0.2683644728833392 0.2859659745996873 0.2870233190980777 0.2726638877362459 0.2055538170991236 0.2415619137409454 0.2476570762682218 0.2287440109451014 0.3004589680079428 1:0.120588 2:-0.143354 3:0.0853112 4:-0.244316 5:-0.185986 6:0.0238599 7:-0.243119 8:-0.343697 9:-0.204308 10:0.0041218 11:0.21288 12:-0.442773 13:0.195129 14:0.692046 15:-0.37208 16:0.083774 17:-0.00804915 18:-0.588467 19:0.0654827 20:-0.794283 21:-0.205089 22:0.0148485 23:0.290191 24:-0.214541 25:-0.705124 26:-0.981104 27:-0.996682 28:-0.98984 29:-0.267718 30:-0.0792885 31:0.253767 
0 0 0 0 0 0 0 0.05118089719627481 0 1:-0.00160726 2:-0.164876 3:-0.0411467 4:-0.22434 5:-0.188539 6:-0.0777484 7:-0.204893 8:-0.298898 9:-0.17109 10:-0.0684407 11:0.17511 12:-0.31777 13:0.183822 14:0.436944 15:-0.261481 16:0.147096 17:0.1025 18:-0.482393 19:0.0841708 20:-0.730022 21:-0.238002 22:0.026743 23:0.307738 24:-0.190332 25:-0.614098 26:-0.985703 27:-0.997364 28:-0.993566 29:-0.267771 30:-0.0802804 31:0.25377 
0.5845847993619274 0.6265136220551087 0.6328390082453852 0.5957069362853867 0.6467542689124577 0.5664474351067539 0.5400873543125222 0.5999251016959503 0.6584230717232671 1:0.0725291 2:-0.178151 3:0.0447631 4:-0.243112 5:-0.208468 6:0.0205635 7:-0.230545 8:-0.338261 9:-0.18654 10:0.0336806 11:0.335137 12:-0.40845 13:0.282184 14:0.491214 15:-0.480671 16:0.196414 17:-0.00182135 18:-0.473508 19:0.0672293 20:-0.742824 21:-0.234731 22:-0.00788001 23:0.314164 24:-0.212451 25:-0.620284 26:-0.98155 27:-0.994561 28:-0.991617 29:-0.267721 30:-0.0789541 31:0.253767 
0.5202765406176366 0.5560682406364031 0.5645774549265966 0.5318781234703323 0.5821996251208299 0.5026659349430825 0.4812787789554144 0.6175165766897326 0.5898817469729736 1:0.150719 2:0.00466213 3:0.106997 4:-0.0428598 5:0.0425207 6:0.03577 7:-0.00532067 8:-0.0344275 9:0.0802103 10:0.0177788 11:0.373666 12:-0.0651549 13:0.197398 14:0.414102 15:-0.108961 16:0.308198 17:0.0990314 18:-0.535152 19:0.178757 20:-0.808096 21:-0.254345 22:0.0577554 23:0.32986 24:-0.19901 25:-0.694394 26:-0.998659 27:-0.99888 28:-0.993161 29:-0.267768 30:-0.0798643 31:0.253781 
0.5096666238272944 0.5430719443121611 0.5515973451853918 0.5191201856212023 0.5361004041289046 0.4898348976700164 0.4712423905067349 0.4943013541531648 0.5711417644599932 1:0.317358 2:0.0986172 3:0.278829 4:0.0215157 5:0.170761 6:0.194435 7:0.0397318 8:0.0738026 9:0.230475 10:0.154937 11:0.506524 12:0.0227732 13:0.291218 14:0.457795 15:-0.0573143 16:0.472646 17:-0.0388422 18:-0.622104 19:0.204593 20:-0.853923 21:-0.257765 22:0.0645192 23:0.341338 24:-0.221413 25:-0.76381 26:-0.999428 27:-0.998346 28:-0.993366 29:-0.267772 30:-0.0796742 31:0.25378 
0.3572829711452054 0.3818189192912326 0.3858554811580391 0.3622919325344889 0.3892121079064767 0.3463180398230954 0.3293435059758505 0.3930681783490933 0.3987570558630303 1:0.229529 2:0.0151573 3:0.207189 4:-0.0530222 5:0.064876 6:0.132655 7:-0.0258522 8:-0.0449833 9:0.108714 10:0.0970704 11:0.45365 12:-0.108855 13:0.225001 14:0.555795 15:-0.242392 16:0.420563 17:-0.0790474 18:-0.570931 19:0.170056 20:-0.835394 21:-0.238581 22:0.0396569 23:0.341774 24:-0.225986 25:-0.729368 26:-0.997852 27:-0.99852 28:-0.989757 29:-0.267774 30:-0.0794082 31:0.253766 
0.6075056019190515 0.6438119462928688 0.6572785843318757 0.6185537015803827 0.6489137840922544 0.5970903969560348 0.5607940255421031 0.3806485844829054 0.6821456430666073 1:0.407288 2:0.119226 3:0.505675 4:0.0261968 5:0.196051 6:0.499294 7:0.0359877 8:0.0427365 9:0.253238 10:0.506163 11:0.61784 12:-0.404362 13:0.431794 14:0.557907 15:-0.0791473 16:0.32358 17:-0.378022 18:-0.646882 19:0.114102 20:-0.855989 21:-0.250925 22:0.0616632 23:0.315374 24:-0.257341 25:-0.77524 26:-0.991515 27:-0.999498 28:-0.99392 29:-0.267764 30:-0.0792775 31:0.253775 
0.6556598894374769 0.7000518313636629 0.7092931070816635 0.6676501745247116 0.7003158448734506 0.6352095698489323 0.6055295398670993 0.6482423863557547 0.7351052270873085 1:0.553478 2:0.275079 3:0.599112 4:0.180284 5:0.380886 6:0.536273 7:0.192714 8:0.24601 9:0.442417 10:0.5009 11:0.754264 12:-0.147911 13:0.444797 14:0.479978 15:-0.0297106 16:0.370933 17:-0.256115 18:-0.698342 19:0.174107 20:-0.899519 21:-0.265784 22:0.0657693 23:0.313612 24:-0.24168 25:-0.828784 26:-0.99821 27:-0.999451 28:-0.996911 29:-0.26776 30:-0.0797061 31:0.253777 
0.3311280816689381 0.3524658256199232 0.3586513745453589 0.3374100687454141 0.3497982057797275 0.3202662418605995 0.3063358912219261 0.4089059635707858 0.368865914923184 1:0.305292 2:0.0740047 3:0.326193 4:0.0242963 5:0.191299 6:0.293208 7:0.0521715 8:0.118295 9:0.255228 10:0.295132 11:0.659979 12:0.0162646 13:0.381453 14:0.28571 15:-0.012385 16:0.00341015 17:-0.122225 18:-0.548324 19:0.203001 20:-0.82862 21:-0.279299 22:0.0701339 23:0.275523 24:-0.231287 25:-0.715225 26:-0.998976 27:-0.999792 28:-0.999771 29:-0.267757 30:-0.0798347 31:0.253777 
0.3960360365597695 0.421454797920728 0.4276098936692283 0.4024835021214138 0.4174878698353519 0.3836670453012127 0.3649671635139118 0.3827898817689915 0.4419197177226091 1:0.34372 2:0.129491 3:0.268305 4:0.0882516 5:0.189909 6:0.215222 7:0.129233 8:0.126049 9:0.257904 10:0.213219 11:0.720377 12:0.0922926 13:0.48716 14:0.309266 15:-0.177551 16:0.172889 17:0.0851297 18:-0.557027 19:0.220526 20:-0.820277 21:-0.277262 22:0.0503168 23:0.298499 24:-0.207576 25:-0.712351 26:-0.999272 27:-0.999491 28:-0.998694 29:-0.267758 30:-0.0798056 31:0.253777 
0.369102236371426 0.3953540125241933 0.3994228848310111 0.3762407461306573 0.407722677426903 0.3574741815188381 0.3414192666190872 0.422224579279683 0.4260693822641956 1:0.231457 2:0.0823627 3:0.237815 4:0.0371094 5:0.167543 6:0.19457 7:0.0656957 8:0.0850581 9:0.223077 10:0.187307 11:0.472847 12:-0.0498131 13:0.30062 14:0.166071 15:-0.154819 16:0.141575 17:-0.094713 18:-0.563915 19:0.185447 20:-0.817214 21:-0.294656 22:0.0517304 23:0.297297 24:-0.228075 25:-0.712766 26:-0.999134 27:-0.999625 28:-0.99975 29:-0.267757 30:-0.0798336 31:0.253777 
0.2632781588306921 0.2757529198759259 0.2820139911799696 0.2692684217741283 0.2456829663618492 0.2505247095854716 0.2434105196167228 0 0.2875149510203203 1:0.0495412 2:-0.108949 3:0.0447754 4:-0.12537 5:-0.0705736 6:0.0226273 7:-0.080317 8:-0.134817 9:-0.026733 10:0.0328764 11:0.455508 12:-0.180572 13:0.235039 14:0.23402 15:-0.228742 16:0.108193 17:-0.0678202 18:-0.378423 19:0.137127 20:-0.74414 21:-0.281483 22:0.0354815 23:0.296969 24:-0.22357 25:-0.583432 26:-0.99416 27:-0.999201 28:-0.999074 29:-0.267756 30:-0.0797625 31:0.253777 
0.3383238638657194 0.4044496615337469 0.3685555628410364 0.365996949457369 0.470894599360568 0.3606624640463064 0.305210166644237 0.3242637606705731 0.4095148755297262 1:-0.306639 2:-0.35755 3:-0.229609 4:-0.359299 5:-0.25584 6:-0.223715 7:-0.317661 8:-0.301344 9:-0.206205 10:-0.199501 11:-0.0106318 12:-0.129025 13:-0.110585 14:0.126627 15:-0.156637 16:0.0176501 17:-0.168541 18:-0.157 19:0.1153 20:-0.616831 21:-0.308465 22:0.037613 23:0.278704 24:-0.255053 25:-0.39861 26:-0.991252 27:-0.99989 28:-0.997463 29:-0.267758 30:-0.0800325 31:0.253777 
0.2688748671640052 0.3178636503012721 0.2987178615777429 0.2718702685010859 0.2738668946549384 0.2511047426949033 0.2680128420509835 0.3342321573903749 0.3461553112109013 1:-0.146911 2:-0.280183 3:-0.13182 4:-0.310181 5:-0.259621 6:-0.151915 7:-0.286049 8:-0.344678 9:-0.246911 10:-0.1446 11:0.131754 12:-0.288827 13:0.0353994 14:0.216628 15:-0.286732 16:-0.00395697 17:-0.0870824 18:-0.317358 19:0.0676406 20:-0.685738 21:-0.280416 22:0.0101547 23:0.27174 24:-0.226853 25:-0.514771 26:-0.981323 27:-0.997515 28:-0.99857 29:-0.267758 30:-0.0797409 31:0.253778 
0 0 0 0 0.186424065860017 0 0 0 0 1:-0.112863 2:-0.260909 3:-0.0774705 4:-0.298731 5:-0.181969 6:-0.0988527 7:-0.274159 8:-0.256633 9:-0.150997 10:-0.0928788 11:0.147283 12:-0.121406 13:0.0288494 14:0.318752 15:-0.139866 16:-0.0356039 17:-0.108679 18:-0.356733 19:0.143208 20:-0.713241 21:-0.2554 22:0.04894 23:0.263169 24:-0.231972 25:-0.551332 26:-0.995591 27:-0.999043 28:-0.99888 29:-0.267756 30:-0.0797634 31:0.253777 
0.3879005573123622 0.4145550895301077 0.4192941533995757 0.3920654118304653 0.3943854166647724 0.3725029108095881 0.3574176326540828 0.3950709585596179 0.4245617121413657 1:-0.156817 2:-0.288785 3:-0.108942 4:-0.268789 5:-0.179049 6:-0.108132 7:-0.203691 8:-0.206341 9:-0.113858 10:-0.0859402 11:0.388172 12:-0.0284204 13:0.0533594 14:0.265104 15:-0.341658 16:0.0309078 17:-0.157986 18:-0.104895 19:0.17945 20:-0.670515 21:-0.266748 22:-0.00530566 23:0.282292 24:-0.245014 25:-0.418637 26:-0.993503 27:-0.996999 28:-0.994249 29:-0.267764 30:-0.0800228 31:0.253784 
0.5796257815799032 0.6191403841306503 0.6262768133929538 0.5902516964515121 0.6110149807968612 0.562720613434045 0.5357171617750078 0.5826869318673422 0.6442471381278094 1:-0.171603 2:-0.320648 3:-0.158082 4:-0.313246 5:-0.185751 6:-0.165821 7:-0.25451 8:-0.214625 9:-0.120764 10:-0.14795 11:0.324854 12:0.178546 13:0.0625058 14:0.394157 15:-0.384664 16:-0.154077 17:-0.0867605 18:-0.126369 19:0.271465 20:-0.654677 21:-0.229253 22:-0.0188907 23:0.224289 24:-0.226747 25:-0.415156 26:-0.992645 27:-0.988356 28:-0.995779 29:-0.267774 30:-0.0802472 31:0.253783 
0.3673254384024978 0.391987668338603 0.3973715294559337 0.3726115959109218 0.3672741939823173 0.3535528047159848 0.339958590521038 0.3695651625112827 0.438792259382618 1:-0.239706 2:-0.301167 3:-0.23807 4:-0.266248 5:-0.205118 6:-0.227249 7:-0.189678 8:-0.202006 9:-0.122409 10:-0.185069 11:0.273526 12:0.0836759 13:0.0888595 14:0.131038 15:-0.253832 16:0.0232822 17:0.0294537 18:-0.033103 19:0.231433 20:-0.581069 21:-0.305285 22:0.0103115 23:0.280502 24:-0.191543 25:-0.322128 26:-0.997449 27:-0.995507 28:-0.999918 29:-0.267757 30:-0.0798426 31:0.253777 
0.1791195298835327 0.1873485516256723 0.1930798791148036 0.1823443919674043 0.1881166168317094 0.1584354044947859 0.164597953994926 0 0.1982813057634012 1:0.298854 2:0.117952 3:0.310978 4:0.0652961 5:0.141269 6:0.275937 7:0.0950926 8:0.0229737 9:0.18427 10:0.268508 11:0.557221 12:-0.331588 13:0.382559 14:0.271928 15:-0.245861 16:0.304218 17:-0.195434 18:-0.58585 19:0.119598 20:-0.825762 21:-0.280944 22:0.0411838 23:0.318807 24:-0.240162 25:-0.727991 26:-0.99241 27:-0.998912 28:-0.997363 29:-0.267755 30:-0.0795841 31:0.253776 
0.3763723749557136 0.4034408494337091 0.405945525773348 0.3829026092568964 0.3950766210888306 0.380244932290371 0.3469416789232425 0.7081087541352207 0.4216861040179968 1:0.238962 2:0.069329 3:0.325836 4:-0.000679663 5:0.108734 6:0.315759 7:0.00925043 8:-0.0251056 9:0.133525 10:0.328146 11:0.383222 12:-0.501913 13:0.291797 14:0.233655 15:0.0588395 16:0.198054 17:-0.2444 18:-0.611082 19:0.0694889 20:-0.82264 21:-0.285074 22:0.0808133 23:0.305939 24:-0.247779 25:-0.735663 26:-0.98208 27:-0.99861 28:-0.999046 29:-0.267758 30:-0.0797555 31:0.253777 
0.4295965452332841 0.4489670265237349 0.4657536989155509 0.437575538050598 0.4595948597141892 0.4179183807452614 0.3975992700243363 0.2533466110095796 0.4831109815797103 1:0.221095 2:0.0181373 3:0.301166 4:-0.0488012 5:0.055639 6:0.301035 7:-0.0282949 8:-0.085895 9:0.104372 10:0.312451 11:0.434366 12:-0.48124 13:0.326692 14:0.420797 15:-0.208825 16:0.369585 17:-0.359912 18:-0.572194 19:0.0719485 20:-0.806057 21:-0.257534 22:0.044076 23:0.334374 24:-0.26395 25:-0.70759 26:-0.982666 27:-0.998808 28:-0.991187 29:-0.267753 30:-0.078563 31:0.253768 
0.5663146662133751 0.6040763499118437 0.6127058389225654 0.5774052071017205 0.6070351097846767 0.5478466418620214 0.5246575461052262 0.598268628964523 0.6370490255281882 1:0.665422 2:0.33494 3:0.669832 4:0.210821 5:0.354234 6:0.615418 7:0.20207 8:0.16391 9:0.395675 10:0.596923 11:0.794291 12:-0.384697 13:0.648159 14:0.500431 15:-0.254426 16:0.373258 17:-0.193185 18:-0.751314 19:0.138751 20:-0.896361 21:-0.26787 22:0.0476577 23:0.30917 24:-0.235129 25:-0.847475 26:-0.99548 27:-0.999663 28:-0.99726 29:-0.267757 30:-0.0796855 31:0.253776 
0.5257176457067335 0.5689793207170253 0.565366476965971 0.5341806994033881 0.6274237538714905 0.5488799263304883 0.4843052194013728 0.5493076344063043 0.5876895231985597 1:0.0616505 2:-0.0695467 3:0.132183 4:-0.112266 5:-0.0464351 6:0.129651 7:-0.0910025 8:-0.156133 9:-0.0215459 10:0.151003 11:0.283039 12:-0.485459 13:0.194504 14:0.142718 15:-0.0590188 16:0.183178 17:-0.192179 18:-0.490553 19:0.0405191 20:-0.763693 21:-0.298839 22:0.0663365 23:0.312095 24:-0.245238 25:-0.642919 26:-0.973769 27:-0.998692 28:-0.999333 29:-0.267757 30:-0.0797197 31:0.253777 
0 0 0 0 0 0.02643739875251908 0 0 0 1:0.326619 2:0.0834062 3:0.436822 4:-0.0123525 5:0.150797 6:0.413764 7:-0.0123657 8:-0.0161656 9:0.181875 10:0.408542 11:0.452422 12:-0.47055 13:0.27421 14:0.431923 15:-0.128288 16:0.338584 17:-0.294653 18:-0.651459 19:0.0900508 20:-0.861154 21:-0.261487 22:0.0559729 23:0.321951 24:-0.251183 25:-0.780985 26:-0.98671 27:-0.999302 28:-0.994941 29:-0.267761 30:-0.079262 31:0.253774 
0.3278014536214098 0.3468251146386333 0.3549810269719965 0.3335266012234082 0.3511424357226849 0.3152673125863593 0.3027943260251317 1.013457933607952 0.3690426934785719 1:0.407993 2:0.196526 3:0.426531 4:0.121029 5:0.231707 6:0.394136 7:0.132015 8:0.0988351 9:0.287162 10:0.396042 11:0.598121 12:-0.32258 13:0.479042 14:0.229875 15:-0.124086 16:0.351525 17:-0.15064 18:-0.654749 19:0.131543 20:-0.846524 21:-0.287655 22:0.0568551 23:0.318796 24:-0.233708 25:-0.771187 26:-0.994494 27:-0.998858 28:-0.998628 29:-0.267758 30:-0.0797707 31:0.253777 
0.2420413423845584 0.2718152051272637 0.2622256348241491 0.2462475066604283 0.2618492184664183 0.2530764555371932 0.2244205477332354 1.403426715734092 0.2713129508046055 1:0.314423 2:0.105239 3:0.393634 4:0.00881261 5:0.190531 6:0.395106 7:3.62155e-05 8:0.0326835 9:0.256699 10:0.412234 11:0.384358 12:-0.301401 13:0.41662 14:0.27214 15:-0.153941 16:0.185007 17:-0.338212 18:-0.670275 19:0.128251 20:-0.824253 21:-0.28123 22:0.0527808 23:0.301109 24:-0.256741 25:-0.76045 26:-0.994022 27:-0.999702 28:-0.997503 29:-0.267756 30:-0.079625 31:0.253776 
0.3565926076413019 0.380300231798159 0.3856238852002488 0.361676793262444 0.3795040585795152 0.3450982403761799 0.3276137870746939 0.3253694764490667 0.3981744406347433 1:0.665345 2:0.292066 3:0.658485 4:0.178163 5:0.323508 6:0.597676 7:0.174107 8:0.149663 9:0.36608 10:0.578596 11:0.906566 12:-0.302733 13:0.642721 14:0.51932 15:-0.299609 16:0.328753 17:-0.13246 18:-0.718952 19:0.152183 20:-0.897201 21:-0.266339 22:0.0441599 23:0.305188 24:-0.230569 25:-0.835229 26:-0.996745 27:-0.99966 28:-0.997465 29:-0.267756 30:-0.0797062 31:0.253776 
0 0.1003994465509965 0.1158692453293762 0.1118131992824376 0.2631037330495541 0.09308151316707371 0.2949489436567145 0.103750384095813 0.2311124502275725 1:-0.332803 2:-0.429737 3:-0.358411 4:-0.483835 5:-0.485438 6:-0.408899 7:-0.475945 8:-0.567578 9:-0.530452 10:-0.410313 11:-0.254935 12:-0.447629 13:-0.193594 14:0.339867 15:0.0713788 16:-0.144607 17:0.17152 18:-0.353067 19:-0.0756943 20:-0.637178 21:-0.224486 22:0.122958 23:0.207436 24:-0.13124 25:-0.492106 26:-0.92455 27:-0.991242 28:-0.9743 29:-0.267916 30:-0.0816242 31:0.253886 
0.4220216494304511 0.5530414365488594 0.4824509925325322 0.4627164187368105 0.5521922983413612 0.4323656186639936 0.4612923946967731 0.4870753364396027 0.4846841093830724 1:-0.487246 2:-0.522591 3:-0.493275 4:-0.539574 5:-0.56922 6:-0.517076 7:-0.51141 8:-0.620196 9:-0.594306 10:-0.505291 11:-0.309156 12:-0.440484 13:-0.260687 14:0.248668 15:0.076119 16:-0.0979373 17:0.0976596 18:-0.0925978 19:-0.167863 20:-0.500178 21:-0.245252 22:0.153773 23:0.205996 24:-0.127635 25:-0.284373 26:-0.867833 27:-0.991211 28:-0.965645 29:-0.267964 30:-0.0793574 31:0.253957 
0 0 0.002648217632743039 0.0009860981293163156 0.04522206594160084 0 0 0.08502078913564286 0 1:-0.363545 2:-0.474368 3:-0.323674 4:-0.507537 5:-0.485658 6:-0.337506 7:-0.482271 8:-0.559476 9:-0.506001 10:-0.3263 11:-0.162692 12:-0.466329 13:-0.174042 14:0.418055 15:-0.03334 16:-0.058142 17:-0.0733502 18:-0.197203 19:-0.103478 20:-0.594286 21:-0.186077 22:0.084811 23:0.243204 24:-0.221171 25:-0.397484 26:-0.909574 27:-0.993478 28:-0.99187 29:-0.267719 30:-0.0813258 31:0.253766 
0.1982024955136752 0.2290766323285738 0.2222213701489487 0.2067378135579575 0.2697974143236486 0.1586307378972654 0.1882506520198017 0.2231975903851302 0.2573232815325187 1:-0.32522 2:-0.455249 3:-0.285921 4:-0.48831 5:-0.448623 6:-0.281806 7:-0.460679 8:-0.518184 9:-0.437441 10:-0.257422 11:-0.0964114 12:-0.398745 13:-0.070522 14:0.462311 15:-0.0296156 16:0.0352926 17:-0.118605 18:-0.205251 19:-0.0436456 20:-0.575644 21:-0.177812 22:0.0841561 23:0.286408 24:-0.238094 25:-0.386533 26:-0.940863 27:-0.997289 28:-0.984629 29:-0.267689 30:-0.0803922 31:0.253792 
0.3269294801981106 0.3759045159724517 0.355842723331622 0.3359724721971236 0.3547107072610563 0.3237716419794727 0.2672793501380101 0.2782179471409594 0.3700606139285841 1:-0.135068 2:-0.314663 3:-0.135549 4:-0.382117 5:-0.364051 6:-0.154177 7:-0.3729 8:-0.471045 9:-0.382916 10:-0.142641 11:-0.00133477 12:-0.534223 13:0.0750886 14:0.491823 15:-0.0152512 16:-0.0488545 17:-0.0458139 18:-0.434295 19:-0.0337285 20:-0.678365 21:-0.207865 22:0.0800277 23:0.258698 24:-0.216719 25:-0.555718 26:-0.945079 27:-0.996817 28:-0.993622 29:-0.267741 30:-0.0810423 31:0.25377 
0.5151202212940273 0.5877398604655267 0.5237816015782373 0.4984459409878622 0.4592419164637994 0.4815883515115344 0.4689985947710112 0.4934778536692168 0.4801863090220562 1:-0.282059 2:-0.444322 3:-0.303391 4:-0.504926 5:-0.50131 6:-0.344525 7:-0.497444 8:-0.583103 9:-0.540178 10:-0.349288 11:-0.162116 12:-0.49067 13:-0.116234 14:0.455278 15:0.0758281 16:-0.117544 17:0.0414845 18:-0.348084 19:-0.0747559 20:-0.643239 21:-0.190831 22:0.117884 23:0.225376 24:-0.184252 25:-0.494726 26:-0.925238 27:-0.990432 28:-0.986522 29:-0.267845 30:-0.0837913 31:0.253743 
0.2656634752057215 0.2383125731997464 0.2808520988678793 0.2751042361513756 0.2847575483609734 0.2581546146241629 0.2137573808717726 0.2315737558011479 0.2606137485159331 1:-0.244276 2:-0.430027 3:-0.244685 4:-0.483109 5:-0.40989 6:-0.282747 7:-0.468751 8:-0.483795 9:-0.421207 10:-0.273747 11:-0.0548117 12:-0.246737 13:-0.0982072 14:0.508234 15:-0.00654828 16:-0.127618 17:0.133092 18:-0.313381 19:0.0653579 20:-0.667623 21:-0.181389 22:0.087578 23:0.225645 24:-0.159585 25:-0.499434 26:-0.980987 27:-0.990779 28:-0.983817 29:-0.267897 30:-0.0823476 31:0.253753 
0.4833672144865499 0.6884438458751996 0.5222565310216384 0.4893422639403856 0.5205054497867725 0.4638300753282694 0.4591400325757919 0.4385001431212489 0.530612582812774 1:-0.212707 2:-0.270836 3:-0.22092 4:-0.280575 5:-0.331171 6:-0.217188 7:-0.242613 8:-0.394017 9:-0.327625 10:-0.18034 11:0.0548192 12:-0.518691 13:0.100479 14:0.0997438 15:0.0788657 16:-0.0482917 17:0.0453452 18:-0.27222 19:-0.0574606 20:-0.601574 21:-0.314395 22:0.111039 23:0.255901 24:-0.188909 25:-0.432884 26:-0.934044 27:-0.999016 28:-0.99212 29:-0.267758 30:-0.0781355 31:0.253784 
0.5119076877950371 0.5545621085672796 0.5657810852201585 0.5204476268616177 0.589693880597325 0.4946230557473035 0.479947728202863 0.6837602539049914 0.5826738409554578 1:0.0632255 2:-0.187783 3:-0.0701517 4:-0.287628 5:-0.303017 6:-0.155053 7:-0.297791 8:-0.433647 9:-0.339633 10:-0.173851 11:0.136273 12:-0.441375 13:0.173543 14:0.512346 15:-0.201935 16:0.0119681 17:0.302865 18:-0.574716 19:0.0549689 20:-0.771053 21:-0.229855 22:0.0408161 23:0.27665 24:-0.159452 25:-0.68201 26:-0.978095 27:-0.996288 28:-0.991495 29:-0.267792 30:-0.0812693 31:0.253782 
0.09126957984731986 0.07207659546138495 0.09024612476839232 0.08712110842473597 0.001076216999468944 0.09554962600177613 0.08770765815255983 0.07658193219113014 0.07992144978048313 1:-0.370206 2:-0.495066 3:-0.370978 4:-0.518823 5:-0.50132 6:-0.384358 7:-0.489763 8:-0.560718 9:-0.50818 10:-0.364497 11:-0.106673 12:-0.329288 13:-0.11926 14:0.41164 15:-0.144586 16:-0.139201 17:0.0550842 18:-0.121621 19:-0.0214094 20:-0.553783 21:-0.187165 22:0.0391607 23:0.203872 24:-0.169498 25:-0.336641 26:-0.950975 27:-0.984852 28:-0.993793 29:-0.267796 30:-0.0813919 31:0.253766 
0.03747204078381302 0 0.0251726093852989 0.04083665509452986 0 0.02000134618771781 0.01962596264025725 0 0.001079248002046483 1:-0.411053 2:-0.485791 3:-0.391152 4:-0.493438 5:-0.500507 6:-0.381198 7:-0.458064 8:-0.562689 9:-0.483518 10:-0.346901 11:-0.121733 12:-0.408919 13:-0.0966247 14:0.253557 15:-0.236694 16:0.0548808 17:-0.0215981 18:-0.043398 19:-0.0936141 20:-0.488745 21:-0.251564 22:-0.00490135 23:0.298799 24:-0.197572 25:-0.25611 26:-0.91505 27:-0.993878 28:-0.996423 29:-0.267749 30:-0.0793895 31:0.253772 
0.7608912350454499 0.8291302252633242 0.822580233205096 0.7741981942081376 0.8096902057356007 0.7379119334698175 0.7029303783176069 0.7677270464496552 0.8540117238092917 1:-0.630484 2:-0.670221 3:-0.598663 4:-0.655564 5:-0.64288 6:-0.576342 7:-0.608852 8:-0.669468 9:-0.628513 10:-0.536277 11:-0.300386 12:-0.249908 13:-0.26695 14:0.315826 15:-0.235482 16:-0.185111 17:-0.0227389 18:0.390243 19:-0.102965 20:-0.248762 21:-0.16285 22:-0.0562016 23:0.0880741 24:-0.17456 25:0.0987647 26:-0.909454 27:-0.929393 28:-0.999413 29:-0.26776 30:-0.0797416 31:0.253777 
0.4641908387415164 0.7333198938464331 0.5067507958454918 0.4728168049196066 0.5140671798036495 0.4412483241309147 0.4144747814560601 0.8708126066464058 0.5143863816581689 1:-0.503616 2:-0.521235 3:-0.444731 4:-0.528472 5:-0.551218 6:-0.436343 7:-0.499208 8:-0.624263 9:-0.561395 10:-0.407325 11:-0.300236 12:-0.572522 13:-0.245334 14:0.129954 15:-0.108817 16:0.0758562 17:-0.0843482 18:-0.0370141 19:-0.288549 20:-0.464367 21:-0.314402 22:0.0515886 23:0.318459 24:-0.224794 25:-0.235054 26:-0.769419 27:-0.997861 28:-0.999916 29:-0.267757 30:-0.0798124 31:0.253777 
0.5746047154092554 0.5217599804317549 0.6262614235759382 0.5985083525845627 0.615366921369262 0.5788271161055299 0.5367350836188562 0.8134229962600876 0.6584827198453898 1:-0.471178 2:-0.549883 3:-0.413405 4:-0.571723 5:-0.57836 6:-0.412197 7:-0.547017 8:-0.661797 9:-0.591013 10:-0.39054 11:-0.264416 12:-0.573237 13:-0.241841 14:0.30604 15:-0.255643 16:0.128208 17:-0.0978446 18:-0.0726941 19:-0.256881 20:-0.508403 21:-0.215572 22:-0.0253112 23:0.347129 24:-0.231917 25:-0.2827 26:-0.798366 27:-0.992803 28:-0.979249 29:-0.267581 30:-0.0711594 31:0.253742 
0.5066115633750297 0.5430522217174167 0.5463148829968423 0.5136181680079049 0.5574191964100937 0.4860761879722489 0.466833068889784 0.51049318634356 0.5790418496832893 1:-0.0657859 2:-0.308733 3:-0.0777529 4:-0.357543 5:-0.244056 6:-0.118415 7:-0.332073 8:-0.324198 9:-0.224245 10:-0.102308 11:0.241983 12:-0.0582192 13:0.071007 14:0.636036 15:-0.221607 16:-0.0816454 17:0.201141 18:-0.357786 19:0.171655 20:-0.72894 21:-0.184759 22:0.0316432 23:0.252436 24:-0.164577 25:-0.563675 26:-0.997773 27:-0.991466 28:-0.988398 29:-0.267811 30:-0.080013 31:0.253746 
0 0.3408489648557632 0 0 0 0 0 0 0 1:-0.427999 2:-0.492058 3:-0.403914 4:-0.513415 5:-0.533798 6:-0.397493 7:-0.489355 8:-0.611602 9:-0.543317 10:-0.366895 11:-0.228229 12:-0.527142 13:-0.131495 14:0.2309 15:-0.160541 16:-0.0514796 17:-0.0289354 18:-0.131484 19:-0.186348 20:-0.489248 21:-0.26098 22:0.0285205 23:0.24131 24:-0.199709 25:-0.291559 26:-0.853406 27:-0.995813 28:-0.999815 29:-0.267757 30:-0.0799245 31:0.253777 
0.3215484961881073 0.3838878244966307 0.3466737734099403 0.3197512064963271 0.2670240621354784 0.3144184048332911 0.2941760261417934 0.3358284792617263 0.349070813437123 1:-0.382927 2:-0.414606 3:-0.282218 4:-0.408384 5:-0.332005 6:-0.242486 7:-0.356724 8:-0.37954 9:-0.25769 10:-0.195637 11:-0.0785714 12:-0.271185 13:-0.0926814 14:0.220566 15:-0.129343 16:0.258289 17:-0.286918 18:-0.0611957 19:0.0104115 20:-0.52225 21:-0.269079 22:0.045031 23:0.397702 24:-0.309227 25:-0.288644 26:-0.963644 27:-0.990087 28:-0.977043 29:-0.267631 30:-0.0748679 31:0.253674 
0.2699437431604855 0.3189351783734427 0.291973328909726 0.259804614229769 0.4009760455738903 0.1977577290092737 0.250234599587495 0.2655539052161154 0.3051693498538797 1:-0.547001 2:-0.580394 3:-0.428754 4:-0.579723 5:-0.462577 6:-0.363519 7:-0.534984 8:-0.49516 9:-0.368748 10:-0.288343 11:-0.283597 12:-0.152974 13:-0.173939 14:0.345151 15:-0.00459039 16:0.188322 17:-0.24613 18:0.115352 19:0.0383642 20:-0.332157 21:-0.171445 22:0.117852 23:0.40765 24:-0.32589 25:-0.0739906 26:-0.970017 27:-0.984826 28:-0.949823 29:-0.268809 30:-0.0766426 31:0.253802 
0.755448588540826 0.8064997588024994 0.8169820043392865 0.7691600625866544 0.8237617897800378 0.7367253854462928 0.6978205285779266 0.7612884216156622 0.8475912678798349 1:-0.724327 2:-0.723667 3:-0.660815 4:-0.719861 5:-0.63303 6:-0.649648 7:-0.676311 8:-0.658198 9:-0.578847 10:-0.622945 11:-0.512937 12:-0.0707841 13:-0.440236 14:0.374549 15:-0.134172 16:0.193093 17:-0.0822414 18:0.343808 19:0.059699 20:-0.225103 21:-0.0477709 22:0.0154453 23:0.508231 24:-0.220182 25:0.0982482 26:-0.977135 27:-0.988513 28:-0.836805 29:-0.272085 30:-0.0856594 31:0.252361 
0.767411444999577 0.825951163558348 0.8317425825476428 0.7997188431587334 1.241871320904547 0.6969910725444241 0.7087694147774347 0.7737854166748025 0.8621250084875212 1:-0.649428 2:-0.603595 3:-0.5402 4:-0.597024 5:-0.44708 6:-0.492541 7:-0.553601 8:-0.462527 9:-0.337328 10:-0.433699 11:-0.482406 12:0.0414731 13:-0.313358 14:0.225888 15:-0.020618 16:0.197025 17:-0.188706 18:0.108479 19:0.213672 20:-0.25537 21:-0.236869 22:0.124067 23:0.462073 24:-0.311762 25:-0.0184103 26:-0.989092 27:-0.969654 28:-0.963844 29:-0.268654 30:-0.0836138 31:0.253706 
0 0 0 0 0.1138551634991792 0 0 0 0 1:-0.594606 2:-0.599034 3:-0.512599 4:-0.592978 5:-0.491488 6:-0.472525 7:-0.546701 8:-0.516633 9:-0.405457 10:-0.419252 11:-0.346414 12:-0.0757729 13:-0.244484 14:0.291182 15:-0.0810625 16:0.206754 17:-0.150275 18:0.169422 19:0.0960489 20:-0.303422 21:-0.195285 22:0.0696745 23:0.442268 24:-0.271365 25:-0.0306483 26:-0.985127 27:-0.98842 28:-0.953396 29:-0.268538 30:-0.0802888 31:0.253662 
0.350031268353497 0.3917288030544882 0.3791800414537457 0.3654776149256904 0.3885906156614621 0.8682173873285965 0.3223158535434585 0.358998156716262 0.3924861101718954 1:-0.398135 2:-0.476666 3:-0.260983 4:-0.491203 5:-0.377956 6:-0.218091 7:-0.455083 8:-0.445035 9:-0.313034 10:-0.168947 11:-0.139385 12:-0.309993 13:-0.166519 14:0.344578 15:-0.118995 16:0.280445 17:-0.305308 18:-0.0950329 19:-0.0209477 20:-0.550295 21:-0.210849 22:0.0490541 23:0.413422 24:-0.320093 25:-0.323408 26:-0.951118 27:-0.991571 28:-0.955331 29:-0.267909 30:-0.0693717 31:0.253492 
0.9999179420951185 1.06723362689611 1.081837578455735 1.017877318588373 1.065732981996508 0.9675998768379189 0.923490813229614 1.006863733065124 1.12202641937031 1:-0.7433 2:-0.726792 3:-0.660944 4:-0.705991 5:-0.554744 6:-0.630399 7:-0.652017 8:-0.552941 9:-0.451822 10:-0.58193 11:-0.461523 12:0.20599 13:-0.413513 14:0.330983 15:-0.156705 16:0.163257 17:-0.0617715 18:0.565701 19:0.455168 20:-0.135593 21:-0.0850532 22:-0.0143666 23:0.482955 24:-0.196092 25:0.254555 26:-0.94177 27:-0.984062 28:-0.877923 29:-0.270208 30:-0.0878511 31:0.252319 
0.3001802037162947 0.3183316711673003 0.3258647420439895 0.3048808688700296 0.2771036940147162 0.2696300951757065 0.2764079304496084 0.3007250514510995 0.3376500350950073 1:-0.711182 2:-0.683209 3:-0.599951 4:-0.668062 5:-0.578332 6:-0.560536 7:-0.615263 8:-0.601956 9:-0.511261 10:-0.514312 11:-0.471062 12:-0.160569 13:-0.402871 14:0.329496 15:-0.0835828 16:0.205009 17:-0.217322 18:0.383361 19:-0.0549216 20:-0.210423 21:-0.108697 22:0.0712176 23:0.512805 24:-0.359975 25:0.125142 26:-0.933527 27:-0.977554 28:-0.859132 29:-0.272549 30:-0.0556092 31:0.252154 
0.8667595699375463 0.9267036706493796 0.9373719122224067 0.9175209032683226 1.005052258528375 1.322279776465535 0.8006360250284245 0.8723600050410166 0.9727905500297465 1:-0.462976 2:-0.537587 3:-0.311185 4:-0.558464 5:-0.340581 6:-0.272389 7:-0.522004 8:-0.391155 9:-0.216939 10:-0.223098 11:-0.253729 12:0.0572509 13:-0.27031 14:0.472323 15:-0.0498202 16:0.356704 17:-0.2364 18:-0.0792848 19:0.223487 20:-0.540183 21:-0.127227 22:0.0829634 23:0.482516 24:-0.301414 25:-0.309459 26:-0.99973 27:-0.984584 28:-0.901221 29:-0.270649 30:-0.0799338 31:0.253563 
0.1718649155566988 0.1791718927003532 0.1861678467321053 0.1855887228545289 0.3067900201967945 0.437220349272772 0.158831962362006 0.1712154045359858 0.1936995960009948 1:-0.612236 2:-0.584085 3:-0.471097 4:-0.572795 5:-0.444699 6:-0.426271 7:-0.522782 8:-0.4767 9:-0.355871 10:-0.375515 11:-0.388062 12:-0.137773 13:-0.355741 14:0.248964 15:-0.0844708 16:0.291135 17:-0.26345 18:0.156701 19:0.0268901 20:-0.378114 21:-0.224327 22:0.0675327 23:0.527054 24:-0.359199 25:-0.0924375 26:-0.969195 27:-0.957953 28:-0.920637 29:-0.268709 30:-0.0663624 31:0.252286 
0.6162864094506421 0.6662086537425727 0.6660299284779316 0.6421545038667984 0.709514713691653 0.8336892169824409 0.5696329638455551 0.6448774313740204 0.6908883736157898 1:-0.526836 2:-0.591501 3:-0.388372 4:-0.607029 5:-0.508235 6:-0.348104 7:-0.572323 8:-0.572897 9:-0.464651 10:-0.302598 11:-0.311951 12:-0.351325 13:-0.292341 14:0.415055 15:-0.100873 16:0.236331 17:-0.284088 18:0.010719 19:-0.124249 20:-0.466915 21:-0.133387 22:0.0559041 23:0.434616 24:-0.343135 25:-0.217988 26:-0.897023 27:-0.992192 28:-0.908963 29:-0.269106 30:-0.0533205 31:0.253217 
0.8666388621380448 0.9247715532067337 0.9376470289493876 0.8816686815631574 0.9261518946342382 0.8384337889011221 0.8004923510916826 1.023640714498982 0.9989390780539793 1:0.715676 2:0.399918 3:0.631052 4:0.236867 5:0.426169 6:0.481821 7:0.175455 8:0.26388 9:0.397433 10:0.410019 11:0.616725 12:-0.0780354 13:0.473768 14:0.108954 15:0.290591 16:0.0021943 17:0.168977 18:-0.826366 19:0.189881 20:-0.935867 21:-0.299302 22:0.0881367 23:0.276004 24:-0.209033 25:-0.907351 26:-0.999625 27:-0.999683 28:-0.998222 29:-0.267758 30:-0.0798519 31:0.253777 
0.0521259054405384 0.06278428247995786 0.05662817920927481 0.05324472729494012 0.02743522934776267 0.05517316591866384 0.04810148825146414 0.05125270942238565 0.05824934099565481 1:-0.50254 2:-0.592244 3:-0.501597 4:-0.575869 5:-0.561846 6:-0.50744 7:-0.516398 8:-0.572472 9:-0.535523 10:-0.481784 11:-0.0871682 12:-0.169485 13:-0.215344 14:0.520182 15:-0.0961924 16:0.0369565 17:0.0851608 18:0.264343 19:0.0403973 20:-0.442379 21:-0.0805347 22:0.0588466 23:0.29255 24:-0.130535 25:-0.0983957 26:-0.970799 27:-0.990895 28:-0.936612 29:-0.268185 30:-0.0867393 31:0.253299 
0.3189163918191674 0.3315202320666722 0.34625688321973 0.3258836586589516 0.3339490282659169 0.2899679469744215 0.295477812434702 0.3240784269574222 0.3584572819918113 1:-0.580326 2:-0.59628 3:-0.470536 4:-0.566707 5:-0.482217 6:-0.42861 7:-0.503375 8:-0.484256 9:-0.417626 10:-0.375177 11:-0.188105 12:-0.138094 13:-0.27539 14:0.28202 15:-0.00675772 16:0.0472755 17:-0.199853 18:0.389068 19:0.0395522 20:-0.360783 21:-0.206115 22:0.121982 23:0.304725 24:-0.303709 25:0.0132179 26:-0.971506 27:-0.989925 28:-0.986435 29:-0.267859 30:-0.0775889 31:0.253805 
0.5619997406216468 0.5817111399812862 0.6074049857004812 0.5710180182014101 0.6477517472771556 0.5326923675122902 0.5176302774654041 0.5702664562751805 0.6339149031037805 1:-0.477185 2:-0.570542 3:-0.461343 4:-0.566966 5:-0.55844 6:-0.491063 7:-0.515098 8:-0.594587 9:-0.559839 10:-0.486542 11:-0.121033 12:-0.288594 13:-0.302225 14:0.512793 15:-0.202507 16:0.0747582 17:0.0479056 18:0.137023 19:-0.0429484 20:-0.545189 21:-0.0983409 22:0.0018807 23:0.315027 24:-0.15609 25:-0.227157 26:-0.935444 27:-0.988552 28:-0.948779 29:-0.267779 30:-0.0806337 31:0.253358 
0.9135642367532369 0.9747623287860954 0.9884968725973264 0.9286051040556228 0.9731857044672919 0.8648222907914602 0.8440856233839097 0.9198162838582167 1.025748402401705 1:-0.397575 2:-0.568455 3:-0.30423 4:-0.574601 5:-0.444961 6:-0.308563 7:-0.519499 8:-0.47298 9:-0.389438 10:-0.292476 11:-0.0178335 12:-0.0699145 13:-0.25934 14:0.825299 15:0.00905958 16:0.208583 17:-0.126703 18:0.0444529 19:0.137698 20:-0.610247 21:0.0107706 22:0.105555 23:0.37656 24:-0.243507 25:-0.313415 26:-0.987932 27:-0.99511 28:-0.860485 29:-0.265694 30:-0.0669961 31:0.2546 
0.1646817537380968 0.1590049424715258 0.1766021853403497 0.162541604385623 0.09515053893097683 0.1182197363489447 0.1521136080601119 0.1607950680149635 0.1813215407070718 1:-0.42929 2:-0.488304 3:-0.390627 4:-0.469027 5:-0.415831 6:-0.390054 7:-0.403485 8:-0.438066 9:-0.366321 10:-0.362267 11:-0.0173972 12:-0.108953 13:-0.176566 14:0.392659 15:-0.232978 16:0.124186 17:-0.0207743 18:0.131091 19:0.105918 20:-0.518091 21:-0.180353 22:-0.00606171 23:0.337959 24:-0.195852 25:-0.208939 26:-0.986866 27:-0.993547 28:-0.97552 29:-0.267715 30:-0.0778147 31:0.253675 
0.4629197980297438 0.4955401278813294 0.5010330663093738 0.4725180379578737 0.4698868993260406 0.4562516338588158 0.4277967518939624 0.4685575550257491 0.5195232250875865 1:-0.487702 2:-0.556574 3:-0.445894 4:-0.519544 5:-0.477749 6:-0.428814 7:-0.443322 8:-0.469807 9:-0.415246 10:-0.384778 11:0.0225058 12:-0.0885273 13:-0.171297 14:0.467699 15:-0.0844745 16:0.137981 17:0.00477829 18:0.367754 19:0.10934 20:-0.431311 21:-0.118936 22:0.0653525 23:0.3564 24:-0.177212 25:-0.0488258 26:-0.984415 27:-0.999524 28:-0.943254 29:-0.267857 30:-0.078445 31:0.253688 
0.4872820806093063 0.4952154961382477 0.5223034786385322 0.4901040674504596 0.5178254618987445 0.4513136132755818 0.4425382138212428 0.46576424843709 0.5385797995298877 1:-0.512653 2:-0.506031 3:-0.470177 4:-0.475146 5:-0.490548 6:-0.479361 7:-0.410117 8:-0.495069 9:-0.483981 10:-0.461395 11:-0.143861 12:-0.330783 13:-0.294671 14:0.151192 15:0.152606 16:0.0599172 17:-0.0136589 18:0.21598 19:-0.097249 20:-0.490194 21:-0.301795 22:0.205237 23:0.308609 24:-0.184358 25:-0.153961 26:-0.908451 27:-0.984979 28:-0.9752 29:-0.26807 30:-0.0832921 31:0.253694 
0.423562853815528 0.45313571002179 0.4578620511690875 0.4306221806249241 0.547188434539805 0.413204068603274 0.3909979847313156 0.4257876133341681 0.4788227906469226 1:-0.558456 2:-0.598471 3:-0.512502 4:-0.573656 5:-0.492045 6:-0.501985 7:-0.515747 8:-0.490639 9:-0.439951 10:-0.469045 11:-0.158835 12:0.0226208 13:-0.266412 14:0.300661 15:-0.0923805 16:-0.0477794 17:-0.0347844 18:0.353557 19:0.195224 20:-0.392439 21:-0.198462 22:0.0611886 23:0.229732 24:-0.192325 25:-0.0249522 26:-0.997004 27:-0.992568 28:-0.994025 29:-0.267767 30:-0.0797653 31:0.253764 
0.8330121675308052 0.8897867232201365 0.9025162404986211 0.851678101539082 0.9816724409900974 0.8038553762188988 0.7699467991733151 0.8392181487305168 0.9349127145725589 1:-0.446202 2:-0.545339 3:-0.433779 4:-0.538276 5:-0.39666 6:-0.419823 7:-0.485172 8:-0.391409 9:-0.310903 10:-0.380896 11:-0.0584476 12:0.270607 13:-0.103077 14:0.47914 15:0.0404489 16:-0.0390295 17:0.0140602 18:0.128157 19:0.377652 20:-0.44403 21:-0.130593 22:0.12682 23:0.246828 24:-0.177738 25:-0.15386 26:-0.972868 27:-0.988617 28:-0.967677 29:-0.26774 30:-0.0739278 31:0.253568 
0.7779532609847575 0.8351220239806091 0.8507957401721883 0.7960909501352607 1.33503876150589 0.7748024219489958 0.7207799796826939 0.7816753279042982 0.8611960821024292 1:-0.177455 2:-0.375101 3:-0.141485 4:-0.422157 5:-0.229513 6:-0.157208 7:-0.400371 8:-0.277957 9:-0.174815 10:-0.132805 11:0.0727454 12:0.1496 13:-0.00828428 14:0.542887 15:0.166941 16:-0.15939 17:0.0433358 18:-0.315356 19:0.25897 20:-0.680785 21:-0.185752 22:0.131798 23:0.221994 24:-0.19204 25:-0.510213 26:-0.997284 27:-0.987952 28:-0.985915 29:-0.267845 30:-0.0791417 31:0.253729 
0 0 0 0 0.2907025223033024 0 0 0 0 1:-0.461556 2:-0.5424 3:-0.439518 4:-0.547462 5:-0.461343 6:-0.437115 7:-0.505121 8:-0.489684 9:-0.42248 10:-0.401568 11:-0.160263 12:-0.0254065 13:-0.174421 14:0.400704 15:-0.0980649 16:-0.100016 17:0.0726492 18:0.0398366 19:0.161647 20:-0.472621 21:-0.166443 22:0.058003 23:0.209258 24:-0.146476 25:-0.210731 26:-0.998005 27:-0.984458 28:-0.984405 29:-0.267935 30:-0.0806335 31:0.253756 
0.5303325782872738 0.5781707582896126 0.5748110431664298 0.5408166043173167 0.5558590202401374 0.5150388153314065 0.4904541585873629 0.5362429808080096 0.5953379412337613 1:-0.563741 2:-0.641352 3:-0.546951 4:-0.629282 5:-0.598757 6:-0.538065 7:-0.579941 8:-0.627471 9:-0.574795 10:-0.504303 11:-0.198291 12:-0.159508 13:-0.236484 14:0.430398 15:-0.314415 16:-0.096314 17:0.0353002 18:0.30919 19:0.0258627 20:-0.356116 21:-0.105227 22:-0.0890296 23:0.191029 24:-0.14578 25:-0.0150308 26:-0.968792 27:-0.939671 28:-0.982284 29:-0.267379 30:-0.07874 31:0.253676 
0.4353378831491201 0.4609294002588162 0.4762003801436058 0.439165288622629 0.6534314314578412 0.4117407262149349 0.3831076816746755 0.4226532170989293 0.4769805677025991 1:-0.414229 2:-0.506037 3:-0.420637 4:-0.523462 5:-0.467679 6:-0.417751 7:-0.495506 8:-0.494944 9:-0.440415 10:-0.379015 11:-0.158598 12:-0.11955 13:-0.0907046 14:0.288102 15:0.120032 16:-0.143066 17:0.132643 18:-0.0796327 19:0.101629 20:-0.480599 21:-0.23465 22:0.158333 23:0.193837 24:-0.128637 25:-0.264347 26:-0.988641 27:-0.987928 28:-0.964816 29:-0.268018 30:-0.078888 31:0.253993 
0.4084277685451202 0.4217205531323813 0.443113217423569 0.4178365741960964 0.4203504557115425 0.3978449656654681 0.3905340873479964 0.4075389220595069 0.4119246804500052 1:-0.225841 2:-0.37936 3:-0.288409 4:-0.40966 5:-0.380219 6:-0.310065 7:-0.376637 8:-0.42217 9:-0.361061 10:-0.286718 11:0.0625704 12:-0.140991 13:0.0605239 14:0.484456 15:0.0510925 16:-0.0817908 17:0.215693 18:-0.242943 19:0.121224 20:-0.607966 21:-0.193141 22:0.104005 23:0.2436 24:-0.137831 25:-0.426084 26:-0.992993 27:-0.994428 28:-0.974906 29:-0.267982 30:-0.081856 31:0.25378 
0.1332023283271413 0.151481610641486 0.1426383482258372 0.1468026749733273 0.3264864222559299 0.1437111026575911 0.1692413360961684 0.2510349384431522 0.1995949308223844 1:-0.285458 2:-0.36527 3:-0.256322 4:-0.387522 5:-0.335027 6:-0.288809 7:-0.363163 8:-0.394918 9:-0.334069 10:-0.283767 11:-0.0536374 12:-0.269518 13:-0.158064 14:0.151122 15:-0.0223023 16:0.0236965 17:0.0308724 18:-0.23969 19:0.0428593 20:-0.661936 21:-0.299095 22:0.0846658 23:0.281024 24:-0.187469 25:-0.465778 26:-0.97379 27:-0.999961 28:-0.995826 29:-0.267758 30:-0.0799531 31:0.253777 
0.1205786912556428 0.1524538063008263 0.1303701932559532 0.1135481716078231 0.4032754182760912 0.1058434460363802 0.09628914654511085 0.1302171264187668 0.2615114367938058 1:-0.279003 2:-0.402221 3:-0.325404 4:-0.437478 5:-0.389694 6:-0.347471 7:-0.415903 8:-0.43983 9:-0.374504 10:-0.324501 11:-0.0600689 12:-0.120927 13:-0.00999476 14:0.337318 15:0.00430386 16:-0.123521 17:0.203563 18:-0.2576 19:0.123917 20:-0.591201 21:-0.233214 22:0.0933253 23:0.223372 24:-0.131346 25:-0.419187 26:-0.993086 27:-0.994099 28:-0.980659 29:-0.267809 30:-0.080113 31:0.253843 
0.5876796568854762 0.6286816129894832 0.6357137044473307 0.6015141088465332 0.5368004149976394 0.578380197799289 0.5462225149664824 0.5963654309755974 0.6565722789558432 1:-0.356427 2:-0.4898 3:-0.388612 4:-0.495374 5:-0.451043 6:-0.399251 7:-0.448017 8:-0.485517 9:-0.424499 10:-0.376296 11:0.0159558 12:-0.059709 13:-0.0563005 14:0.52658 15:-0.219251 16:-0.119437 17:0.108254 18:-0.0200532 19:0.14909 20:-0.532224 21:-0.142339 22:0.00987522 23:0.215312 24:-0.150606 25:-0.279837 26:-0.996384 27:-0.977346 28:-0.984767 29:-0.267837 30:-0.0803806 31:0.253688 
0.4894041740076952 0.5224321470174278 0.5281993358568914 0.497929671107133 0.6432895328590362 0.4562815924138351 0.4558495054801146 0.5096451324499277 0.5476243912483976 1:-0.710059 2:-0.648599 3:-0.566508 4:-0.63084 5:-0.529219 6:-0.541411 7:-0.581638 8:-0.559267 9:-0.492711 10:-0.506857 11:-0.511191 12:-0.213976 13:-0.521944 14:0.194208 15:-0.0485231 16:0.0812723 17:-0.176462 18:0.284482 19:-0.125184 20:-0.366681 21:-0.259346 22:0.108337 23:0.360157 24:-0.317443 25:-0.0328939 26:-0.896249 27:-0.987952 28:-0.986657 29:-0.267833 30:-0.0750729 31:0.253731 
1.047416802401503 1.117891992583684 1.133158470956733 1.066123648772335 1.11986940706291 1.013373856251349 0.9674719455961233 1.054369407526194 1.178582634430415 1:-0.812923 2:-0.672202 3:-0.766899 4:-0.619183 5:-0.635791 6:-0.76931 7:-0.552282 8:-0.610787 9:-0.627637 10:-0.754362 11:-0.59431 12:-0.186379 13:-0.54818 14:-0.0219562 15:0.221168 16:-0.0605494 17:-0.0359198 18:0.581073 19:-0.191152 20:-0.129374 21:-0.590706 22:0.544768 23:0.145327 24:-0.148342 25:0.265397 26:-0.850434 27:-0.815734 28:-0.651517 29:-0.234133 30:0.0728929 31:0.279612 
0.3231503250627762 0.3224199459962459 0.3496060472638461 0.3650593957332847 0.9069237257859871 0.5525073010015948 0.2977709219969535 0.3507725129182709 0.3511189706060545 1:-0.479578 2:-0.484346 3:-0.39117 4:-0.479306 5:-0.387084 6:-0.384839 7:-0.43521 8:-0.419904 9:-0.33492 10:-0.357148 11:-0.229705 12:-0.156383 13:-0.282201 14:0.163992 15:-0.0413797 16:0.188068 17:-0.100079 18:-0.0037598 19:0.0583517 20:-0.52703 21:-0.294029 22:0.0885077 23:0.386043 24:-0.233188 25:-0.269403 26:-0.978675 27:-0.98979 28:-0.99424 29:-0.267779 30:-0.0800495 31:0.253788 
0.6881842175498259 0.7327335875681605 0.7438682510578293 0.6986822787506022 0.7025485710646985 0.7141056183793915 0.6346766318570346 0.6978896157196309 0.7716752832988371 1:-0.670215 2:-0.64691 3:-0.522831 4:-0.632084 5:-0.527159 6:-0.486802 7:-0.581445 8:-0.569561 9:-0.463927 10:-0.446343 11:-0.421679 12:-0.22272 13:-0.453638 14:0.269271 15:-0.22885 16:0.306216 17:-0.25211 18:0.313336 19:-0.102676 20:-0.368278 21:-0.190716 22:-0.0653294 23:0.592135 24:-0.374723 25:-0.0226206 26:-0.909338 27:-0.943258 28:-0.829787 29:-0.259465 30:-0.0218531 31:0.249489 
0.6497696268558661 0.6978323181146097 0.7028380533694155 0.6613262698990717 0.6817722642148335 0.6306052200797805 0.6022602685728081 0.6594098734235733 0.7318770573965541 1:-0.671185 2:-0.623595 3:-0.60649 4:-0.594514 5:-0.567003 6:-0.586294 7:-0.541873 8:-0.582796 9:-0.524067 10:-0.544922 11:-0.386118 12:-0.211096 13:-0.359895 14:0.0650227 15:-0.115596 16:0.111752 17:-0.0312861 18:0.392415 19:-0.0894789 20:-0.257238 21:-0.389703 22:0.0399721 23:0.383123 24:-0.175177 25:0.093192 26:-0.917309 27:-0.97941 28:-0.997338 29:-0.26777 30:-0.0791196 31:0.253774 
0.8159938481699749 0.8772613428027294 0.8865739593505423 0.8308660002776469 0.9534766996651948 0.7841040558281787 0.7534140580669378 0.8257466306087786 0.9363102628535881 1:-0.458217 2:-0.441033 3:-0.43776 4:-0.416899 5:-0.388187 6:-0.414152 7:-0.359934 8:-0.375239 9:-0.323686 10:-0.35151 11:-0.145655 12:-0.110194 13:-0.0885281 14:0.0405683 15:0.26146 16:0.0442814 17:0.165594 18:0.0497367 19:0.0989925 20:-0.415645 21:-0.360091 22:0.241869 23:0.295207 24:-0.101025 25:-0.163519 26:-0.988208 27:-0.985632 28:-0.918192 29:-0.269859 30:-0.0739377 31:0.253939 
0.8262304055545693 0.8816750895156189 0.8935051618628518 0.8418471983363331 0.9028960503682791 0.7997225938199743 0.7627991029929738 0.8318334746033811 0.9268988560014855 1:-0.516835 2:-0.567509 3:-0.516013 4:-0.539014 5:-0.503765 6:-0.56286 7:-0.463892 8:-0.476424 9:-0.482638 10:-0.574952 11:-0.0781136 12:-0.0193975 13:-0.384394 14:0.520015 15:0.232317 16:0.173963 17:0.0412895 18:0.326536 19:0.161085 20:-0.556804 21:-0.0723567 22:0.254299 23:0.387496 24:-0.152141 25:-0.16054 26:-0.977634 27:-0.977635 28:-0.858415 29:-0.262192 30:-0.0811437 31:0.252711 
0.1951975403344044 0.1763314021709416 0.2119479124732006 0.1935330756965925 0.1995114416508184 0 0.1840371116402293 0.1851324560953864 0.2331352268987943 1:-0.361299 2:-0.456421 3:-0.269153 4:-0.45353 5:-0.406518 6:-0.231635 7:-0.405 8:-0.450811 9:-0.355973 10:-0.178346 11:0.0168607 12:-0.375209 13:-0.0660615 14:0.341753 15:-0.0676489 16:0.215666 17:-0.194535 18:-0.00740771 19:-0.0460089 20:-0.532239 21:-0.218981 22:0.0707752 23:0.371823 24:-0.268884 25:-0.274815 26:-0.939308 27:-0.996426 28:-0.978698 29:-0.267892 30:-0.0761665 31:0.253759 
0.5296897148058646 0.97648620396385 0.6236197093612621 0.5307252666574498 0.6670038333136175 0.483035056483214 0.5158152370545249 0.5966239709820857 0.7157874789893324 1:-0.426054 2:-0.457657 3:-0.453386 4:-0.469595 5:-0.477671 6:-0.461341 7:-0.440779 8:-0.533516 9:-0.45914 10:-0.4363 11:-0.221561 12:-0.266853 13:-0.117499 14:0.138644 15:-0.196164 16:0.00576958 17:0.121407 18:-0.127836 19:-0.00347675 20:-0.482423 21:-0.306703 22:0.0118442 23:0.272765 24:-0.130925 25:-0.28492 26:-0.956499 27:-0.990724 28:-0.993827 29:-0.267727 30:-0.079049 31:0.253769 
0.6411846925989444 0.6816073512227766 0.6926971244791504 0.6538685966156893 0.7219560213375043 0.6644615369698992 0.5935182844795678 0.6601114904419801 0.7147182018818894 1:-0.175106 2:-0.35345 3:-0.099234 4:-0.38162 5:-0.282636 6:-0.086587 7:-0.342108 8:-0.34839 9:-0.234823 10:-0.0518662 11:0.160329 12:-0.268205 13:0.0334534 14:0.580283 15:-0.0509813 16:0.145838 17:-0.159839 18:-0.249844 19:0.07068 20:-0.664444 21:-0.175557 22:0.0718522 23:0.318865 24:-0.246146 25:-0.471724 26:-0.981726 27:-0.999315 28:-0.977925 29:-0.267734 30:-0.0785766 31:0.253804 
0.9673814293521716 1.032265598862349 1.046372363948798 0.9844095126054733 1.033833370707378 0.9356615149872669 0.8933067636151535 0.97393483127127 1.085268296662005 1:-0.706783 2:-0.691078 3:-0.667704 4:-0.628905 5:-0.609764 6:-0.689294 7:-0.541375 8:-0.538593 9:-0.591841 10:-0.678469 11:-0.196077 12:-0.0322027 13:-0.513868 14:0.328831 15:0.440548 16:0.00982442 17:0.0716009 18:1 19:0.11745 20:-0.363513 21:-0.112161 22:0.620533 23:0.272577 24:-0.0640635 25:0.254338 26:-0.936012 27:-0.782071 28:-0.604605 29:-0.335822 30:-0.1905 31:0.228797 
0.944370855153192 1.00755899125678 1.021549298360101 0.9612257416034932 1.00969564232786 0.9135874089771566 0.8725693607499687 0.9507728575982839 1.059681140630537 1:-0.635376 2:-0.614677 3:-0.672093 4:-0.559431 5:-0.621724 6:-0.699138 7:-0.48055 8:-0.563472 9:-0.617304 10:-0.693125 11:-0.162999 12:-0.150221 13:-0.383391 14:0.151338 15:0.448198 16:-0.0118117 17:0.146327 18:0.675834 19:0.00284307 20:-0.361404 21:-0.304395 22:0.512579 23:0.252577 24:-0.0368426 25:0.126905 26:-0.942503 27:-0.883745 28:-0.691351 29:-0.31143 30:-0.120706 31:0.257501 
0.8086977366646653 0.8644932764922341 0.8750898607327828 0.8238476999688078 0.8542558828016675 0.7843230675201602 0.7478990884009014 0.8165565766668116 0.9071652808290489 1:-0.481187 2:-0.524034 3:-0.518637 4:-0.477567 5:-0.513595 6:-0.53707 7:-0.398173 8:-0.466562 9:-0.496045 10:-0.521664 11:0.0494974 12:-0.11516 13:-0.198849 14:0.291638 15:0.355829 16:-0.043432 17:0.139205 18:0.382026 19:0.0899314 20:-0.46209 21:-0.22167 22:0.303947 23:0.241285 24:-0.107323 25:-0.0665205 26:-0.976305 27:-0.965411 28:-0.895543 29:-0.272503 30:-0.0956609 31:0.253542 
0.1012393370061379 0.138032867067995 0.1081061136696495 0.1012225951934796 0.1449775331833442 0.0859093889922535 0.09365736324627684 0.08598942913051104 0.1111240340336078 1:-0.585756 2:-0.607564 3:-0.541548 4:-0.592899 5:-0.590574 6:-0.527935 7:-0.541939 8:-0.621282 9:-0.567758 10:-0.495579 11:-0.266909 12:-0.327748 13:-0.276757 14:0.287837 15:-0.139931 16:0.0763162 17:-0.0598437 18:0.275456 19:-0.14781 20:-0.35176 21:-0.200333 22:0.0270267 23:0.329367 24:-0.20703 25:-0.0251506 26:-0.881959 27:-0.998177 28:-0.983037 29:-0.267764 30:-0.0796899 31:0.253745 
0.03721680625957326 0.1210045886305958 0.03585977328661469 0.03361143079603048 0 0.06403953158676717 0.01849230921171778 0 0.004254951897855111 1:-0.352529 2:-0.442138 3:-0.315718 4:-0.452177 5:-0.424576 6:-0.295016 7:-0.410838 8:-0.466102 9:-0.392922 10:-0.251975 11:-0.0492744 12:-0.338572 13:-0.0281084 14:0.355705 15:0.0807371 16:0.0221658 17:-0.0731577 18:-0.0987842 19:-0.0197476 20:-0.520254 21:-0.214693 22:0.12953 23:0.280969 24:-0.221249 25:-0.302087 26:-0.951553 27:-0.994861 28:-0.989688 29:-0.267714 30:-0.0823056 31:0.25376 
0.5777740701190042 0.6010685287929216 0.634094843524972 0.5891007766344085 0.6105260846272466 0.5587481047757036 0.5368712344045902 0.5666457079460681 0.6978020298755028 1:-0.183058 2:-0.221526 3:-0.187516 4:-0.211112 5:-0.230212 6:-0.194424 7:-0.161121 8:-0.260959 9:-0.214004 10:-0.167733 11:0.156241 12:-0.320715 13:0.0817922 14:-0.0616144 15:0.102311 16:-0.0768024 17:0.0219527 18:-0.239614 19:0.0450214 20:-0.636611 21:-0.360182 22:0.114632 23:0.24794 24:-0.197417 25:-0.446515 26:-0.97509 27:-0.998586 28:-0.987244 29:-0.267725 30:-0.077555 31:0.253789 
1.024805772951744 1.094282705274981 1.109144825457203 1.043554182763934 1.095720334857329 0.9919843295217192 0.9469022240033392 1.038385958503696 1.196373005350049 1:0.572911 2:0.435798 3:0.4527 4:0.379101 5:0.520407 6:0.336114 7:0.386703 8:0.488488 9:0.57033 10:0.271139 11:0.714345 12:0.33968 13:0.517134 14:-0.310323 15:0.124193 16:0.193922 17:-0.0246282 18:-0.722871 19:0.262144 20:-0.892371 21:-0.337979 22:0.0789482 23:0.29502 24:-0.221901 25:-0.833122 26:-0.997009 27:-0.998546 28:-0.998662 29:-0.267756 30:-0.0799066 31:0.253778 
0.8993990776630124 0.961469894781829 0.9733769278028102 0.9155752164330845 0.9595146818981964 0.8708090260151947 0.8317829736848134 0.9026015868571724 1.009680912089679 1:0.302822 2:0.0913729 3:0.18495 4:0.0471918 5:0.0626891 6:0.116988 7:0.0722975 8:-0.0280507 9:0.056496 10:0.100897 11:0.657043 12:-0.12735 13:0.448003 14:0.1281 15:-0.363711 16:-0.228651 17:0.123422 18:-0.547367 19:0.168723 20:-0.812257 21:-0.299628 22:0.0267128 23:0.242304 24:-0.201812 25:-0.702414 26:-0.998083 27:-0.997105 28:-0.999211 29:-0.267758 30:-0.0798108 31:0.253777 
1.011078154904159 1.078966603523924 1.094748610689028 1.028947267611252 1.080382407209912 0.9777184712723008 0.9609880894959967 1.057917030328184 1.138056423775282 1:0.364281 2:0.202094 3:0.232976 4:0.118269 5:0.0302624 6:0.101428 7:0.0994215 8:-0.0959674 9:-0.0997411 10:0.045893 11:0.421078 12:-0.647487 13:0.280177 14:-0.138293 15:0.320105 16:-0.444021 17:0.242345 18:-0.691347 19:0.055468 20:-0.873044 21:-0.330886 22:0.107076 23:0.216872 24:-0.19081 25:-0.805895 26:-0.978168 27:-0.997865 28:-0.988263 29:-0.267713 30:-0.0778822 31:0.253774 
1.013919425154642 1.073745416916034 1.131830711663132 1.023397745322442 1.074108585156491 0.9728489936656424 0.9313375752723417 1.584626848640488 1.128263131075582 1:0.275884 2:0.149829 3:0.301596 4:0.0400401 5:0.136867 6:0.202734 7:-0.00656558 8:-0.00404768 9:0.0465146 10:0.145592 11:0.125312 12:-0.517052 13:0.0967563 14:-0.132974 15:0.569183 16:-0.293924 17:-0.0661107 18:-0.752668 19:0.0716026 20:-0.884291 21:-0.334897 22:0.145336 23:0.231229 24:-0.224457 25:-0.838844 26:-0.982695 27:-0.992876 28:-0.990701 29:-0.267704 30:-0.0784538 31:0.253787 
0.8765226843128784 0.9357680844355305 0.9484814365815308 0.892465084298531 0.9367990235268852 0.8479863014716371 0.8092255307105903 1.018483291662426 0.9973881280370115 1:0.687291 2:0.41266 3:0.647667 4:0.284179 5:0.538164 6:0.557127 7:0.249631 8:0.41039 9:0.584796 10:0.526718 11:0.70654 12:0.188017 13:0.602601 14:0.0666114 15:0.102244 16:-0.0895904 17:0.0454646 18:-0.787724 19:0.232132 20:-0.909258 21:-0.302776 22:0.0748714 23:0.267962 24:-0.217462 25:-0.87176 26:-0.999422 27:-0.999892 28:-0.99932 29:-0.267757 30:-0.0798601 31:0.253777 
0.8738971941820138 1.019376361946549 1.064837496490323 0.900463888074566 1.643780511807441 0.879825744920677 0.8297402429456713 1.294895764842723 0.9922498122272754 1:0.0497133 2:-0.160391 3:0.0471577 4:-0.263604 5:-0.061555 6:0.00517775 7:-0.297615 8:-0.16396 9:-0.0177838 10:-0.00342902 11:0.0579434 12:0.0486167 13:0.156408 14:0.125833 15:0.199572 16:-0.0170564 17:-0.0778107 18:-0.605942 19:0.211781 20:-0.769023 21:-0.302132 22:0.113653 23:0.270514 24:-0.225341 25:-0.692897 26:-0.999519 27:-0.9974 28:-0.998146 29:-0.267759 30:-0.0798067 31:0.253778 
1.04725095470044 1.117796700248683 1.132800335979055 1.065781935211852 1.119507053111008 1.013106896959525 0.9670104795859209 1.064962153232589 1.260726480185008 1:0.447471 2:0.361258 3:0.349991 4:0.336331 5:0.325106 6:0.274752 7:0.357627 8:0.282515 9:0.332897 10:0.274053 11:0.655497 12:-0.198311 13:0.528313 14:-0.516729 15:0.342737 16:0.00677639 17:0.294161 18:-0.661794 19:0.159985 20:-0.85062 21:-0.36728 22:0.104399 23:0.276171 24:-0.189566 25:-0.7771 26:-0.997782 27:-0.998485 28:-0.988858 29:-0.267764 30:-0.079265 31:0.253792 
0.9683720327432771 1.125604310825783 1.082494450382754 1.095344751997764 1.070786023883809 0.9351269814473856 1.191328006166793 1.455454006989182 1.33887864482804 1:-0.136678 2:-0.286666 3:-0.189598 4:-0.382824 5:-0.359703 6:-0.271235 7:-0.419207 8:-0.469881 9:-0.440958 10:-0.296584 11:-0.191456 12:-0.463103 13:-0.0949757 14:0.0601144 15:0.245006 16:-0.354897 17:0.169471 18:-0.573748 19:-0.00414314 20:-0.746973 21:-0.322281 22:0.146209 23:0.168675 24:-0.163604 25:-0.663335 26:-0.957476 27:-0.990333 28:-0.971061 29:-0.267398 30:-0.0731909 31:0.253814 
1.032245659285793 1.095108339959694 1.169795899624939 1.047722354930805 1.154180751792159 0.984287744824435 0.990730703708083 1.147226047826162 1.325076757691799 1:0.0367261 2:0.0553923 3:-0.02576 4:0.0251765 5:0.0246386 6:-0.111056 7:0.0347805 8:-0.0494503 9:-0.00205175 10:-0.1458 11:0.00719202 12:-0.215872 13:0.0645902 14:-0.232864 15:-0.0228675 16:-0.00919133 17:0.079634 18:-0.622877 19:0.12421 20:-0.791234 21:-0.372232 22:0.073344 23:0.272071 24:-0.196801 25:-0.716508 26:-0.993297 27:-0.99912 28:-0.991495 29:-0.267758 30:-0.0792416 31:0.253785 
-0.01411216973937937 0.04299530548198207 0.0487938706815391 0.00391782852889001 0.03851221909387448 0.03477751291411784 0.1669799568199355 0.07713390681128095 0.03758498798268566 1:-0.72372 2:-0.570928 3:-0.604772 4:-0.55138 5:-0.511657 6:-0.631407 7:-0.527834 8:-0.56887 9:-0.543436 10:-0.649294 11:-0.734459 12:-0.385873 13:-0.679909 14:-0.128019 15:0.024035 16:0.114872 17:-0.15258 18:-0.195934 19:-0.375091 20:-0.546973 21:-0.631714 22:0.19118 23:0.407267 24:-0.295986 25:-0.36105 26:-0.68222 27:-0.904042 28:-0.937749 29:-0.264332 30:-0.0765813 31:0.253204 
-0.5378559167794239 0.5823083868104918 0.5942196864223767 0.555702385260238 0.6022902283901203 0.5250127715821653 0.66767570819488 0.850814092572686 0.6634791365097236 1:-0.489338 2:-0.36718 3:-0.39304 4:-0.362613 5:-0.370308 6:-0.4383 7:-0.34983 8:-0.454027 9:-0.444158 10:-0.47044 11:-0.532285 12:-0.594997 13:-0.501311 14:-0.255792 15:0.230699 16:-0.000181882 17:-0.172618 18:-0.397234 19:-0.29175 20:-0.681514 21:-0.537003 22:0.239857 23:0.268232 24:-0.272312 25:-0.54336 26:-0.767018 27:-0.951306 28:-0.932323 29:-0.264848 30:-0.0588219 31:0.253545 
-0.1239541013407979 0.1415045130846161 0.1454484987415663 0.1046675545758397 0.1567705163060611 0.1271717905665328 0.380534613584547 0.1462624488215562 0.1447271790437628 1:-0.555401 2:-0.430367 3:-0.496402 4:-0.426402 5:-0.435031 6:-0.569445 7:-0.41241 8:-0.513338 9:-0.497876 10:-0.62207 11:-0.598609 12:-0.446534 13:-0.601466 14:-0.175394 15:-0.0382989 16:0.177902 17:-0.131557 18:-0.361923 19:-0.232516 20:-0.693533 21:-0.528341 22:0.0969289 23:0.402755 24:-0.254706 25:-0.538431 26:-0.818965 27:-0.9516 28:-0.977899 29:-0.267236 30:-0.0803216 31:0.253698 
-0.7526400802775777 0.8481223624258155 0.8632707251735218 0.8113298848134538 0.8511650753819016 0.7654788276507921 0.7286807580184171 0.7976539843576943 0.8976381490746861 1:-0.814981 2:-0.645906 3:-0.770356 4:-0.60562 5:-0.622522 6:-0.837198 7:-0.56587 8:-0.640367 9:-0.661775 10:-0.877662 11:-0.74648 12:-0.223589 13:-0.793238 14:-0.161666 15:-0.0998853 16:0.202469 17:-0.0616637 18:0.111629 19:-0.260821 20:-0.550275 21:-0.819529 22:0.0510429 23:0.615998 24:-0.186432 25:-0.241128 26:-0.789883 27:-0.716325 28:-0.910384 29:-0.258065 30:-0.0602505 31:0.255963 
-0.5621413380732359 0.6347730229534569 0.645466282972363 0.7680405199915417 0.6385017160196631 0.5713406589228763 0.4633949410374461 0.6309917148998125 0.6722104969094806 1:-0.782718 2:-0.689976 3:-0.693847 4:-0.695908 5:-0.658366 6:-0.74107 7:-0.6763 8:-0.737102 9:-0.695814 10:-0.778132 11:-0.770626 12:-0.373174 13:-0.755158 14:0.134737 15:-0.252219 16:0.208433 17:-0.165338 18:-0.0924474 19:-0.461289 20:-0.549363 21:-0.334045 22:-0.156675 23:0.586177 24:-0.329056 25:-0.321671 26:-0.5821 27:-0.890114 28:-0.894003 29:-0.259836 30:-0.0111408 31:0.255378 
-0.3123404733896978 0.3315812706371557 0.3313696015620591 0.2894003772286974 0.3565150965673113 0.295260488295417 0.5705231683112801 0.3428695681288474 0.3490356229359923 1:-0.648113 2:-0.532965 3:-0.592482 4:-0.531673 5:-0.545606 6:-0.654636 7:-0.514711 8:-0.622637 9:-0.60646 10:-0.694131 11:-0.664127 12:-0.45201 13:-0.638236 14:-0.0511305 15:-0.0710971 16:0.108314 17:-0.0924765 18:-0.25792 19:-0.345846 20:-0.614899 21:-0.488496 22:0.0799981 23:0.372234 24:-0.230367 25:-0.437312 26:-0.71389 27:-0.970783 28:-0.983175 29:-0.267475 30:-0.078199 31:0.253794 
-0.4451427832015222 0.5137598404845605 0.5217466006096182 0.4774828427020525 0.5204463633747347 0.4634932877162489 0.4181767048864396 0.5310143548508808 0.5446818462342963 1:-0.854814 2:-0.69759 3:-0.776504 4:-0.670267 5:-0.662402 6:-0.819019 7:-0.636467 8:-0.701128 9:-0.699355 10:-0.84409 11:-0.813638 12:-0.30233 13:-0.78456 14:-0.0188575 15:-0.0875931 16:0.102408 17:-0.0900196 18:0.0672147 19:-0.486678 20:-0.446198 21:-0.639178 22:0.0718468 23:0.464391 24:-0.229401 25:-0.179762 26:-0.549832 27:-0.898851 28:-0.952424 29:-0.265249 30:-0.0779927 31:0.253828 
-0.4554392667604992 0.4884257270281583 0.4908449817422436 0.4641147740110907 0.4887964922719685 0.4376570123524848 0.3513040258619069 0.5033900730441768 0.5095955329574631 1:-0.674275 2:-0.523013 3:-0.592545 4:-0.492853 5:-0.505036 6:-0.636201 7:-0.459066 8:-0.550399 9:-0.549969 10:-0.66336 11:-0.63229 12:-0.418409 13:-0.633094 14:-0.206088 15:0.0768144 16:0.112862 17:-0.120276 18:-0.11739 19:-0.342922 20:-0.570144 21:-0.657827 22:0.221118 23:0.385388 24:-0.256059 25:-0.347383 26:-0.716776 27:-0.905341 28:-0.908834 29:-0.261537 30:-0.0491187 31:0.254522 
-0.4819974080538423 0.5473369527113987 0.5542396932297401 0.5236333595966617 0.5486990966267424 0.493510947004509 0.5145805259706877 0.5315028967475692 0.5783891328608354 1:-0.801654 2:-0.625851 3:-0.686012 4:-0.581853 5:-0.56553 6:-0.705962 7:-0.538112 8:-0.596 9:-0.590632 10:-0.71776 11:-0.736926 12:-0.355888 13:-0.716607 14:-0.157566 15:0.0367159 16:0.108216 17:-0.151779 18:0.0825397 19:-0.470782 20:-0.447514 21:-0.786852 22:0.25258 23:0.438402 24:-0.317231 25:-0.174665 26:-0.570213 27:-0.816391 28:-0.851781 29:-0.249946 30:-0.0589032 31:0.251397 
-0.162386640675699 0.1771829517173331 0.1924413354402724 0.1982609265119778 0.1814821079613782 0.1643998263227506 0.188050184654525 0.1176109538778115 0.2031996888851449 1:-0.713643 2:-0.537337 3:-0.624751 4:-0.501103 5:-0.508781 6:-0.662877 7:-0.464395 8:-0.552051 9:-0.551588 10:-0.685611 11:-0.710068 12:-0.395404 13:-0.659268 14:-0.166954 15:0.0553481 16:0.079292 17:-0.117847 18:-0.16895 19:-0.372137 20:-0.537319 21:-0.664059 22:0.220357 23:0.35871 24:-0.257508 25:-0.342978 26:-0.685557 27:-0.915615 28:-0.894606 29:-0.260271 30:-0.0493396 31:0.254248 
-0.6700157872094024 0.7699138377290935 0.7668046356228303 0.7287699892273563 0.7696562340650749 0.7058710949700197 0.6412309351533422 1.18250967709481 0.8067051422791963 1:-0.409581 2:-0.322068 3:-0.241554 4:-0.340123 5:-0.262316 6:-0.25245 7:-0.341364 8:-0.385911 9:-0.296465 10:-0.2674 11:-0.491062 12:-0.620243 13:-0.448209 14:-0.205011 15:0.0458087 16:0.22416 17:-0.299093 18:-0.484721 19:-0.235421 20:-0.720414 21:-0.469363 22:0.123554 23:0.387629 24:-0.319918 25:-0.607728 26:-0.816498 27:-0.957494 28:-0.986245 29:-0.26791 30:-0.0859204 31:0.253687 
-0.4853185975609733 0.5469418425115984 0.558446692182069 0.5449488932916423 0.5486135070187363 0.4935590603171046 0.5435374270621418 0.5343899568123128 0.5728064080668321 1:-0.153787 2:-0.0993065 3:-0.198455 4:-0.153784 5:-0.188488 6:-0.35382 7:-0.184464 8:-0.323571 9:-0.296481 10:-0.454519 11:-0.38093 12:-0.47956 13:-0.401514 14:-0.255426 15:-0.143396 16:0.281341 17:0.00753914 18:-0.698734 19:-0.0169233 20:-0.86467 21:-0.409787 22:0.0471169 23:0.358326 24:-0.202742 25:-0.802474 26:-0.952838 27:-0.984323 28:-0.996053 29:-0.267747 30:-0.0792522 31:0.253787 
-1.226747854377714 1.024610439839472 1.013068396335977 0.9575149675101114 1.029754233071801 0.8985632592940093 1.019461315965287 1.375606103185767 1.062190768311494 1:-0.249345 2:-0.376179 3:-0.280582 4:-0.466342 5:-0.535404 6:-0.387678 7:-0.486244 8:-0.686786 9:-0.661573 10:-0.441286 11:-0.316934 12:-0.86412 13:-0.323928 14:0.294602 15:-0.147613 16:-0.0928005 17:0.097038 18:-0.538368 19:-0.249112 20:-0.774138 21:-0.251153 22:0.0430548 23:0.237902 24:-0.169987 25:-0.669884 26:-0.805152 27:-0.994962 28:-0.996712 29:-0.267759 30:-0.0808271 31:0.253781 
